{"q_net.0.weight": [[-0.06035381555557251, -0.01712503656744957, -0.07441253960132599, 0.2441210150718689, -0.12369871884584427, 0.3098399341106415, 0.008255481719970703, 0.2490271031856537, -0.1499551683664322, -0.16512250900268555, -0.03760893642902374, 0.18512435257434845, 0.022465582937002182, 0.11901383101940155, 0.11418745666742325, -0.10956510156393051, 0.19851943850517273, 0.006644949782639742, -0.31129711866378784, 0.13473521173000336, 0.050805043429136276, -0.10208586603403091, -0.037938229739665985, 0.08492622524499893, -0.08586928993463516, -0.017721345648169518, 0.2503734827041626, 0.07220036536455154], [-0.1946399062871933, 0.06619574874639511, -0.04526084288954735, -0.013396070338785648, 0.07956535369157791, 0.22554758191108704, -0.15707378089427948, -0.06840387731790543, 0.05208590626716614, 0.19041821360588074, -0.05136324465274811, -0.15226027369499207, 0.09808649867773056, 0.06987705081701279, 0.04650600627064705, -0.10219055414199829, 0.0537504181265831, 0.17764954268932343, -0.05092514306306839, 0.037800971418619156, -0.06565753370523453, -0.18041209876537323, 0.18087173998355865, 0.046196818351745605, 0.14528170228004456, 0.08667150139808655, 0.1972588300704956, -1.0928479433059692], [-0.09782416373491287, -0.12650443613529205, 0.038120318204164505, 0.10917219519615173, -0.0019455744186416268, 0.18206237256526947, -0.13630838692188263, 0.48461616039276123, 0.12167393416166306, -0.05047208443284035, 0.18216760456562042, -0.137731671333313, 0.12711992859840393, -0.024126801639795303, 0.14461351931095123, 0.0586649589240551, 0.056959331035614014, -0.007847728207707405, -0.007883858866989613, 0.20112639665603638, -0.18170908093452454, 0.12714794278144836, 0.0704740360379219, -0.01382766105234623, 0.05481936037540436, -0.062387071549892426, -0.10604939609766006, 0.1157873123884201], [-0.4236725866794586, 0.22164109349250793, 0.15569226443767548, -0.0409904345870018, -0.554861843585968, -0.5585323572158813, -0.09710705280303955, 0.09029632806777954, 0.036959175020456314, 0.10972689837217331, 0.09738707542419434, -0.2227126806974411, -0.22317658364772797, 0.054373789578676224, 0.018703270703554153, -0.033501531928777695, -0.02025068923830986, 0.02921161986887455, 0.11483604460954666, -0.01499739196151495, -0.1322268843650818, -0.07467783242464066, 0.04136967286467552, 0.004453463479876518, -0.19458557665348053, 0.013366990722715855, 0.04325708746910095, 0.15679560601711273], [-0.06271172314882278, -0.48822346329689026, -0.024374214932322502, -0.08126497268676758, 0.029601257294416428, 0.21774639189243317, -0.6796877980232239, -0.631476879119873, -0.2148071676492691, -0.08437569439411163, 0.1474349945783615, 0.007168967742472887, 0.07043831050395966, -0.07623349875211716, 0.10397707670927048, -0.009318971075117588, -0.04610950127243996, -0.1341155767440796, -0.014842619188129902, 0.06789343059062958, -0.06437195837497711, -0.016620656475424767, -0.10623598843812943, -0.10811790823936462, -0.048888325691223145, -0.021585941314697266, -0.14880388975143433, -0.015358450822532177], [0.03503456339240074, -0.13499510288238525, 0.12474599480628967, 0.0603003054857254, -0.12627892196178436, 0.031923871487379074, -0.1271887868642807, -0.1251453012228012, 0.05886299908161163, 0.12800920009613037, -0.001215904369018972, -0.07056279480457306, 0.003950835205614567, 0.06381101161241531, -0.030871795490384102, -0.04436606541275978, 0.08582298457622528, -0.21030546724796295, -0.0939205139875412, 0.3240496516227722, 0.06985488533973694, 0.30851298570632935, 0.06454624235630035, 0.017075486481189728, -0.12493852525949478, -0.02985861711204052, -0.828183650970459, 0.04052475094795227], [-0.18497292697429657, 0.09361428767442703, 0.0017628379864618182, -0.4380953907966614, -0.041283655911684036, -0.6387487649917603, -0.051808491349220276, -0.3605937361717224, 0.1686168611049652, 0.09349677711725235, -0.03799737989902496, 0.11101332306861877, 0.09018486738204956, 0.1583397388458252, -0.11989989876747131, 0.0518944226205349, -0.12035049498081207, 0.1657506674528122, -0.05982556194067001, -0.07893072813749313, -0.04235375300049782, 0.03266231715679169, 0.1129443421959877, 0.11817476898431778, -0.01974620670080185, 0.024969808757305145, 0.08203834295272827, -0.03553401306271553], [-0.09142480790615082, 0.0383894145488739, 0.03390863537788391, 0.01142332423478365, 0.03852909430861473, 0.07419585436582565, -0.03335470333695412, -0.0024424633011221886, -0.08317842334508896, -0.15644164383411407, -0.11938626319169998, 0.10596410930156708, -0.021511347964406013, 0.03496396914124489, 0.010059155523777008, -0.005010341294109821, 0.009430686943233013, 0.04481947422027588, 0.12216898798942566, 0.3229863941669464, 0.02678287774324417, 0.11141370981931686, -0.05682556331157684, -0.16609610617160797, -0.10658388584852219, 0.03601190447807312, -0.4841717481613159, -0.0044392808340489864], [-0.1571144163608551, 0.239745631814003, -0.2066146433353424, -0.07886865735054016, -0.04401887208223343, -0.646453857421875, 0.12800639867782593, -0.13137976825237274, -0.07357079535722733, 0.1066940650343895, -0.07079162448644638, 0.19631388783454895, 0.15585792064666748, -0.10505266487598419, -0.01873701438307762, 0.05967208743095398, 0.20227839052677155, 0.2396758496761322, 0.06103244051337242, -0.2576247751712799, -0.22596780955791473, -0.22958791255950928, 0.026986725628376007, 0.13552603125572205, -0.13195297122001648, -0.054196637123823166, -0.02612805739045143, 0.08930491656064987], [-6.680900696665049e-05, -0.02403884008526802, -0.2664955258369446, -0.022244293242692947, -0.14870451390743256, 0.020641276612877846, -0.1753077507019043, -0.03907093405723572, 0.008893216028809547, -0.09115006029605865, -0.1550995260477066, -0.00729112233966589, -0.29405108094215393, 0.06434093415737152, -0.4321644902229309, 0.15307091176509857, 0.18298499286174774, -0.0840500146150589, -0.2583787441253662, -0.051108818501234055, -0.16334980726242065, -0.016731049865484238, -0.15349748730659485, -0.04376000910997391, 0.20968779921531677, 0.02511865273118019, -0.009896292351186275, 0.0031310105696320534], [-0.11691313236951828, -0.20601552724838257, 0.05862317979335785, 0.2517307698726654, 0.07277262210845947, -0.1051764190196991, -0.14820648729801178, 0.16948434710502625, 0.15396638214588165, 0.01871277205646038, -0.00904888566583395, -0.0005825859261676669, 0.028730599209666252, -0.1079925149679184, 0.17832276225090027, -0.05092184245586395, -0.17345203459262848, 0.13825981318950653, -0.2855643928050995, 0.007901878096163273, -0.1522873044013977, 0.002177452202886343, 0.10347653925418854, -0.17753687500953674, 0.12425024062395096, 0.04281361401081085, 0.09885650873184204, 0.19260850548744202], [-0.07266946136951447, 0.1532830446958542, -0.19776548445224762, 0.007269798777997494, -0.29061976075172424, -0.14217509329319, -0.03053216263651848, 0.06923564523458481, 0.15387262403964996, 0.07626581937074661, -0.058749932795763016, -0.05470309033989906, 0.14526857435703278, 0.16834701597690582, -0.004191261250525713, -0.0865272581577301, -0.6399597525596619, 0.22853723168373108, 0.09224603325128555, 0.030365286394953728, -0.3247075378894806, -0.18663832545280457, 0.0837855413556099, 0.04344071075320244, -0.017337877303361893, 0.039535485208034515, -0.01603682152926922, 0.7928264737129211], [0.034192509949207306, 0.01338985189795494, 0.02757793851196766, 0.3921261131763458, 0.07160057127475739, 0.3323540985584259, 0.008216065354645252, 0.22731879353523254, 0.18170876801013947, -0.10735596716403961, 0.055049240589141846, 0.19825129210948944, -0.07599302381277084, -0.003929294180124998, 0.08709002286195755, -0.014902024529874325, -0.03854800760746002, -0.23009653389453888, 0.13563095033168793, 0.19498814642429352, 0.07303131371736526, 0.1661835014820099, 0.09100810438394547, -0.06101279705762863, 0.0821385607123375, 0.07963846623897552, 0.19362543523311615, -0.2655567526817322], [-0.013033473864197731, 0.23498789966106415, 0.020981354638934135, -0.34852805733680725, -0.11037369072437286, -0.1776484102010727, -0.01523430086672306, 0.005425760988146067, -0.22393712401390076, 0.14692264795303345, 0.076451875269413, -0.1748964637517929, -0.07418112456798553, -0.05396154895424843, 0.238360196352005, 0.057733818888664246, -0.18709227442741394, 0.23243533074855804, -0.1466948539018631, -0.3600746989250183, -0.03599566966295242, -0.017086395993828773, 0.05393040180206299, -0.09054316580295563, 0.10479576140642166, 0.029894892126321793, 0.024853194132447243, -0.07084302604198456], [0.11886671185493469, -0.047167111188173294, 0.12514929473400116, -0.27865639328956604, 0.15601670742034912, -0.5421282052993774, 0.18590547144412994, -0.4643440544605255, -0.10326399654150009, -0.03247813135385513, 0.062294695526361465, 0.19307968020439148, 0.06343469768762589, 0.06609784811735153, 0.035794101655483246, 0.0434999093413353, -0.040856122970581055, -0.11907994747161865, 0.2754950523376465, -0.5221423506736755, 0.16236384212970734, -0.18433333933353424, -0.02782578393816948, -0.2696290910243988, 0.18002882599830627, -0.014566024765372276, -0.1022816002368927, 0.14807212352752686], [-0.1449366956949234, -0.4422602355480194, -0.005296125542372465, 0.0650876834988594, 0.07378266006708145, -0.2378333956003189, -0.1428152322769165, 0.012232797220349312, -0.17680485546588898, -0.0753064751625061, 0.1796150952577591, 0.20830823481082916, 0.12851747870445251, 0.0730634331703186, 0.07504571229219437, -0.014939790591597557, -0.2524806261062622, -0.3633959889411926, 0.2693665325641632, -0.06067828834056854, 0.09450478106737137, -0.009949112311005592, -0.0036751646548509598, 0.08448370546102524, 0.004111528862267733, -0.005029067397117615, 0.12213773280382156, 0.14314670860767365], [0.15189588069915771, -0.7838007807731628, -0.029469676315784454, 0.06309982389211655, 0.1797657012939453, 0.10037688165903091, -0.7442008852958679, -0.5721007585525513, -0.052580997347831726, 0.053597092628479004, 0.09544062614440918, 0.007020960096269846, -0.12484636902809143, -0.08952286094427109, 0.2388262003660202, 0.10601163655519485, 0.028730884194374084, -0.06989442557096481, -0.05927333980798721, -0.03377462923526764, -0.021519148722290993, 0.03498335927724838, -0.09440828114748001, -0.10346593707799911, -0.035497575998306274, -0.012388450093567371, -0.04246954992413521, -0.026441100984811783], [-0.7940291166305542, 0.08818358927965164, -0.1228962242603302, 0.014654669910669327, -0.7959339022636414, -0.7268678545951843, 0.05185316503047943, -0.011547745205461979, 0.2327096313238144, -0.04750112444162369, 0.09488992393016815, -0.025555429980158806, 0.02720695734024048, 0.11771596968173981, -0.07580103725194931, 0.05252374708652496, -0.08526714146137238, -0.018707681447267532, -0.020459048449993134, 0.030200889334082603, -0.07929082959890366, -0.06820163875818253, 0.001249976339749992, 0.03862939774990082, 0.09826059639453888, 0.033809687942266464, -0.028621364384889603, -0.002595539204776287], [0.2394428253173828, 0.2123473733663559, 0.17761516571044922, -0.047966573387384415, 0.0677352175116539, 0.056074924767017365, 0.08220138400793076, -0.33873268961906433, 0.16798721253871918, 0.09208939224481583, -0.0976264551281929, 0.19161619246006012, 0.08887146413326263, 0.1353505402803421, -0.20082426071166992, 0.0708715096116066, 0.15705198049545288, -0.026517344638705254, 0.23325896263122559, 0.37781739234924316, 0.15379945933818817, -0.01474755723029375, 0.08814474195241928, 0.14080752432346344, 0.17427706718444824, 0.1366576850414276, -0.2680838704109192, 0.10544758290052414], [-0.05081456899642944, 0.0898352786898613, 0.09704478830099106, 0.16375035047531128, -0.04600350186228752, 0.011695205233991146, -0.07440145313739777, -0.06725623458623886, 0.0015341968974098563, 0.19622977077960968, 0.035105716437101364, -0.08356592059135437, -0.04421187564730644, 0.05689450725913048, 0.018798282369971275, -0.049957484006881714, -0.35934191942214966, -0.4235750138759613, 0.143926203250885, -0.1868697851896286, -0.09444615989923477, -0.16819964349269867, -0.05039416253566742, 0.053356464952230453, -0.052552856504917145, 0.024696409702301025, 0.01965773105621338, 0.8225195407867432], [0.05569047853350639, 0.06926567107439041, -0.3230578303337097, -0.05320138484239578, -0.09108995646238327, -0.11707595735788345, -0.002695367904379964, -0.0852365717291832, -0.007452638354152441, 0.00948390830308199, -0.03223952651023865, 0.05805392190814018, 0.0018095506820827723, 0.16533887386322021, 0.16597245633602142, -0.0035907484125345945, 0.011606737971305847, -0.03167785331606865, -0.44428953528404236, -0.15118126571178436, -0.04755362123250961, -0.15341100096702576, 0.003689921461045742, -0.17470665276050568, 0.2753314673900604, -0.03571715205907822, 0.9095712900161743, -0.13846494257450104], [-0.06602104753255844, 0.0848885104060173, -0.11352105438709259, 0.3492307960987091, 0.02747744880616665, 0.23808403313159943, 0.2346338927745819, 0.40249302983283997, 0.011033848859369755, 0.06872379034757614, 0.19547851383686066, -0.1053934320807457, -0.007038815878331661, 0.08195161819458008, -0.02953317016363144, -0.08261427283287048, -0.16671495139598846, -0.11190874874591827, -0.11244585365056992, 0.015387674793601036, -0.15790392458438873, 0.09958053380250931, 0.15394224226474762, 0.0753549337387085, 0.06176440417766571, -0.13370220363140106, 0.1422450840473175, 0.01096815150231123], [-0.12266259640455246, 0.17434793710708618, -0.01184145174920559, 0.06021888181567192, -0.014958997257053852, 0.10313199460506439, 0.15966802835464478, 0.07612768560647964, -0.07603885978460312, -0.14358530938625336, -0.07288814336061478, -0.14144155383110046, 0.16020973026752472, -0.14314623177051544, 0.0666932687163353, -0.06467252969741821, -0.007702488452196121, 0.13629142940044403, -0.038519807159900665, 0.2571459114551544, 0.007189431693404913, 0.10781890898942947, 0.03743148222565651, -0.13775116205215454, -0.04535217210650444, 0.1683676689863205, -0.20720213651657104, -0.011051801033318043], [0.2231404036283493, -0.14907419681549072, 0.06267102062702179, -0.2057850956916809, 0.13731704652309418, 0.04427623748779297, -0.18098770081996918, -0.2961190640926361, 0.1475677341222763, 0.18596230447292328, 0.13544322550296783, -0.11438511312007904, -0.10227543860673904, 0.12218023836612701, 0.033098433166742325, 0.028950663283467293, 0.22476708889007568, 0.16098764538764954, -0.1664978414773941, 0.07487941533327103, 0.06979446858167648, -0.0037346042227, 0.09977652877569199, -0.20981888473033905, 0.025554955005645752, 0.10101780295372009, 0.05546102672815323, 0.0007592486217617989], [0.12743011116981506, -0.040328558534383774, -0.056770067662000656, -0.3735198676586151, 0.08863794058561325, -0.3134778141975403, 0.1154671385884285, -0.24657998979091644, -0.08007334172725677, 0.020269325003027916, 0.04969363659620285, 0.2260284721851349, -0.061904121190309525, -0.06209435686469078, -0.05295944586396217, 0.20130060613155365, 0.15094703435897827, 0.022414574399590492, 0.08869259804487228, 0.2616671025753021, 0.011646006256341934, 0.0008298680768348277, 0.15639159083366394, -0.004876934923231602, -0.1152733787894249, -0.023253293707966805, -0.5184751152992249, 0.03896712511777878], [0.0596541166305542, 0.006386721972376108, -0.35199105739593506, 0.044008202850818634, -0.15055309236049652, 0.14065544307231903, -0.07790649682283401, 0.24932029843330383, 0.11570238322019577, 0.035222165286540985, -0.11681196093559265, -0.11673746258020401, -0.006873881444334984, -0.006957661360502243, -0.0878431648015976, -0.060438111424446106, -0.05636773258447647, 0.04405582323670387, -0.2700291872024536, 0.15058746933937073, -0.009881123900413513, -0.07739124447107315, 0.10836605727672577, 0.19556795060634613, 0.06710215657949448, -0.003834257833659649, 0.537146270275116, -0.055793583393096924], [0.07999848574399948, -0.09173789620399475, 0.04064403101801872, 0.24665303528308868, -0.24105168879032135, -0.24334385991096497, -0.1337110996246338, 0.16282416880130768, -0.012773450464010239, 0.10035332292318344, 0.1499893069267273, -0.1340978592634201, 0.19005900621414185, 0.15219256281852722, 0.18548224866390228, -0.06616276502609253, 0.2376868724822998, 0.10678581893444061, 0.13585013151168823, 0.12619894742965698, -0.026690874248743057, 0.023207848891615868, 0.02004115842282772, -0.03139328956604004, 0.06072791665792465, 0.22460678219795227, -0.37413591146469116, 0.45688939094543457], [0.1278192698955536, 0.221231147646904, 0.15761205554008484, -0.04393673315644264, 0.05288965627551079, -0.16251756250858307, 0.1311541348695755, -0.3329612612724304, -0.07390126585960388, -0.1230228990316391, -0.10252897441387177, 0.09376832097768784, -0.027893193066120148, 0.048799727112054825, -0.07568573951721191, 0.15958788990974426, -0.4021665155887604, 0.13550712168216705, 0.13862638175487518, -0.5294548869132996, -0.081064373254776, -0.3228171765804291, 0.050634246319532394, 0.10981997847557068, -0.09423026442527771, 0.05852102115750313, -0.642494797706604, 0.6271458864212036], [-0.09120567888021469, -0.1633201241493225, 0.11942413449287415, 0.4098116159439087, 0.06062162294983864, 0.3524792790412903, -0.0626276433467865, 0.3292413651943207, 0.0400109626352787, 0.18382102251052856, -0.16399922966957092, -0.024986373260617256, 0.009762570261955261, 0.19378595054149628, -0.09758159518241882, 0.0720052495598793, 0.16769962012767792, -0.020072972401976585, -0.09734116494655609, -0.006799073424190283, 0.049991000443696976, 0.07008121907711029, -0.063689224421978, 0.06184942275285721, 0.037575069814920425, -0.07224753499031067, -0.26653510332107544, 0.06354785710573196], [-0.06397991627454758, -0.1643793284893036, 0.008049086667597294, 0.36843329668045044, 0.21920260787010193, 0.20688018202781677, 0.18293163180351257, 0.3273873031139374, 0.07309357076883316, -0.09172947704792023, 0.09018205851316452, 0.14527837932109833, -0.055394139140844345, -0.1291351169347763, -0.14553827047348022, 0.17914892733097076, -0.032837092876434326, 0.03983117267489433, 0.030088255181908607, -0.11845346540212631, -0.0037401937879621983, -0.04915505275130272, -0.044415734708309174, 0.13317066431045532, -0.05526863783597946, 0.13100901246070862, 0.141757071018219, 0.07900551706552505], [-0.05027814954519272, -0.03256629407405853, 0.09768884629011154, 0.12120161205530167, -0.08244545757770538, -0.2770385146141052, 0.11602826416492462, -0.23547765612602234, -0.010751710273325443, 0.0639912486076355, -0.15298853814601898, -0.07541617751121521, 0.1507674753665924, 0.176015704870224, 0.04821125790476799, -0.07354555279016495, -0.04896845296025276, -0.44525808095932007, 0.07349617034196854, -0.08876387774944305, 0.0804678201675415, -0.04549291357398033, -0.12755699455738068, -0.2841629683971405, 0.19531013071537018, 0.027159148827195168, 0.3805181384086609, -0.8265265822410583], [-0.18288011848926544, 0.002715172478929162, 0.03902292624115944, -0.0293947234749794, -0.1339268535375595, -0.13966436684131622, -0.17982083559036255, 0.17286644876003265, -0.07348684221506119, -0.03329649195075035, -0.15344330668449402, -0.07649923115968704, 0.046692799776792526, 0.0471523143351078, 0.04251406714320183, -0.09748093038797379, -0.04263952746987343, 0.0015391879715025425, -0.1849500983953476, -0.058294788002967834, 0.06070603057742119, 0.05592029169201851, 0.10355919599533081, -0.14357706904411316, 0.11203204840421677, -0.08194811642169952, 0.02539585717022419, -0.13329795002937317], [-0.004700100980699062, 0.24595843255519867, -0.11199738085269928, 0.23325994610786438, 0.1865069419145584, 0.06115160137414932, -0.018887735903263092, 0.11740867048501968, 0.16401849687099457, 0.025224905461072922, -0.11790890246629715, 0.1101147010922432, 0.09175047278404236, -0.04165404662489891, 0.005110267549753189, -0.05035299435257912, 0.24519705772399902, 0.028090927749872208, 0.2436503767967224, -0.018747057765722275, -0.10548525303602219, 0.04557190462946892, 0.13763822615146637, 0.06421748548746109, 0.13178816437721252, 0.16441012918949127, 0.4142792522907257, 0.35393285751342773], [0.03848952054977417, 0.101181261241436, 0.008157080970704556, 0.03924413397908211, 0.1538853794336319, 0.24503012001514435, 0.24326543509960175, 0.22104115784168243, -0.10612104088068008, 0.01565847359597683, -0.03187819942831993, 0.018978074193000793, -0.08183609694242477, 0.1582287698984146, -0.16463884711265564, -0.1596028208732605, -0.020013950765132904, -0.16864971816539764, -0.04585376754403114, -0.43570202589035034, 0.07525023072957993, -0.022151801735162735, -0.07673237472772598, 0.0535753034055233, -0.0122055783867836, 0.0375090129673481, -0.12300044298171997, 0.20293974876403809], [-0.1388709545135498, -0.11366209387779236, -0.12399519234895706, 0.13377070426940918, -0.0425264947116375, 0.43927595019340515, -0.08588387072086334, 0.4260357618331909, 0.06978325545787811, 0.014194656163454056, 0.04455666244029999, 0.19941715896129608, 0.04101982340216637, 0.021868200972676277, -0.03200409188866615, -0.06338407099246979, -0.158620685338974, 0.03062833845615387, -0.03886233642697334, -0.05620753392577171, -0.20545947551727295, 0.057327352464199066, -0.10143287479877472, 0.15894098579883575, 0.0017343584913760424, 0.09307181090116501, -0.4401651918888092, -0.3443726599216461], [-0.09007979184389114, 0.08237054198980331, -0.053988248109817505, 0.2663600742816925, -0.11816271394491196, -0.15311972796916962, 0.08658704161643982, 0.28773120045661926, -0.09589460492134094, -0.10185384750366211, 0.18053734302520752, 0.18127864599227905, 0.04011186584830284, 0.11084942519664764, 0.10134582221508026, 0.04979678988456726, 0.1638055145740509, 0.2770175039768219, 0.3476994037628174, 0.23407675325870514, -0.1662447154521942, -0.0016915586311370134, -0.226675882935524, 0.21035899221897125, -0.09339484572410583, -0.04590100422501564, -0.435952752828598, -0.21778295934200287], [-0.12687261402606964, 0.10104218870401382, 0.13582101464271545, 0.24731677770614624, 0.08821345120668411, 0.05809413641691208, -0.17814941704273224, 0.3352215588092804, 0.07166342437267303, -0.04118853062391281, 0.06256698071956635, 0.06795632839202881, 0.048371803015470505, 0.0693073496222496, 0.025188323110342026, -0.19334271550178528, -0.17940083146095276, -0.3746108412742615, -0.08278225362300873, 0.3099921941757202, 0.010084837675094604, 0.18667790293693542, -0.1562277376651764, -0.14216218888759613, -0.08667885512113571, 0.027410956099629402, 0.06652788072824478, 0.1369757503271103], [-0.007094235625118017, -0.2738315761089325, -0.05561823397874832, 0.02527577616274357, -0.05941981449723244, 0.34296223521232605, -0.1640099287033081, 0.2096201479434967, 0.06163453683257103, 0.07218216359615326, 0.11485213041305542, 0.15844093263149261, 0.11974047124385834, -0.17787300050258636, 0.22619405388832092, 0.01786179095506668, -0.07300424575805664, -0.046045027673244476, 0.21916437149047852, 0.12356119602918625, -0.1077054888010025, 0.1655396670103073, 0.06243772432208061, 0.03223750367760658, -0.16304408013820648, 0.08746583014726639, -0.04106537625193596, 0.02037358470261097], [0.243717759847641, 0.2694261968135834, -0.15323607623577118, -0.1037169024348259, 0.17061474919319153, 0.17196163535118103, 0.11655136942863464, 0.1412484347820282, -0.1647872030735016, -0.0578363798558712, -0.00868644192814827, -0.05296546593308449, 0.09431354701519012, 0.08539830148220062, -0.17226828634738922, -0.06855619698762894, -0.33479806780815125, 0.2579687237739563, 0.15166166424751282, -0.1907632052898407, 0.05615650862455368, 0.09286575764417648, -0.05246277526021004, -0.10405564308166504, 0.028216179460287094, 0.07669854909181595, 0.028773047029972076, -0.12770378589630127], [-0.06527639925479889, 0.25479069352149963, -0.16170088946819305, -0.023395519703626633, -0.16187739372253418, -0.174591526389122, 0.0970863476395607, 0.09176501631736755, 0.11392273008823395, 0.028535326942801476, -0.09209831804037094, -0.10978516936302185, -0.06906627118587494, 0.02615591697394848, 0.07555751502513885, 0.04839324951171875, 0.1459674835205078, -0.14106391370296478, 0.18017785251140594, 0.23793253302574158, -0.06649456918239594, -0.014501146040856838, 0.07615269720554352, 0.05866865813732147, -0.025802932679653168, 0.07605930417776108, -0.22572098672389984, -0.2619534730911255], [0.19489088654518127, 0.005684267729520798, 0.2610647976398468, 0.24926891922950745, 0.1614750623703003, 0.3082897961139679, 0.06355119496583939, 0.14086602628231049, -0.209217369556427, -0.026872744783759117, -0.078268863260746, 0.10267065465450287, 0.06501380354166031, -0.03258746489882469, -0.07393856346607208, 0.04891625791788101, -0.06681311875581741, 0.018063634634017944, -0.09441103786230087, 0.23618066310882568, 0.14090436697006226, 0.08912458270788193, -0.004230544436722994, 0.055111464112997055, -0.07314536720514297, 0.16498181223869324, 0.20462566614151, 0.23288822174072266], [-0.7834812998771667, 0.10749082267284393, 0.05774249508976936, 0.003207891248166561, -0.712658166885376, -0.5861412882804871, 0.0457010418176651, -0.009197935461997986, 0.09483054280281067, -0.07053515315055847, -0.05798584967851639, 0.03960339352488518, 0.0669594556093216, 0.14005742967128754, -0.026237932965159416, -0.045714370906353, -0.16165897250175476, -0.07704858481884003, 0.0290689580142498, -0.06527380645275116, -0.05132538080215454, -0.10722547024488449, -0.019796086475253105, 0.06522376835346222, 0.029928646981716156, 0.02320692501962185, 0.04521295055747032, 0.014539719559252262], [0.15990473330020905, -0.5676722526550293, 0.12903477251529694, 0.10587190091609955, 0.11215153336524963, 0.19237065315246582, -0.5616527199745178, -0.5055875182151794, -0.052222467958927155, 0.2153935581445694, -0.0878833681344986, -0.030667919665575027, -0.03518713265657425, -0.02651345357298851, 0.03752409666776657, -0.04547414928674698, -0.07268071174621582, 0.06977064162492752, 0.07535003870725632, -0.09973276406526566, -0.00802523735910654, 0.0038651765789836645, -0.21293480694293976, -0.1004384383559227, 0.20892392098903656, -0.09583596885204315, 0.024571115151047707, -0.09990238398313522], [-0.15465719997882843, 0.38344886898994446, 0.10696583986282349, -0.009883574210107327, -0.027435483410954475, -0.06645253300666809, 0.10437534004449844, 0.32885393500328064, 0.06725431233644485, 0.04421805590391159, -0.01073146890848875, -0.18908321857452393, 0.04939458891749382, 0.05588817223906517, 0.11120851337909698, 0.01882871426641941, 0.32152628898620605, 0.12680885195732117, -0.09977880865335464, 0.13648682832717896, -0.13516823947429657, 0.09720998257398605, 0.12807729840278625, -0.04785414785146713, -0.09797842055559158, -0.1093560978770256, -0.18750886619091034, -0.016847822815179825], [-0.06057241931557655, -0.03259386122226715, 0.11013159900903702, 0.035778630524873734, 0.07433892786502838, -0.045818738639354706, -0.001978357322514057, -0.0621502622961998, 0.03818514570593834, 0.009646826423704624, -0.07568226009607315, -0.02805022895336151, -0.04108070209622383, -0.03690069168806076, 0.028399985283613205, -0.01397437509149313, -0.08708730340003967, -0.1416376829147339, -0.04765796288847923, 0.2736597955226898, -0.10194600373506546, 0.09317926317453384, 0.11750177294015884, -0.1145477443933487, -0.05050552263855934, -0.026880666613578796, 0.9160628318786621, -0.15952084958553314], [0.11456174403429031, 0.03590402007102966, 0.025903169065713882, 0.3404650092124939, 0.04246571660041809, 0.13172031939029694, 0.12505756318569183, 0.43694159388542175, -0.05585470050573349, 0.014026562683284283, 0.03265899792313576, 0.1400129348039627, 0.11875909566879272, -0.17828291654586792, -0.09614146500825882, -0.1912219077348709, -0.20887456834316254, -0.0552319772541523, 0.09907247126102448, -0.03754153847694397, 0.0982099249958992, 0.17348715662956238, 0.08016721159219742, 0.1582796275615692, 0.12235165387392044, -0.0983642190694809, -0.11886969208717346, -0.21309421956539154], [0.08679655939340591, -0.09876669943332672, 0.19806160032749176, -0.6745979189872742, 0.20243015885353088, -0.5430740714073181, 0.1904175728559494, -0.5454155802726746, -0.08713825792074203, -0.06807099282741547, -0.05612814426422119, 0.20352476835250854, -0.025013236328959465, 0.08483237028121948, -0.09031552821397781, 0.08327240496873856, 0.04592146724462509, 0.05798179283738136, 0.12401550263166428, -0.24436457455158234, 0.03002651035785675, -0.07739056646823883, -0.028785670176148415, 0.019013695418834686, 0.1150095984339714, -0.009956840425729752, -0.10824407637119293, 0.1666577011346817], [0.13867732882499695, -0.024233099073171616, 0.07856672257184982, -0.7808745503425598, 0.07719209045171738, -0.5023796558380127, 0.08360493928194046, -0.5372273921966553, 0.078660748898983, -0.027719009667634964, -0.01597599871456623, -0.009182967245578766, -0.012406345456838608, 0.16715233027935028, 0.03757479786872864, -0.041369203478097916, 0.08197971433401108, -0.07670092582702637, 0.046659789979457855, -0.20796231925487518, 0.22625893354415894, -0.0645517110824585, 0.11851900070905685, -0.145450159907341, 0.23265834152698517, -0.003034863155335188, 0.15133881568908691, -0.03740377724170685], [-0.06385038793087006, -0.2544190287590027, 0.1436593383550644, -0.03498803824186325, -0.15024347603321075, -0.0036738631315529346, -0.03454306721687317, -0.4115469455718994, -0.17757178843021393, 0.08720679581165314, -0.01212999690324068, 0.15484507381916046, 0.10281495004892349, 0.09678035229444504, 0.06848733127117157, 0.1549009382724762, -0.01347293145954609, -0.29123544692993164, -0.05998692661523819, 0.27632299065589905, -0.012259373441338539, 0.1305924504995346, 0.040160778909921646, 0.02947143092751503, -0.20401011407375336, -0.01310518104583025, -0.28635677695274353, -0.36869415640830994], [-0.13615605235099792, 0.06468499451875687, 0.17222853004932404, 0.025732042267918587, 0.21513062715530396, -0.06143221631646156, 0.22629576921463013, 0.30276915431022644, 0.14052028954029083, -0.017077965661883354, -0.10739218443632126, -0.13371573388576508, 0.12402945756912231, -0.16709227859973907, 0.020466798916459084, -0.05724363774061203, 0.018474575132131577, -0.28501811623573303, 0.032919544726610184, -0.023655926808714867, -0.15212230384349823, 0.17675630748271942, 0.1394403725862503, 0.1294040083885193, -0.015432571992278099, 0.02419242449104786, 0.15294893085956573, -0.21232132613658905], [-0.07113943248987198, 0.07429618388414383, 0.019297927618026733, -0.16994234919548035, -0.019656160846352577, -0.16935880482196808, 0.030349193140864372, -0.10940589010715485, 0.030028998851776123, -0.07288358360528946, 0.08686678856611252, 0.05776634067296982, 0.09664605557918549, 0.06764993816614151, -0.025169704109430313, 0.08928604423999786, 0.18086335062980652, -0.42640066146850586, 0.05719752237200737, -0.3918415904045105, 0.03748564049601555, 0.051287692040205, 0.2038244754076004, 0.15719807147979736, 0.1329609602689743, 0.15744292736053467, 0.040421683341264725, 1.0172553062438965], [0.2273792028427124, 0.039228178560733795, 0.10885699838399887, 0.09008220583200455, 0.0934673622250557, -0.017046557739377022, -0.12048301100730896, -0.34576138854026794, -0.14975744485855103, 0.1397242546081543, -0.16739894449710846, 0.04673884063959122, -0.08337031304836273, 0.11235405504703522, 0.15243232250213623, -0.031534768640995026, 0.30474621057510376, -0.08219156414270401, 0.17848971486091614, 0.10961814224720001, -0.029341163113713264, 0.06162465736269951, -0.2607600688934326, -0.07404598593711853, 0.19365482032299042, -0.0497656986117363, -0.18008986115455627, 0.18159423768520355], [-0.29547935724258423, -0.6777634024620056, -0.04612820968031883, -0.09498564898967743, 0.09270904213190079, 0.17193759977817535, -0.7187049388885498, -0.6849642992019653, -0.20652665197849274, 0.17928318679332733, 0.15680669248104095, 0.05228002369403839, -0.0812772661447525, -0.06817348301410675, -0.015430055558681488, -0.08984431624412537, -0.04693474993109703, -0.13436269760131836, -0.08253570646047592, 0.07275960594415665, 0.014686125330626965, 0.04945738986134529, -0.1592933088541031, -0.11629357933998108, 0.006813886575400829, -0.04482764005661011, -0.006063369568437338, 0.011733585968613625], [0.0069133020006120205, -0.2194640338420868, 0.03838060796260834, -0.010448548011481762, 0.05513772740960121, 0.1306307464838028, -0.2965422570705414, -0.23606093227863312, 0.11857514083385468, -0.0002551978686824441, -0.1366206407546997, 0.10324668139219284, -0.06573553383350372, -0.05516937002539635, 0.1474979668855667, 0.14762815833091736, 0.08615613728761673, -0.17860041558742523, 0.1099776178598404, -0.293963223695755, -0.005794009659439325, -0.034332018345594406, -0.1476515382528305, -0.15858861804008484, 0.055398669093847275, -0.06990843266248703, -0.03211946040391922, -0.8073432445526123], [0.022751081734895706, 0.07951238006353378, 0.16217777132987976, -0.5835650563240051, -0.006840583402663469, -0.37210917472839355, 0.027735039591789246, -0.4013907015323639, 0.13369612395763397, 0.13710518181324005, -0.07053451985120773, 0.00787279475480318, 0.034209318459033966, -0.07056891918182373, 0.12169602513313293, -0.002894993871450424, -0.25702011585235596, 0.24874813854694366, -0.07068502902984619, 0.20492565631866455, -0.02242019586265087, -0.22063790261745453, -0.10905040055513382, -0.21352604031562805, -0.08858266472816467, -0.1179768443107605, -0.32872679829597473, 0.2338598668575287], [-0.1714063137769699, -0.1940322071313858, 0.04407655820250511, 0.11663723737001419, 0.0297283623367548, -0.08721616864204407, 0.12439768016338348, 0.11645261198282242, 0.04392406716942787, -0.18334545195102692, 0.0543094277381897, -0.011016776785254478, 0.1739099621772766, -0.08167889714241028, 0.07265342026948929, -0.07037162035703659, -0.10068174451589584, -0.1697995364665985, -0.34451615810394287, 0.18778979778289795, -0.05859740823507309, 0.14679120481014252, 0.09988047927618027, 0.18262647092342377, -0.05123542621731758, 0.1548304706811905, 0.5853294134140015, -0.04074634611606598], [0.09282262623310089, -0.07032786309719086, 0.19036312401294708, 0.4645298719406128, -0.09626956284046173, 0.4772110879421234, -0.022400686517357826, 0.12978026270866394, -0.05845519155263901, 0.04709629341959953, -0.14704009890556335, -0.05248071253299713, 0.07610665261745453, 0.02596721239387989, -0.06128581240773201, 0.03426748141646385, -0.1883208304643631, -0.16327138245105743, -0.1241280809044838, -0.29717394709587097, -0.20562051236629486, 0.11467470973730087, 0.0008265228243544698, -0.04876626655459404, -0.045642007142305374, -0.1243065819144249, -0.3252979516983032, 0.15029305219650269], [-0.3152483403682709, -0.011743518523871899, 0.10086046904325485, -0.04177561402320862, -0.34094083309173584, -0.2849639654159546, 0.11817146092653275, 0.24421197175979614, 0.025327758863568306, -0.021444663405418396, -0.09311407804489136, 0.058992039412260056, 0.18722839653491974, 0.13972914218902588, 0.16878975927829742, 0.06925368309020996, -0.539764404296875, -0.11513982713222504, 0.19957980513572693, 0.030921895056962967, -0.253745973110199, -0.49115148186683655, 0.149345263838768, -0.21627162396907806, -0.03346334770321846, -0.11639206856489182, 0.32295599579811096, -0.09765909612178802], [-0.16610661149024963, -0.09118785709142685, 0.19792458415031433, -0.27541813254356384, 0.03048854134976864, -0.33853456377983093, -0.02243725210428238, -0.242705300450325, 0.04953055828809738, 0.017751364037394524, 0.2302408665418625, 0.07953639328479767, 0.0449763648211956, 0.1888573318719864, -0.009861725382506847, 0.09698481112718582, -0.04495706781744957, -0.04291323944926262, 0.12136293202638626, 0.07083524763584137, 0.084276482462883, 0.04679317772388458, 0.06589452177286148, 0.027479762211441994, -0.13392667472362518, -0.0034481827169656754, -0.08581475913524628, 0.042498622089624405], [-0.1148262694478035, -0.5237167477607727, 0.21345806121826172, 0.1994943618774414, 0.16992351412773132, 0.008328448981046677, -0.14560379087924957, -0.29987552762031555, 0.21040646731853485, 0.18358846008777618, 0.178046315908432, -0.05706942081451416, -0.09422814100980759, 0.061048783361911774, 0.004224179312586784, 0.19969162344932556, -0.08991202712059021, -0.1736827939748764, 0.23740360140800476, -0.018899226561188698, 0.14354202151298523, -0.09728934615850449, -0.05782720074057579, -0.13472945988178253, 0.08561379462480545, -0.033894363790750504, 0.031527671962976456, -0.05065736174583435], [0.18809688091278076, -0.0877898558974266, 0.07774413377046585, -0.483907014131546, 0.05678592994809151, -0.2159045934677124, -0.058013830333948135, -0.2603361904621124, 0.14562231302261353, 0.1679745614528656, 0.14761954545974731, 0.10066673159599304, 0.08062265813350677, 0.2011875957250595, 0.2036595195531845, 0.07731947302818298, 0.14099761843681335, 0.18783825635910034, 0.08454035967588425, -0.04688293859362602, 0.14830245077610016, 0.13000249862670898, -0.13747000694274902, -0.21292617917060852, -0.020889079198241234, -0.182637020945549, 0.267119437456131, 0.45693182945251465], [0.2164529412984848, 0.05086967721581459, 0.17736175656318665, -0.04558363929390907, 0.16145582497119904, 0.1724357306957245, -0.03611163794994354, -0.14704938232898712, 0.19991931319236755, -0.17766986787319183, -0.07545377314090729, 0.05783143639564514, 0.17106594145298004, -0.06828724592924118, -0.004997936077415943, -0.1935393214225769, -0.22227132320404053, 0.18725717067718506, -0.14864520728588104, -0.058975301682949066, -0.06116432696580887, -0.04467253386974335, -0.05783579871058464, -0.03201514482498169, 0.07650663703680038, 0.005840789992362261, 0.11444773524999619, 0.0761936753988266], [0.1256290078163147, 0.31928306818008423, 0.227918803691864, -0.2445942908525467, 0.22313839197158813, 0.09118522703647614, 0.12594549357891083, -0.03422364220023155, 0.040850210934877396, 0.06300125271081924, -0.04735851660370827, 0.040471289306879044, 0.013031253591179848, -0.142006978392601, -0.052132245153188705, 0.1817731112241745, 0.16318191587924957, 0.04463173821568489, -0.020877987146377563, 0.3336060047149658, -0.1537269502878189, -0.04385972023010254, 0.07103010267019272, 0.1960114687681198, 0.02740316279232502, -0.05209538713097572, -0.5179454684257507, 0.18884848058223724], [0.24375659227371216, -0.025129467248916626, 0.009314846247434616, -0.3378262519836426, 0.06569221615791321, -0.19776153564453125, -0.11859012395143509, -0.22134126722812653, -0.027346953749656677, 0.15402396023273468, 0.014175678603351116, -0.010109548456966877, 0.15831084549427032, -0.06830686330795288, 0.1170007586479187, 0.07418298721313477, 0.0477127730846405, -0.016208119690418243, -0.1811363399028778, -0.4977811276912689, -0.12171684950590134, 0.07947643846273422, -0.015856970101594925, -0.16718681156635284, 0.13743941485881805, -0.035339295864105225, -0.3007374703884125, 0.008281568996608257], [0.02620503678917885, 0.005545970983803272, -0.07548344135284424, -0.03205384314060211, -0.015872273594141006, 0.008316592313349247, -0.0061208889819681644, 0.008476687595248222, -0.06918348371982574, -0.0520753376185894, -0.009632580913603306, -0.0335049107670784, 0.01416680309921503, 0.018754638731479645, -0.019981972873210907, -0.002656135242432356, -0.014658818952739239, 0.04651504009962082, 0.3307909667491913, 0.13118940591812134, -0.0569869689643383, -0.08787836879491806, -0.08145006000995636, 0.1557912826538086, -0.009817940182983875, -0.017067953944206238, -0.7964573502540588, -0.041094861924648285], [0.2522191107273102, 0.03350357711315155, -0.08753412961959839, 0.034015901386737823, 0.07193624973297119, 0.13583794236183167, 0.02572055719792843, 0.15119951963424683, -0.12306129932403564, 0.04501260817050934, -0.18004174530506134, 0.06630434840917587, 0.17365558445453644, -0.09148938953876495, 0.16018031537532806, -0.13757945597171783, -0.41898226737976074, -0.06304053962230682, -0.10992240905761719, 0.01358798798173666, -0.21375027298927307, 0.04012386500835419, -0.06291204690933228, 0.0057599954307079315, 0.06509696692228317, -0.14632585644721985, -0.06601420044898987, 0.6462680101394653], [-0.032235223799943924, 0.02837591990828514, -0.21872347593307495, -0.0603594034910202, -0.010263781994581223, 0.028854163363575935, -0.19816122949123383, -0.4069520831108093, 0.02600618451833725, 0.11793840676546097, -0.06190233677625656, 0.22369897365570068, 0.04512598365545273, 0.125463604927063, -0.11378314346075058, 0.0334259495139122, -0.12254702299833298, -0.1816350817680359, 0.07796008139848709, -0.32580697536468506, -0.03610478714108467, 0.03558458387851715, -0.1353258192539215, -0.10997270047664642, 0.1671408861875534, -0.17496420443058014, -0.1786830872297287, -0.21602144837379456], [0.05007736384868622, -0.43548375368118286, 0.16939687728881836, 0.05675084516406059, -0.09061098098754883, -0.09622256457805634, -0.22707685828208923, -0.16802535951137543, 0.06478551775217056, -0.03344978019595146, 0.049514733254909515, 0.040071744471788406, 0.02938748523592949, -0.028966635465621948, 0.052602894604206085, 0.0946040228009224, 0.3443979322910309, -0.33235082030296326, 0.18668292462825775, 0.009365196339786053, 0.06097060441970825, 0.03138497471809387, -0.2806505560874939, 0.0351211242377758, 0.21832355856895447, -0.05778253823518753, 0.004655551631003618, 0.567381739616394], [0.02020314335823059, -0.04637962207198143, 0.0005886972649022937, 0.2584986090660095, 0.021250398829579353, 0.2912909984588623, 0.12416137754917145, 0.12865641713142395, 0.1780700981616974, 0.05504860356450081, 0.02954758144915104, -0.06305611878633499, 0.13256554305553436, -0.11185312271118164, 0.017755849286913872, 0.007638297043740749, 0.1741366684436798, 0.20595169067382812, -0.17246584594249725, -0.1496458798646927, -0.06373494118452072, 0.028248067945241928, 0.007670048624277115, -0.17976689338684082, 0.019100740551948547, -0.05705234780907631, 0.186825692653656, -0.025729205459356308], [0.03767818212509155, 0.05996614322066307, 0.266550749540329, -0.07810433208942413, -0.0624232217669487, 0.05290094017982483, 0.18475863337516785, -0.19174103438854218, -0.10881417989730835, -0.14479584991931915, 0.07900723814964294, -0.01827426254749298, 0.19858621060848236, -0.04398549348115921, -0.15361054241657257, 0.11860652267932892, -0.2949371635913849, -0.081305131316185, 0.24488352239131927, 0.25821995735168457, 0.06677510589361191, 0.07277025282382965, 0.07830004394054413, 0.08286464959383011, 0.06871337443590164, 0.048924386501312256, -0.20618365705013275, 0.19064676761627197], [-0.1675000786781311, 0.0675695538520813, 0.17606468498706818, -0.24535609781742096, 0.044762372970581055, 0.0815206840634346, -0.08989235013723373, -0.27229899168014526, 0.16813312470912933, 0.1785513162612915, 0.20789386332035065, -0.11675496399402618, -0.0164388045668602, 0.18932102620601654, -0.16137315332889557, -0.028917808085680008, -0.05707371607422829, 0.006685963366180658, 0.3094317317008972, 0.30202144384384155, 0.009539423510432243, 0.1046924814581871, -0.14877945184707642, -0.055825572460889816, -0.0046092672273516655, 0.15213097631931305, 0.10483745485544205, 0.11118929088115692], [0.13963893055915833, -0.16533231735229492, 0.08163989335298538, 0.21822504699230194, 0.21708472073078156, 0.4274296760559082, 0.026682328432798386, 0.30727362632751465, 0.11679806560277939, 0.03954612463712692, 0.0742725282907486, 0.057810720056295395, 0.1622869074344635, -0.17156045138835907, 0.002129057189449668, 0.09581775963306427, 0.20317856967449188, 0.07541458308696747, -0.2094046026468277, 0.12186191231012344, 0.11602067202329636, -0.02902176044881344, -0.09922321140766144, -0.08245573937892914, -0.047748830169439316, -0.07941415905952454, 0.1951178014278412, 0.20073086023330688], [0.00854299496859312, -0.027082601562142372, -0.14402425289154053, 0.34489259123802185, 0.09314731508493423, 0.15137121081352234, 0.1818406581878662, 0.3845503628253937, -0.06556998193264008, 0.13250483572483063, 0.19511206448078156, 0.12505239248275757, 0.10366849601268768, -0.13114407658576965, -0.18057788908481598, -0.1247195154428482, 0.02101908251643181, 0.20824608206748962, 0.20103485882282257, 0.08394742012023926, 0.15118998289108276, -0.07694730907678604, -0.08605630695819855, -0.2192143052816391, 0.034391213208436966, 0.059579037129879, 0.24736259877681732, -0.022093696519732475], [0.13988129794597626, -0.0743953213095665, -0.1660258173942566, -0.3138504922389984, 0.18330179154872894, 0.14746682345867157, -0.08493516594171524, -0.257262259721756, -0.02234501764178276, 0.1656748652458191, 0.08187979459762573, 0.019458943977952003, 0.17560912668704987, 0.13867059350013733, -0.1327325403690338, -0.06566295027732849, 0.10053039342164993, 0.08860809355974197, 0.014131870120763779, 0.3641536831855774, -0.04106933996081352, 0.0409969724714756, -0.06794025003910065, 0.005100606009364128, 0.2237558215856552, -0.12247525900602341, -0.162367582321167, 0.2048998922109604], [0.22616709768772125, 0.2380867600440979, -0.12368075549602509, -0.07135555148124695, 0.24683435261249542, 0.005958128720521927, 0.18319103121757507, 0.04148130118846893, 0.007529622875154018, 0.09668747335672379, 0.1113782525062561, 0.03158177435398102, -0.19458191096782684, 0.07990431040525436, -0.08683087676763535, -0.14607678353786469, 0.03878464177250862, 0.21570760011672974, 0.09297645837068558, 0.1787635087966919, 0.1584090143442154, -0.003014026442542672, -0.06644567102193832, -0.03471526876091957, 0.14480850100517273, 0.005516307894140482, 0.3223819434642792, 0.3043999671936035], [0.04540596902370453, -0.3709142208099365, 0.10142014920711517, -0.12439233064651489, -0.1291397362947464, -0.00044331245590001345, -0.04160236567258835, -0.5435914397239685, -0.017622394487261772, 0.006257456261664629, -0.06612863391637802, 0.13249298930168152, 0.1523701548576355, 0.02951715514063835, 0.0672188550233841, 0.0896327942609787, 0.19562029838562012, -0.2660534977912903, -0.02428079955279827, -0.03031834028661251, -0.009317046962678432, 0.13934694230556488, 0.03272128105163574, -0.004969556350260973, -0.015167864970862865, 0.017625585198402405, 0.05706387385725975, 0.15842093527317047], [-0.19992662966251373, -0.1208968237042427, -0.055378373712301254, 0.168368399143219, 0.03218700736761093, -0.05797496810555458, -0.094946950674057, -0.08544611185789108, -0.11751279979944229, -0.07008755952119827, -0.07005299627780914, 0.06660476326942444, -0.09447342902421951, -0.1644284725189209, 0.09289048612117767, 0.07875937968492508, 0.04432245343923569, -0.08457844704389572, 0.09194263070821762, -0.1022111251950264, -0.0015703141689300537, -0.06494827568531036, -0.06382705271244049, -0.17119893431663513, 0.14062966406345367, 0.10904846340417862, -0.17445851862430573, -0.3055693507194519], [-0.4101710915565491, 0.23266054689884186, 0.031964100897312164, 0.06231815367937088, -0.3775513172149658, -0.19589261710643768, 0.13710978627204895, 0.0902254581451416, 0.16772256791591644, 0.21870552003383636, -0.005349723622202873, -0.008520826697349548, 0.12539644539356232, -0.0014578058617189527, -0.07781735062599182, 0.011816831305623055, -0.3295992612838745, 0.1540413349866867, -0.1851366013288498, -0.17719830572605133, -0.22414572536945343, -0.16971510648727417, -0.012801364064216614, 0.042156584560871124, -0.05611712113022804, -0.10037301480770111, -0.1163654625415802, 0.303203821182251], [0.07142824679613113, 0.009683816693723202, -0.04939940944314003, -0.6374072432518005, 0.04416975378990173, -0.3934219181537628, 0.11509484797716141, -0.1908799558877945, 0.07897648960351944, 0.06677618622779846, -0.11001987010240555, 0.2861899733543396, 0.06578433513641357, -0.0008935935329645872, 0.006758930627256632, -0.012933613732457161, 0.18893945217132568, 0.11958838999271393, 0.11568456143140793, 0.10664642602205276, 0.06810998171567917, -0.1514522135257721, -0.07237223535776138, -0.10140535980463028, 0.0684671476483345, 0.12662839889526367, -0.08545379340648651, -0.17921021580696106], [-0.06854119151830673, 0.0897885113954544, 0.00667398190125823, -0.011742700822651386, -0.09503765404224396, -0.10355275124311447, -0.1109134703874588, -0.12222961336374283, -0.17151400446891785, -0.01763753592967987, -0.1343269646167755, -0.17576779425144196, -0.17154626548290253, 0.010925931856036186, -0.03471415862441063, -0.175620436668396, 0.03819597512483597, -0.09673819690942764, 0.18012534081935883, 0.006018562242388725, 0.04660334065556526, 0.001651762519031763, 0.14284007251262665, 0.09660216420888901, -0.1881781667470932, -0.1155022606253624, -0.04437460005283356, 0.1497170627117157], [-0.24043002724647522, -0.09010656923055649, -0.3244968354701996, -0.05886167287826538, -0.18391107022762299, -0.007349686697125435, -0.02148575708270073, -0.24701879918575287, 0.03545590117573738, 0.09422700852155685, -0.20800580084323883, 0.024263804778456688, 0.054047245532274246, 0.15915392339229584, 0.07823282480239868, 0.16474004089832306, 0.26655957102775574, 0.21195533871650696, -0.11063257604837418, 0.1108400821685791, -0.06334729492664337, 0.021555665880441666, 0.02960405871272087, 0.10293244570493698, 0.042352739721536636, -0.003231198061257601, -0.331234872341156, 0.23785796761512756], [-0.21381546556949615, -0.7704164981842041, 0.0822388157248497, 0.15028847754001617, 0.15820856392383575, 0.05598540976643562, -0.7792812585830688, -0.6008732914924622, -0.1861758977174759, 0.03323351964354515, 0.2156006246805191, -0.052603185176849365, -0.1203841120004654, -0.037595611065626144, 0.18376746773719788, -0.0011408153222873807, 0.06827016174793243, -0.0173052828758955, -0.03330244496464729, -0.2682764530181885, 0.0644167959690094, -0.027805862948298454, -0.14664368331432343, -0.11531015485525131, 0.054047152400016785, -0.04891057312488556, -0.002581120003014803, 0.00884689949452877], [0.07316695153713226, -0.08606817573308945, 0.12928283214569092, 0.2502639591693878, -0.07534108310937881, 0.34223315119743347, -0.08585575222969055, 0.33462801575660706, -0.131712406873703, -0.15951651334762573, -0.2584001123905182, 0.08151791244745255, -0.16448695957660675, 0.1328006535768509, 0.14090241491794586, 0.08266192674636841, -0.019067000597715378, -0.030811842530965805, -0.000987650011666119, -0.2008165568113327, -0.02400199882686138, -0.06624093651771545, -0.023464567959308624, 0.16764147579669952, 0.0384223610162735, -0.11210385710000992, 0.07754980772733688, 0.08343759924173355], [0.11043637245893478, 0.14277605712413788, -0.02538973093032837, 0.03291291743516922, 0.09431126713752747, 0.0522507019340992, -0.060560811311006546, 0.12005379050970078, 0.002216779161244631, 0.08535308390855789, 0.15462122857570648, 0.12076226621866226, -0.07927625626325607, -0.15718577802181244, 0.040671851485967636, 0.043627120554447174, -0.31426405906677246, 0.06780295819044113, 0.28598085045814514, 0.2432815134525299, -0.02687815949320793, 0.012920179404318333, 0.0918964222073555, 0.18192073702812195, 0.06133668124675751, -0.00808030366897583, -0.10665840655565262, -0.8063786029815674], [-0.12787267565727234, -0.19004233181476593, 0.1462550163269043, -0.0027784525882452726, 0.019996142014861107, -0.13278105854988098, 0.08575698733329773, 0.20162951946258545, 0.08013562858104706, 0.05494993180036545, -0.015495904721319675, 0.056395675987005234, 0.1846245676279068, -0.044032320380210876, -0.06349629908800125, -0.14019276201725006, -0.4590096175670624, 0.01655789092183113, -0.028762871399521828, -0.07432223111391068, -0.08990664780139923, -0.2910047173500061, 0.05513700470328331, 0.0568222813308239, 0.20500069856643677, 0.14473004639148712, -0.09529288113117218, 0.8366660475730896], [0.041567590087652206, 0.10930734872817993, 0.04566480219364166, 0.20622560381889343, 0.06945723295211792, 0.20374223589897156, 0.03715984523296356, 0.22761774063110352, -0.14651133120059967, -0.12448479235172272, -0.012926534749567509, -0.005716108251363039, -0.05240732431411743, 0.004136578179895878, -0.14877861738204956, 0.17532062530517578, 0.003933836705982685, 0.23701629042625427, 0.2713010013103485, 0.13897141814231873, -0.00457991985604167, 0.036069151014089584, 0.19110697507858276, -0.0871080532670021, -0.10465248674154282, 0.12910209596157074, 0.38569507002830505, -0.3016444444656372], [0.04321153834462166, 0.24776895344257355, 0.09765270352363586, -0.4641859829425812, -0.0283574927598238, -0.18043740093708038, 0.15425457060337067, -0.2799675762653351, 0.16087409853935242, -0.09758781641721725, -0.08759603649377823, -0.1145387664437294, 0.11508877575397491, 0.21190251410007477, 0.12724097073078156, -0.12648069858551025, -0.013140634633600712, 0.19187447428703308, 0.3031613826751709, 0.3190055787563324, -0.08622592687606812, 0.07326891273260117, -0.2166609913110733, -0.10147271305322647, -0.08457941561937332, -0.10849495232105255, -0.41246482729911804, -0.04569697007536888], [0.14542803168296814, 0.0734393373131752, 0.12637196481227875, -0.3291984498500824, -0.002280560554936528, 0.0695580393075943, 0.0365472249686718, -0.20281380414962769, -0.07778481394052505, 0.0018563633784651756, 0.07030729204416275, 0.00503501808270812, -0.050184957683086395, 0.09149669110774994, -0.028029439970850945, 0.17806066572666168, 0.33808186650276184, 0.011080548167228699, -0.3120294511318207, 0.1666451245546341, -0.030326981097459793, 0.10005132853984833, 0.03033425658941269, 0.0027374259661883116, 0.19101668894290924, -0.0738689973950386, 0.42936623096466064, 0.17883478105068207], [-0.8718998432159424, -0.042596276849508286, 0.009328591637313366, 0.14834903180599213, -0.7416926622390747, -0.6811689734458923, 0.17249439656734467, 0.06679330766201019, 0.05664173886179924, -0.05016530677676201, 0.1982761174440384, -0.11183556169271469, -0.03466639667749405, 0.10830962657928467, -0.08808726817369461, -0.011822190135717392, -0.13637199997901917, -0.0115293487906456, 0.016086317598819733, 0.014521731063723564, 0.018777882680296898, -0.0690574049949646, 0.01984723098576069, 0.01667509600520134, -0.06691410392522812, 0.029607148841023445, 0.02968513034284115, -0.016417112201452255], [-0.056956350803375244, 0.1414993405342102, -0.04038352519273758, 0.040999218821525574, -0.3112449645996094, -0.06695568561553955, 0.1583554744720459, 0.2739483118057251, 0.13299433887004852, -0.10840211808681488, -0.014098439365625381, -0.06577499210834503, 0.07032403349876404, 0.0989227369427681, 0.11424502730369568, 0.08962813764810562, -0.5509414672851562, 0.1771540641784668, 0.1688506007194519, -0.16723623871803284, 0.1194690614938736, 0.054807864129543304, -0.07747834175825119, -0.0290211271494627, 0.1598145067691803, 0.013640650548040867, 0.29184213280677795, 0.3364443778991699], [0.04734700918197632, 0.07352225482463837, 0.25255513191223145, 0.024459728971123695, 0.0085004772990942, 0.00477229431271553, 0.08982066810131073, 0.02326200343668461, -0.12467744201421738, -0.13459806144237518, -0.14524953067302704, -0.14645026624202728, -0.03894112631678581, -0.05951019003987312, -0.0936146005988121, 0.23081958293914795, -0.287832647562027, 0.00430279178544879, -0.12040398269891739, 0.20512045919895172, 0.029415355995297432, 0.0032966258004307747, 0.13363666832447052, -0.1590631902217865, -0.025302577763795853, 0.11580562591552734, 0.5692185163497925, -0.14716105163097382], [0.08769159764051437, 0.10488224774599075, -0.0630432516336441, 0.07534071058034897, -0.09032327681779861, -0.11309430748224258, -0.10256678611040115, -0.08026289939880371, 0.013095533475279808, 0.06577222049236298, -0.23506350815296173, 0.16712909936904907, -0.04953042045235634, -0.050111424177885056, 0.11761246621608734, -0.08237176388502121, 0.006500828079879284, 0.0254233255982399, -0.03367866948246956, 0.28062281012535095, 0.062266912311315536, 0.061280347406864166, 0.011742250062525272, 0.2538624703884125, -0.010457281954586506, -0.007665826473385096, -0.3682219684123993, -0.004480621311813593], [-0.08752842992544174, 0.015651248395442963, 0.16061285138130188, -0.02064310759305954, 0.1499512791633606, -0.488364577293396, -0.03893979638814926, -0.20429715514183044, 0.08730871975421906, 0.14503753185272217, -0.016025850549340248, 0.1617182493209839, 0.04721009358763695, 0.21995513141155243, -0.013306846842169762, -0.011717458255589008, 0.07017192989587784, 0.2574259638786316, -0.20768211781978607, -0.18410624563694, 0.17715804278850555, -0.14875663816928864, -0.10059045255184174, -0.11007235199213028, -0.04467236250638962, 0.05353826284408569, 0.4147254228591919, 0.504111647605896], [-0.2087673842906952, -0.13639482855796814, 0.1748962253332138, 0.21182790398597717, -0.04681532829999924, -0.11189527809619904, 0.0335354246199131, 0.26155930757522583, 0.010000314563512802, 0.11097437143325806, 0.05294213816523552, 0.135808065533638, 0.18120184540748596, 0.17788858711719513, -0.10264471173286438, 0.00854776706546545, -0.27016502618789673, 0.2644168436527252, 0.23167502880096436, 0.19722309708595276, 0.007895632646977901, 0.10242259502410889, 0.05620276555418968, -0.14698828756809235, 0.06460303068161011, -0.2105737030506134, -0.11013445258140564, -0.13188692927360535], [-0.11587807536125183, 0.20879316329956055, 0.2853129804134369, -0.01857936941087246, -0.06889156252145767, -0.012445896863937378, 0.34076446294784546, 0.012186726555228233, 0.14863725006580353, -0.08977589011192322, 0.1283646821975708, 0.18060912191867828, -0.006773334462195635, -0.0951073095202446, 0.08887214213609695, -0.10083430260419846, 0.026829009875655174, 0.2609291672706604, 0.24686476588249207, 0.10057377815246582, -0.12941081821918488, -0.09605364501476288, -0.12884782254695892, -0.09188763797283173, 0.13652531802654266, 0.05319850891828537, -0.2169533669948578, 0.16967123746871948], [-0.153723806142807, 0.20882123708724976, 0.019403573125600815, 0.1504657119512558, 0.04831752926111221, 0.28824442625045776, 0.23015303909778595, 0.32272592186927795, -0.1725037693977356, 0.1335729956626892, -0.01593524031341076, 0.06541386246681213, 0.1470373570919037, -0.16645191609859467, 0.12213648110628128, -0.11982190608978271, 0.30510058999061584, -0.13300521671772003, 0.2906688153743744, 0.08022777736186981, 0.08648650348186493, -0.0002721023338381201, -0.010015897452831268, 0.17637047171592712, 0.231364443898201, 0.1858416199684143, -0.09345212578773499, 0.0701974555850029], [0.02678530663251877, -0.20951910316944122, -0.19539541006088257, 0.2733948230743408, -0.2665889263153076, -0.13620606064796448, 0.03353035822510719, 0.3339497148990631, 0.1317741870880127, -0.012725526466965675, 0.15144573152065277, -0.09253457188606262, -0.056161414831876755, 0.1723981499671936, 0.1673571616411209, 0.06453735381364822, 0.007503970060497522, 0.12912826240062714, 0.06675514578819275, 0.24436485767364502, 0.06831886619329453, 0.0347743034362793, -0.23114556074142456, -0.011250274255871773, 0.08374720811843872, -0.005953949876129627, -0.4126727879047394, 0.17818590998649597], [0.12380741536617279, 0.03089544177055359, 0.10322316735982895, -0.025540081784129143, -0.1207818016409874, -0.10341697186231613, -0.23998747766017914, -0.09318288415670395, -0.0468684658408165, -0.1711936742067337, -0.06695003807544708, -0.11682543903589249, 0.036725759506225586, 0.20101456344127655, -0.3358677625656128, -0.2899221181869507, -0.07071776688098907, -0.2366068810224533, 0.2702394723892212, 0.10960385948419571, 0.0884416326880455, 0.014486859552562237, -0.1410062164068222, -0.03498109430074692, 0.0687037855386734, 0.01893274486064911, 0.07325569540262222, 0.11082792282104492], [0.0025645422283560038, 0.0665585994720459, 0.14822852611541748, -0.3135395646095276, 0.17179925739765167, -0.40336936712265015, 0.1576589196920395, -0.378589004278183, 0.08094194531440735, 0.13738147914409637, -0.06664992868900299, 0.014039537869393826, -0.1378636509180069, 0.11027250438928604, -0.10985039919614792, 0.20353975892066956, -0.16604460775852203, -0.15301091969013214, 0.08671873062849045, -0.46516183018684387, -0.08062948286533356, -0.20208698511123657, 0.09912905097007751, -0.32049283385276794, 0.1413780152797699, -0.07534026354551315, -0.5173860788345337, 0.05606025829911232], [-0.09823714196681976, -0.06007276847958565, -0.10697749257087708, -0.14167895913124084, -0.2965528964996338, -0.16647176444530487, -0.1151667982339859, -0.21608711779117584, 0.19616423547267914, -0.04751802608370781, 0.08817649632692337, -0.154790997505188, 0.1520279347896576, 0.18728666007518768, 0.1365671008825302, 0.08868453651666641, 0.10739895701408386, 0.08247990161180496, -0.1680862158536911, -0.17841722071170807, -0.02772451937198639, -0.02581986039876938, -0.09285254031419754, 0.004748337436467409, 0.12803184986114502, -0.007458395324647427, -0.09032651036977768, 0.29751893877983093], [0.2197132557630539, 0.34493550658226013, 0.18888723850250244, -0.06729292124509811, 0.14305976033210754, 0.12900717556476593, 0.32418951392173767, 0.22291500866413116, -0.07915978878736496, -0.10783781111240387, -0.15031695365905762, 0.07340062409639359, 0.02882988005876541, -0.032598890364170074, 0.02414134331047535, 0.07672443985939026, 0.18390457332134247, -0.05716197192668915, -0.1949053704738617, 0.07569335401058197, 0.0349118746817112, 0.12655125558376312, 0.03288247808814049, -0.09867165982723236, 0.1776972860097885, -0.005720245651900768, -0.023070385679602623, 0.1255977749824524], [0.21109852194786072, -0.13198935985565186, 0.3165426254272461, -0.14860454201698303, 0.28722482919692993, -0.0662228986620903, 0.2807267904281616, -0.09917018562555313, -0.03721224144101143, 0.15216492116451263, -0.1323867291212082, 0.06690651923418045, 0.04930282384157181, 0.18568405508995056, 0.16366980969905853, 0.1812189668416977, 0.19212573766708374, -0.01993255876004696, -0.14514105021953583, -0.35992714762687683, 0.06097283214330673, -0.06013048067688942, 0.1531442254781723, -0.03050890378654003, 0.14325927197933197, -0.05617295205593109, 0.20959782600402832, -0.17870162427425385], [-0.15972217917442322, 0.12046384811401367, -0.012849868275225163, 0.05135359615087509, 0.08389009535312653, -0.048774655908346176, -0.11599351465702057, -0.13166645169258118, 0.010818347334861755, -0.10336188971996307, -0.1519591212272644, -0.09872755408287048, 0.050039757043123245, 0.001913886982947588, 0.020131325349211693, 0.04698202386498451, 0.12049314379692078, 0.12793006002902985, 0.330898642539978, 0.18367646634578705, -0.02558284066617489, 0.04393988847732544, 0.030459968373179436, -0.0019059854093939066, -0.051081735640764236, -0.030442798510193825, 0.8017242550849915, 0.015362126752734184], [-0.006272067315876484, -0.019048752263188362, -0.16902203857898712, -0.18725475668907166, -0.10056190937757492, -0.15342707931995392, -0.16944652795791626, -0.2750895023345947, -0.015514101833105087, 0.003715974511578679, -0.0021480442956089973, 0.07983479648828506, 0.10203850269317627, 0.08920396119356155, 0.1219756081700325, 0.06444824486970901, -0.38094761967658997, -0.045841481536626816, -0.4465435743331909, -0.03315703943371773, -0.11628405004739761, -0.04987950623035431, 0.04253767803311348, 0.01680494099855423, 0.06253541260957718, 0.0904354378581047, 0.5539534687995911, 0.522782564163208], [0.0903765857219696, 0.14024825394153595, -0.125893697142601, -0.09674353152513504, 0.18286100029945374, -0.3840653598308563, 0.06173744052648544, -0.20935334265232086, 0.10741657763719559, 0.04324900731444359, -0.18175622820854187, 0.2271631956100464, -0.07949227839708328, 0.0057375989854335785, 0.17329545319080353, 0.0643703043460846, -0.0837402194738388, 0.06662844121456146, 0.1715085506439209, -0.5406818985939026, -0.05795321613550186, -0.051051974296569824, -0.049034129828214645, -0.028512895107269287, -0.018661655485630035, -0.08108353614807129, -0.6627808213233948, -0.045086853206157684], [0.27939197421073914, -0.039493218064308167, -0.10849802941083908, -0.32858848571777344, 0.29280251264572144, 0.03678513690829277, 0.12215118855237961, -0.08813943713903427, 0.10007976740598679, -0.07723571360111237, -0.11434604227542877, 0.04110262542963028, -0.1902298480272293, 0.14307570457458496, 0.13157208263874054, 0.08037123084068298, 0.05274325981736183, -0.17974957823753357, -0.1147240549325943, -0.19129346311092377, 0.15055926144123077, 0.04828595742583275, 0.09656699746847153, 0.17538747191429138, 0.11368503421545029, -0.09609111398458481, 0.10363757610321045, -0.27247944474220276], [-0.1588720977306366, -0.38364171981811523, -0.11690648645162582, 0.2059037834405899, -0.04353371262550354, -0.04293040558695793, -0.33386319875717163, -0.10801829397678375, -0.2998937964439392, 0.0482923723757267, 0.13708502054214478, 0.15440015494823456, 0.009435965679585934, -0.09506667405366898, 0.16156357526779175, -0.08223520219326019, 0.08277478814125061, 0.16349363327026367, -0.17518697679042816, 0.16158759593963623, -0.07636578381061554, -0.20401321351528168, 0.0800938531756401, -0.2774653136730194, 0.11402347683906555, -0.09834843873977661, 0.15318873524665833, -0.3020712733268738], [-0.09203983843326569, 0.2670964300632477, 0.10928703844547272, -0.3010908365249634, -0.22877168655395508, -0.45371487736701965, 0.22686801850795746, 0.023433849215507507, 0.051434073597192764, -0.09559055417776108, -0.10141059756278992, 0.17966197431087494, 0.10925129801034927, 0.11495587229728699, 0.053946107625961304, 0.17778965830802917, -0.02780970372259617, -0.04790086671710014, -0.4092909097671509, -0.032276641577482224, -0.06345074623823166, -0.06473968923091888, 0.11176939308643341, -0.09071558713912964, 0.13475880026817322, 0.16427089273929596, 0.42999282479286194, -0.33408111333847046], [0.10478721559047699, 0.08598843961954117, -0.13502667844295502, 0.1839415729045868, -0.021860305219888687, 0.05458982288837433, 0.12351178377866745, 0.3365882635116577, -0.18010728061199188, -0.15765681862831116, 0.1920829713344574, 0.16405726969242096, -0.05003436282277107, -0.04335455968976021, -0.09614631533622742, -0.04509628191590309, -0.2735883593559265, 0.04996345192193985, -0.02779133804142475, -0.07063982635736465, 0.12866194546222687, -0.061050355434417725, 0.03800279647111893, -0.02978532388806343, 0.128888338804245, 0.07015342265367508, 0.44661933183670044, 0.05785231292247772], [0.03597535192966461, -0.02978375181555748, 0.02074933610856533, 0.15556380152702332, -0.1814512014389038, 0.2084142118692398, -0.1758396476507187, 0.16987179219722748, 0.1699005514383316, -0.00779676903039217, 0.04405645281076431, -0.14851781725883484, -0.08757735788822174, -0.0030273254960775375, 0.18678346276283264, -0.01604190282523632, -0.04433829337358475, -0.258941113948822, 0.08415883779525757, -0.2925916314125061, 0.0491473525762558, 0.0006008279742673039, -0.06550740450620651, -0.015162800438702106, 0.03198433667421341, -0.08128622174263, -0.6840375065803528, -0.3063359260559082], [0.10563189536333084, 0.19498935341835022, 0.06240849569439888, 0.14438791573047638, 0.2019966095685959, 0.0777834877371788, -0.06106181442737579, -0.09158994257450104, 0.1297357976436615, 0.0852794200181961, -0.019025349989533424, 0.023988889530301094, -0.12363331019878387, -0.03392019867897034, 0.03690825775265694, 0.0869763121008873, -0.1134924590587616, -0.4267667233943939, -0.16345027089118958, -0.13981862366199493, -0.13514678180217743, -0.10845770686864853, 0.07512395828962326, 0.1255766749382019, 0.04880110174417496, 0.0765586569905281, 0.10079947859048843, -0.6331921219825745], [-0.012952483259141445, 0.12442045658826828, -0.5830442309379578, -0.0664886012673378, -0.2520347535610199, 0.2416432648897171, -0.5935189127922058, 0.16984327137470245, -0.14536592364311218, 0.16245843470096588, -0.043250422924757004, -0.06789391487836838, 0.026807090267539024, -0.07571645081043243, -0.11485818773508072, -0.031860679388046265, 0.12766161561012268, -0.042565394192934036, -0.24198022484779358, -0.1011645495891571, 0.01751234196126461, -0.04719705507159233, 0.005322027951478958, 0.014203591272234917, 0.017608366906642914, -0.07006461173295975, 0.08225195854902267, -0.004489767365157604], [0.29601120948791504, 0.12447641044855118, 0.0455009862780571, 0.21772529184818268, 0.11315000802278519, 0.17916902899742126, 0.12746474146842957, -0.04106278717517853, 0.02149173803627491, 0.049713823944330215, -0.010253367014229298, -0.14507535099983215, 0.06188475713133812, -0.08212719112634659, -0.07010827213525772, -0.07910328358411789, 0.22222383320331573, 0.14621682465076447, -0.11093508452177048, 0.06387223303318024, 0.157132089138031, 0.087104931473732, -0.1265188306570053, -0.05964840203523636, 0.2023872435092926, 0.14394702017307281, -0.1651073396205902, 0.3115449845790863], [-0.07616520673036575, -0.15718339383602142, 0.09938761591911316, -0.2377387136220932, 0.08415667712688446, -0.23932699859142303, 0.15023362636566162, -0.18418531119823456, 0.01042113546282053, -0.11580965667963028, 0.22020223736763, -0.04142516106367111, 0.10963074117898941, -0.006374001502990723, 0.0549430325627327, -0.049966029822826385, 0.1957908570766449, 0.06336035579442978, -0.4107999801635742, 0.035264238715171814, -0.03442106768488884, 0.16816259920597076, -0.00890821311622858, -0.16656216979026794, -0.034272629767656326, -0.03504686802625656, 0.5370802283287048, -0.5961110591888428], [0.07794782519340515, -0.0838688313961029, 0.31511348485946655, 0.009494539350271225, 0.3892172574996948, -0.12507767975330353, 0.18142539262771606, 0.0307456124573946, 0.10937684029340744, 0.09751413017511368, -0.10097478330135345, 0.09737126529216766, -0.2487785369157791, 0.011884942650794983, 0.12538215517997742, 0.08547461777925491, -0.09118866920471191, 0.15000790357589722, -0.26775237917900085, -0.12151215225458145, -0.05527390539646149, 0.01126500777900219, -0.08890451490879059, 0.0309087373316288, -0.09023347496986389, -0.09245063364505768, 0.3018101453781128, -0.44661781191825867], [0.2079354077577591, 0.23907868564128876, -0.07563139498233795, 0.3271612524986267, 0.19799374043941498, 0.2822432816028595, -0.055420514196157455, 0.23167617619037628, -0.07035050541162491, 0.17155730724334717, 0.14333952963352203, 0.0291593000292778, -0.005611800123006105, 0.020151017233729362, -0.07068348675966263, 0.023305578157305717, -0.083094522356987, -0.17026907205581665, 0.053246382623910904, -0.2276681810617447, 0.03774565830826759, 0.12396394461393356, -0.055285483598709106, -0.0661081075668335, 0.15453246235847473, 0.12520305812358856, 0.02513309009373188, -0.3729601204395294], [0.14504295587539673, 0.16051240265369415, -0.02226276323199272, 0.09865265339612961, 0.047859229147434235, 0.29198071360588074, -0.029145948588848114, 0.2013079971075058, -0.00014259645831771195, -0.031156066805124283, 0.08631616085767746, -0.2138797640800476, 0.0200439915060997, 0.06816121190786362, 0.1757618486881256, -0.036602720618247986, -0.010660013183951378, 0.035222165286540985, 0.025986123830080032, -0.19881191849708557, 0.09015010297298431, -0.04483729600906372, 0.12012360990047455, -0.21330039203166962, 0.03432411327958107, 0.04450530558824539, 0.6902832388877869, -0.44933947920799255], [0.018185697495937347, -0.10997664928436279, -0.01136449258774519, 0.018170198425650597, -0.16109418869018555, 0.10718625038862228, -0.022508837282657623, 0.1464030146598816, -0.154441699385643, -0.1316862404346466, 0.06321752071380615, -0.12062601745128632, -0.052983641624450684, -0.0679958239197731, -0.13657543063163757, -0.05999516695737839, -0.050110723823308945, 0.07105261832475662, -0.07914073765277863, -0.014301007613539696, 0.048851948231458664, -0.11650791019201279, 0.0810341164469719, -0.052688565105199814, -0.02907544933259487, 0.10666550695896149, 0.007052031811326742, -0.048424337059259415], [-0.026502439752221107, 0.06532906740903854, -0.8403668403625488, 0.28420332074165344, -0.7396367192268372, 0.009330591186881065, -0.18469423055648804, -0.11326982080936432, -0.046988844871520996, 0.026103315874934196, 0.054156363010406494, -0.12446720898151398, 0.19079262018203735, -0.09060938656330109, -0.022793935611844063, -0.04842546209692955, 0.0241793692111969, -0.021608684211969376, -0.26167675852775574, 0.09517263621091843, -0.19719085097312927, 0.09946557134389877, -0.1839563548564911, -0.05340525507926941, -0.011669284664094448, 0.11511244624853134, 0.024375688284635544, 0.05651666224002838], [0.17531612515449524, 0.1976144164800644, -0.14813770353794098, -0.7445020079612732, -0.10402816534042358, -0.5291063785552979, 0.1668364554643631, -0.40189772844314575, 0.1685093641281128, -0.05802149325609207, -0.1250385046005249, 0.13075046241283417, -0.00198101787827909, -0.07276619225740433, 0.05713837966322899, -0.13062094151973724, 0.0970526933670044, 0.019010761752724648, 0.12256008386611938, -0.12652674317359924, 0.14384379982948303, -0.03911513090133667, 0.09665366262197495, -0.09159804880619049, -0.06502700597047806, 0.019907254725694656, -0.14062197506427765, -0.019394882023334503], [-0.056338585913181305, 0.047682054340839386, -0.2044987976551056, -0.06816606223583221, 0.04781026020646095, 0.0034402820747345686, 0.0017716262955218554, -0.17875990271568298, 0.08439920842647552, 0.022787420079112053, -0.052150506526231766, 0.09389900416135788, 0.1597955971956253, -0.061076827347278595, -0.11259463429450989, -0.00744129391387105, 0.29325953125953674, 0.07006057351827621, 0.04970305413007736, -0.16449466347694397, 0.09801235049962997, 0.05377190560102463, 0.13745109736919403, 0.036517929285764694, -0.057489361613988876, 0.04995736479759216, 0.7217375040054321, 0.1625077873468399], [0.04788513109087944, 0.10018324851989746, -0.06661853194236755, -0.04920032620429993, -0.01800117827951908, -0.3328578770160675, 0.11134859919548035, -0.1842544674873352, 0.044079653918743134, 0.07356013357639313, 0.1292688399553299, 0.07425649464130402, -0.14738842844963074, 0.06279347836971283, 0.05780632421374321, 0.21395030617713928, -0.37351176142692566, -0.05167967081069946, 0.004245386924594641, -0.049348704516887665, -0.05739150196313858, -0.1823677122592926, -0.04446554183959961, -0.09649971127510071, 0.0910065695643425, -0.1091088131070137, 0.3144019842147827, 0.521324634552002], [0.3736254572868347, 0.03582461550831795, -0.15395571291446686, 0.14615491032600403, 0.11765936762094498, 0.40900006890296936, -0.040999799966812134, -0.015450632199645042, 0.1244007796049118, -0.07376371324062347, 0.030157579109072685, -0.003903616452589631, 0.09095540642738342, -0.15382997691631317, 0.0430862158536911, 0.10883764922618866, -0.34302839636802673, -0.0709742084145546, 0.07888808846473694, -0.023108482360839844, -0.29497769474983215, -0.09944009780883789, -0.12903450429439545, 0.09003512561321259, -0.10698310285806656, -0.030111929401755333, -0.25502023100852966, -0.009116440080106258], [-0.15164434909820557, 0.1222032755613327, -0.26170989871025085, 0.09039285033941269, -0.5091589689254761, -0.017712540924549103, 0.05127778276801109, 0.042831603437662125, 0.1625463217496872, -0.006399896461516619, -0.06302458792924881, -0.0639142319560051, 0.17348439991474152, 0.15701234340667725, -0.05249634385108948, 0.11066694557666779, 0.2094138264656067, 0.12619136273860931, -0.12982177734375, 0.12899817526340485, -0.1169661283493042, -0.0987100899219513, -0.09660322219133377, 0.1433745175600052, -0.16490206122398376, 0.003839539596810937, -0.07003790140151978, 0.3928307294845581], [-0.14483819901943207, -0.14848679304122925, 0.09357117116451263, 0.19039799273014069, 0.16094961762428284, 0.2539997100830078, 0.1417931765317917, 0.3257654905319214, 0.18749171495437622, 0.10875729471445084, -0.19921772181987762, 0.005941163748502731, 0.11853273957967758, 0.1389157772064209, -0.1226080060005188, -0.05478765442967415, -0.2914891839027405, 0.1393192857503891, 0.33570292592048645, -0.04979562386870384, -0.000138025643536821, 0.0962325856089592, 0.13149936497211456, -0.007118262816220522, 0.17572550475597382, 0.10485495626926422, -0.1595689356327057, -0.2859560251235962], [-0.5417687296867371, -0.06366252899169922, 0.09318738430738449, 0.040579430758953094, -0.4903906285762787, -0.6362349987030029, 0.17867349088191986, 0.15404300391674042, 0.2651727497577667, 0.14426353573799133, 0.005928893107920885, -0.002448178129270673, -0.057463306933641434, -0.07774412631988525, -0.044088155031204224, -0.030621716752648354, -0.1620008498430252, -0.07290086150169373, -0.14743009209632874, 0.020912403240799904, -0.013812528923153877, -0.010376865044236183, -0.06162435933947563, -0.03287387266755104, -0.005034750793129206, -0.026611726731061935, 0.04813755676150322, 0.021168159320950508], [0.1454971730709076, 0.1120849996805191, 0.07284122705459595, -0.02544647455215454, 0.19566431641578674, 0.03405341878533363, -0.12421869486570358, -0.11043061316013336, -0.08463732153177261, 0.18688222765922546, 0.21971449255943298, -0.2501875162124634, 0.1584755927324295, -0.16114570200443268, -0.11021016538143158, 0.03809978812932968, -0.09872301667928696, -0.09002255648374557, 0.23308883607387543, -0.1703948676586151, -0.15069431066513062, -0.0002958195982500911, -0.01870599202811718, -0.17632772028446198, -0.08456284552812576, -0.05326298624277115, 0.10540898889303207, 0.12173958122730255], [0.025471974164247513, -0.24169126152992249, 0.07903719693422318, 0.1877083033323288, -0.023543745279312134, -0.0881253033876419, -0.21164630353450775, -0.0658143162727356, 0.14432159066200256, 0.1947566568851471, -0.16044826805591583, 0.05423584580421448, -0.07462414354085922, -0.06932806968688965, 0.047027215361595154, 0.20478031039237976, 0.10005424916744232, -0.3529382348060608, 0.14314089715480804, -0.18990345299243927, 0.24927644431591034, -0.04998153820633888, -0.0494210384786129, -0.004781628027558327, 0.1559813916683197, 0.10369765013456345, 0.6157086491584778, -0.2819439768791199], [0.025663435459136963, -0.31062379479408264, 0.049438346177339554, -0.030598070472478867, -0.26629409193992615, -0.2574557363986969, -0.37015268206596375, -0.10145866125822067, 0.12720075249671936, -0.1289650797843933, 0.11689569056034088, 0.07704939693212509, 0.20839762687683105, -0.1382916122674942, 0.03358257934451103, 0.062443412840366364, 0.28884822130203247, 0.03452937304973602, -0.08651923388242722, 0.17182797193527222, -0.0045761833898723125, -0.09785030037164688, 0.12431097775697708, -0.0947609394788742, 0.020914852619171143, 0.0032469972502440214, -0.10969724506139755, 0.043892040848731995], [-0.17026197910308838, -0.2978431284427643, 0.04912610352039337, 0.10356976836919785, -0.0404873788356781, 0.001307223574258387, -0.02153550460934639, -0.009555437602102757, 0.10143344849348068, 0.09138265252113342, -0.050869472324848175, -0.10783938318490982, 0.07844464480876923, 0.013601531274616718, 0.06668583303689957, 0.11357613652944565, 0.049420274794101715, 0.19303305447101593, 0.009134257212281227, 0.16028530895709991, 0.025915272533893585, 0.1038900762796402, -0.012048110365867615, 0.17980317771434784, 0.22915779054164886, 0.026481138542294502, -0.40858253836631775, -0.9212701320648193], [-0.0673883929848671, -0.15534590184688568, 0.19194622337818146, 0.08735757321119308, -0.05715121328830719, 0.15574994683265686, -0.36437374353408813, -0.1130966767668724, 0.08268274366855621, 0.21462975442409515, 0.036227885633707047, 0.05555424094200134, 0.025720154866576195, 0.024720553308725357, -0.06842280179262161, -0.09770584851503372, -0.2787734866142273, -0.17905987799167633, -0.48371684551239014, -0.03698044642806053, -0.1759355515241623, 0.1960543990135193, -0.2521337568759918, 0.08323458582162857, 0.18525342643260956, -0.05771893635392189, 0.777121365070343, 0.04438435286283493], [-0.014205839484930038, -0.00010909343836829066, 0.07479999214410782, 0.22461988031864166, -0.05326860770583153, 0.18470710515975952, 0.15952761471271515, 0.22829480469226837, -0.10843541473150253, -0.10624945908784866, 0.011015243828296661, 0.223397359251976, 0.061887312680482864, 0.0235272366553545, -0.21358110010623932, 0.054291773587465286, -0.2331501990556717, -0.2383892834186554, 0.07739482074975967, -0.07768178731203079, 0.03576640039682388, -0.10359517484903336, -0.003161379834637046, 0.2052931934595108, -0.0034008382353931665, -0.07798247784376144, 0.09548933804035187, -0.022501157596707344], [0.07732167094945908, 0.19378620386123657, 0.00046334165381267667, -0.027858560904860497, 0.22214610874652863, 0.1306743323802948, 0.25674423575401306, 0.24185572564601898, 0.08655160665512085, 0.14770133793354034, 0.13941240310668945, 0.028054140508174896, -0.15790724754333496, -0.19789476692676544, 0.10163140296936035, -0.1681114137172699, 0.175818532705307, -0.31947484612464905, 0.12002132087945938, 0.3232420086860657, -0.11922945082187653, 0.0603862963616848, -0.12582559883594513, -0.019335119053721428, 0.14264395833015442, 0.11597982794046402, -0.2273448258638382, -0.22341157495975494], [-0.03756434842944145, -0.09960225969552994, -0.08611174672842026, -0.030648987740278244, -0.10527844727039337, -0.045818474143743515, -0.12589818239212036, -0.23370029032230377, 0.06650479882955551, -0.0912480354309082, 0.1753763109445572, 0.09757829457521439, 0.01716022938489914, -0.045880768448114395, 0.04366089776158333, 0.01454496756196022, -0.4527817368507385, 0.027500532567501068, -0.02313818968832493, -0.3996327221393585, 0.07272505015134811, -0.15134182572364807, -0.05006428435444832, -0.027636395767331123, 0.18542112410068512, 0.03226500004529953, -0.6021319627761841, 0.471456378698349], [-0.040559276938438416, -0.0643317922949791, 0.004985702224075794, 0.4130626320838928, -0.0848386362195015, 0.5320418477058411, -0.09475956112146378, 0.3940998613834381, 0.09924279153347015, 0.05478568375110626, 0.03605988249182701, -0.07184147834777832, -0.06625373661518097, -0.05210676044225693, 0.18179646134376526, -0.046068985015153885, 0.09385816007852554, 0.2525610029697418, 0.26893794536590576, -0.1655462682247162, 0.057883959263563156, -0.05217931419610977, 0.16478101909160614, -0.036837104707956314, -0.028569282963871956, -0.024557873606681824, -0.09211869537830353, 0.23171454668045044], [-0.8305692672729492, 0.061125703155994415, 0.1565360724925995, 0.04541921243071556, -0.7027495503425598, -0.49537596106529236, 0.09327328950166702, 0.0704750120639801, 0.017519984394311905, -0.16071197390556335, 0.022617869079113007, 0.139204204082489, 0.1964585930109024, 0.021635420620441437, -0.05484570190310478, -0.08303360641002655, -0.03538336604833603, 0.1538373827934265, 0.06964696198701859, 0.06519698351621628, -0.0484989732503891, -0.10669226944446564, 0.0708685889840126, 0.006218768190592527, -0.12712591886520386, -0.03714422136545181, 0.05219205841422081, 0.020103808492422104], [-0.020741987973451614, 0.06420842558145523, -0.2671489715576172, 0.12283997982740402, -0.10836879163980484, -0.04090368375182152, -0.4849170446395874, -0.060541488230228424, -0.06190740317106247, 0.18895380198955536, 0.014472901821136475, 0.22825923562049866, 0.21792668104171753, -0.06458517163991928, -0.05921545252203941, 0.011505575850605965, -0.047830674797296524, 0.17354713380336761, -0.12114621698856354, 0.016992270946502686, -0.16307365894317627, 0.1127975583076477, -0.2738851308822632, 0.03371387720108032, -0.15862533450126648, -0.04530263692140579, -0.13830113410949707, 0.05853170529007912], [0.03290881589055061, 0.009987526573240757, 0.18512345850467682, 0.04046647250652313, 0.034859661012887955, 0.08523935824632645, 0.08770440518856049, -0.1260840892791748, 0.017810864374041557, 0.12088510394096375, 0.011427395977079868, -0.33838897943496704, 0.1119859591126442, 0.048876307904720306, -0.08099526166915894, -0.17083455622196198, 0.34799665212631226, 0.14735940098762512, -0.09930481761693954, -0.04920702800154686, -0.06205916032195091, 0.044775594025850296, -0.056992076337337494, 0.002456641523167491, 0.10777457803487778, -0.0794399231672287, -0.22542808949947357, 0.2999609410762787], [-0.011352287605404854, 0.010047000832855701, -1.0702604055404663, 0.07165862619876862, -0.8058658242225647, 0.020961260423064232, -0.895037055015564, 0.0580318346619606, 0.032469142228364944, -0.02151869237422943, 0.17275042831897736, -0.05498899519443512, 0.06785637885332108, 0.011114111170172691, 0.20865443348884583, 0.05106702446937561, 0.02162724919617176, 0.11455038189888, -0.11914465576410294, -0.010222223587334156, -0.10532009601593018, 0.001895478111691773, -0.028882330283522606, 0.06704708188772202, 0.04361409321427345, 0.01671559549868107, 0.08659493178129196, -0.019713740795850754], [0.13673801720142365, 0.12193257361650467, 0.38143888115882874, -0.18066541850566864, 0.2414170354604721, -0.14700767397880554, 0.23558014631271362, -0.07703182101249695, -0.09635671973228455, -0.11963214725255966, -0.02725065127015114, 0.036437880247831345, -0.03998977690935135, 0.15866100788116455, 0.030747324228286743, 0.09151754528284073, -0.06538723409175873, -0.15690290927886963, -0.0794488936662674, -0.5542324185371399, 0.12014797329902649, 0.01072964258491993, -0.07564733922481537, -0.057738713920116425, 0.01378838811069727, 0.004894303623586893, -0.19297687709331512, 0.01066525001078844], [-0.8223124742507935, 0.24237605929374695, 0.06346262991428375, 0.0021021654829382896, -0.7798571586608887, -0.6304214000701904, -0.055918119847774506, 0.016830766573548317, 0.18004131317138672, -0.17429302632808685, -0.028439676389098167, 0.03253655880689621, 0.1474100947380066, 0.09244120121002197, 0.02772827446460724, -0.008267883211374283, -0.1254931539297104, -0.0626247301697731, -0.08565588295459747, -0.17178937792778015, -0.017170535400509834, 0.01185410376638174, 0.01652161031961441, -0.022085200995206833, -0.014939016662538052, 0.03386235609650612, -0.018520554527640343, 0.015533563680946827], [0.007748090196400881, -0.5327584147453308, 0.03793038800358772, 0.020545249804854393, 0.07699301093816757, 0.12003664672374725, -0.29759153723716736, -0.4288080334663391, -0.13921615481376648, 0.22524821758270264, -0.02787148579955101, -0.001106158015318215, 0.09817448258399963, 0.011344951577484608, -0.009030972607433796, 0.04891887679696083, -0.015404914505779743, 0.3354158103466034, 0.05440019443631172, 0.05210476368665695, -0.033763352781534195, 0.043079204857349396, -0.016887063160538673, 0.021218042820692062, 0.012670003809034824, -0.058186598122119904, 0.021546868607401848, -0.5507965683937073], [0.030261753126978874, -0.1359134465456009, 0.07231814414262772, -0.5729933381080627, -0.15789921581745148, -0.43414437770843506, 0.08257720619440079, -0.46065858006477356, 0.07582221180200577, 0.17860190570354462, 0.10931146144866943, 0.027878794819116592, 0.11445919424295425, 0.04354153200984001, -0.006032432895153761, -0.07944267988204956, -0.06411807239055634, 0.018574273213744164, -0.1271832436323166, -0.20671114325523376, 0.0616992749273777, 0.03791587054729462, 0.05382009595632553, 0.06125260517001152, -0.05771832540631294, 0.07677225768566132, -0.06099517270922661, 0.057962410151958466], [-0.0519879013299942, -0.013075065799057484, -0.04942081496119499, 0.44418954849243164, 0.17036494612693787, 0.4354323744773865, -0.016922995448112488, 0.27815067768096924, -0.04117656871676445, -0.023757122457027435, -0.035452499985694885, 0.10648203641176224, 0.07708577811717987, 0.1310233175754547, 0.14586038887500763, -0.08351012319326401, -0.04873279109597206, -0.11774817109107971, 0.1827576756477356, 0.15473712980747223, 0.07228881865739822, 0.1089496836066246, 0.0036223111674189568, -0.029936200007796288, 0.14026355743408203, -0.08641045540571213, 0.092553049325943, 0.2648671567440033], [0.017303934320807457, 0.18080325424671173, -0.054056793451309204, 0.26942548155784607, 0.1536586880683899, 0.3608943521976471, 0.2296615093946457, 0.37596040964126587, -0.046526242047548294, 0.17268326878547668, -0.0868353620171547, 0.0008779464988037944, 0.06577954441308975, -0.067751444876194, -0.13634911179542542, 0.03651883825659752, 0.2613723576068878, -0.08670882135629654, 0.16525834798812866, 0.24755974113941193, 0.20448105037212372, -0.15287084877490997, 0.1845828741788864, 0.16485969722270966, 0.17685626447200775, -0.1540357619524002, -0.0882924273610115, 0.2727835774421692], [0.04231768101453781, 0.08383255451917648, -0.22825703024864197, -0.5743399262428284, 0.16165441274642944, -0.7121058702468872, 0.01686960831284523, -0.611594557762146, -0.030929042026400566, 0.11946398764848709, -0.23357026278972626, -0.11094088852405548, -0.01713445782661438, 0.2113809585571289, -0.008849297650158405, 0.029545359313488007, 0.06032956764101982, -0.010671296156942844, -0.15065151453018188, -0.11704602837562561, 0.04511451721191406, -0.18084396421909332, -0.020526638254523277, -0.057808756828308105, 0.06804855912923813, -0.04098194092512131, 0.058995477855205536, 0.016456127166748047], [0.23250217735767365, 0.21344472467899323, -0.17148323357105255, -0.12743549048900604, -0.08820613473653793, 0.1983383446931839, 0.04812992364168167, 0.3320010006427765, 0.15876953303813934, -0.08169402182102203, 0.18895208835601807, 0.10493005812168121, 0.10751943290233612, -0.1360858976840973, 0.02765287086367607, -0.1339646726846695, -0.09654690325260162, -0.4726299047470093, 0.2536916732788086, -0.13534697890281677, -0.016725869849324226, -0.07079213857650757, 0.11553820222616196, 0.13956570625305176, -0.09757117927074432, 0.11340045183897018, 0.0754099041223526, -0.374014288187027], [-0.8156505823135376, -0.08185367286205292, -0.07348284870386124, 0.048906952142715454, -0.8039793372154236, -0.6437879800796509, 0.1501391977071762, 0.019478198140859604, 0.2319459766149521, -0.011250831186771393, 0.0430426150560379, 0.14462225139141083, 0.009846330620348454, -0.02692805975675583, -0.02351253293454647, 0.03899775817990303, -0.18192945420742035, -0.12569287419319153, 0.004319485742598772, 0.040538422763347626, -0.09439142048358917, -0.09199805557727814, 0.03908359631896019, 0.0694100484251976, 0.004249808844178915, -0.0012755136704072356, -0.03997572138905525, 0.01712474599480629], [0.07235629856586456, -0.12924328446388245, -0.10995651036500931, -0.3046336770057678, 0.15242314338684082, -0.4463479220867157, 0.20237937569618225, -0.1524743139743805, 0.10079599916934967, -0.10069004446268082, -0.05534394457936287, 0.07236810028553009, 0.17747794091701508, -0.13621684908866882, 0.15444837510585785, 0.05405191704630852, -0.24876517057418823, 0.01637987606227398, 0.19958004355430603, 0.1544521600008011, 0.06928133219480515, 0.1459166556596756, 0.16173355281352997, 0.10803357511758804, 0.08683781325817108, -0.1426808089017868, -0.11576258391141891, 0.054858334362506866], [-0.05900474637746811, 0.13772155344486237, -0.15013563632965088, -0.2645445168018341, -0.03228657692670822, -0.3044021725654602, -0.06792698800563812, -0.19966912269592285, -0.10025496035814285, -0.10982833802700043, 0.03698515146970749, 0.09931661188602448, 0.0833221822977066, 0.11092954874038696, 0.053133029490709305, 0.002708435757085681, 0.17399615049362183, -0.27527084946632385, 0.03357037901878357, -0.23866046965122223, 0.13864776492118835, 0.06357718259096146, 0.0037417856510728598, -0.149872824549675, 0.2570074200630188, -0.0025848515797406435, -0.5818937420845032, -0.8251854777336121], [-0.07565431296825409, -0.1445721685886383, -0.15727990865707397, -0.08768793940544128, -0.029607286676764488, 0.2869226932525635, -0.03723408654332161, 0.2927253544330597, 0.22779914736747742, 0.14142635464668274, 0.16418740153312683, 0.06835135817527771, -0.08989886194467545, 0.1410321742296219, -0.04807464778423309, -0.13300804793834686, 0.15866979956626892, -0.4158034920692444, -0.06025692820549011, -0.1795303076505661, 0.008007766678929329, -0.24214515089988708, 0.1794257014989853, -0.07392747700214386, -0.0829271748661995, -0.07968593388795853, 0.11456076800823212, 0.037846971303224564], [0.09614056348800659, 0.06347418576478958, 0.1542404294013977, -0.597174346446991, 0.13081499934196472, -0.3048087954521179, 0.10993281751871109, -0.6158090233802795, -0.11587575823068619, -0.1286655068397522, -0.12637928128242493, 0.09646796435117722, -0.012554384768009186, 0.0654156282544136, -0.076707623898983, 0.10882732272148132, 0.01803881861269474, 0.08808035403490067, 0.044198617339134216, 0.24714945256710052, 0.022327525541186333, -0.0061957696452736855, -0.039787329733371735, -0.06001380458474159, 0.08294456452131271, 0.0032785634975880384, -0.44166451692581177, -0.0009537411970086396], [0.021588360890746117, 0.15350235998630524, 0.07321608811616898, -0.35936880111694336, -0.10683906078338623, -0.07075454294681549, 0.14332465827465057, -0.08366034179925919, -0.10624094307422638, 0.23314844071865082, 0.0004258572880644351, -0.02383633330464363, 0.05321505293250084, 0.22201594710350037, 0.0662740021944046, -0.08943123370409012, -0.017328280955553055, -0.31944698095321655, -0.020208802074193954, 0.14297087490558624, 0.07674385607242584, 0.13702203333377838, 0.09928909689188004, -0.21926318109035492, 0.035250257700681686, 0.08518066257238388, -0.2841813266277313, -0.27430176734924316], [-0.17488886415958405, -0.16331444680690765, 0.1125389114022255, 0.008441876620054245, -0.053954873234033585, 0.20974333584308624, -0.1526489108800888, 0.09501621872186661, -0.0013598081422969699, -0.2021530270576477, -0.09709611535072327, -0.014642023481428623, -0.04516947641968727, 0.02911609224975109, -0.1914520561695099, -0.22902794182300568, -0.2136053740978241, -0.12249254435300827, 0.15802130103111267, -0.11514430493116379, 0.1839863508939743, 0.08674853295087814, -0.14493057131767273, 0.0069497148506343365, 0.0018625494558364153, -0.014409898780286312, -0.21259596943855286, 0.17700260877609253], [-0.6524824500083923, 0.22463646531105042, 0.07343510538339615, -0.02322784997522831, -0.4110831320285797, -0.4164273738861084, -0.08606640994548798, 0.0822778046131134, 0.2177937775850296, -0.13097704946994781, -0.10612411051988602, -0.06298211216926575, 0.1654737889766693, -0.016107061877846718, 0.09715192019939423, -0.09892308712005615, -0.0399799570441246, 0.20784379541873932, 0.028057774528861046, 0.2836671471595764, -0.06155030429363251, -0.01620570570230484, 0.027628308162093163, 0.04258617013692856, -0.09386469423770905, -0.06911864131689072, -0.08222512155771255, 0.1654382199048996], [0.049555107951164246, -0.20731857419013977, -0.0679747462272644, 0.29751822352409363, -0.08059088885784149, 0.2229485809803009, 0.0338994599878788, -0.0028161699883639812, -0.14014199376106262, -0.0066542853601276875, -0.16934539377689362, -0.015497147105634212, 0.03224833682179451, 0.148139089345932, 0.07294411957263947, 0.2081119865179062, -0.2564293146133423, -0.2679758071899414, 0.2041642665863037, -0.15037700533866882, 0.06309499591588974, -0.11075142025947571, -0.03528709337115288, 0.11201211810112, -0.09621123969554901, 0.045918338000774384, 0.39538657665252686, 0.07222190499305725], [0.08651044219732285, 0.034795649349689484, -0.22276030480861664, -0.1766105443239212, -0.07400757074356079, 0.10250106453895569, -0.14543133974075317, -0.1531633734703064, -0.02287490852177143, 0.15273582935333252, 0.17575308680534363, 0.14720715582370758, -0.14503571391105652, 0.08919697254896164, 0.12233149260282516, 0.0883077010512352, 0.27844101190567017, -0.21450762450695038, -0.27239155769348145, -0.17213842272758484, 0.25776299834251404, 0.06956575065851212, 0.06982267647981644, 0.2179725468158722, -0.06740736216306686, -0.09704096615314484, 0.2969523072242737, 0.5848808288574219], [0.08562739938497543, -0.060432855039834976, 0.1635688841342926, -0.11525814980268478, -0.06475989520549774, -0.37624940276145935, 0.02271873690187931, -0.1667439192533493, -0.08635483682155609, -0.02801591530442238, 0.15847967565059662, 0.2008596509695053, -0.08047522604465485, 2.5716335585457273e-05, 0.08365663141012192, 0.126358762383461, 0.263816237449646, 0.13225321471691132, 0.22685688734054565, -0.03582734987139702, 0.24627645313739777, -0.0460335910320282, 0.11912936717271805, 0.038027502596378326, -0.06903748214244843, 0.02119295485317707, 0.5967214703559875, 0.6296727061271667], [0.214481920003891, 0.030179468914866447, 0.12268168479204178, 0.3782922625541687, 0.06715763360261917, 0.38657093048095703, 0.17123538255691528, 0.40253007411956787, -0.10854732245206833, 0.06843496859073639, 0.008017860352993011, -0.02322259172797203, -0.10929429531097412, -0.015855275094509125, 0.15837201476097107, -0.04159165173768997, -0.16807638108730316, -0.20742392539978027, -0.06441331654787064, -0.22463232278823853, 0.13274918496608734, -0.009842325001955032, 0.031539641320705414, -0.04645863175392151, 0.030125176534056664, 0.105786994099617, -0.30048421025276184, 0.23285631835460663], [-0.14796283841133118, 0.1906367838382721, 0.10578009486198425, -0.0902269035577774, 0.010928518138825893, 0.043787162750959396, -0.09643971920013428, 0.07309015095233917, 0.20918069779872894, -0.047293998301029205, -0.17276045680046082, -0.014665577560663223, 0.003048860002309084, -0.07549580931663513, -0.11642783135175705, 0.08062709122896194, 0.10033860802650452, -0.1364012062549591, 0.018014773726463318, 0.32850342988967896, -0.009958113543689251, -0.09816032648086548, 0.05751010775566101, 0.04466799646615982, 0.14966429769992828, -0.0021434880327433348, -0.12006092816591263, 0.512755811214447], [-0.04163765162229538, 0.22289620339870453, 0.2131115198135376, -0.07394524663686752, 0.03816469758749008, 0.10243889689445496, 0.34373995661735535, 0.36443251371383667, 0.10067586600780487, 0.09916919469833374, 0.13068366050720215, 0.08429443836212158, 0.07375530898571014, -0.10828470438718796, -0.13226060569286346, 0.003000076627358794, -0.256674587726593, -0.13570766150951385, 0.06514003872871399, -0.24353377521038055, 0.10844110697507858, 0.19000637531280518, 0.11736726015806198, 0.1326669603586197, -0.11046510189771652, -0.07962679862976074, 0.29260122776031494, 0.058952007442712784], [0.08497461676597595, -0.3889511525630951, 0.11853526532649994, 0.12827569246292114, 0.06577513366937637, 0.13835276663303375, -0.4694778025150299, -0.34598997235298157, 0.06717348843812943, 0.1214500144124031, 0.0038274144753813744, -0.04738952964544296, -0.1158449798822403, -0.055239222943782806, 0.0035822854842990637, 0.07127074897289276, 0.06272266060113907, 0.31856513023376465, 0.08011852949857712, 0.013865952380001545, 0.03020523302257061, -0.0651879534125328, -0.032132428139448166, 0.11883049458265305, 0.032385487109422684, -0.02512550912797451, 0.049847498536109924, -0.46806466579437256], [0.2827967405319214, -0.740607500076294, 0.05246281251311302, 0.04146052524447441, 0.16106654703617096, 0.17178593575954437, -0.7140040397644043, -0.5331140160560608, -0.12850667536258698, 0.1622055172920227, 0.11486721783876419, 0.07695185393095016, -0.015332548879086971, 0.07336127758026123, -0.10540932416915894, -0.07842109352350235, -0.016932280734181404, -0.27370700240135193, 0.050799887627363205, 0.05514955893158913, -0.01647367887198925, 0.05016062408685684, 0.03975049406290054, 0.057897601276636124, -0.14056408405303955, 0.02313004806637764, 0.04278116300702095, -0.14434689283370972], [-0.0490623340010643, 0.021978026255965233, -0.06004376709461212, 0.27285999059677124, 0.012752920389175415, -0.012794268317520618, 0.12175093591213226, 0.48766055703163147, 0.11394163221120834, -0.17184746265411377, 0.08131477981805801, -0.049536027014255524, 0.10709686577320099, 0.10259077697992325, -0.11299595981836319, 0.08340772986412048, -0.21866990625858307, 0.08458364009857178, -0.00875486247241497, -0.2392159253358841, 0.12350361794233322, -0.13789844512939453, 0.025540854781866074, -0.0052120075561106205, -0.08779136836528778, 0.10847447067499161, 0.18657441437244415, -0.9173292517662048], [-0.0874660462141037, 0.3679797947406769, -0.04729727655649185, -0.08497525006532669, 0.1748732179403305, 0.07390417158603668, 0.0852821096777916, 0.3755556344985962, 0.03214003145694733, -0.027352461591362953, 0.18923068046569824, -0.0478982999920845, -0.10359299927949905, 0.1575416922569275, -0.12054592370986938, 0.027279669418931007, -0.23220853507518768, 0.06197654455900192, -0.12027525901794434, -0.1691596955060959, 0.045879121869802475, 0.11708515137434006, -0.06504759937524796, 0.14985190331935883, 0.12698812782764435, -0.10688762366771698, 0.2462318241596222, -0.41546961665153503], [-0.03876563906669617, -0.12928225100040436, -0.23983627557754517, 0.16814500093460083, -0.4867175817489624, -0.10209012776613235, -0.22603964805603027, 0.10894915461540222, 0.04206336289644241, -0.0049490309320390224, 0.0816906988620758, -0.07309815287590027, 0.13905683159828186, 0.07009419798851013, 0.08257105201482773, -0.06209193915128708, 0.15073618292808533, 0.1067744791507721, 0.2625434100627899, 0.010042225942015648, 0.04271678999066353, 0.14102859795093536, -0.21284644305706024, -0.1611984223127365, -0.05363224819302559, -0.06260082125663757, 0.4164355397224426, 0.14639732241630554], [0.19104070961475372, 