{"q_net.0.weight": [[-0.1312619000673294, -0.041894253343343735, -0.3548405170440674, 0.21599049866199493, -0.1751568466424942, 0.10877212882041931, -0.3438309133052826, -0.013870631344616413, 0.02778206765651703, -0.07739105820655823, -0.06351318210363388, 0.09587603807449341, -0.013824698515236378, 0.14031022787094116, 0.1382603645324707, -0.10511608421802521, -0.13791535794734955, 0.042576488107442856, -0.4113418161869049, 0.22601556777954102, 0.032032329589128494, -0.16074122488498688, -0.05653003230690956, -0.04316788539290428, -0.04130405932664871, 0.026920851320028305, -0.1454978585243225, 0.13024547696113586], [-0.27737513184547424, -0.20768442749977112, 0.0752502828836441, -0.14527150988578796, 0.20558005571365356, -0.24229490756988525, 0.14870306849479675, -0.4979077875614166, -0.17300041019916534, 0.08832110464572906, -0.005069636274129152, 0.18659552931785583, -0.06513375043869019, -0.07127314060926437, 0.010334322229027748, 0.23070435225963593, 0.00931887049227953, 0.29480066895484924, 0.12733782827854156, -0.016293881461024284, -0.013684302568435669, -0.08641167730093002, 0.08242189139127731, 0.045916393399238586, -0.2109111100435257, 0.07267299294471741, 0.10615309327840805, -0.15111124515533447], [0.2039545476436615, 0.10676411539316177, 0.029959751293063164, -0.535286009311676, 0.04462955519556999, -0.26329129934310913, 0.0853831097483635, -0.15530474483966827, -0.1181110367178917, -0.043814390897750854, -0.011273426935076714, 0.1656297743320465, 0.007730341050773859, 0.090870201587677, -0.06663396209478378, 0.044259168207645416, 0.1598808467388153, -0.07258032262325287, -0.018659470602869987, 0.4382930397987366, 0.03232119232416153, 0.011701825074851513, 0.08120296150445938, 0.09207341820001602, 0.16490145027637482, 0.048661570996046066, -0.7112047076225281, 0.1203501746058464], [-0.24369943141937256, 0.182857945561409, -0.313335120677948, 0.2366819679737091, -0.45682522654533386, 0.042637430131435394, -0.22672349214553833, 0.0915566012263298, 0.19247181713581085, -0.05824156105518341, 0.17235781252384186, 0.17479051649570465, 0.12849260866641998, 0.02687959559261799, 0.061901941895484924, -0.00014849384024273604, -0.14524757862091064, -0.05806224048137665, 0.14645341038703918, -0.24150726199150085, -0.1280042827129364, 0.22917205095291138, 0.3332110643386841, 0.30690228939056396, -0.04996934533119202, -0.005978715606033802, -0.12924084067344666, 0.18248845636844635], [0.12190677225589752, 0.04834023118019104, 0.2503812313079834, 0.11835473030805588, -0.05978291481733322, 0.06304997205734253, -0.08064772933721542, -0.04175886884331703, -0.04319135099649429, 0.04682307690382004, -0.1400454193353653, -0.05308418720960617, -0.06315325945615768, -0.021029818803071976, 0.03325590491294861, 0.0879439115524292, 0.1754462569952011, -0.3108983635902405, -0.1717134714126587, 0.18862153589725494, 0.03539261594414711, 0.11353523284196854, -0.1622016429901123, -0.062159545719623566, -0.05891559645533562, -0.007464020047336817, -0.4791080355644226, -1.189104676246643], [-0.2363189309835434, 0.29569944739341736, -0.16439145803451538, 0.006039537955075502, -0.33924007415771484, 0.15082193911075592, -0.12305913865566254, 0.40473127365112305, 0.1856364607810974, -0.1789475828409195, 0.09250454604625702, 0.1289357990026474, 0.07021328061819077, -0.12262188643217087, 0.1450795978307724, -0.02438969537615776, 0.13581067323684692, 0.1181715652346611, 0.07031773030757904, -0.2643866539001465, 0.14846816658973694, 0.0969783142209053, 0.15107527375221252, 0.008530734106898308, -0.15484118461608887, 0.058202408254146576, 0.11138046532869339, -0.24891707301139832], [-0.8475263714790344, -0.10438885539770126, -0.08331017196178436, -0.041663143783807755, -0.7711015939712524, -0.6293131709098816, 0.0449254997074604, -0.0422552227973938, 0.1783866137266159, 0.1025848537683487, 0.07720352709293365, -0.018858952447772026, 0.18623311817646027, 0.013474686071276665, -0.022540953010320663, -0.005281106103211641, 0.03680509701371193, -0.0969553291797638, -0.02495749294757843, -0.008894361555576324, -0.1472965031862259, -0.10514416545629501, 0.04343520104885101, -0.006865577772259712, 0.11352071911096573, -0.019579948857426643, -0.01838369481265545, -0.033668652176856995], [0.016071710735559464, 0.09893468022346497, 0.030423225834965706, -0.8886337280273438, -0.032661713659763336, -0.14786221086978912, -0.020485952496528625, -0.2667069733142853, 0.0042884377762675285, 0.023214582353830338, 0.06028767302632332, -0.2072625607252121, 0.03248557820916176, 0.03940676152706146, 0.006525284610688686, 0.037823550403118134, 0.016931835561990738, -0.10903554409742355, -0.31246617436408997, -0.21470274031162262, -0.12656737864017487, 0.018080806359648705, -0.2320277988910675, -0.0029936491046100855, 0.15200495719909668, -0.01959371753036976, 0.33501991629600525, 0.0889705941081047], [0.30421340465545654, 0.09573610126972198, 0.25324758887290955, -0.027381565421819687, 0.1634272336959839, -0.008337809704244137, 0.29445797204971313, 0.1861349195241928, 0.08813577145338058, 0.08667880296707153, -0.17922091484069824, 0.13602901995182037, -0.15800945460796356, -0.1928456425666809, 0.024479949846863747, -0.0064643556252121925, -0.2837795317173004, 0.10795910656452179, 0.05551381781697273, 0.26318466663360596, 0.2660267651081085, 0.16907954216003418, -0.003299238160252571, 0.07331167906522751, 0.0075079151429235935, 0.08939939737319946, -0.01112001109868288, -0.5471770763397217], [-0.11410018056631088, -0.17710834741592407, -0.11931823939085007, -0.12308210879564285, -0.1567818820476532, -0.14001283049583435, -0.20381313562393188, -0.021520819514989853, -0.055928487330675125, -0.12905873358249664, 0.13824446499347687, 0.1988195776939392, 0.11462023854255676, -0.010843336582183838, 0.22480063140392303, 0.06303159147500992, -0.38626953959465027, 0.1066107228398323, -0.13365817070007324, 0.20049263536930084, 0.05937108024954796, -0.05598175525665283, -0.12531588971614838, 0.006470592692494392, -0.18926973640918732, -0.03068581409752369, 0.12824808061122894, 0.40589767694473267], [0.2282266616821289, -0.2027866095304489, 0.23885895311832428, 0.36363500356674194, -0.11657439917325974, 0.22548691928386688, 0.009327610023319721, -0.1378008872270584, -0.14305458962917328, 0.03619321808218956, 0.0276337880641222, 0.15871934592723846, -0.13953742384910583, -0.20034059882164001, 0.0589437298476696, 0.12799938023090363, 0.11115437000989914, 0.23024490475654602, 0.133016899228096, 0.12617316842079163, -0.11356151849031448, -0.10052797943353653, -0.09931307286024094, -0.13558006286621094, 0.2530795931816101, 0.1933969259262085, -0.31265008449554443, 0.1254226267337799], [0.22974304854869843, 0.215871199965477, 0.09425916522741318, -0.23269523680210114, 0.11954592168331146, -0.05285004898905754, 0.18692651391029358, -0.2420019656419754, 0.07519854605197906, 0.14712435007095337, -0.14187216758728027, 0.025682412087917328, 0.10712295770645142, 0.22644245624542236, -0.1753845363855362, -0.07058165222406387, -0.040870048105716705, -0.15606939792633057, -0.06542959064245224, 0.12992322444915771, -0.36999329924583435, 0.17905168235301971, 0.25620970129966736, 0.24809463322162628, 0.08132172375917435, -0.1969340294599533, -0.2404809296131134, 0.0960228219628334], [0.1978144645690918, -0.19283732771873474, -0.11770953238010406, -0.3765430450439453, -0.011194604448974133, -0.09057614952325821, -0.6740564107894897, -0.04517802596092224, 0.08810414373874664, 0.20786525309085846, 0.07947183400392532, 0.01454191654920578, -0.04128246009349823, 0.03368930146098137, 0.02829982340335846, -0.0885922834277153, -0.04467114806175232, 0.3548842668533325, 0.1543726772069931, -0.16785256564617157, 0.011576592922210693, 0.07921446114778519, 0.36887335777282715, 0.2027919441461563, -0.06093786284327507, 0.04638854041695595, 0.29733532667160034, -0.3374600112438202], [0.3400168716907501, -0.20523697137832642, -0.05040333792567253, 0.3843468129634857, 0.05731460079550743, 0.30209609866142273, -0.05871587246656418, 0.18802349269390106, 0.13067619502544403, 0.08016093820333481, 0.1541672796010971, -0.07523571699857712, 0.09858714789152145, 0.16930712759494781, 0.01752248778939247, -0.06223355233669281, 0.1813228279352188, 0.24899953603744507, -0.2483391910791397, -0.17820844054222107, -0.12002938240766525, 0.005016878712922335, -0.29382264614105225, -0.17263562977313995, 0.13194341957569122, 0.031236758455634117, 0.12969627976417542, 0.05468080937862396], [0.13898566365242004, -0.10296613723039627, -0.08629297465085983, 0.09860329329967499, 0.02473461627960205, 0.005985482130199671, 0.18386127054691315, 0.00048186868662014604, 0.026139678433537483, -0.006479915697127581, 0.002768982434645295, -0.03409067168831825, 0.009268676862120628, -0.2707374393939972, -0.08907346427440643, -0.031131315976381302, -0.022095326334238052, 0.24559231102466583, 0.0061140297912061214, 0.1563534438610077, -0.08043230324983597, 0.11740701645612717, 0.355865478515625, 0.011279228143393993, -0.11310599744319916, 0.023279448971152306, 0.14547885954380035, -0.48506712913513184], [-0.07501427829265594, -0.8979448676109314, -0.018196040764451027, 0.1249130591750145, 0.04639144241809845, 0.1438145786523819, -0.37224411964416504, -0.5327948331832886, 0.1115611121058464, 0.1864181011915207, -0.05021585151553154, 0.12324497103691101, -0.08506458252668381, -0.09689789265394211, 0.02875736728310585, 0.15018139779567719, 0.018467633053660393, -0.41065773367881775, 0.16034404933452606, 0.24149660766124725, -0.10233966261148453, 0.08789753913879395, -0.3545914888381958, -0.1566784679889679, 0.19428248703479767, 0.0525699257850647, -0.17614521086215973, 0.19062009453773499], [0.3142232596874237, -0.11722549051046371, -0.1282440423965454, -0.10184865444898605, 0.244928777217865, 0.15273399651050568, -0.26928311586380005, -0.24583838880062103, 0.02175651118159294, 0.1659679263830185, 0.08831831067800522, -0.0599944181740284, -0.04185347631573677, -0.05392424017190933, 0.17047877609729767, 0.1537443995475769, -0.11501980572938919, -0.0805627629160881, -0.04143160581588745, -0.34449273347854614, 0.001904697041027248, -0.011675282381474972, 0.048308875411748886, 0.14262747764587402, 0.30012452602386475, 0.08162125200033188, -0.33083999156951904, 0.03955007344484329], [0.2518213391304016, -0.0626092478632927, 0.32259976863861084, -0.04765612632036209, 0.325160950422287, 0.41342344880104065, 0.057004984468221664, -0.043856557458639145, 0.09783874452114105, 0.10202087461948395, 0.0005849230801686645, -0.07325825840234756, -0.11218681931495667, 0.18981169164180756, 0.017570706084370613, 0.12837323546409607, 0.005646035075187683, 0.08548814803361893, -0.11991992592811584, 0.17517971992492676, 0.11381661891937256, 0.09694334119558334, 0.044045738875865936, 0.15168365836143494, -0.1287420243024826, 0.13322432339191437, -0.030928997322916985, -0.09309977293014526], [-0.03226872906088829, 0.25331762433052063, 0.18511822819709778, 0.010496976785361767, -0.08051900565624237, -0.1397911012172699, 0.16308481991291046, 0.30136507749557495, -0.061111096292734146, -0.18021951615810394, 0.20817431807518005, 0.12832412123680115, 0.04703640565276146, 0.07423308491706848, -0.03696587681770325, 0.1813686490058899, 0.16848160326480865, 0.3530808389186859, 0.008339698426425457, -0.16183970868587494, 0.15009920299053192, 0.13093756139278412, -0.08715812116861343, 0.264692485332489, 0.10998568683862686, -0.05059731751680374, 0.20934458076953888, -0.13455525040626526], [-0.20493678748607635, 0.06205671653151512, 0.013504931703209877, 0.12365356832742691, 0.07481023669242859, 0.045975081622600555, -0.07058550417423248, -0.15635593235492706, -0.0013321354053914547, -0.12787769734859467, -0.14723066985607147, 0.050668708980083466, 0.0009578116587363183, 0.009797894395887852, 0.01395609974861145, 0.0862063392996788, 0.12127652764320374, 0.15066146850585938, 0.35879504680633545, 0.012802177108824253, 0.24633990228176117, -0.0201830193400383, 0.4308607280254364, -0.023444944992661476, 0.02250911109149456, 0.0006363916327245533, 1.0811662673950195, -0.23679320514202118], [-0.0722000002861023, 0.03392742574214935, 0.30649933218955994, -0.6212848424911499, 0.052898310124874115, -0.14655351638793945, 0.06837431341409683, -0.34958213567733765, 0.14927591383457184, -0.010165427811443806, -0.019773367792367935, 0.016263844445347786, -0.002943621017038822, -0.09956452995538712, -0.03970837965607643, 0.1342010349035263, -0.12599210441112518, 0.10641176253557205, 0.2049475908279419, 0.04537171870470047, -0.08840559422969818, 0.1748446375131607, -0.2679135203361511, -0.056470826268196106, -0.07780850678682327, 0.0010592570761218667, -0.10395801067352295, 0.051386818289756775], [0.3260073959827423, 0.013762801885604858, -0.2542467415332794, -0.11820170283317566, 0.19227799773216248, 0.020448585972189903, -0.0412934273481369, -0.1953868567943573, 0.23406249284744263, -0.08001303672790527, 0.06121998280286789, -0.10422416776418686, 0.19426900148391724, 0.02924560382962227, 0.11568370461463928, -0.04125849902629852, -0.021957211196422577, -0.010373985394835472, 0.21520234644412994, 0.12802430987358093, -0.2231854349374771, 0.008318791165947914, 0.3908483684062958, -0.06189609691500664, 0.18041589856147766, 0.15120254456996918, -0.3792727589607239, 0.14430196583271027], [0.1831616908311844, 0.046684715896844864, 0.13400030136108398, -0.8657912611961365, 0.18876445293426514, -0.3481423556804657, -0.12803404033184052, -0.17262057960033417, 0.18992896378040314, 0.008924099616706371, 0.08598197996616364, -0.36163610219955444, 0.07694105803966522, -0.057581089437007904, 0.1357809603214264, -0.015512979589402676, -0.04669411480426788, -0.14877921342849731, 0.20168010890483856, -0.17075014114379883, 0.13326972723007202, -0.2752726078033447, -0.09438525140285492, 0.04534243047237396, 0.21409781277179718, -0.03019728697836399, 0.09057455509901047, 0.11066608130931854], [-0.12605111300945282, -0.060208626091480255, 0.23452715575695038, -0.03782094642519951, 0.22865787148475647, -0.15008731186389923, 0.32534950971603394, -0.07375927269458771, 0.12085134536027908, 0.0014805294340476394, 0.274912029504776, -0.5152949094772339, 0.007356644608080387, -0.09635865688323975, 0.09064189344644547, -0.17378556728363037, -0.17379212379455566, -0.16940751671791077, 0.06612119823694229, 0.05871939659118652, -0.03399774059653282, 0.05806337669491768, -0.28339576721191406, 0.017108019441366196, 0.06695136427879333, 0.09663619846105576, 0.12302353978157043, -0.10089999437332153], [0.24992339313030243, 0.1528642177581787, -0.31439918279647827, -0.181395024061203, -0.11752878874540329, -0.04823530092835426, -0.11544562876224518, -0.08893261849880219, 0.08457498252391815, -0.05496293678879738, -0.08000656962394714, 0.20569001138210297, 0.17738910019397736, 0.0708860382437706, -0.08780881017446518, 0.15331268310546875, 0.22580647468566895, -0.3809417188167572, -0.07357119768857956, -0.19044776260852814, 0.14109386503696442, 0.005226979497820139, -0.09610128402709961, 0.012603466399013996, -0.06411553919315338, 0.030225254595279694, -0.2535233497619629, -0.2635585367679596], [-0.06475555896759033, -0.5929405093193054, 0.10601700842380524, 0.13154463469982147, 0.056082699447870255, -0.07335631549358368, -0.03862358257174492, -0.09622088819742203, 0.023202473297715187, -0.02252139523625374, 0.19420115649700165, -0.019124453887343407, -0.0859219878911972, 0.23024432361125946, -0.0884673148393631, 0.1061762198805809, -0.11465691030025482, -0.3276050090789795, -0.22602757811546326, 0.014377840794622898, 0.08989392966032028, -0.0795823410153389, -0.053191520273685455, -0.13107845187187195, 0.3166007101535797, -0.053305670619010925, 0.09786155819892883, -0.39392536878585815], [0.003157690167427063, 0.07087616622447968, 0.14127777516841888, -0.33527451753616333, -0.044184211641550064, -0.22483791410923004, -0.10806611180305481, 0.07183115184307098, -0.12051963806152344, 0.0958268940448761, 0.3031027019023895, 0.12206193804740906, 0.05688469856977463, 0.08472225069999695, 0.10779165476560593, -0.13185453414916992, 0.15804961323738098, 0.3055109977722168, -0.038639482110738754, 0.011550944298505783, -0.09532860666513443, -0.023640938103199005, -0.18174397945404053, -0.25411659479141235, -0.03453552722930908, 0.01607644557952881, -0.083484947681427, 0.4631460905075073], [0.02038966678082943, 0.08096524327993393, 0.3077322244644165, 0.006349243689328432, 0.13291040062904358, -0.10261393338441849, 0.029475810006260872, 0.21264471113681793, 0.14261505007743835, -0.03271016851067543, -0.06109732389450073, 0.1630580723285675, -0.09662408381700516, -0.03426235169172287, 0.0851910263299942, 0.11157525330781937, -0.0646013393998146, -0.22211508452892303, 0.3216085135936737, 0.20756497979164124, 0.16132599115371704, 0.006830280646681786, 0.26370009779930115, 0.18934936821460724, 0.14365734159946442, 0.02097298391163349, 0.2542930245399475, 0.22998185455799103], [-0.33223655819892883, 0.16444922983646393, 0.09522493183612823, -0.06457231193780899, -0.01770230010151863, -0.341256707906723, -0.19777043163776398, -0.219552144408226, 0.1257382035255432, -0.0385277159512043, -0.030686980113387108, 0.0056831431575119495, -0.1101711168885231, -0.08624950796365738, 0.167164608836174, 0.10573679208755493, -0.22316965460777283, 0.2188510000705719, 0.10505487024784088, -0.005787905305624008, 0.052962955087423325, -0.035930633544921875, 0.09681934118270874, -0.11915438622236252, 0.16752775013446808, -0.03176572546362877, -0.2747936248779297, 0.4304787218570709], [-0.14964230358600616, 0.17633046209812164, 0.05424926057457924, -0.11606364697217941, -0.04245896264910698, 0.088839590549469, 0.2527231276035309, -0.021102845668792725, -0.16092543303966522, 0.11744463443756104, 0.1993303894996643, -0.04901259392499924, -0.08943144977092743, -0.07032716274261475, -0.056496985256671906, -0.08568477630615234, 0.03324021026492119, -0.1049799695611, 0.2084311693906784, -0.3112356662750244, 0.14722007513046265, -0.03114866092801094, 0.19511321187019348, -0.27452993392944336, 0.05886473134160042, -0.0032411750871688128, 0.41445863246917725, -0.17041926085948944], [0.013290136121213436, -0.12480412423610687, -0.004336116835474968, 0.278798371553421, 0.19147373735904694, -0.06287770718336105, 0.08764946460723877, -0.036798909306526184, 0.19843009114265442, 0.003905236255377531, -0.13296668231487274, -0.07743769139051437, -0.12908299267292023, 0.035409778356552124, 0.19859029352664948, -0.038293350487947464, 0.2659027874469757, -0.18058720231056213, -0.08538474887609482, -0.01585407182574272, 0.2725844979286194, 0.16629773378372192, 0.15029190480709076, 0.03870963305234909, -0.06505988538265228, -0.0794186219573021, -0.418163001537323, 0.6365907788276672], [-0.00592187512665987, -0.697559654712677, -0.02384445071220398, 0.15886180102825165, -0.01611703634262085, -0.035675860941410065, -0.6982471942901611, -0.753744900226593, 0.006395264528691769, 0.2197321057319641, 0.07543346285820007, -0.08625613152980804, -0.1254536360502243, 0.13771739602088928, 0.05884723737835884, 0.17002396285533905, 0.12381656467914581, -0.22459274530410767, -0.12975482642650604, -0.08219946175813675, 0.0010649166069924831, -0.07491467893123627, -0.16656488180160522, -0.11806188523769379, 0.1759428083896637, -0.11470839381217957, -0.04254371300339699, -0.12582720816135406], [-0.13872642815113068, 0.11777175217866898, 0.23314839601516724, -0.055308740586042404, -0.06399528682231903, -0.004418686497956514, -0.14108765125274658, 0.06300494074821472, 0.22995179891586304, 0.042477622628211975, -0.07987775653600693, 0.11411438882350922, 0.060885656625032425, -0.0011019021039828658, -0.03718864917755127, -0.11812198162078857, 0.0827074870467186, -0.4413719177246094, -0.1459842324256897, 0.32848435640335083, -0.03912385553121567, 0.021015381440520287, -0.1425488442182541, 0.04087836667895317, 0.11631796509027481, -0.017538201063871384, -0.32380279898643494, 0.6891997456550598], [0.041204143315553665, -0.006397401914000511, -0.023396706208586693, 0.05996035411953926, 0.05920769274234772, 0.11287242919206619, -0.021040206775069237, -0.06724290549755096, -0.05538846552371979, -0.22095482051372528, 0.10035105794668198, 0.0008843389223329723, 0.16356687247753143, -0.029741717502474785, -0.12575578689575195, -0.12619440257549286, -0.2939034402370453, 0.3027506172657013, -0.09858662635087967, 0.14338615536689758, 0.05632183328270912, 0.13720978796482086, 0.1617659032344818, -0.10947349667549133, 0.07137667387723923, -0.03267334774136543, -0.01362842507660389, 0.7070581912994385], [-0.8434898257255554, 0.05552714690566063, -0.03639896959066391, -0.03369327634572983, -0.642396092414856, -0.6293187141418457, -0.07962829619646072, 0.1903025209903717, -0.0448979027569294, -0.19062413275241852, -0.0736391693353653, 0.1546015441417694, -0.023003067821264267, 0.18311241269111633, 0.06945336610078812, 0.11922964453697205, -0.16311010718345642, -0.05698425695300102, -0.058067094534635544, -0.030141029506921768, -0.18569329380989075, -0.27170053124427795, 0.026749711483716965, 0.2067723423242569, 0.021431799978017807, 0.13134139776229858, -0.02222149260342121, 0.16104483604431152], [0.0059570251032710075, -0.10386615991592407, -0.1265912503004074, 0.14436474442481995, -0.005637563765048981, -0.033701341599226, 0.019202474504709244, 0.012338289059698582, -0.13142338395118713, 0.05381941795349121, -0.2901797890663147, 0.023704636842012405, 0.13731347024440765, 0.00051939144032076, -0.0032381678465753794, -0.26531749963760376, 0.0894635021686554, -0.1962192952632904, 0.28676125407218933, 0.06084394454956055, 0.18177051842212677, -0.007374668028205633, -0.20161373913288116, -0.2977140247821808, -0.1299068033695221, -0.03473843261599541, 0.12581001222133636, 0.019051818177103996], [-0.09863864630460739, 0.002454028930515051, 0.1351022720336914, -0.11466825753450394, 0.08820107579231262, -0.10520666092634201, 0.053721699863672256, -0.40976497530937195, -0.07598903030157089, -0.026164233684539795, 0.1757737398147583, 0.12502893805503845, 0.14304682612419128, 0.04371793940663338, -0.06996820122003555, 0.09148456156253815, 0.12198042869567871, 0.131332129240036, -0.579261302947998, -0.03725491464138031, -0.0007697346154600382, -0.04008549079298973, -0.027487177401781082, 0.15744942426681519, 0.24347488582134247, 0.028407404199242592, 0.6916008591651917, -0.07947085052728653], [-0.7014482617378235, -0.2395942062139511, 0.14855791628360748, 0.19764332473278046, -0.5901907682418823, -0.2447633594274521, -0.008686549961566925, 0.17270919680595398, -0.07668700814247131, -0.10267336666584015, -0.08631201088428497, 0.14852896332740784, -0.08466216921806335, 0.26205718517303467, -0.059877943247556686, 0.03200192749500275, 0.11702883988618851, 0.1382938027381897, -0.06816673278808594, -0.014844818972051144, -0.07547686249017715, -0.24955244362354279, -0.09141070395708084, -0.1381876915693283, 0.005380844231694937, 0.04207900911569595, 0.06389472633600235, 0.09102517366409302], [-0.06268414109945297, -0.7855855822563171, 0.06656420975923538, 0.04734319821000099, 0.13698524236679077, 0.08487523347139359, -0.6164608001708984, -0.7167503833770752, 0.009249956347048283, 0.18796294927597046, -0.051264017820358276, -0.13589760661125183, -0.03885346278548241, 0.0354202538728714, 0.034689318388700485, -0.11317171156406403, -0.02483314648270607, -0.11878791451454163, 0.05424549803137779, 0.17051446437835693, 0.04870770499110222, -0.07722903788089752, -0.20653323829174042, -0.09916017204523087, 0.15845806896686554, 0.02937343902885914, -0.021508537232875824, 0.032349515706300735], [-0.5568350553512573, 0.06293262541294098, 0.10498721152544022, 0.06287199258804321, -0.28127557039260864, -0.23384776711463928, 0.08318783342838287, 0.17008286714553833, 0.20461416244506836, -0.06918076425790787, -0.032961271703243256, 0.018341785296797752, -0.018203353509306908, -0.021570058539509773, 0.012639181688427925, -0.05961856618523598, 0.3004239499568939, 0.4096803069114685, 0.06793845444917679, -0.048865146934986115, -0.09228586405515671, -0.11314549297094345, -0.2696034014225006, -0.1339058130979538, -0.011694531887769699, -0.024331703782081604, -0.01601484976708889, -0.09100788831710815], [0.164042130112648, 0.2004491239786148, 0.0766592025756836, -0.10931294411420822, 0.03329892084002495, 0.21036890149116516, 0.1616514027118683, 0.13941609859466553, 0.11203373223543167, -0.05743701756000519, -0.17937426269054413, -0.09692229330539703, 0.051994748413562775, 0.012164250016212463, 0.12459263205528259, -0.004755457863211632, 0.2651247978210449, -0.1871665120124817, 0.1756550371646881, -0.28787940740585327, 0.03703679144382477, 0.12451687455177307, 0.1090654581785202, 0.24366791546344757, -0.007426601368933916, -0.14464028179645538, -0.4401654005050659, -0.20178738236427307], [-0.03516662120819092, 0.07000644505023956, -0.021355371922254562, -0.25345638394355774, 0.2292759120464325, -0.6663937568664551, 0.25232431292533875, -0.22297550737857819, 0.09166570007801056, -0.2248276323080063, 0.10855629295110703, 0.2292538583278656, -0.09479361772537231, 0.10087735950946808, 0.09064178913831711, 0.0026544274296611547, 0.11087849736213684, 0.11529655009508133, 0.07620704174041748, -0.33950120210647583, -0.13855582475662231, -0.14745374023914337, -0.005819626152515411, 0.14189940690994263, 0.2215927243232727, 0.04445473477244377, -0.1320618838071823, 0.05599205568432808], [-0.06501507014036179, -0.015593182295560837, -0.612122654914856, -0.5770998597145081, 0.20218145847320557, -0.44665637612342834, -0.03024408407509327, -0.2710348963737488, 0.057119522243738174, 0.2539527118206024, -0.17178384959697723, 0.026730159297585487, -0.12156183272600174, -0.0801764726638794, -0.00858216267079115, 0.02471357211470604, -0.16852903366088867, 0.040899842977523804, -0.04978606849908829, -0.22276671230793, 0.14975424110889435, -0.26966482400894165, -0.09611237049102783, -0.17979082465171814, 0.1280890554189682, 0.05133114010095596, -0.052490487694740295, 0.05051109939813614], [0.07638049125671387, 0.12906353175640106, -0.10790374875068665, -0.7439787983894348, 0.009369121864438057, -0.20156420767307281, -0.06955443322658539, -0.22420014441013336, -0.004437858238816261, 0.032175567001104355, 0.06873215734958649, -0.024877313524484634, -0.02629688009619713, 0.15520545840263367, -0.003681132337078452, 0.03168049827218056, -0.22571991384029388, 0.17627452313899994, 0.2746370732784271, -0.014562851749360561, -0.01235236693173647, -0.04744651913642883, -0.2739645540714264, -0.01690213941037655, 0.019093208014965057, 0.014575332403182983, 0.5039148330688477, 0.1003941223025322], [-0.013690749183297157, 0.09379076957702637, -0.1776047796010971, 0.38494130969047546, 0.033427346497774124, 0.022591086104512215, -0.0799962654709816, 0.2544516623020172, 0.15282456576824188, -0.037598948925733566, -0.05737448111176491, -0.003413815749809146, 0.04396366700530052, -0.0223428662866354, 0.11493655294179916, -0.19337934255599976, -0.0024692360311746597, -0.518060564994812, 0.22973093390464783, 0.042727138847112656, 0.16667501628398895, 0.21108406782150269, -0.07164112478494644, -0.32038283348083496, 0.02086120843887329, -0.030645271763205528, -0.8386183977127075, -0.7718595862388611], [0.10373180359601974, 0.21373526751995087, -0.9560085535049438, -0.1360843926668167, -0.18824763596057892, 0.13490654528141022, -0.16303668916225433, 0.1747307926416397, -0.03262525051832199, 0.11607684195041656, -0.2379365861415863, 0.018179453909397125, 0.1473030149936676, -0.023541182279586792, -0.11342929303646088, 0.05145864188671112, -0.014604981988668442, 0.14269433915615082, -0.4280560314655304, 0.03745627775788307, -0.38768112659454346, 0.037821535021066666, -0.27156466245651245, -0.21391062438488007, 0.2419404536485672, 0.039734020829200745, 0.12199029326438904, 0.11474068462848663], [0.004336480982601643, -0.007183201611042023, 0.029356367886066437, 0.14898039400577545, 0.14422549307346344, -0.010460799559950829, -0.008953268639743328, -0.007451081648468971, -0.012136600911617279, -0.0017787207616493106, -0.032750874757766724, 0.1867845356464386, -0.02256223000586033, -0.012759126722812653, 0.018693730235099792, -0.0085053825750947, -0.021974874660372734, 0.04833967611193657, -0.10914036631584167, -0.3632332682609558, -0.06402094662189484, 0.006591145880520344, 0.07740780711174011, 0.006433006376028061, -0.033787425607442856, -0.0463387556374073, 0.7199621796607971, -0.18691875040531158], [-0.04393007606267929, -0.28211912512779236, 0.03414482623338699, -0.08196064829826355, 0.03794444724917412, 0.11595079302787781, -0.2470405101776123, -0.44736921787261963, -0.05041046813130379, 0.09115244448184967, -0.12204491347074509, -0.019985197111964226, -0.009027705527842045, -0.05021640658378601, 0.04240593686699867, 0.037091728299856186, 0.002874752040952444, 0.5175369381904602, 0.04964029788970947, -0.004106669221073389, 0.09553975611925125, 0.03947760537266731, 0.24737964570522308, 0.2739749252796173, -0.06461483985185623, 0.005217716563493013, -0.00546906515955925, -0.5046072602272034], [0.13367483019828796, -0.1877293437719345, 0.044261351227760315, -0.25156038999557495, 0.03936308994889259, 0.056467436254024506, -0.014410599134862423, 0.10557703673839569, 0.2453663945198059, -0.04537048563361168, 0.15236184000968933, 0.24227453768253326, -0.15503641963005066, -0.10063217580318451, 0.11741819977760315, 0.08328112214803696, -0.27430203557014465, -0.08441707491874695, -0.26005199551582336, -0.17790627479553223, -0.055564794689416885, 0.14725396037101746, -0.11639247089624405, -0.23066532611846924, 0.23520931601524353, 0.03699197247624397, 0.2642950713634491, 0.3068487346172333], [-0.3713580071926117, 0.11134035885334015, 0.10089641064405441, 0.18775758147239685, 0.014801885932683945, -0.08457844704389572, -0.010529900901019573, -0.1813592165708542, -0.14567194879055023, -0.07073507457971573, 0.22087165713310242, 0.11101124435663223, 0.09620682895183563, 0.19480931758880615, -0.08786046504974365, -0.01767023093998432, -0.2847987413406372, 0.08876382559537888, 0.31918570399284363, -0.09077367186546326, 0.010690029710531235, -0.0004140427045058459, 0.33553990721702576, -0.08887317776679993, 0.21609726548194885, 0.0737689733505249, 0.3489904999732971, -0.10527820140123367], [0.22256864607334137, -0.00012619821063708514, -0.016563881188631058, -0.06478656083345413, 0.015945423394441605, -0.009380282834172249, 0.04937515780329704, -0.029212933033704758, -0.01668688841164112, -0.06304934620857239, 0.0021756859496235847, 0.06516794860363007, -0.0050112525932490826, 0.03082015924155712, -0.011727425269782543, 0.045621082186698914, -0.20562662184238434, 0.14230847358703613, 0.07091454416513443, 0.24933147430419922, -0.00399089464917779, -0.19202326238155365, 0.19194935262203217, 0.041015081107616425, 0.1246878132224083, 0.014531836844980717, -0.6007347702980042, 1.3705588579177856], [-0.05481226369738579, 0.10887252539396286, 0.08466075360774994, 0.1803966462612152, -0.091462641954422, -0.009635712020099163, 0.21904924511909485, -0.18629595637321472, 0.23922140896320343, 0.14779087901115417, -0.13482874631881714, -0.1655157059431076, -0.03969936445355415, -0.07613861560821533, -0.016621693968772888, 0.03763948380947113, -0.2532729208469391, 0.1634245663881302, -0.4558941721916199, 0.050533369183540344, 0.03307867795228958, -0.12823888659477234, -0.04937101900577545, 0.09352569282054901, -0.11356505751609802, -0.06669043749570847, 0.6263421177864075, 0.4819098114967346], [0.34942203760147095, -0.1787830889225006, 0.0438823364675045, 0.24892698228359222, 0.10135538130998611, 0.3896121382713318, -0.042394742369651794, 0.08306625485420227, -0.10478810220956802, 0.0017064821440726519, -0.17527376115322113, 0.04946412518620491, 0.14890673756599426, -0.12411132454872131, -0.00615798681974411, 0.03446069359779358, -0.11205948889255524, -0.26771578192710876, 0.30688777565956116, -0.005704542156308889, 0.31079649925231934, -0.0020198659040033817, 0.0659090057015419, 0.08022435754537582, -0.2033957988023758, 0.1959935575723648, 0.4197671711444855, -0.41611915826797485], [0.34857121109962463, 0.2289646714925766, 0.2367035150527954, 0.008655497804284096, 0.01511394139379263, -0.004507435951381922, 0.09815143048763275, 0.2620598077774048, -0.12686491012573242, -0.09673953056335449, 0.12895219027996063, 0.09843108057975769, -0.08143306523561478, 0.023422548547387123, 0.2480574995279312, 0.015967514365911484, 0.20630444586277008, 0.3270755112171173, -0.16899177432060242, 0.10307443886995316, -0.15036216378211975, -0.08594963699579239, 0.021400416269898415, 0.3044406771659851, 0.21242204308509827, 0.03138274326920509, 0.21896204352378845, 0.16054952144622803], [0.080511175096035, -0.8232004046440125, 0.05891037359833717, -0.08236270397901535, 0.10015470534563065, 0.16146011650562286, -0.6124569177627563, -0.7495847940444946, -0.0510697104036808, 0.11829754710197449, -0.05916363745927811, 0.11815077066421509, 0.022113081067800522, -0.0945751890540123, 0.00028940069023519754, 0.20449526607990265, 0.08905330300331116, -0.23723934590816498, 0.02246532402932644, -0.010356444865465164, 0.050857704132795334, 0.09097123146057129, -0.17409934103488922, -0.08704249560832977, -0.20488619804382324, -0.03185542672872543, 0.009386543184518814, -0.13228242099285126], [-0.03919259086251259, -0.1851215660572052, -0.13366524875164032, -0.01560054998844862, 0.03804178908467293, 0.050553079694509506, -0.04703064262866974, -0.35078057646751404, -0.0240122452378273, -0.05427246913313866, -0.10124790668487549, 0.03999479487538338, 0.044632092118263245, 0.03621293976902962, 0.16255462169647217, 0.14263571798801422, 0.10492794215679169, 0.21016430854797363, 0.20532722771167755, -0.30625078082084656, -0.28610551357269287, -0.07208966463804245, -0.10862173140048981, -0.166300430893898, 0.002661182777956128, 0.14294660091400146, -0.42700326442718506, -0.2460230439901352], [-0.25186964869499207, 0.060725558549165726, 0.09351325780153275, 0.035869989544153214, -0.19925810396671295, -0.060703787952661514, 0.22902008891105652, 0.2612551152706146, 0.06057891622185707, 0.07725056260824203, 0.2343847155570984, 0.11938115954399109, 0.09385383874177933, 0.11120915412902832, -0.12336373329162598, -0.0627894327044487, -0.2271115928888321, -0.15482667088508606, -0.19166743755340576, -0.10134430229663849, -0.23246309161186218, -0.04967108741402626, -0.15162666141986847, -0.04614632576704025, 0.14464165270328522, 0.22826465964317322, 0.03819983825087547, 0.09454726427793503], [0.02891753427684307, 0.217195063829422, 0.18005651235580444, -0.19910380244255066, 0.0014495570212602615, 0.16069994866847992, 0.030636992305517197, 0.25150805711746216, 0.15960603952407837, -0.1166081503033638, 0.20627909898757935, 0.13798987865447998, -0.05190666392445564, 0.025726553052663803, -0.006660632789134979, 0.08611495047807693, 0.21096977591514587, 0.057262130081653595, 0.08345785737037659, 0.2731303870677948, -0.12064529955387115, -0.11243638396263123, 0.17698471248149872, 0.31627145409584045, 0.15016815066337585, -0.07430251687765121, 0.03736407309770584, -0.2694464325904846], [0.24488770961761475, -0.7579828500747681, 0.2528563439846039, 0.11124821752309799, 0.1114865243434906, 0.23660211265087128, -0.7205799221992493, -0.5216585397720337, -0.05272017791867256, 0.1742367446422577, -0.08848361670970917, 0.1573987752199173, 0.08450404554605484, -0.053541265428066254, 0.03800645098090172, -0.07111337035894394, 0.04386131465435028, -0.1829981952905655, -0.012724637985229492, -0.07087460160255432, 0.16548147797584534, -0.028234822675585747, -0.356416255235672, -0.16414104402065277, 0.102345772087574, 0.043827734887599945, 0.05094952508807182, 0.09246852993965149], [0.1577640175819397, -0.6129117012023926, 0.10333120822906494, 0.0920196995139122, 0.09034934639930725, -0.04422462359070778, -0.20280517637729645, -0.20500004291534424, -0.0242718867957592, 0.011040342040359974, 0.09625057131052017, -0.046848051249980927, 0.022883152589201927, -0.07421915978193283, -0.03903200849890709, 0.09522336721420288, -0.3199196755886078, 0.13391628861427307, -0.234466090798378, 0.041201721876859665, -0.14498136937618256, 0.10196182876825333, 0.1328883171081543, 0.05359268933534622, -0.0460166335105896, -0.028643323108553886, 0.031178796663880348, 0.48722514510154724], [-0.2022678405046463, 0.1880301833152771, -0.2051849663257599, 0.061685480177402496, -0.04165882617235184, -0.2113446593284607, -0.15295542776584625, 0.045054394751787186, -0.04228376969695091, 0.07742324471473694, -0.072685606777668, 0.10154794901609421, 0.07697814702987671, -0.142877995967865, 0.08800826966762543, 0.11371143162250519, -0.006038699299097061, 0.28709009289741516, -0.021978218108415604, 0.32027631998062134, 0.10819382220506668, -0.2304311841726303, 0.06404805928468704, 0.28454023599624634, 0.031539272516965866, 0.2189062237739563, -0.3826292157173157, -0.22995081543922424], [-0.0012080413289368153, 0.358701229095459, 0.29117485880851746, -0.13792845606803894, 0.007554610259830952, 0.17023256421089172, 0.2841201424598694, 0.23198771476745605, -0.14188137650489807, 0.1366916447877884, -0.03321428596973419, -0.08845624327659607, -0.12046246975660324, 0.12538740038871765, -0.0753951445221901, -0.03623237460851669, -0.2451362907886505, 0.03434620052576065, 0.18502920866012573, 0.019285013899207115, 0.19220222532749176, -0.12620680034160614, 0.14872431755065918, -0.04775288701057434, 0.09769632667303085, 0.14770978689193726, -0.16946567595005035, -0.11744845658540726], [-0.11848871409893036, 0.17507079243659973, 0.09741392731666565, 0.1542028784751892, 0.04777664691209793, 0.09116077423095703, 0.22262808680534363, 0.06462541222572327, 0.0685458853840828, -0.08599207550287247, 0.19314415752887726, 0.11071455478668213, 0.09442859143018723, 0.12948429584503174, 0.12851160764694214, 0.046183835715055466, -0.24374084174633026, 0.39168447256088257, -0.043589625507593155, -0.2468084841966629, 0.07440026849508286, -0.139652818441391, -0.21718068420886993, -0.2890387773513794, 0.10569802671670914, -0.06289608031511307, 0.018491430208086967, 0.16249731183052063], [-0.044865839183330536, -0.22623880207538605, 0.07088849693536758, 0.5736902356147766, -0.062099482864141464, 0.25534483790397644, -0.1617266684770584, 0.1610400229692459, -0.32105129957199097, 0.19459298253059387, 0.08067011833190918, 0.13067731261253357, -0.01305411010980606, -0.16308088600635529, 0.037637677043676376, 0.0800430104136467, -0.422159343957901, 0.1814020872116089, -0.13263937830924988, 0.06380249559879303, -0.3485950827598572, -0.1066032275557518, -0.4045257270336151, 0.13097873330116272, -0.09412804991006851, -0.32403603196144104, -0.16815496981143951, 0.08833208680152893], [0.07211871445178986, 0.026631498709321022, 0.1944064199924469, -0.7046147584915161, 0.0001586060388945043, -0.44492238759994507, 0.048208314925432205, -0.4997006356716156, -0.043744515627622604, -0.05114949122071266, -0.17110343277454376, 0.155588760972023, 0.0908622145652771, -0.08494068682193756, 0.06483609974384308, -0.14890098571777344, -0.009258328936994076, 0.16249734163284302, -0.08370652049779892, -0.18118472397327423, -0.043658383190631866, -0.047416090965270996, -0.0648304671049118, -0.11577014625072479, 0.2669913172721863, 0.04426649212837219, -0.06360086798667908, -0.02026299387216568], [0.13390566408634186, 0.0940241739153862, -0.29176053404808044, 0.1690029501914978, -0.11868146061897278, 0.2239198088645935, 0.09141850471496582, 0.14205405116081238, 0.03180037438869476, -0.07301415503025055, 0.1622924506664276, 0.0993921309709549, 0.1803571879863739, 0.021218067035079002, -0.015453855507075787, 0.02760319411754608, -0.019807063043117523, -0.13213375210762024, 0.07509009540081024, 0.17750464379787445, -0.047569651156663895, -0.29574891924858093, 0.1697062999010086, -0.13088248670101166, -0.06547140330076218, 0.04530246555805206, -0.38765016198158264, 0.5060408115386963], [0.16958269476890564, -0.0163364689797163, -0.04792140796780586, 0.08917350322008133, 0.2083657830953598, 0.023056497797369957, 0.21192486584186554, 0.13366268575191498, -0.06641439348459244, -0.006283365655690432, 0.1609470546245575, -0.06911873072385788, -0.11751921474933624, -0.023182110860943794, 0.017489558085799217, -0.12256327271461487, -0.133479505777359, -0.03304174542427063, -0.039117276668548584, -0.07918041944503784, 0.17566828429698944, -0.14516913890838623, -0.07260728627443314, -0.036739327013492584, 0.1138714849948883, 0.0838482528924942, 0.30932003259658813, -0.47959962487220764], [0.20111438632011414, -0.09422536939382553, -0.04640739783644676, -0.2736071050167084, 0.08238358050584793, -0.21111571788787842, 0.06301651895046234, -0.5434072017669678, 0.12858828902244568, -0.2559128403663635, -0.2796688973903656, 0.20784950256347656, 0.08800052106380463, 0.22553806006908417, -0.074021115899086, -0.1864345669746399, -0.08533079922199249, 0.030896160751581192, -0.33942073583602905, -0.47973158955574036, -0.0687842145562172, 0.029069097712635994, -0.09531135112047195, 0.07236339896917343, -0.015549522824585438, -0.020946435630321503, 0.3367792069911957, -0.0925251767039299], [-0.6240431070327759, -0.4017435610294342, -0.273180216550827, -0.027247987687587738, 0.0045784031972289085, 0.0754825621843338, 0.05262099951505661, 0.07882226258516312, -0.3308239281177521, -0.21258662641048431, -0.17177511751651764, 0.12814117968082428, -0.17259956896305084, -0.1715095490217209, 0.02552924118936062, -0.06723152846097946, -0.03147364407777786, -0.19993188977241516, 0.11397134512662888, -0.018246669322252274, -0.11969613283872604, -0.061448343098163605, -0.01376450713723898, 0.1514640599489212, 0.28520843386650085, 0.1605118364095688, 0.04381785914301872, -0.06363246589899063], [0.06267783045768738, 0.028983701020479202, 0.12658445537090302, 0.3065284788608551, 0.27129414677619934, 0.05767889693379402, 0.2374090552330017, 0.2965419292449951, 0.028380345553159714, 0.2311098724603653, 0.016731388866901398, 0.021203991025686264, 0.1102132648229599, -0.06943469494581223, -0.06665141880512238, 0.0688144788146019, -0.0726746916770935, -0.14438223838806152, -0.24379834532737732, -0.20284248888492584, 0.024932442232966423, -0.10612927377223969, -0.12518194317817688, -0.1742076724767685, -0.004234474617987871, 0.047217629849910736, -0.0253722183406353, 0.12850546836853027], [0.1116781011223793, 0.02839307114481926, -0.16120165586471558, -0.6511586904525757, 0.008841016329824924, -0.269462525844574, 0.28529688715934753, -0.3899945318698883, 0.00035425371606834233, 0.12336892634630203, -0.09593168646097183, 0.2812361419200897, -0.030339473858475685, 0.03200273588299751, -0.12810543179512024, 0.05991002544760704, -0.060758523643016815, -0.10153162479400635, 0.006751746870577335, 0.3171592950820923, -0.1475871503353119, -0.294385701417923, 0.041614897549152374, -0.087798573076725, -0.14665080606937408, -0.10595349222421646, 0.07818522304296494, -0.10833662003278732], [0.17031991481781006, -0.4362470805644989, 0.037391770631074905, -0.11968861520290375, 0.07014156877994537, -0.20684470236301422, -0.03074510768055916, -0.013840030878782272, 0.08774838596582413, 0.16936734318733215, -0.10563071817159653, 0.11343050748109818, 0.12899380922317505, 0.12711043655872345, 0.08324672281742096, -0.007549149449914694, 0.056107159703969955, -0.0011649586958810687, -0.21855609118938446, 0.027343031018972397, -0.10656700283288956, 0.031979892402887344, -0.20478351414203644, -0.06644851714372635, 0.14036774635314941, -0.09330546855926514, 0.5737993717193604, -0.10496562719345093], [0.07334083318710327, -0.5738816857337952, 0.14838558435440063, 0.05074727535247803, 0.01925782859325409, 0.12197700887918472, -0.2835685610771179, -0.008149594999849796, -0.05090220272541046, -0.09651119261980057, 0.12749704718589783, -0.07721386849880219, 0.08887083828449249, 0.08823351562023163, 0.15056374669075012, -0.03902395814657211, 0.3791709840297699, -0.010536246001720428, -0.09460204839706421, -0.01210766565054655, -0.0369834378361702, -0.30975621938705444, 0.03334788978099823, -0.05588920786976814, 0.13112778961658478, 0.00840173289179802, -0.3223981559276581, -0.15153051912784576], [0.3804951310157776, -0.14964547753334045, -0.13512808084487915, 0.09789246320724487, 0.30595555901527405, -0.00377467880025506, 0.19361460208892822, -0.03307719901204109, 0.17578260600566864, 0.13853850960731506, 0.026323402300477028, 0.043634507805109024, -0.2115844488143921, 0.10637294501066208, -0.0920846164226532, -0.07160543650388718, 0.05103607103228569, 0.2544702887535095, -0.13967928290367126, 0.03390116989612579, 0.008393670432269573, 0.08105748146772385, -0.15884709358215332, 0.09977380931377411, 0.15394672751426697, 0.010454793460667133, -0.3510034680366516, -0.2501473128795624], [0.12685197591781616, -0.49968692660331726, 0.108162060379982, -0.08080696314573288, -0.11485199630260468, -0.14301937818527222, -0.13405641913414001, -0.2487964630126953, -0.032495658844709396, -0.03903982415795326, 0.06421281397342682, 0.16054078936576843, 0.1634027063846588, 0.05878724157810211, 0.0254767257720232, 0.061179064214229584, 0.10793285071849823, 0.33491766452789307, 0.11004839092493057, 0.02502482384443283, 0.034134641289711, -0.030376387760043144, 0.08338655531406403, -0.23044833540916443, 0.030537104234099388, -0.007560587953776121, 0.009827079251408577, -0.4897598326206207], [0.012539778836071491, 0.0765378326177597, 0.16314727067947388, -0.5131946206092834, 0.014795397408306599, -0.37534719705581665, 0.16972383856773376, -0.22071951627731323, -0.046871934086084366, -0.1486794650554657, -0.051885273307561874, 0.14290879666805267, -0.007253676652908325, 0.10570887476205826, -0.05003953352570534, 0.03584890067577362, 0.08660462498664856, 0.2030017375946045, 0.3592183589935303, 0.11591171473264694, 0.050466250628232956, -0.2128305286169052, 0.07714424282312393, -0.22447645664215088, -0.1691405326128006, -0.006444805767387152, -0.09875697642564774, -0.1266264021396637], [0.04072341322898865, -0.28009897470474243, -0.08779949694871902, -0.283873587846756, -0.24029751121997833, -0.025340991094708443, 0.1062650978565216, 0.08535263687372208, 0.20999112725257874, -0.07815294712781906, 0.06496657431125641, 0.07538692653179169, 0.15639322996139526, 0.17358067631721497, -0.11283271014690399, -0.08515315502882004, -0.19536401331424713, 0.0857265442609787, 0.13378284871578217, 0.09463067352771759, -0.09469318389892578, -0.21621762216091156, 0.12569735944271088, -0.02379246987402439, 0.04784104973077774, -0.048145122826099396, -0.3934517800807953, -0.005737581290304661], [-0.11649318784475327, 0.020677121356129646, 0.003046226454898715, 0.12532082200050354, 0.2445143759250641, 0.30099618434906006, 0.1263425350189209, -0.03147270530462265, -0.0687362402677536, 0.12069393694400787, -0.05870909243822098, 0.022212250158190727, -0.04985794797539711, -0.12648579478263855, -0.07380235940217972, 0.10821746289730072, -0.028041699901223183, 0.045949023216962814, -0.19522526860237122, -0.7107818126678467, 0.2723998427391052, 0.07737746834754944, -0.19048729538917542, -0.3767758309841156, 0.2147396057844162, 0.047524116933345795, -0.3616948127746582, 0.3146021366119385], [-0.03426697850227356, -0.04626382142305374, -0.9620290994644165, 0.06376681476831436, -0.9352942705154419, -0.03706081211566925, -0.8677459955215454, 0.0916418805718422, 0.05200780928134918, 0.15790867805480957, 0.29872581362724304, -0.04232504591345787, -0.031070975586771965, 0.03352866694331169, 0.0712462067604065, -0.06769618391990662, -0.030595263466238976, -0.08566655963659286, -0.1602909415960312, -0.05593442916870117, -0.17698051035404205, -0.09608272463083267, -0.09019956737756729, -0.09567689895629883, 0.09754778444766998, 0.033302757889032364, 0.009422123432159424, -0.06448514759540558], [-0.639582097530365, 0.22031565010547638, 0.05689162388443947, 0.08005240559577942, -0.3582698404788971, -0.2222970724105835, 0.027704397216439247, 0.23564669489860535, 0.18738393485546112, 0.08069033920764923, -0.3480457365512848, -0.0931599885225296, -0.06120828911662102, 0.2072243094444275, -0.1616484522819519, -0.05629536882042885, 0.01042473316192627, -0.049639392644166946, 0.05708115175366402, -0.021088197827339172, -0.43506476283073425, -0.3114432394504547, 0.08150040358304977, -0.0743056908249855, 0.22239837050437927, -0.031892478466033936, 0.010705721564590931, -0.022007819265127182], [0.07209137082099915, -0.24608108401298523, 0.1530466228723526, 0.10561922192573547, -0.18912246823310852, -0.12455499172210693, -0.17938390374183655, 0.020818078890442848, 0.12839052081108093, -0.10423145443201065, 0.13277959823608398, -0.18466800451278687, 0.0883258506655693, -0.06373175233602524, -0.10090320557355881, 0.08169439435005188, 0.11874409765005112, -0.4432479441165924, 0.18305861949920654, -0.005810567643493414, 0.2053612470626831, -0.08216600120067596, -0.03688320890069008, -0.07897254079580307, 0.1861104816198349, -0.04706307500600815, 0.3649316728115082, -0.08853992819786072], [-0.04191290959715843, 0.048059675842523575, 0.20201149582862854, -0.7837644815444946, 0.0859004408121109, -0.7824621200561523, -0.02544591762125492, -0.5777354836463928, 0.12957677245140076, -0.0011307907989248633, -0.013247688300907612, 0.07819986343383789, -0.15934813022613525, 0.17073360085487366, -0.018970942124724388, 0.12539464235305786, 0.0861750915646553, 0.17048059403896332, -0.11109261214733124, -0.22639894485473633, -0.005189591087400913, -0.22868330776691437, -0.0448894165456295, -0.14106222987174988, -0.08137699216604233, 0.022375157102942467, -0.026010366156697273, -0.05110958218574524], [-0.16414712369441986, -0.5769886374473572, 0.16294734179973602, -0.020244881510734558, -0.04703350365161896, -0.06234942376613617, 0.10533557832241058, 0.04588153958320618, 0.14165228605270386, -0.1100393608212471, 0.19002273678779602, 0.17087216675281525, 0.09986381232738495, -0.10964937508106232, 0.03981155529618263, -0.06953246891498566, -0.09495467692613602, -0.3082585632801056, 0.11812780052423477, 0.023114798590540886, 0.12299194186925888, -0.19139418005943298, 0.06436385214328766, -0.09748086333274841, 0.10967240482568741, 0.0004942851956002414, 0.16143837571144104, -0.46934744715690613], [-0.8025097846984863, 0.2517409324645996, 0.24900396168231964, 0.1367454081773758, -0.8414998054504395, -0.4923495650291443, -0.0124243488535285, -0.0882704108953476, 0.15918783843517303, -0.08395762741565704, -0.050303805619478226, 0.000781926850322634, 0.13323365151882172, -0.0126272551715374, 0.012026814743876457, 0.02384622022509575, -0.020135004073381424, 0.048262737691402435, -0.0643092542886734, -0.005909689702093601, -0.03499502316117287, 0.06036100909113884, 0.06909410655498505, 0.17712295055389404, -0.19711732864379883, 0.009750057943165302, 0.0782833993434906, -0.019621489569544792], [-0.155782088637352, -0.4273250997066498, 0.07396939396858215, 0.11538274586200714, 0.08888904005289078, 0.15779590606689453, -0.16501152515411377, 0.04915686696767807, 0.08829863369464874, -0.1941222846508026, -0.02007942460477352, 0.09072961658239365, 0.17010213434696198, 0.16670523583889008, 0.13704343140125275, -0.025648226961493492, 0.09961555153131485, -0.2722986340522766, 0.14464378356933594, -0.20813143253326416, 0.12383260577917099, 0.1373865157365799, 0.0344502329826355, 0.001577188610099256, 0.026174288243055344, -0.009979368187487125, -0.005715400446206331, -0.1294688582420349], [-0.043812237679958344, -0.06725923717021942, 0.2892692983150482, 0.10189037024974823, 0.08092097193002701, -0.177805557847023, 0.13323840498924255, -0.3858584761619568, -0.07535700500011444, 0.10460422188043594, 0.15508180856704712, 0.2024451643228531, -0.055629365146160126, 0.050324540585279465, 0.0699753612279892, 0.12464550137519836, -0.10867290198802948, -0.1412300318479538, -0.3083980679512024, 0.19246447086334229, -0.08297181129455566, -0.0870293378829956, -0.06834033131599426, -0.03444337472319603, -0.09089772403240204, 0.008008499629795551, -0.5103415846824646, -0.039442386478185654], [-0.04324055835604668, 0.08088258653879166, 0.01173537876456976, 0.3805544078350067, 0.1606062352657318, 0.27178478240966797, 0.011192424222826958, 0.1248558983206749, 0.048946529626846313, -0.0030367725994437933, 0.009890907444059849, -0.03501519933342934, -0.054548393934965134, -0.06919633597135544, -0.03006555698812008, 0.07054499536752701, 0.08255063742399216, -0.24414384365081787, 0.294230192899704, 0.27659499645233154, -0.0935237780213356, -0.1262856274843216, -0.057097963988780975, 0.15751992166042328, 0.038286805152893066, -0.13317608833312988, 0.028789356350898743, 0.20153053104877472], [0.2284921556711197, -0.2431272566318512, -0.39846062660217285, 0.23886969685554504, -0.15537716448307037, 0.22312705218791962, -0.33335214853286743, 0.051026977598667145, 0.09511660039424896, 0.13134364783763885, 0.12896329164505005, 0.19325053691864014, -0.044717706739902496, -0.10663360357284546, 0.19329701364040375, 0.13245980441570282, -0.14072515070438385, 0.008618802763521671, 0.17522172629833221, -0.07862763851881027, -0.07598429918289185, -0.11916808784008026, 0.19990041851997375, 0.18206295371055603, 0.19970379769802094, -0.033683422952890396, -0.6412579417228699, 0.01745815947651863], [0.046637773513793945, 0.28942835330963135, 0.05044141039252281, 0.32619205117225647, -0.08821103721857071, 0.2957596182823181, 0.16781949996948242, 0.4471389949321747, -0.15032991766929626, -0.08372091501951218, -0.049980469048023224, 0.22098895907402039, 0.161744624376297, -0.0636952742934227, -0.05303657054901123, 0.11397100239992142, 0.14190304279327393, -0.17959317564964294, -0.39945536851882935, 0.11112310737371445, -0.010059361346065998, 0.16964836418628693, 0.13144399225711823, -0.20367451012134552, 0.14965090155601501, 0.17537567019462585, -0.057029180228710175, 0.03786754235625267], [0.13098309934139252, 0.056738294661045074, 0.059352774173021317, -0.5746831893920898, 0.07376481592655182, -0.3845425844192505, 0.14684370160102844, -0.5259952545166016, -0.13599835336208344, -0.06775836646556854, -0.10497396439313889, 0.13009649515151978, -0.1026049330830574, 0.12270836532115936, -0.1096324697136879, 0.1659964919090271, -0.2544122338294983, 0.08665766566991806, 0.15024030208587646, -0.32988157868385315, 0.033885687589645386, -0.011994303204119205, 0.059025585651397705, 0.07332438975572586, 0.1736648827791214, 0.047038786113262177, -0.06941373646259308, -0.09522352367639542], [-0.016939226537942886, 0.22911930084228516, 0.19002191722393036, -0.09233633428812027, -0.12660308182239532, 0.02875523269176483, 0.020162012428045273, -0.16258053481578827, 0.13971367478370667, 0.1105310246348381, -0.038972046226263046, -0.007044618483632803, 0.0907030776143074, 0.0577729269862175, 0.16224615275859833, 0.16183756291866302, 0.07127240300178528, -0.9635496735572815, 0.17442695796489716, -0.11112331598997116, -0.1325957477092743, 0.01646246574819088, -0.17315338551998138, -0.15086333453655243, 0.16013802587985992, 0.14139486849308014, 0.24223555624485016, -0.8372951149940491], [0.054097067564725876, -1.0435909032821655, 0.0162896066904068, 0.0926634669303894, 0.03946760296821594, 0.07650938630104065, -0.8175208568572998, -0.5783256888389587, -0.08057546615600586, 0.21017511188983917, 0.08895451575517654, -0.027852142229676247, -0.0486423559486866, -0.059247344732284546, -0.01911134459078312, 0.17757262289524078, 0.04317496716976166, -0.11272045969963074, 0.13588976860046387, 0.05555044114589691, 0.056642062962055206, 0.0838891938328743, -0.11063624918460846, 0.07795467227697372, -0.18890568614006042, -0.021878749132156372, 0.008507790975272655, -0.07670667767524719], [0.11039458215236664, 0.08207397162914276, -0.15470348298549652, 0.31673547625541687, -0.22183740139007568, 0.020972173660993576, -0.0782877504825592, -0.02065565064549446, 0.11971426755189896, -0.12499748915433884, 0.17340552806854248, -0.07736419141292572, -0.10683536529541016, 0.03085382841527462, 0.07552719116210938, 0.06977114826440811, -0.16671472787857056, -0.11285743862390518, 0.3588976263999939, 0.2505129873752594, -0.007896016351878643, -0.18381375074386597, 0.1701577752828598, 0.10970588028430939, 0.014155487529933453, 0.12232650816440582, 0.1611669808626175, 0.2013111710548401], [0.04681475833058357, 0.3461434543132782, 0.01984160952270031, -0.22191643714904785, 0.02732742764055729, 0.009518573991954327, 0.253264456987381, 0.3270011842250824, -0.0011157447006553411, 0.03307848423719406, -0.012828035280108452, 0.09806978702545166, -0.0669369250535965, 0.17464172840118408, -0.10142094641923904, -0.2079075276851654, -0.17909054458141327, 0.021612171083688736, -0.30913615226745605, -0.04984845593571663, -0.029128653928637505, -0.055703263729810715, -0.28591760993003845, -0.1759726107120514, -5.246850923867896e-05, 0.030509354546666145, 0.3168109655380249, 0.03376353532075882], [0.12248793989419937, 0.5236478447914124, -0.03674175590276718, 0.1308891624212265, 0.18572521209716797, -0.015674050897359848, 0.3937411904335022, 0.07342511415481567, -0.09434815496206284, 0.04168011620640755, -0.07598531246185303, 0.19158583879470825, 0.08790923655033112, 0.04322809725999832, -0.09031098335981369, 0.15622104704380035, -0.07525438815355301, -0.3080814778804779, -0.009480854496359825, -0.23841144144535065, 0.04576381668448448, 0.09582967311143875, -0.16551093757152557, 0.10896606743335724, 0.014802743680775166, 0.13740304112434387, 0.624334990978241, -0.1745941936969757], [-0.16640795767307281, -0.10027105361223221, 0.0011335929157212377, -0.06499402225017548, 0.04483070597052574, 0.17823582887649536, -0.31099843978881836, -0.32989612221717834, 0.16086968779563904, 0.22716213762760162, -0.10477716475725174, 0.08028246462345123, -0.037468817085027695, 0.11205180734395981, 0.10070984065532684, 0.14251066744327545, -0.4097684323787689, 0.08547364920377731, 0.12387558817863464, 0.04126819968223572, 0.05885150656104088, -0.11614213138818741, -0.07716550678014755, 0.01624937169253826, -0.040122777223587036, -0.03626314550638199, -0.055723775178194046, -0.5090271830558777], [-0.013098013587296009, 0.024593794718384743, 0.02506893128156662, 0.008071835152804852, -0.09136998653411865, 0.0588519386947155, -0.01722041890025139, 0.011879210360348225, 0.009723611176013947, -0.01688205450773239, -0.10198568552732468, 0.009334348142147064, 0.1052725687623024, -0.01643478125333786, -0.019036922603845596, 0.003536720061674714, 0.135321706533432, 0.03765856474637985, -0.0744214653968811, 0.35133564472198486, -0.009789573028683662, 0.0928787887096405, -0.028451165184378624, -0.08253192156553268, -0.00021305630798451602, 0.012889786623418331, -0.7935892343521118, 0.051501210778951645], [-0.09026661515235901, -0.2998979985713959, 0.07335152477025986, 0.3069296181201935, 0.0714629516005516, 0.14058353006839752, -0.03930298984050751, 0.039394304156303406, 0.04952375218272209, 0.1216990053653717, -0.08147072792053223, -0.03352845460176468, 0.05876024812459946, -0.12586037814617157, 0.0897601917386055, -0.06662360578775406, 0.1567404568195343, 0.10914331674575806, 0.21004162728786469, -0.10453110188245773, 0.044845983386039734, 0.03631773218512535, -0.1535009741783142, -0.0529894158244133, -0.028800085186958313, -0.13693633675575256, 0.31274697184562683, 0.8981203436851501], [-0.15016280114650726, 0.04716930538415909, 0.2170661836862564, 0.29265308380126953, 0.19206075370311737, -0.01949283480644226, -0.026125874370336533, 0.1931265890598297, 0.06499658524990082, -0.06997862458229065, 0.19388557970523834, 0.12690214812755585, 0.09384911507368088, 0.05071311816573143, -0.04603089392185211, -0.009465159848332405, -0.09859059751033783, 0.18770462274551392, 0.297728955745697, -0.3296624422073364, 0.24040259420871735, 0.011897707358002663, 0.22298045456409454, -0.07473292201757431, 0.03311977908015251, -0.031437408179044724, -0.09843892604112625, -0.17777703702449799], [-0.0007789837545715272, 0.004960013087838888, -0.060289207845926285, -0.5272106528282166, -0.018451891839504242, -0.4594533145427704, 0.10616887360811234, -0.4458319842815399, -0.11013074964284897, 0.02439783699810505, -0.17224784195423126, -0.07390329986810684, 0.035699572414159775, 0.1844463348388672, 0.02843288518488407, 0.03019588626921177, 0.09718864411115646, -0.09875738620758057, -0.20149816572666168, -0.29496312141418457, -0.03146661818027496, -0.22837834060192108, -0.12246296554803848, 0.052356328815221786, 0.040515825152397156, 0.18705283105373383, -0.0834733322262764, 0.11096910387277603], [0.11363252252340317, -0.15106201171875, -0.18282905220985413, 0.08439074456691742, 0.06938309967517853, -0.11308508366346359, -0.10721158981323242, 0.06207570433616638, -0.20693358778953552, -0.12903209030628204, 0.1382651925086975, -0.1282132863998413, -0.10652797669172287, -0.21774457395076752, 0.07434514909982681, -0.10451607406139374, 0.3683421015739441, -0.10766592621803284, 0.09781131893396378, -0.042275696992874146, 0.056834135204553604, 0.23087497055530548, -0.20706357061862946, -0.06402944028377533, 0.08818750828504562, 0.052594006061553955, -0.058659330010414124, -0.05195687711238861], [-0.07929067313671112, -0.10037150979042053, 0.03885863721370697, -0.001940055750310421, 0.16378702223300934, 0.058917682617902756, -0.04969596862792969, -0.03391377627849579, 0.036294303834438324, 0.03870799019932747, -0.052824631333351135, 0.01898348517715931, -0.043759964406490326, -0.15873993933200836, 0.022397777065634727, 0.12666703760623932, -0.38246574997901917, -0.25375843048095703, -0.20869281888008118, 0.270329087972641, 0.08040518313646317, 0.11957993358373642, -0.11937513202428818, 0.08201798796653748, 0.17301936447620392, -0.0419531986117363, 0.8595668077468872, -0.388791024684906], [0.09275684505701065, 0.13246938586235046, -0.23593100905418396, 0.27054259181022644, -0.13710203766822815, 0.06053685024380684, -0.04022293537855148, 0.06448402255773544, -0.17463324964046478, -0.16985219717025757, 0.11504307389259338, 0.02402271330356598, -0.11692231893539429, -0.10315755009651184, -0.10241381078958511, -0.16354089975357056, 0.0185775738209486, 0.1437472105026245, -0.14329703152179718, 0.2053961157798767, -0.07040971517562866, 0.06348134577274323, 0.026636015623807907, 0.06671471148729324, 0.18361684679985046, -0.013613695278763771, -0.04203684255480766, -0.13863268494606018], [-0.19046369194984436, 0.13204894959926605, 0.13129465281963348, -0.04244771972298622, 0.0015956996940076351, 0.11565396189689636, 0.04048103839159012, 0.2784528434276581, 0.1610204130411148, 0.11859860271215439, 0.29860249161720276, -0.07493384182453156, 0.009220682084560394, 0.07118365168571472, 0.08390845358371735, -0.06419195979833603, 0.1646765172481537, -0.056366994976997375, -0.10589486360549927, 0.18210463225841522, -0.06398025900125504, 0.23781391978263855, -0.07696270197629929, -0.23770049214363098, -0.4511622190475464, -0.19518084824085236, 0.7536010146141052, -0.7082626819610596], [0.18086358904838562, 0.10647372901439667, 0.1516384333372116, 0.2915598154067993, 0.034470707178115845, 0.35022103786468506, 0.23864911496639252, 0.3635450303554535, 0.005627750419080257, -0.029513075947761536, 0.022509707137942314, -0.09384164214134216, -0.04868406802415848, 0.03602387756109238, -0.015039640478789806, -0.1468663364648819, -0.1234612986445427, -0.08051645010709763, -0.2093236893415451, -0.1341618299484253, -0.0845964327454567, 0.02532345801591873, 0.006828390993177891, 0.1452602595090866, 0.289838969707489, 0.16991278529167175, 0.099505715072155, -0.12976859509944916], [0.3268459439277649, 0.2796146273612976, 0.15188366174697876, 0.02271762490272522, -0.17671789228916168, 0.24257320165634155, 0.24381662905216217, 0.15835295617580414, 0.052654094994068146, -0.20758414268493652, 0.12436551600694656, 0.04236840456724167, -0.06566751003265381, -0.1125182956457138, -0.058895476162433624, 0.1041937991976738, 0.05560610815882683, -0.3695014715194702, 0.17362061142921448, 0.009072908200323582, 0.04521946236491203, 0.25971925258636475, -0.15715722739696503, -0.17124339938163757, 0.0037309187464416027, -0.07444905489683151, 0.1282549649477005, -0.2011333405971527], [-0.04652509465813637, 0.23036979138851166, -0.11281892657279968, 0.036634258925914764, -0.05025351047515869, 0.1543714553117752, -0.06583662331104279, -0.0069208769127726555, 0.0026232386007905006, -0.03247090056538582, 0.0829876959323883, 0.08783181011676788, 0.041330736130476, -0.0693051815032959, 0.05026513338088989, -0.05622683838009834, 0.01677955687046051, -0.28267237544059753, -0.4035017788410187, 0.017024796456098557, -0.02681078016757965, 0.05111611261963844, -0.16917987167835236, -0.028780849650502205, 0.013142128475010395, 0.03299260511994362, 0.7510974407196045, -0.6812872290611267], [0.06742772459983826, 0.0780743956565857, -0.02809358388185501, -0.7213650345802307, -0.08875693380832672, -0.3657001852989197, -0.05609634891152382, -0.06538423150777817, -0.14577718079090118, 0.0905509814620018, 0.04979351907968521, 0.06275574117898941, 0.08240417391061783, -0.001499127596616745, 0.11509101092815399, -0.06900203227996826, -0.0561651885509491, 0.04948655143380165, 0.2057967633008957, -0.1289537400007248, -0.0016996850026771426, -0.06285971403121948, 0.22766686975955963, 0.03321713209152222, 0.13750803470611572, -0.024852916598320007, 0.25668394565582275, -0.052645493298769], [-0.3119558095932007, -0.8671203851699829, 0.023274002596735954, 0.00040289486059919, 0.017410429194569588, -0.0013685221783816814, -0.7064339518547058, -0.4467909634113312, -0.12486372888088226, 0.13551561534404755, -0.06349855661392212, 0.05919191241264343, 0.02116519585251808, 0.0037163919769227505, -0.07155527174472809, -0.11891382187604904, -0.0313224121928215, -0.06826819479465485, 0.05780748650431633, -0.06973372399806976, 0.0061792731285095215, -0.16517746448516846, -0.06904584169387817, -0.09116511791944504, 0.22109781205654144, 0.006523442454636097, 0.04965343326330185, -0.010563272051513195], [-0.09232436865568161, -0.01919645257294178, -0.03292294964194298, 0.020228056237101555, -0.04617316648364067, -0.07961298525333405, -0.01902777887880802, -0.02123124711215496, 0.028053484857082367, 0.015116749331355095, 0.005174141842871904, -0.02266262099146843, 0.006402820348739624, 0.021714771166443825, 0.0006741288234479725, -0.00224284827709198, -0.34026336669921875, 0.17565222084522247, 0.06456808745861053, -0.05062452703714371, 0.11325591057538986, -0.18974432349205017, 0.39373937249183655, -0.17227178812026978, 0.05495624989271164, 0.031074820086359978, 0.584021270275116, -0.9925600290298462], [-0.12058738619089127, -0.19318166375160217, -0.3444328308105469, 0.002278316067531705, -0.20380038022994995, 0.20426106452941895, -0.9665515422821045, -0.22998273372650146, -0.12480155378580093, 0.1214679703116417, 0.1685640513896942, -0.10404033213853836, 0.15751366317272186, 0.06752625852823257, 0.0235202144831419, 0.13732784986495972, -0.09351363033056259, 0.1714838296175003, -0.08784210681915283, -0.0034922619815915823, -0.050025079399347305, 0.05970359221100807, -0.4129965901374817, -0.07819671183824539, -0.06480840593576431, -0.042452286928892136, -0.1675179898738861, -0.019817765802145004], [0.03436381369829178, 0.04214603453874588, -0.4171801209449768, -0.6864850521087646, 0.09025418013334274, -0.6391120553016663, 0.02608146332204342, -0.5830532312393188, 0.1414245069026947, 0.10247086733579636, -0.254039466381073, 0.034869544208049774, -0.025528401136398315, 0.1656520515680313, 0.020561862736940384, -0.10229675471782684, 0.08444223552942276, -0.04404650628566742, -0.09548451751470566, 0.11066888272762299, 0.13537754118442535, -0.12567450106143951, -0.03867942467331886, 0.08094962686300278, 0.18163438141345978, 0.00959097035229206, 0.01678955741226673, 0.06981008499860764], [0.015290312469005585, -0.14845843613147736, 0.00034172096638940275, -0.6045747995376587, 0.17711396515369415, -0.3147018551826477, 0.06869441270828247, -0.39314302802085876, 0.019348517060279846, -0.0468008816242218, 0.10391472280025482, 0.1298830360174179, -0.05234812945127487, 0.16850121319293976, -0.07574018090963364, 0.21268309652805328, 0.09210556000471115, -0.04733595997095108, 0.09289202839136124, -0.05682484060525894, 0.0396239347755909, -0.2265750765800476, -0.08738366514444351, -0.2959427833557129, -0.08277777582406998, -0.0004069434944540262, -0.09371484816074371, 0.041535165160894394], [0.14793141186237335, 0.05729334428906441, 0.2418457269668579, -0.34647461771965027, -0.007882610894739628, 0.009587515145540237, 0.16772499680519104, -0.11840575933456421, -0.12542974948883057, -0.03200993314385414, 0.12649142742156982, -0.31202107667922974, 0.0008189296931959689, 0.026484210044145584, 0.016138626262545586, 0.10772746056318283, -0.3265325725078583, 0.29984426498413086, 0.11540855467319489, -0.40052756667137146, -0.04858960583806038, -0.15998226404190063, 0.12976065278053284, -0.1245543509721756, 0.03629618510603905, -0.07400710135698318, 0.618209958076477, -0.12682832777500153], [0.05985141545534134, 0.12215811014175415, 0.03964664414525032, -0.15292209386825562, 0.08966831117868423, 0.15587198734283447, 0.11660471558570862, 0.18620723485946655, -0.1759762465953827, 0.05924052372574806, -0.13243049383163452, 0.06034115329384804, 0.1019667237997055, 0.06512515991926193, 0.1553521603345871, 0.13011063635349274, 0.32311034202575684, 0.38414257764816284, 0.32457321882247925, 0.025954335927963257, -0.06236092373728752, -0.07833956182003021, 0.10150396078824997, 0.20752926170825958, -0.04256738722324371, -0.13271942734718323, 0.17867901921272278, 0.19453783333301544], [0.053058382123708725, 0.04751449078321457, -0.851982057094574, -0.15250268578529358, -0.14596860110759735, 0.03707749769091606, -0.20457077026367188, -0.009327741339802742, 0.11676748096942902, 0.11254860460758209, -0.20656512677669525, 0.11438039690256119, 0.006218484602868557, 4.801103932550177e-05, 0.1055099293589592, 0.04400605335831642, -0.10726355761289597, 0.014969468116760254, 0.22401805222034454, 0.2656765580177307, -0.15245409309864044, -0.033571507781744, -0.20208029448986053, -0.029964005574584007, 0.15496599674224854, -0.04902276769280434, 0.436835378408432, -0.0488540381193161], [0.1462354063987732, -0.03483229875564575, -1.021647334098816, -0.004132426809519529, -0.7352737188339233, -0.0022503845393657684, -0.6728538870811462, 0.20116956532001495, -0.06647345423698425, 0.015102640725672245, 0.001361036323942244, 0.02666418068110943, 0.21227160096168518, 0.04623253643512726, 0.18553800880908966, -0.10827871412038803, 0.0513824038207531, 0.012611692771315575, -0.06350649893283844, -0.034361835569143295, 0.03556034341454506, 0.07121066004037857, -0.004818730987608433, 0.09889006614685059, -0.0005253737908788025, 0.00405298313125968, 0.0003691368910949677, -0.030191879719495773], [-0.15091468393802643, 0.17670996487140656, -0.07286056876182556, -0.12847253680229187, -0.05912729352712631, 0.08426151424646378, -0.03597017750144005, -0.07349573820829391, -0.30347687005996704, -0.09945366531610489, -0.0025035531725734472, -0.06380048394203186, 0.1655305027961731, -0.019180944189429283, -0.039978671818971634, 0.03974146768450737, -0.05208786576986313, 0.25314345955848694, 0.028938310220837593, -0.07425086200237274, -0.17506349086761475, 0.037082962691783905, 0.11690645664930344, 0.022609027102589607, 0.0185565073043108, 0.036397628486156464, 0.32558947801589966, 0.09681801497936249], [-0.6440238356590271, 0.04334380850195885, 0.06797601282596588, -0.01796879433095455, -0.781610906124115, -0.6514472961425781, -0.029383504763245583, 0.01368864718824625, 0.16407006978988647, -0.07488560676574707, 0.03268173709511757, 0.11857128143310547, -0.05416616052389145, -0.020380422472953796, 0.10106296837329865, 0.004586206283420324, -0.08018963038921356, -0.048449985682964325, -0.028858071193099022, 0.09096261113882065, -0.1592230200767517, -0.2044576108455658, -0.006802986841648817, -0.08172149211168289, -0.1805245578289032, 0.11374079436063766, 0.003293135901913047, 0.00929035060107708], [-0.0300529133528471, -0.00691196508705616, -0.08894878625869751, 0.04732593521475792, -0.0070374030619859695, 0.13309592008590698, 0.03090169094502926, -0.011349932290613651, 0.025639282539486885, -0.053938984870910645, -0.04540878161787987, 0.024147944524884224, 0.08514383435249329, 0.10636740922927856, 0.053496599197387695, -0.026378313079476357, -0.2643154263496399, 0.03191418573260307, 0.24660652875900269, -0.4852581024169922, -0.03766367584466934, -0.08328314870595932, 0.05930844321846962, 0.05430283024907112, -0.05916238948702812, -0.01623385027050972, 0.8523938059806824, 0.21121010184288025], [-0.05881262943148613, -0.10936149209737778, -0.19051988422870636, -0.19381678104400635, 0.2048082947731018, 0.0770588293671608, 0.11694200336933136, -0.11237693578004837, 0.026459788903594017, 0.001534700975753367, -0.2648718059062958, -0.03472188487648964, -0.13974529504776, 0.06531087309122086, 0.024024074897170067, 0.07586869597434998, 0.4497110843658447, -0.0473361574113369, -0.129551500082016, -0.18588007986545563, 0.018715620040893555, 0.3754056394100189, 0.004848324228078127, 0.027626633644104004, 0.18200404942035675, 0.04831225052475929, -0.2569510042667389, 0.08708316087722778], [0.10231547057628632, 0.09049523621797562, 0.06900843232870102, 0.046749845147132874, 0.06618331372737885, 0.11664637923240662, -0.026099083945155144, 0.06924070417881012, 0.05881170183420181, 0.013643315061926842, -0.18946529924869537, 0.09398255497217178, -0.03405294939875603, 0.09181008487939835, -0.1479756385087967, 0.16054686903953552, 0.150673508644104, -0.46234598755836487, -0.04528184235095978, 0.30610257387161255, -0.08967780321836472, 0.04269855469465256, 0.17490027844905853, -0.22481004893779755, 0.12249256670475006, 0.020600557327270508, 0.04097982868552208, 0.75886470079422], [0.13803379237651825, 0.14217399060726166, -0.0949191302061081, 0.14006640017032623, -0.09430114924907684, 0.27010172605514526, 0.004298752173781395, 0.07137266546487808, 0.15704502165317535, -0.007529071532189846, 0.11211798340082169, 0.10331445932388306, -0.1095663383603096, -0.24451835453510284, -0.0448937825858593, 0.05237310752272606, -0.12400420755147934, -0.4635889530181885, -0.06114470958709717, 0.22842387855052948, -0.052501291036605835, -0.1605089008808136, 0.07661173492670059, 0.0022954328451305628, 0.16266296803951263, -0.05819958448410034, -0.550553023815155, -0.30842679738998413], [0.14243997633457184, -0.07596862316131592, -0.1234748363494873, 0.0834113359451294, 0.08322163671255112, -0.11615020781755447, -0.30168887972831726, -0.09962733089923859, 0.09403394162654877, -0.023414025083184242, 0.13995900750160217, -0.158232644200325, -0.08363452553749084, 0.05333242937922478, 0.07055459916591644, 0.0877133160829544, -0.1049465760588646, -0.05717587471008301, 0.33514121174812317, -0.08163034915924072, -0.11085500568151474, -0.004998466931283474, 0.09487473219633102, 0.0017390339635312557, 0.04502218961715698, 0.012520183809101582, 0.5518711805343628, 0.22544656693935394], [0.2871876657009125, -0.041815437376499176, 0.048591163009405136, 0.27629077434539795, 0.25157636404037476, 0.10566820949316025, 0.11690099537372589, 0.18841032683849335, 0.23011864721775055, -0.23789598047733307, -0.06697460263967514, 0.04380826652050018, 0.0709470584988594, -0.12299421429634094, -0.12770546972751617, -0.19656743109226227, -0.05591435730457306, 0.0694989264011383, -0.2967037558555603, -0.19441717863082886, -0.004879278130829334, -0.18320061266422272, -0.10721095651388168, 0.136068657040596, -0.043632108718156815, 0.020884333178400993, -0.029582947492599487, -0.30980366468429565], [0.17628929018974304, -0.21355146169662476, 0.3059181272983551, -0.23003704845905304, 0.197601780295372, 0.32136157155036926, 0.08316978812217712, 0.04872414469718933, -0.2434767782688141, 0.02606223151087761, 0.20265428721904755, -0.036810461431741714, 0.10462702810764313, 0.1169213280081749, 0.05108266323804855, -0.05101998895406723, -0.23554803431034088, -0.13749873638153076, -0.20813342928886414, -0.06008904427289963, -0.476271390914917, 0.08764386922121048, -0.2955671548843384, -0.16545815765857697, -0.07853459566831589, -0.11316852271556854, 0.031412504613399506, -0.030055925250053406], [0.024134038016200066, 0.26751846075057983, 0.13222461938858032, -0.08140759915113449, -0.0735619068145752, 0.2425067275762558, -0.1465950310230255, 0.10642141103744507, -0.06708327680826187, -0.033001385629177094, 0.009231243282556534, 0.2371634989976883, -0.1835935264825821, 0.02083696983754635, -0.15283016860485077, 0.19709138572216034, 0.10756544768810272, 0.030246676877141, -0.1254502534866333, -0.07303586602210999, -0.0977771058678627, -0.030666721984744072, -0.013077992014586926, 0.02494966797530651, -0.0725131705403328, -0.06249361112713814, -0.2519659101963043, -0.5349856019020081], [0.17919544875621796, -0.023496484383940697, 0.021292243152856827, -0.1733190268278122, -0.10154338926076889, 0.04023723676800728, -0.2227710783481598, 0.15292717516422272, 0.1427011340856552, 0.17699064314365387, 0.17771820724010468, 0.11751453578472137, 0.1630321741104126, 0.010350113734602928, -0.12021881341934204, -0.07560662180185318, 0.24741171300411224, 0.3192037343978882, 0.1726047545671463, -0.1358770728111267, -0.08649612218141556, 0.02040308713912964, 0.1599966287612915, 0.1041329875588417, -0.19836512207984924, -0.199941486120224, 0.41726887226104736, -0.35748910903930664], [-0.47363218665122986, -0.6694608926773071, 0.021728070452809334, 0.2393120527267456, 0.11272680759429932, 0.021801840513944626, -0.5746569037437439, -0.44263219833374023, -0.2893006503582001, 0.14885827898979187, 0.28488463163375854, -0.017464708536863327, 0.0005523113068193197, 0.007885036990046501, -0.11308429390192032, -0.11026200652122498, -0.057111117988824844, -0.30855733156204224, -0.009752223268151283, -0.004501275718212128, 0.07111028581857681, 0.06694258749485016, -0.135895773768425, -0.07760515809059143, 0.16883188486099243, 0.022758986800909042, 0.06931355595588684, 0.02062198892235756], [-0.04283485934138298, 0.22256508469581604, 0.373365581035614, 0.0732743889093399, 0.2567497789859772, 0.23360754549503326, -0.04360068961977959, 0.15271589159965515, -0.10444401204586029, -0.13516615331172943, -0.012396560981869698, 0.110122449696064, 0.008811878971755505, 0.09911847859621048, 0.06351103633642197, -0.005871242843568325, 0.22017574310302734, -0.08522568643093109, -0.04065336287021637, -0.19522805511951447, 0.015581438317894936, -0.0035245618782937527, -0.0847250372171402, -0.10687469691038132, 0.016030272468924522, 0.20944593846797943, -0.31537964940071106, 0.12692835927009583], [0.2017710655927658, 0.03897092118859291, 0.22769908607006073, -0.5025190711021423, -0.06255361437797546, -0.3858583867549896, -0.17811782658100128, -0.25845077633857727, -0.022592805325984955, -0.11494224518537521, 0.11900196969509125, -0.09442038089036942, -0.04067306965589523, 0.14239375293254852, 0.11281061917543411, 0.040913570672273636, 0.4331676959991455, -2.5313009246019647e-05, -0.05251676216721535, -0.08885763585567474, 0.08446287363767624, 0.04968523606657982, -0.16992948949337006, -0.17342880368232727, -0.09408833086490631, -0.03648748993873596, -0.046760186553001404, 0.2818438410758972], [-0.7207316756248474, 0.028743423521518707, 0.12988752126693726, 0.08255495876073837, -0.28490591049194336, -0.26802363991737366, 0.05507326126098633, 0.08700362592935562, -0.3733212351799011, -0.05715608596801758, 0.10367345064878464, 0.027196569368243217, 0.008248570375144482, 0.036004092544317245, 0.038254719227552414, -0.061082806438207626, -0.3190048933029175, -0.027234800159931183, 0.08358932286500931, -0.016504375264048576, 0.3401928246021271, 0.3063136637210846, -0.0964975357055664, -0.12094281613826752, 0.013799273408949375, -0.009674115106463432, 0.046367544680833817, 0.733271062374115], [0.06398970633745193, -0.020288048312067986, 0.3971754014492035, 0.5033705830574036, 0.25719740986824036, 0.19893643260002136, 0.030066022649407387, 0.17677900195121765, 0.14477090537548065, 0.04947470501065254, 0.11687423288822174, 0.21135041117668152, 0.18444880843162537, -0.08925533294677734, 0.05471089482307434, -0.05933738872408867, -0.28184807300567627, -0.06116246432065964, -0.04074259474873543, -0.0868433266878128, -0.0031209695152938366, -0.033750925213098526, 0.012959438376128674, 0.1937144249677658, -0.008088906295597553, 0.14875054359436035, 0.03385213389992714, 0.0017740882467478514], [0.03165670484304428, 0.0031154637690633535, 0.07509849220514297, -0.5135504603385925, 0.07905517518520355, -0.29873180389404297, 0.16538280248641968, -0.36606886982917786, 0.1508495807647705, 0.11239619553089142, 0.039838846772909164, -0.1521349549293518, -0.12992994487285614, -0.08811834454536438, -0.01595766842365265, 0.04273785650730133, 0.03435621038079262, -0.06722305715084076, 0.09000437706708908, -0.2542829215526581, 0.05326355993747711, -0.05956749990582466, -0.022636640816926956, -0.2746340334415436, -0.07036461681127548, 0.08007685095071793, -0.5902467370033264, -0.11065490543842316], [0.02304970659315586, -0.026056014001369476, 0.09447955340147018, 0.27867698669433594, 0.08390166610479355, 0.016344623640179634, 0.08310119062662125, 0.0415055975317955, 0.1734202802181244, 0.068031907081604, 0.024043750017881393, 0.1636699140071869, -0.04403145611286163, -0.004030522424727678, -0.11494279652833939, 0.10740873962640762, 0.3189902603626251, 0.24040266871452332, -0.2835708260536194, -0.1209554672241211, 0.02733602561056614, 0.21062923967838287, 0.0268217995762825, 0.07321654260158539, 0.08054368197917938, 0.03591787815093994, 0.4338260889053345, -0.43632185459136963], [-0.02813107520341873, 0.011795297265052795, -0.08096379786729813, -0.02623855508863926, 0.0897241160273552, -0.00468794908374548, -0.009587185457348824, 0.005484889727085829, 0.03354034200310707, 0.00946430116891861, 0.04265657439827919, 0.00028601259691640735, -0.043017443269491196, 0.007332516368478537, 0.00765697518363595, -0.008378241211175919, -0.006819976028054953, -0.011187423020601273, -0.20965352654457092, 0.38591721653938293, -0.11503422260284424, -0.017804807052016258, -0.1789911389350891, 0.02207040786743164, 0.05809365212917328, -0.005288025364279747, -1.0451840162277222, 0.0743073895573616], [-0.04863343760371208, -0.10616787523031235, 0.003694975282996893, -0.034683648496866226, -0.030922072008252144, 0.00962128210812807, 0.09575118124485016, 0.07293196767568588, -0.08881408721208572, -0.03168309107422829, 0.05800404027104378, -0.07194244116544724, -0.07441398501396179, -0.021764090284705162, -0.02177741378545761, -0.03372654691338539, -0.0742298886179924, -0.1209983080625534, 0.1840762048959732, 0.21956942975521088, -0.20040911436080933, 0.33677244186401367, 0.002021955791860819, 0.03432975709438324, -0.1953902542591095, -0.027488751336932182, -0.5235491991043091, 0.1090647354722023], [-0.18639926612377167, 0.019549943506717682, -0.3269437849521637, 0.0359317883849144, -0.01351981796324253, -0.1777132749557495, -0.11837597191333771, -0.015556883998215199, 0.19095422327518463, 0.024038314819335938, 0.031261105090379715, 0.07621339708566666, 0.021321715787053108, 0.09472507983446121, -0.055057257413864136, 0.17216666042804718, -0.16234725713729858, 0.038737840950489044, -0.1224403902888298, 0.22899383306503296, 0.2215917557477951, -0.04510421305894852, 0.04047207906842232, -0.12630616128444672, 0.02157437801361084, -0.01932021789252758, 0.3271452784538269, -0.041057709604501724], [-0.04545558989048004, 0.18706487119197845, -0.3332103192806244, -0.2960820198059082, 0.07124122232198715, -0.0693323090672493, 0.13708600401878357, 0.0589594766497612, 0.27523601055145264, 0.006815852131694555, -0.07164674252271652, -0.1566200852394104, -0.022004421800374985, 0.02838507667183876, -0.014397847466170788, 0.1378241777420044, -0.17104823887348175, -0.17231203615665436, -0.24436505138874054, -0.3865130841732025, -0.019196487963199615, -0.28839111328125, 0.2317449003458023, -0.17214395105838776, -0.0654001235961914, -0.07741651684045792, -0.18433651328086853, -0.2159292995929718], [0.16030216217041016, -0.12336423248052597, 0.007889308966696262, -0.11465311050415039, 0.06307422369718552, -0.07972819358110428, -0.13685153424739838, -0.5907735824584961, -0.11355405300855637, -0.14588215947151184, 0.07239879667758942, 0.12149138748645782, 0.15873341262340546, 0.16810162365436554, 0.09487033635377884, -0.18764328956604004, 0.1581452488899231, -0.43231844902038574, 0.1476230025291443, -0.13166804611682892, -0.05943300947546959, 0.03502091020345688, -0.051042333245277405, -0.29834654927253723, 0.005247491877526045, -0.07063370943069458, -0.022985441610217094, -0.39824578166007996], [-0.6078266501426697, 0.10750453174114227, 0.13507060706615448, 0.27268528938293457, -0.6241558194160461, -0.39372214674949646, 0.08090134710073471, 0.11363425105810165, 0.2108277678489685, -0.018088392913341522, -0.12385976314544678, -0.12230467051267624, -0.01848173514008522, 0.03790201246738434, -0.04121733829379082, 0.023793388158082962, -0.04866350069642067, -0.03180604428052902, 0.197834774851799, 0.08890026807785034, -0.22521458566188812, -0.10219137370586395, 0.0667300820350647, 0.023752542212605476, -0.15974879264831543, 0.0016288761980831623, -0.20162080228328705, 0.07894832640886307], [0.18064653873443604, 0.18954887986183167, 0.1216069906949997, -0.20430582761764526, 0.14904403686523438, -0.010841584764420986, 0.2044849544763565, 0.10037574172019958, 0.04248388856649399, 0.10496346652507782, 0.0704953595995903, 0.1319381296634674, -0.08443955332040787, -0.08618966490030289, 0.011642728000879288, 0.0445944182574749, -0.05934524908661842, -0.13023163378238678, 0.21973735094070435, 0.005477853585034609, 0.014283611439168453, -0.03610018640756607, 0.0511159747838974, 0.07137899845838547, 0.006654117722064257, 0.07042195647954941, -0.3135349154472351, 0.34361010789871216], [0.08098277449607849, 0.10326548665761948, 0.002369248541072011, -0.5063410997390747, 0.05125627666711807, -0.23769913613796234, -0.05762135609984398, -0.26979756355285645, -0.08118437975645065, 0.12918514013290405, 0.0693289190530777, 0.08951836824417114, -0.015772266313433647, 0.05103429779410362, 0.07694175839424133, -0.030101874843239784, -0.049093108624219894, 0.07871541380882263, 0.1266198456287384, -0.24167650938034058, -0.07912886887788773, -0.12937428057193756, 0.002042212290689349, -0.16130369901657104, -0.039995964616537094, -0.05198872089385986, -0.5981824994087219, 0.25150880217552185], [0.07410959899425507, -0.09133277088403702, -0.1466677486896515, -0.16246461868286133, -0.009972904808819294, -0.03687022998929024, -0.040739756077528, -0.20955514907836914, -0.017487216740846634, 0.07708294689655304, -0.008706705644726753, 0.08340168744325638, 0.10857782512903214, 0.06502310931682587, 0.0822032168507576, 0.12613940238952637, 0.06189321354031563, 0.22966599464416504, -0.13293005526065826, 0.020447636023163795, 0.10895582288503647, -0.16668786108493805, -0.0635051503777504, 0.002268363954499364, 0.049086086452007294, -0.02920445427298546, -0.7045240998268127, -0.7261061668395996], [-0.12978288531303406, -0.026747312396764755, -0.08677981048822403, 0.16897492110729218, -0.238493874669075, -0.2982597351074219, 0.031096111983060837, 0.03604405000805855, -0.05188412219285965, -0.07020033895969391, 0.05651143938302994, -0.02109503746032715, 0.11896967887878418, 0.1295943260192871, -0.051643140614032745, -0.045137327164411545, 0.4550676941871643, -0.23156705498695374, -0.2707744836807251, 0.1430913358926773, 0.19601397216320038, 0.13429008424282074, -0.030741160735487938, -0.08645225316286087, 0.03154899552464485, -0.023420438170433044, 0.003411234123632312, 0.717564582824707], [-0.13504427671432495, -0.03297211602330208, 0.043720345944166183, -0.0071710641495883465, -0.0013936155010014772, 0.07363428175449371, -0.0044423663057386875, 0.008055186830461025, 0.0324348583817482, 0.04341452196240425, -0.01307444553822279, -0.0006289966404438019, -0.023132268339395523, -0.028471093624830246, 0.0016217579832300544, -0.0125347301363945, -0.06520455330610275, 0.2172221541404724, -0.04178449511528015, 0.17949427664279938, -0.038745298981666565, -0.12560610473155975, -0.2860519289970398, 0.08252692222595215, -0.05935395136475563, -0.005732914432883263, 0.06060522422194481, 1.4564197063446045], [-0.7531154155731201, -0.09453652799129486, 0.17115247249603271, 0.03626934066414833, -0.38953208923339844, -0.5018022060394287, 0.04759978502988815, 0.12324797362089157, 0.08638446778059006, -0.07360871136188507, 0.14830730855464935, 0.1741955578327179, 0.15059036016464233, 0.03198201209306717, -0.048449937254190445, -0.019384484738111496, 0.40609291195869446, 0.03762563690543175, -0.14102661609649658, -0.014575841836631298, -0.15959808230400085, -0.12783870100975037, -0.1856551468372345, -0.14603550732135773, -0.1645454466342926, -0.18239884078502655, -0.04799540340900421, 0.06388560682535172], [0.026364343240857124, -0.17583338916301727, -0.43595486879348755, 0.11793533712625504, -0.20567278563976288, 0.08287100493907928, -0.3100917339324951, 0.09790892153978348, -0.23876138031482697, -0.16362649202346802, -0.04833698272705078, -0.09172091633081436, -0.37050777673721313, 0.210098996758461, -0.4583890736103058, 0.09508442133665085, -0.151789128780365, -0.004937819670885801, -0.12431708723306656, 0.10788702964782715, -0.11495339870452881, -0.055646803230047226, 0.11189886927604675, -0.03132573142647743, 0.16765332221984863, 0.06976142525672913, -0.0670972689986229, 0.0015647776890546083], [0.11201722174882889, 0.1195751279592514, 0.08548055589199066, 0.14932428300380707, 0.24806325137615204, 0.30234551429748535, -0.015093660913407803, 0.040056996047496796, -0.05865688621997833, 0.008831416256725788, 0.0037594682071357965, 0.018776170909404755, 0.017123185098171234, -0.06174049153923988, 0.13215553760528564, 0.045692529529333115, 0.063490130007267, 0.36214298009872437, 0.11929413676261902, 0.2091316282749176, -0.1642782986164093, 0.19004298746585846, 0.16322194039821625, -0.11417461186647415, 0.0931028351187706, -0.06578195840120316, -0.18849250674247742, 0.1629667431116104], [-0.4675167500972748, 0.01463337056338787, -0.039407018572092056, 0.26031216979026794, -0.1434168666601181, -0.08027901500463486, -0.0065829940140247345, 0.15680547058582306, -0.007281613536179066, 0.12773779034614563, -0.1418760120868683, -0.18429677188396454, 0.1813569962978363, 0.006300291512161493, 0.1886381059885025, 0.06081484630703926, 0.2355203628540039, 0.30502089858055115, -0.29146140813827515, -0.2246447652578354, -0.331120103597641, 0.07933277636766434, 0.017536556348204613, -0.07590014487504959, -0.05461139976978302, 0.09443216770887375, -0.07974608987569809, 0.14530780911445618], [-0.11854839324951172, -0.09635365754365921, -0.17737703025341034, 0.3511767089366913, -0.06248246133327484, 0.13021451234817505, -0.09002725034952164, 0.1448693424463272, -0.19895994663238525, -0.12737925350666046, 0.10077876597642899, -0.07691258192062378, 0.025173744186758995, -0.006616353057324886, -0.06909430027008057, 0.21081332862377167, -0.12523142993450165, -0.26268017292022705, 0.04028772935271263, 0.033829741179943085, 0.15964563190937042, 0.08198507875204086, 0.04203420504927635, -0.03335675969719887, -0.12093743681907654, -0.007310209330171347, 0.14336377382278442, 0.0543859638273716], [-0.031696099787950516, 0.007180321030318737, 0.10701745748519897, -0.18182924389839172, 0.05322279408574104, 0.04186596721410751, 0.040196336805820465, -0.04184635728597641, -0.0636853277683258, 0.11964116245508194, -0.19035835564136505, -0.14799046516418457, 0.032585110515356064, -0.09312613308429718, 0.1543249934911728, -0.34667733311653137, -0.09505733847618103, -0.14902465045452118, 0.17538267374038696, -0.1051916852593422, -0.029957789927721024, -0.0653642788529396, -0.1813611388206482, 0.1890641450881958, -0.014378920197486877, 0.01953265815973282, 0.20196962356567383, -0.18323756754398346], [0.005517869722098112, 0.08100322633981705, 0.11318086087703705, 0.005378753878176212, -0.061927586793899536, -0.06585847586393356, -0.020385349169373512, -0.11791285127401352, -0.012359538115561008, -0.006809632293879986, -0.136458620429039, 0.01892463117837906, 0.08263704925775528, 0.07304882258176804, 1.2849195627495646e-05, 0.058372270315885544, -0.15430647134780884, -0.0355759933590889, 0.11523247510194778, -0.12213483452796936, 0.04675374925136566, 0.013174760155379772, 0.035215266048908234, -0.06567681580781937, 0.06515878438949585, 0.01212534960359335, -1.114866852760315, 0.1295502930879593], [-0.08636351674795151, -0.2702103853225708, -0.05045920982956886, -0.22154738008975983, 0.005584132857620716, -0.25140687823295593, -0.02130093239247799, -0.10215363651514053, 0.13391754031181335, -0.3900870084762573, -0.10069859772920609, -0.1764363795518875, 0.0795188918709755, -0.28854942321777344, 0.025797726586461067, -0.10816068202257156, -0.18719370663166046, -0.05787067860364914, -0.1387295424938202, -0.13085754215717316, 0.3475475609302521, -0.07369446009397507, 0.03382604569196701, 0.022571058943867683, 0.38029584288597107, 0.06351473927497864, -0.03813561424612999, 0.11009183526039124], [-0.21340836584568024, 0.05509469285607338, -0.06869208067655563, -0.19037452340126038, -0.3130366802215576, -0.3260205090045929, 0.12786927819252014, 0.23055122792720795, -0.041109852492809296, -0.01358872838318348, 0.048896729946136475, 0.009497761726379395, 0.2442268431186676, 0.09953918308019638, 0.08432907611131668, -0.017102165147662163, 0.30236634612083435, 0.0776003748178482, 0.13745750486850739, -0.0013199513778090477, -0.15521405637264252, 0.09584028273820877, -0.29938188195228577, 0.29501011967658997, -0.09965421259403229, -0.12084847688674927, -0.12664249539375305, 0.20361106097698212], [-0.08584479987621307, 0.09402207285165787, -0.05379267409443855, -0.19992314279079437, -0.1211891770362854, 0.06144600361585617, 0.18114648759365082, 0.1608412265777588, -0.016820358112454414, 0.0759262815117836, 0.10778400301933289, 0.06562688946723938, -0.07477356493473053, -0.012261963449418545, 0.017771434038877487, 0.06918448954820633, -0.18414145708084106, -0.012707319110631943, -0.01787150837481022, -0.5319058299064636, -0.01744898036122322, -0.29139673709869385, 0.0027748444117605686, -0.14153654873371124, 0.06939207762479782, -0.07171362638473511, -0.6948209404945374, -0.06512225419282913], [-0.2246875911951065, -0.0196544136852026, 0.2450704276561737, 0.22919516265392303, -0.020696822553873062, -0.03438093885779381, 0.14015483856201172, 0.08980615437030792, 0.1258241981267929, 0.1537623107433319, -0.05177007243037224, -0.1696813702583313, 0.18764753639698029, -0.13115952908992767, -0.005944367963820696, 0.18522442877292633, -0.2867867350578308, -0.02904638648033142, 0.10131270438432693, 0.26561239361763, 0.02191954106092453, 0.11889708042144775, -0.04535842686891556, -0.29007402062416077, 0.243038609623909, -0.14137384295463562, 0.13696707785129547, 0.07627932727336884], [-0.06150432676076889, 0.24882686138153076, -0.2705176770687103, -0.06677111238241196, -0.13557475805282593, -0.10700729489326477, -0.09563201665878296, 0.06619978696107864, 0.027945462614297867, 0.040718115866184235, 0.018719781190156937, -0.17298917472362518, -0.08458027243614197, 0.1903158724308014, -0.05048413574695587, 0.15513208508491516, -0.1761677861213684, 0.03432340547442436, -0.1499241441488266, -0.025363299995660782, -0.27008292078971863, 0.00921483151614666, 0.055710479617118835, 0.0010185037972405553, 0.08946677297353745, 0.037083886563777924, 0.16791047155857086, 0.541270911693573], [-0.07090841233730316, -0.01488678902387619, -0.05745295435190201, -0.06981425732374191, 0.06674683094024658, 0.06733383983373642, -0.005998683627694845, -0.09529107809066772, 0.05888879671692848, 0.004441840574145317, -0.07947684079408646, 0.03479002043604851, -0.013335928320884705, -0.017578206956386566, -0.015181764028966427, 0.03446253389120102, -0.16078999638557434, -0.23359829187393188, 0.13024522364139557, -0.3336164951324463, 0.18635863065719604, 0.08708131313323975, 0.32681602239608765, -0.08824736624956131, 0.037286531180143356, -0.01069176010787487, 0.9648861289024353, -0.3141532242298126], [0.0028435152489691973, -0.06897193193435669, -0.06650640070438385, -0.06181490421295166, 0.0001435024314559996, -0.0029862537048757076, 0.00574475945904851, 0.006663394160568714, -0.0032885661348700523, -0.02074427157640457, 0.014261709526181221, 0.004526573698967695, -0.013013211078941822, -0.02289109118282795, -0.009153137914836407, -0.009098643437027931, 0.5058542490005493, 0.058262959122657776, -0.016284001991152763, 0.1472201645374298, 0.40289080142974854, 0.3819580078125, -0.05367407575249672, -0.07151760160923004, -0.18419040739536285, -0.004444194491952658, 0.08869317919015884, 1.163373351097107], [0.2925266623497009, 0.26896849274635315, 0.21232815086841583, 0.2854077219963074, -0.11933398246765137, 0.30880045890808105, 0.04300734028220177, 0.33457881212234497, -0.07933328300714493, -0.006357399746775627, 0.09011813253164291, 0.1617366224527359, 0.06728734076023102, -0.04199805110692978, 0.10905417054891586, -0.18360544741153717, -0.05653724819421768, 0.32892295718193054, 0.21297550201416016, -0.44916778802871704, 0.25489622354507446, -0.11935126036405563, -0.0987585037946701, -0.10952966660261154, 0.29796239733695984, 0.05092134326696396, -0.13691192865371704, 0.003891618922352791], [0.05873645469546318, 0.023398922756314278, -0.10608693212270737, -0.13600073754787445, -0.017019478604197502, -0.09870380163192749, 0.050939567387104034, 0.149894118309021, -0.07598964124917984, -0.00657987454906106, 0.09270302951335907, 0.04032449051737785, 0.006600550841540098, 0.040048982948064804, -0.03094431199133396, -0.04194733873009682, 0.16971953213214874, -0.18264035880565643, 0.33688393235206604, -0.02422112599015236, 0.15586119890213013, 0.03491966053843498, -0.2050464004278183, 0.1414760947227478, -0.09617017209529877, -0.003885104553773999, 0.771472156047821, -0.7991657853126526], [-0.13827864825725555, -0.2078980803489685, 0.14199025928974152, 0.10935916006565094, -0.14635755121707916, -0.01921260729432106, -0.29355189204216003, -0.113704614341259, -0.19700463116168976, 0.12038861215114594, 0.14442023634910583, 0.023549307137727737, 0.16638602316379547, -0.10023873299360275, 0.10446242988109589, -0.09903229773044586, 0.2708124816417694, -0.2444329559803009, 0.3323797881603241, -0.1448025405406952, -0.000566729053389281, 0.15649330615997314, 0.03551284596323967, 0.15685099363327026, -0.027698393911123276, 0.07451268285512924, 0.3638400137424469, -0.04025508835911751], [-0.11481571942567825, -0.2602396309375763, 0.20413239300251007, 0.12172053754329681, 0.15611733496189117, 0.2967945635318756, 0.18217328190803528, 0.2577477991580963, 0.06378895789384842, -0.059128791093826294, -0.020229699090123177, -0.04546729475259781, 0.0725671723484993, -0.1976158767938614, -0.152207151055336, 0.13502994179725647, 0.34050533175468445, -0.03040764480829239, 0.296539843082428, 0.16188190877437592, 0.009368827566504478, 0.19475658237934113, 0.25228387117385864, 0.23605981469154358, -0.04836945980787277, -0.06503479182720184, 0.044834207743406296, -0.1353026181459427], [-0.08568777143955231, 0.2916889786720276, -0.303506463766098, -0.27545785903930664, 0.0016777851851657033, 0.01002455223351717, 0.11421734094619751, -0.11853386461734772, 0.021181298419833183, 0.22459770739078522, 0.09975958615541458, 0.11534241586923599, 0.06867687404155731, -0.03902355581521988, -0.020749084651470184, 0.06700419634580612, 0.21396470069885254, -0.012156542390584946, 0.09503564238548279, 0.25265100598335266, 0.2431184947490692, 0.09481681883335114, -0.18568870425224304, 0.18478251993656158, 0.33487799763679504, -0.00830897968262434, 0.6156928539276123, 0.7620744705200195], [0.277143269777298, 0.01572766713798046, -0.0954231545329094, 0.2373749166727066, 0.18845605850219727, 0.12852664291858673, 0.019455628469586372, 0.1400386244058609, 0.21240879595279694, -0.07295504212379456, 0.027726082131266594, -0.01126845646649599, 0.11729413270950317, -0.14353899657726288, 0.007625248283147812, 0.004894888028502464, 0.32673248648643494, 0.23345553874969482, -0.2755676805973053, 0.04161813110113144, 0.12811538577079773, 0.1631452590227127, 0.11099186539649963, -0.09491897374391556, -0.10159033536911011, 