{"q_net.0.weight": [[0.47072580456733704, -0.07616065442562103, 0.39914456009864807, 0.30638551712036133, 0.05173513665795326, -0.04434527829289436, -0.2607368230819702, 0.006117768585681915, 0.09382376819849014, -0.015802178531885147, 0.263058602809906], [0.3558812737464905, -0.3566727638244629, -0.25576362013816833, -0.3587935268878937, -0.5009453892707825, 0.21134105324745178, 0.5116910934448242, 0.17733202874660492, -0.11972354352474213, -0.08281838893890381, -0.08366092294454575], [-0.4903271794319153, 0.15264928340911865, -0.1931447684764862, 0.18017733097076416, 0.03901459649205208, 0.24084027111530304, 0.2963084578514099, 0.16421417891979218, 0.1802356243133545, 0.012102401815354824, 0.1142549216747284], [-0.43133851885795593, 0.019570009782910347, 0.06635157763957977, 0.3226364552974701, 0.3595421612262726, -0.22627608478069305, -0.2748757600784302, 0.060524024069309235, -0.041695356369018555, 0.14972972869873047, 0.14800414443016052], [0.3237736225128174, 0.1606724113225937, 0.39068013429641724, 0.16144433617591858, 0.0658574178814888, -0.06458113342523575, 0.03477748483419418, 0.269118994474411, 0.2627495527267456, -0.16309739649295807, 0.26297858357429504], [-0.4093475043773651, -0.17001540958881378, -0.14998115599155426, 0.2284415066242218, 0.10223613679409027, 0.3326338827610016, 0.006219898350536823, 0.2881773114204407, 0.1947965770959854, 0.12207652628421783, 0.02776896022260189], [0.5555964708328247, -0.0028665123973041773, 0.1277679204940796, -0.1971258670091629, -0.04529643803834915, 0.2060638815164566, 0.20546072721481323, -0.08859705179929733, 0.09313797205686569, 0.12321040034294128, -0.0042828721925616264], [-0.2348000705242157, -0.1771976351737976, 0.11620184034109116, -0.1429530680179596, -0.04934942349791527, -0.003014684421941638, -0.03306291252374649, 0.1914076954126358, 0.2967652678489685, 0.1332683265209198, -0.33382004499435425], [0.5996659994125366, 0.14409293234348297, -0.018154380843043327, 0.41947513818740845, 0.14862576127052307, 0.15727625787258148, 0.10653338581323624, 0.32162776589393616, 0.19754444062709808, 0.31518059968948364, 0.19732923805713654], [0.44167497754096985, -0.1593145728111267, -0.04737430065870285, 0.37239202857017517, 0.15278494358062744, -0.24837654829025269, -0.11505571007728577, 0.17316992580890656, 0.2044990062713623, 0.28946420550346375, 0.17818079888820648], [-0.439626544713974, 0.06739659607410431, 0.20360516011714935, 0.3198249638080597, 0.14104068279266357, -0.4277053475379944, 0.31226155161857605, 0.23607751727104187, 0.024312203750014305, 0.055348753929138184, 0.16675317287445068], [-0.15110565721988678, -0.2992774546146393, -0.16133633255958557, -0.018829520791769028, -0.2348778247833252, 0.2900799810886383, 0.2835915982723236, -0.27083542943000793, 0.2555729150772095, 0.14711996912956238, 0.1320105642080307], [0.2308548539876938, -0.2569667100906372, -0.40918582677841187, 0.22977150976657867, 0.49692100286483765, -0.17713846266269684, 0.1266968697309494, 0.2181277722120285, -0.29736393690109253, 0.0834965780377388, 0.31164097785949707], [-0.31574589014053345, -0.20668411254882812, 0.308197021484375, 0.2984479069709778, 0.34935155510902405, -0.15332697331905365, -0.3381178379058838, -0.06049569323658943, 0.11539453268051147, -0.20617270469665527, 0.04996730387210846], [0.4663969576358795, -0.15853466093540192, 0.384192556142807, 0.25216996669769287, 0.05397757515311241, 0.14616070687770844, -0.2564905285835266, 0.0780094787478447, 0.19747966527938843, -0.08263219892978668, 0.07709377259016037], [0.022260842844843864, -0.272051602602005, 0.34852930903434753, 0.5446908473968506, 0.39466002583503723, -0.32122498750686646, -0.07126177102327347, 0.03325262665748596, -0.04521545022726059, 0.12259827554225922, 0.13502389192581177], [0.44686874747276306, 0.18554875254631042, 0.42282819747924805, 0.08440282195806503, -0.031442806124687195, 0.1494046300649643, -0.26793232560157776, -0.09483238309621811, -0.239826038479805, 0.28440046310424805, 0.2680211365222931], [0.246261864900589, 0.5377901792526245, -0.37667569518089294, -0.09515401721000671, -0.32941508293151855, 0.1358264684677124, -0.020972007885575294, 0.32165268063545227, 0.21377775073051453, 0.16515134274959564, 0.10794054716825485], [-0.4044981002807617, -0.13530132174491882, -0.025514934211969376, 0.23846955597400665, 0.11620195209980011, 0.3701382875442505, 0.04995612055063248, 0.2275180071592331, -0.17845813930034637, 0.04894349351525307, 0.2223099023103714], [0.20581664144992828, 0.05138706788420677, 0.4161822199821472, 0.05523305386304855, -0.014298216439783573, -0.15415558218955994, -0.22586636245250702, -0.17188437283039093, -0.15042126178741455, 0.2232256382703781, -0.24544881284236908], [-0.45223268866539, 0.14485090970993042, 0.09147274494171143, 0.19655786454677582, 0.4806942343711853, -0.24184060096740723, -0.48226356506347656, -0.05067290738224983, 0.20936031639575958, 0.007533672731369734, -0.08427539467811584], [0.490143746137619, 0.3570251166820526, -0.03367049619555473, 0.29725703597068787, 0.25245389342308044, 0.032801542431116104, -0.17526452243328094, -0.08514217287302017, 0.24475263059139252, 0.11333759129047394, 0.17815624177455902], [0.45931476354599, -0.09417882561683655, -0.06509657949209213, 0.40903326869010925, 0.13112576305866241, -0.5524654388427734, -0.333303838968277, -0.08584880083799362, 0.2597684860229492, 0.11473319679498672, 0.11517725139856339], [-0.21396006643772125, -0.1010967344045639, 0.21029222011566162, 0.002118912525475025, 0.281975656747818, 0.35536742210388184, 0.10562947392463684, -0.2944929599761963, 0.03538484498858452, -0.001402073772624135, 0.002759680850431323], [0.22456230223178864, 0.0108872065320611, -0.07358997315168381, -0.08479642122983932, 0.29107773303985596, -0.3004082441329956, -0.27658984065055847, 0.24647320806980133, -0.14230911433696747, -0.2086712121963501, -0.08925452083349228], [0.12256524711847305, 0.41708609461784363, -0.2983344495296478, -0.08103427290916443, -0.045161172747612, 0.0699976459145546, -0.388761043548584, 0.0791046991944313, 0.08199020475149155, 0.23953592777252197, -0.07114703208208084], [-0.011983810923993587, 0.28330889344215393, -0.2217339128255844, -0.02018413320183754, 0.4502579867839813, -0.30765706300735474, -0.3654637932777405, -0.08012159168720245, 0.09493887424468994, 0.21010799705982208, 0.24294513463974], [0.39508217573165894, -0.3065139055252075, -0.2798123359680176, 0.26717475056648254, 0.4877157211303711, -0.49824947118759155, -0.1772957742214203, -0.09114135056734085, -0.10452742874622345, -0.12292542308568954, 0.24242812395095825], [0.49248385429382324, -0.1889663189649582, 0.10170699656009674, 0.33167025446891785, 0.39906060695648193, -0.18070413172245026, -0.13885921239852905, 0.11158445477485657, -0.11966892331838608, -0.10226872563362122, -0.14551134407520294], [-0.3072122633457184, 0.04260499030351639, 0.23930947482585907, 0.3910275399684906, 0.07665982842445374, -0.39188095927238464, -0.32187795639038086, 0.2723194360733032, -0.15705852210521698, 0.14368677139282227, 0.12918208539485931], [0.4026791453361511, -0.39454180002212524, -0.41038551926612854, -0.5021600723266602, -0.594314694404602, 0.18303360044956207, 0.42853766679763794, 0.25223448872566223, 0.0573241300880909, -0.023223435506224632, 0.15504568815231323], [0.16305598616600037, -0.18890038132667542, 0.10839185863733292, 0.106248639523983, -0.22643566131591797, -0.3253428041934967, -0.22634145617485046, -0.2195385843515396, 0.3122168779373169, -0.1973588615655899, -0.0443059541285038], [0.4923665523529053, 0.26039400696754456, 0.0817771852016449, 0.05827823281288147, 0.34264275431632996, -0.020034397020936012, 0.08842471241950989, 0.14117978513240814, -0.04911110922694206, 0.1265031397342682, -0.11693445593118668], [0.4146185517311096, -0.3685145974159241, -0.23537087440490723, 0.2761026918888092, -0.3664177358150482, -0.08595359325408936, 0.2815038561820984, -0.05437583476305008, 0.2588060200214386, 0.29020872712135315, -0.14661292731761932], [-0.0646921843290329, -0.182308629155159, 0.09220938384532928, -0.1396988034248352, -0.25286170840263367, 0.13555364310741425, -0.27637431025505066, -0.15569770336151123, -0.10142409056425095, 0.05210421606898308, 0.04409392550587654], [0.5702751278877258, 0.16638094186782837, 0.032184336334466934, -0.06698731333017349, 0.29246023297309875, 0.1515844166278839, -0.22994448244571686, 0.11889053136110306, 0.18478389084339142, -0.014359738677740097, -0.22007380425930023], [-0.4390193521976471, 0.23326954245567322, -0.12485747039318085, -0.0330384187400341, 0.08447534590959549, 0.08472830802202225, 0.3263845145702362, 0.14282044768333435, 0.3207760155200958, 0.20592693984508514, 0.249777689576149], [0.42023828625679016, -0.16854672133922577, 0.26045241951942444, -0.4433416724205017, -0.44141072034835815, 0.3585437834262848, 0.4060821235179901, -0.0274039339274168, 0.12963683903217316, -0.07296259701251984, -0.019405938684940338], [0.30873650312423706, 0.2692752778530121, 0.13002119958400726, 0.023677164688706398, 0.2503710985183716, -0.21796344220638275, -0.32715824246406555, 0.3040699064731598, -0.05749606341123581, 0.2052420824766159, 0.029570458456873894], [-0.19529998302459717, 0.17126430571079254, 0.12788107991218567, -0.2314329743385315, -0.24860654771327972, 0.37739822268486023, 0.4849972724914551, 0.04857112094759941, 0.012026451528072357, 0.07442744076251984, 0.15080101788043976], [0.4258067011833191, 0.2912933826446533, -0.3257521390914917, 0.02552856132388115, -0.394284188747406, 0.5590965151786804, -0.013154037296772003, 0.12937654554843903, 0.14306330680847168, -0.10250218957662582, -0.03171731159090996], [-0.07956120371818542, -0.269332617521286, 0.2909599244594574, -0.16704533994197845, 0.04383336007595062, 0.47286373376846313, -0.08456108719110489, -0.24021460115909576, 0.06248518079519272, -0.15301363170146942, 0.15411479771137238], [0.5023753046989441, 0.21184071898460388, 0.44256776571273804, -0.28628459572792053, -0.1953202337026596, 0.22197087109088898, 0.14785857498645782, -0.0705939456820488, 0.25051993131637573, 0.25924137234687805, 0.09248077869415283], [-0.40439534187316895, -0.11285359412431717, 0.25876933336257935, 0.036235518753528595, 0.18902534246444702, 0.2100282460451126, -0.34503012895584106, -0.14069630205631256, 0.019729526713490486, 0.3032636344432831, 0.3404134511947632], [0.14742781221866608, 0.3869916796684265, 0.47476181387901306, -0.42791005969047546, 0.17614896595478058, 0.19551005959510803, 0.25315365195274353, 0.2549735903739929, -0.3359511196613312, 0.0707796961069107, -0.1872834861278534], [-0.0688578262925148, -0.10302946716547012, 0.19441430270671844, 0.3556574583053589, -0.10407064110040665, 0.1661834716796875, -0.16506537795066833, -0.31794267892837524, -0.009503648616373539, -0.05707160010933876, -0.3372938334941864], [-0.28822511434555054, -0.014728636480867863, 0.2321123480796814, 0.24831439554691315, 0.03146258741617203, 0.0028024050407111645, 0.25527313351631165, -0.24415655434131622, -0.2312854677438736, 0.216018408536911, 0.060536086559295654], [0.17590105533599854, 0.2656811773777008, 0.1801455169916153, -0.11247418075799942, 0.17854592204093933, 0.22953663766384125, -0.028355665504932404, -0.09094654023647308, -0.3001750111579895, 0.07529530674219131, -0.006534791085869074], [0.610406219959259, 0.18924328684806824, 0.17454610764980316, 0.05269297584891319, 0.12172262370586395, -0.10317535698413849, 0.07319679856300354, -0.10259302705526352, 0.2646705210208893, 0.14541369676589966, 0.13591067492961884], [0.5431674122810364, 0.05497938022017479, 0.25569161772727966, 0.2766026556491852, -0.03968405723571777, -0.21927429735660553, -0.2788051664829254, 0.0543072409927845, 0.211159810423851, 0.014197520911693573, -0.09414456784725189], [-0.2531128525733948, -0.030949419364333153, 0.26822391152381897, -0.13843445479869843, 0.2677879333496094, -0.08492987602949142, -0.29386600852012634, 0.08826468139886856, 0.18722693622112274, -0.1439829021692276, 0.22576425969600677], [-0.3224599063396454, 0.2582851052284241, 0.1598963439464569, -0.03223496302962303, 0.2356773167848587, -0.35175621509552, -0.29037922620773315, -0.07739211618900299, 0.13403773307800293, -0.12382977455854416, -0.11844973266124725], [0.3924112915992737, -0.3875208795070648, -0.21884498000144958, 0.4256395995616913, 0.33631205558776855, -0.44635164737701416, -0.12435690313577652, 0.2952870726585388, 0.2952568531036377, 0.046151578426361084, -0.01989450491964817], [-0.037574704736471176, 0.3757447302341461, 0.11058919131755829, -0.12336447089910507, 0.2517176568508148, -0.13705402612686157, 0.2971247434616089, 0.0734555721282959, 0.18793360888957977, 0.12860631942749023, -0.3854280412197113], [-0.06994692981243134, -0.10812776535749435, 0.23756609857082367, -0.06304667145013809, -0.27317094802856445, -0.26609474420547485, -0.1517699956893921, -0.018177948892116547, -0.019649149850010872, -0.061311669647693634, 0.13083484768867493], [0.4733797013759613, -0.2758783996105194, -0.44737666845321655, 0.0907251164317131, 0.31727734208106995, 0.21281926333904266, 0.1246805489063263, -0.13838092982769012, -0.08242370933294296, -0.12045817077159882, 0.3122805058956146], [-0.16746468842029572, 0.44882968068122864, 0.05670805275440216, 0.369010329246521, -0.22628997266292572, -0.22136938571929932, 0.13400541245937347, -0.07040070742368698, 0.33022987842559814, 0.09549561887979507, 0.14846715331077576], [0.13413870334625244, -0.24477697908878326, -0.2611422836780548, -0.29569509625434875, -0.18511950969696045, -0.17965970933437347, -0.2532519996166229, -0.20599298179149628, -0.13416703045368195, -0.050249867141246796, -0.06629073619842529], [0.25952383875846863, 0.3254557251930237, -0.48817089200019836, 0.0825447216629982, -0.15166489779949188, -0.3761322498321533, 0.45193132758140564, 0.047469362616539, 0.025255240499973297, 0.07921653985977173, -0.20607537031173706], [-0.34316232800483704, 0.6681806445121765, 0.35868173837661743, 0.022355491295456886, 0.3358423411846161, 0.11278805136680603, -0.12688715755939484, 0.26606160402297974, 0.18762829899787903, -0.046012528240680695, 0.038536254316568375], [0.34899264574050903, 0.40885835886001587, 0.13960984349250793, 0.09836774319410324, 0.023561937734484673, -0.05387226119637489, 0.1608341783285141, -0.00849771499633789, -0.17076073586940765, -0.2580389678478241, -0.18850119411945343], [-0.3241507112979889, -0.015283248387277126, -0.24377642571926117, 0.2690965235233307, 0.10300932824611664, 0.09183990210294724, -0.17333392798900604, 0.13452190160751343, 0.0848192423582077, 0.2989440858364105, -0.21741464734077454], [0.3983655273914337, -0.45800864696502686, -0.21659024059772491, -0.3961730897426605, 0.252206414937973, 0.3737904131412506, 0.22023677825927734, -0.0639900416135788, -0.030902676284313202, 0.335873544216156, 0.2163866013288498], [0.07262519747018814, 0.05845329165458679, 0.14686031639575958, 0.4709872901439667, -0.19623559713363647, -0.12405958771705627, -0.2412932813167572, -0.19101747870445251, 0.20046286284923553, -0.16997088491916656, 0.178484246134758]], "q_net.0.bias": [0.06396718323230743, 0.13399234414100647, 0.19438691437244415, -0.010951109230518341, 0.2511498034000397, 0.10131233930587769, -0.08322819322347641, 0.09047261625528336, 0.14160440862178802, -0.01669510081410408, 0.10288750380277634, 0.14948800206184387, 0.07417207956314087, 0.03726086765527725, 0.17702367901802063, 0.3056636452674866, 0.3041479289531708, 0.3223397433757782, 0.019932139664888382, 0.11513383686542511, 0.13432170450687408, 0.017888346686959267, 0.14448122680187225, 0.19807088375091553, -0.17685271799564362, -0.06763271242380142, 0.1930721402168274, -0.0023376725148409605, -0.2675250470638275, -0.07348376512527466, 0.031395379453897476, -0.09193921089172363, -0.028916988521814346, -0.10825111716985703, 0.15335112810134888, 0.14312487840652466, 0.046518150717020035, 0.037238966673612595, 0.2923649847507477, 0.4016600549221039, 0.1346840262413025, 0.18925733864307404, 0.2121390998363495, 0.048024848103523254, 0.13554908335208893, 0.2740074098110199, -0.056966908276081085, -0.1281687468290329, 0.11871914565563202, 0.2072802633047104, 0.1464592069387436, 0.29172754287719727, -0.12933018803596497, 0.03298726677894592, -0.32003867626190186, -0.07175039499998093, -0.13629193603992462, 0.05919887125492096, -0.07925792038440704, 0.2718179225921631, 0.3102031946182251, 0.364663690328598, 0.06408482044935226, -0.08484435826539993], "q_net.2.weight": [[-0.011789197102189064, 0.27646681666374207, 0.06236598268151283, 0.1632789522409439, -0.0519244410097599, 0.13383543491363525, 0.07241872698068619, -0.13257275521755219, 0.037450019270181656, 0.10634782910346985, 0.07781295478343964, 0.1362941414117813, -0.03914227709174156, 0.00258974963799119, -0.026116326451301575, -0.05665048211812973, -0.18966148793697357, -0.06825874000787735, -0.03746596351265907, 0.09354113787412643, 0.26508376002311707, -0.014146166853606701, 0.032009273767471313, 0.041624490171670914, 0.07711093872785568, 0.005233375355601311, 0.0017766638193279505, -0.17733143270015717, -0.10780614614486694, 0.14279918372631073, 0.19439886510372162, -0.005490342620760202, 0.1901378482580185, 0.05777463689446449, 0.06054993346333504, 0.14714458584785461, 0.1610255241394043, 0.17419807612895966, -0.057089317589998245, 0.08828817307949066, -0.0024473059456795454, 0.06566505879163742, 0.10114029794931412, 0.09119678288698196, -0.045856695622205734, -0.11660938709974289, 0.2004001885652542, -0.04624319449067116, 0.06855005025863647, 0.010805766098201275, -0.027423737570643425, 0.33267563581466675, 0.02973886765539646, 0.20534169673919678, 0.03562292084097862, 0.1648390293121338, 0.09182865917682648, -0.10002836585044861, 0.15800733864307404, 0.15876638889312744, -0.06758573651313782, 0.0579354502260685, 0.12373343110084534, 0.019764959812164307], [0.15885506570339203, -0.17415091395378113, -0.338772177696228, -0.1622406244277954, 0.0067253997549414635, -0.17856110632419586, -0.1287032663822174, -0.17332056164741516, 0.15254496037960052, 0.09984548389911652, -0.3162023425102234, -0.15714317560195923, 0.08063306659460068, -0.31841766834259033, 0.16449785232543945, 0.17174844443798065, 0.02813073806464672, -0.07216985523700714, -0.22639527916908264, 0.186824232339859, -0.32011932134628296, 0.15316376090049744, 0.22419893741607666, -0.26449084281921387, 0.19721776247024536, -0.010742641054093838, 0.0010598227381706238, 0.41179129481315613, 0.2728649079799652, -0.20062166452407837, -0.1416572779417038, 0.04276920482516289, 0.14062055945396423, 0.044107455760240555, -0.03577625751495361, 0.07731439173221588, -0.3382532000541687, -0.07590760290622711, 0.04757823795080185, -0.29356399178504944, -0.15106020867824554, -0.11972178518772125, -0.052550122141838074, -0.16863016784191132, -0.034850653260946274, -0.002241578884422779, -0.1920049488544464, 0.013967026025056839, 0.20169346034526825, 0.12225580215454102, -0.018739935010671616, -0.3574279248714447, 0.2800818383693695, -0.013745726086199284, 0.0021167248487472534, 0.09728286415338516, 0.03924153372645378, -0.11980409920215607, -0.11464821547269821, -0.05464531108736992, -0.03800197318196297, 0.030770663172006607, 0.04086487367749214, 0.07106269150972366], [-0.02339954487979412, 0.059923116117715836, 0.19366468489170074, -0.1063489094376564, 0.02105983905494213, 0.08174010366201401, -0.16404148936271667, 0.1165178194642067, -0.09478709101676941, -0.2851548194885254, 0.13598096370697021, -0.05445631593465805, -0.17589350044727325, -0.1271231323480606, -0.17091801762580872, 0.04426659271121025, 0.03204910084605217, 0.07203330099582672, 0.17766419053077698, 0.14962932467460632, -0.2968585193157196, -0.1321747899055481, -0.056454889476299286, -0.0022904546931385994, -0.22281689941883087, -0.010060936212539673, -0.149775430560112, -0.11725474894046783, -0.08099004626274109, -0.12085827440023422, 0.06648428738117218, 0.047179169952869415, -0.14757396280765533, -0.06488794088363647, -0.01933916285634041, -0.1104983538389206, 0.14502468705177307, -0.005384976509958506, -0.0792982429265976, 0.29683706164360046, 0.017212525010108948, 0.13726162910461426, 0.03665005415678024, 0.07890238612890244, 0.12639403343200684, 0.11566460877656937, 0.19928522408008575, -0.035015903413295746, -0.02547924779355526, -0.30279603600502014, -0.08962489664554596, -0.16793088614940643, -0.22156037390232086, 0.04201293736696243, -0.06773436069488525, 0.06620132178068161, -0.04726747050881386, -0.0341167151927948, -0.02487465925514698, 0.18116150796413422, 0.049490343779325485, 0.15072691440582275, -0.11068016290664673, -0.1629946082830429], [0.2575820982456207, -0.3201502859592438, -0.3218984305858612, -0.20983989536762238, 0.05829557776451111, -0.4284188449382782, -0.15214401483535767, -0.12718839943408966, 0.0876847431063652, 0.23457404971122742, -0.2577221691608429, 0.004568126052618027, 0.29642340540885925, -0.3115942180156708, 0.20922446250915527, 0.10050416737794876, 0.0993231013417244, -0.05722195655107498, -0.40648654103279114, 0.17277222871780396, -0.3358273208141327, 0.0974680557847023, 0.13388626277446747, -0.31778421998023987, 0.32516729831695557, -0.06288463622331619, 0.10556017607450485, 0.43435490131378174, 0.1999809443950653, -0.21174249053001404, -0.21136347949504852, 0.08342418074607849, 0.09324659407138824, -0.08438264578580856, -0.04908869042992592, 0.07673793286085129, -0.34160929918289185, -0.2729121148586273, 0.11465385556221008, -0.24021269381046295, -0.1880374401807785, -0.188277930021286, -0.04882527515292168, -0.29805222153663635, -0.12624295055866241, 0.07845476269721985, -0.09285369515419006, -0.11421460658311844, 0.22261781990528107, 0.1827012151479721, -0.037856586277484894, -0.13968048989772797, 0.30311137437820435, -0.06227637082338333, 0.07648740708827972, 0.15747623145580292, -0.12486173957586288, -0.015720829367637634, -0.10986998677253723, -0.04236268624663353, 0.07237821817398071, -0.047253143042325974, 0.016047606244683266, 0.1689850240945816], [0.10192744433879852, -0.24314147233963013, -0.08056461066007614, -0.2557832896709442, -0.09090976417064667, -0.08963194489479065, 0.06083854287862778, 0.021914701908826828, -0.04113616794347763, 0.05177350342273712, -0.15420052409172058, -0.026296066120266914, 0.16719891130924225, -0.030201632529497147, 0.0732685774564743, 0.04394559934735298, 0.16307766735553741, -0.0645516961812973, -0.15702275931835175, 0.10251186788082123, -0.08602005243301392, 0.2019030600786209, 0.32338404655456543, -0.04891161993145943, 0.1344110667705536, 0.19590099155902863, -0.025175193324685097, 0.4078251123428345, 0.17120636999607086, -0.2271636426448822, -0.3128444254398346, 0.2239675670862198, 0.13946101069450378, -0.013153557665646076, -0.14499926567077637, 0.1409480720758438, -0.07741331309080124, -0.2298591136932373, 0.122861847281456, -0.21024517714977264, -0.12206196039915085, -0.09761862456798553, -0.06288434565067291, -0.013909389264881611, -0.006661245599389076, -0.00981040671467781, -0.040255773812532425, -0.007772844284772873, -0.028568651527166367, 0.201506108045578, -0.1090843677520752, -0.11772629618644714, 0.3738691210746765, -0.08483998477458954, -0.04519323259592056, 0.10237662494182587, -0.09279805421829224, 0.10074865818023682, -0.019088629633188248, -0.05033057928085327, -0.0008385173277929425, 0.12318871915340424, -0.07634928822517395, 0.13466642796993256], [0.09292744100093842, -0.017682209610939026, 0.049930378794670105, -0.05354602634906769, -0.032908231019973755, -0.05100589990615845, -0.02315478026866913, -0.05130305886268616, 0.05923548340797424, 0.11594638228416443, -0.09679260849952698, -0.08792364597320557, -0.01909235119819641, 0.011482417583465576, 0.010808423161506653, -0.07957315444946289, -0.09569934010505676, 0.09443357586860657, 0.053133800625801086, -0.045424386858940125, -0.12363041937351227, -0.07156696915626526, -0.06431612372398376, 0.039478451013565063, -0.10832574963569641, 0.022618025541305542, 0.02604779601097107, 0.09004949033260345, 0.10743056237697601, 0.11874090135097504, -0.023068547248840332, -0.09101416170597076, -0.08942745625972748, -0.05588372051715851, 0.08292201161384583, -0.054399117827415466, 0.01570272445678711, 0.029395729303359985, -0.06478056311607361, -0.10636226832866669, -0.0428643524646759, 0.03143961727619171, -0.024395689368247986, -0.052097976207733154, 0.09267844259738922, -0.012329623103141785, -0.04081006348133087, -0.07933050394058228, -0.10717274248600006, -0.09025596082210541, -0.02317669987678528, 0.07296669483184814, -0.010092422366142273, -0.10270428657531738, 0.003192722797393799, -0.008322373032569885, -0.059586673974990845, -0.029269948601722717, 0.013089269399642944, -0.026376500725746155, 0.12362676858901978, 0.09770363569259644, 0.0178099125623703, -0.08130423724651337], [-0.1725877970457077, -0.04893992841243744, 0.10483359545469284, -0.25826284289360046, 0.1344694197177887, -0.12567314505577087, -0.1428387463092804, -0.21946293115615845, -0.019012069329619408, -0.23916058242321014, -0.29465171694755554, -0.2033851146697998, -0.23207993805408478, 0.06921236217021942, -0.03469117730855942, -0.2722811996936798, 0.17096538841724396, 0.1969050168991089, -0.022326791658997536, -0.17873713374137878, -0.10340667515993118, 0.021897591650485992, -0.12261100113391876, -0.07254485040903091, -0.11311103403568268, 0.27708640694618225, -0.07044282555580139, 0.048233915120363235, 0.056023821234703064, -0.2276977300643921, -0.11083788424730301, 0.046462532132864, 0.06097329035401344, -0.16812966763973236, -0.18020591139793396, 0.16201405227184296, -0.03970211744308472, -0.16080106794834137, 0.10381466895341873, 0.01899287849664688, 0.29557693004608154, -0.07840702682733536, 0.03757987916469574, -0.19027768075466156, 0.0692053809762001, 0.0043910471722483635, -0.10827910155057907, 0.12028659135103226, -0.15371395647525787, -0.046872079372406006, 0.038361720740795135, -0.05424884706735611, -0.029217367991805077, -0.18083682656288147, -0.057345595210790634, -0.16922445595264435, -0.024481860920786858, -0.1235804557800293, -0.07952241599559784, 0.23682674765586853, 0.21741794049739838, -0.17380563914775848, -0.3828212320804596, 0.013065222650766373], [0.12899024784564972, -0.2724553942680359, -0.052124056965112686, -0.18814153969287872, 0.06944271177053452, -0.29870566725730896, 0.04222271218895912, -0.10694995522499084, 0.1364729404449463, 0.22924457490444183, -0.27988338470458984, -0.013361337594687939, -0.07219797372817993, -0.19647864997386932, 0.1609799861907959, 0.1807938814163208, 0.10178116708993912, 0.025128405541181564, -0.21678796410560608, 0.01743810810148716, -0.33110421895980835, 0.18226487934589386, 0.2415984719991684, -0.05282823368906975, 0.027679840102791786, 0.09621375799179077, 0.125349223613739, 0.3222218155860901, 0.18860308825969696, -0.2495514452457428, -0.25801795721054077, 0.14132356643676758, -0.06748297810554504, -0.016407886520028114, 0.035814736038446426, 0.1328427940607071, -0.14173512160778046, -0.18472537398338318, 0.12247800081968307, -0.3079710900783539, -0.03535652533173561, 0.10189227759838104, -0.06089995056390762, 0.011062285862863064, -0.17933380603790283, -0.042465999722480774, -0.2688393294811249, 0.11360777914524078, 0.12812195718288422, 0.19769418239593506, 0.09235022962093353, -0.07678356021642685, 0.11176690459251404, -0.029401438310742378, -0.08904115855693817, 0.18982644379138947, 0.06839579343795776, 0.02204759418964386, -0.1812150478363037, 0.01427285186946392, -0.0901983231306076, 0.058607906103134155, 0.13624998927116394, 0.005813875235617161], [0.08988358080387115, 0.15625113248825073, 0.02364862896502018, 0.17500455677509308, -0.08038531243801117, 0.01960967667400837, 0.02624337375164032, -0.08262647688388824, 0.07709755748510361, 0.05864006653428078, 0.05146104842424393, 0.05279204249382019, 0.15714676678180695, 0.07120345532894135, -0.08094890415668488, -0.02115790732204914, -0.028077557682991028, 0.06879925727844238, 0.02329764887690544, -0.11556677520275116, 0.2639569640159607, 0.050237614661455154, -0.07849714905023575, -0.06646723300218582, -0.11951383203268051, 0.02690526656806469, -0.16222675144672394, -0.15543405711650848, -0.06001351773738861, 0.1291688233613968, 0.3942462205886841, -0.10866113007068634, 0.03117271326482296, 0.11373081058263779, -0.06825248897075653, 0.08681248873472214, -0.2095351368188858, 0.10272911936044693, 0.04825691133737564, -0.08704806119203568, 0.1577741503715515, 0.02304287813603878, 0.02686813287436962, 0.1272938847541809, -0.014245680533349514, -0.0535597950220108, -0.18104033172130585, -0.06411711126565933, 0.15774384140968323, 0.15116490423679352, -0.07234589755535126, 0.29047486186027527, -0.05264585465192795, -0.10100461542606354, 0.012980642728507519, 0.04017527028918266, 0.09243098646402359, -0.0012312382459640503, 0.32190245389938354, -0.18944033980369568, 0.14331316947937012, 0.030576080083847046, 0.11126062273979187, -0.11333836615085602], [0.18571051955223083, 0.01585519127547741, -0.05833994597196579, -0.10285878926515579, 0.15640701353549957, -0.13262778520584106, 0.12611843645572662, -0.004923347383737564, 0.074919693171978, 0.12887461483478546, -0.1406015008687973, 0.0977303758263588, 0.05096502602100372, -0.3539934754371643, 0.10013236105442047, 0.07613112777471542, 0.1104397252202034, 0.08855318278074265, -0.0071588484570384026, 0.07913672178983688, -0.19885648787021637, 0.27320483326911926, 0.2246575504541397, -0.035574328154325485, -0.012429268099367619, 0.1351139396429062, -0.06833785027265549, 0.0840534046292305, 0.2545619308948517, -0.1665055900812149, 0.0964806005358696, 0.19918565452098846, 0.2873005270957947, 0.24455785751342773, -0.0174140352755785, 0.10010414570569992, -0.09192366898059845, 0.2343021035194397, 0.15558649599552155, -0.022965315729379654, 0.026084819808602333, -0.13746418058872223, 0.09451928734779358, -0.03355802595615387, 0.15840061008930206, 0.043546173721551895, -0.2018587291240692, 0.10531884431838989, 0.2600667178630829, 0.1759214699268341, -0.04809634014964104, 0.009097081609070301, 0.028973005712032318, 0.050322964787483215, -0.14101190865039825, 0.23915348947048187, -0.07459571957588196, 0.08782513439655304, 0.057799868285655975, 0.1548936814069748, 0.2327970266342163, -0.011865423992276192, 0.04637300968170166, 0.04224951192736626], [0.04018307104706764, 0.05708853900432587, 0.048218391835689545, 0.04716445133090019, 0.02092420496046543, 0.02733020670711994, 0.01912808232009411, 0.3138321340084076, -0.09691959619522095, -0.07983466982841492, 0.17419080436229706, 0.1151556745171547, 0.027857737615704536, 0.1275423765182495, 0.1029476597905159, 0.09901140630245209, -0.11970510333776474, -0.2519448697566986, -0.11556951701641083, -0.0629250630736351, 0.1174788847565651, -0.14355787634849548, 0.02872445434331894, 0.20498304069042206, 0.044401347637176514, -0.06685362756252289, 0.07768532633781433, 0.0036944313906133175, -0.040145598351955414, 0.12981915473937988, 0.01253680232912302, -0.14708374440670013, 0.028533346951007843, -0.20825405418872833, 0.11984960734844208, -0.10179143399000168, 0.1477135270833969, 0.09705737978219986, -0.05831712856888771, 0.17625856399536133, -0.2957943081855774, 0.21861772239208221, -0.0051099383272230625, 0.13611775636672974, 0.10389595478773117, -0.21149015426635742, -0.06513086706399918, -0.0382390022277832, -0.002044913126155734, -0.14745654165744781, 0.17676252126693726, 0.0246399138122797, -0.021763544529676437, 0.179862380027771, 0.07338812202215195, -0.13018222153186798, -0.2927877604961395, -0.0026348084211349487, 0.025435157120227814, -0.07618704438209534, -0.13631503283977509, -0.05478677526116371, 0.16884742677211761, -0.14619790017604828], [0.10662240535020828, 0.07724469900131226, -0.011485179886221886, -0.11771322041749954, 0.06584952771663666, -0.04699096083641052, 0.20992235839366913, 0.0383886955678463, -0.001295449328608811, 0.05927188694477081, -0.08875570446252823, 0.05055910721421242, -0.08904077857732773, -0.08268227428197861, 0.17474563419818878, -0.12043920904397964, -0.013934548012912273, 0.15415847301483154, -0.10858836024999619, -0.10097705572843552, 0.07172484695911407, 0.1467793732881546, -0.2591421902179718, -0.06282587349414825, -0.09783878922462463, 0.09250054508447647, 0.0453183688223362, -0.3464761972427368, -0.03520231321454048, -0.14643894135951996, 0.11436649411916733, -0.29089757800102234, 0.14443011581897736, -0.15220502018928528, -0.10274959355592728, 0.10663030296564102, -0.20939114689826965, 0.3062632381916046, 0.018138078972697258, 0.015266768634319305, 0.08171653747558594, -0.054102007299661636, 0.13425685465335846, -0.15720978379249573, 0.12362127751111984, -0.15279170870780945, -0.24013687670230865, 0.12202674895524979, -0.022667579352855682, 0.03698119521141052, -0.04486630856990814, 0.17734390497207642, -0.30533936619758606, 0.11470238864421844, 0.08513806760311127, 0.1743055135011673, -0.21112950146198273, 0.1025698333978653, -0.15889599919319153, 0.13946546614170074, 0.08617649972438812, -0.07459566742181778, 0.05192940682172775, -0.0830606073141098], [0.0346086248755455, 0.08626952767372131, -0.134398952126503, 0.03834310546517372, 0.19165687263011932, -0.23988300561904907, 0.08754266053438187, 0.00921199657022953, 0.10789754986763, 0.009642517194151878, -0.019970711320638657, -0.21847935020923615, 0.014108000323176384, 0.2232990711927414, 0.026709208264946938, -0.09006298333406448, 0.2104802429676056, 0.0005820654914714396, 0.030140765011310577, -0.12377171963453293, -0.015667123720049858, 0.018802478909492493, -0.1723419725894928, -0.13016939163208008, -0.2711202800273895, 0.021490946412086487, -0.09551448374986649, -0.14962095022201538, -0.11686165630817413, -0.04064776003360748, 0.036295607686042786, -0.026717456057667732, 0.07409147173166275, 0.159982830286026, -0.2894628942012787, 0.13110505044460297, -0.04686751589179039, 0.1460244357585907, -0.07585339993238449, 0.02580440044403076, 0.2721545696258545, 0.060513727366924286, 0.18818922340869904, 0.06176368519663811, 0.1264943778514862, -0.32329994440078735, -0.028391696512699127, 0.09163732081651688, 0.08746542781591415, -0.03063848614692688, 0.05803348496556282, -0.030734604224562645, -0.28420332074165344, -0.14425282180309296, 0.07912596315145493, 0.06690049171447754, -0.3817827105522156, -0.060190871357917786, 0.004643531050533056, 0.035302337259054184, 0.09367353469133377, -0.2868465781211853, 0.05697906017303467, -0.24671271443367004], [0.1731947958469391, 0.25622475147247314, -0.34140413999557495, 0.017846373841166496, 0.12841372191905975, -0.2993989884853363, 0.28074759244918823, -0.10371052473783493, 0.0066308192908763885, 0.023681780323386192, 0.0009830727940425277, -0.054235491901636124, 0.02888256311416626, 0.048745397478342056, 0.16969355940818787, -0.060968510806560516, 0.06374619901180267, -0.012938889674842358, -0.18503552675247192, 0.05355827137827873, -0.1030089259147644, -0.008488429710268974, 0.012930004857480526, 0.03981612250208855, -0.18008555471897125, -0.22931408882141113, -0.18329869210720062, -0.01615474559366703, -0.09914181381464005, -0.03890630975365639, 0.19276100397109985, 0.03774644434452057, 0.0029033285100013018, 0.01885681226849556, -0.12358691543340683, 0.04062163457274437, -0.35037389397621155, 0.2940085530281067, 0.1417943239212036, 0.11310113966464996, 0.05134459584951401, -0.1605268120765686, 0.0768628865480423, -0.014866076409816742, 0.1701761782169342, -0.28122833371162415, -0.21345442533493042, 0.08923890441656113, 0.09955964237451553, 0.11283161491155624, 0.013114976696670055, 0.09277185052633286, -0.19683539867401123, -0.09125958383083344, -0.005070813931524754, 0.1619466096162796, -0.32673177123069763, -0.08347459137439728, 0.0955745056271553, -0.14923587441444397, 0.12235525995492935, -0.3924936056137085, 0.15337811410427094, -0.32972776889801025], [0.04749800264835358, -0.13947343826293945, 0.024794699624180794, -0.18144653737545013, 0.22678925096988678, -0.08408110588788986, -0.08709646016359329, -0.056375402957201004, 0.07261139154434204, -0.06492109596729279, 0.003377411747351289, -0.28839948773384094, -0.0788879469037056, -0.041441187262535095, 0.055622439831495285, 0.06827373057603836, 0.22584721446037292, 0.02656005509197712, -0.001935898675583303, 0.006935544312000275, -0.11891382187604904, 0.17571775615215302, 0.1838826686143875, -0.14259202778339386, -0.045681536197662354, 0.21105454862117767, 0.06076951324939728, 0.17361746728420258, 0.04501553252339363, -0.19431720674037933, -0.17738962173461914, 0.1591348946094513, -0.025651536881923676, -0.01738855615258217, -0.22382581233978271, 0.08536461740732193, -0.12352967262268066, 0.030091216787695885, 0.14856240153312683, 0.027071790769696236, 0.06320088356733322, -0.28126204013824463, 0.14450956881046295, -0.2812800705432892, 0.20103828608989716, -0.007703094277530909, 0.16214390099048615, 0.09448303282260895, 0.0735894963145256, 0.04227534309029579, -0.06548158824443817, -0.04814225807785988, 0.13442757725715637, -0.09260440617799759, 0.0392862893640995, 0.027484271675348282, -0.06959526985883713, -0.07503031194210052, -0.08951956033706665, 0.08085063844919205, 0.11055995523929596, -0.10153968632221222, -0.10359720885753632, -0.10382270067930222], [-0.1260499805212021, -0.0661395713686943, 0.08339300006628036, 0.11515137553215027, 0.08666394650936127, 0.09529279172420502, 0.006563182920217514, 0.16852355003356934, 0.1394723802804947, 0.05528385564684868, 0.2332119196653366, 0.07159005850553513, 0.15111683309078217, 0.07678177952766418, -0.09309408068656921, 0.06853141635656357, -0.1537519246339798, 0.08686671406030655, 0.11402298510074615, 0.12233951687812805, 0.05851489305496216, -0.08252295851707458, 0.06972762942314148, -0.01590530015528202, 0.20394159853458405, -0.1069871261715889, 0.03815833851695061, 0.07026222348213196, 0.042096156626939774, 0.12657088041305542, -0.001535788644105196, 0.1961212009191513, -0.1377793550491333, -0.054809365421533585, 0.1525336354970932, -0.12646950781345367, -0.0035476628690958023, -0.027398765087127686, 0.008021549321711063, 0.12621241807937622, -0.09200041741132736, 0.16852569580078125, -0.10887850075960159, 0.10297765582799911, -0.0004091550363227725, 0.18968430161476135, 0.07552585750818253, 0.028372738510370255, 0.02501317486166954, -0.031399767845869064, -0.02112966775894165, 0.20804938673973083, 0.0043823812156915665, -0.02626708149909973, 0.005672146566212177, -0.1123153492808342, 0.16949979960918427, -0.0057661086320877075, 0.027093246579170227, 0.07953117787837982, -0.018302861601114273, 0.22792398929595947, 0.15634499490261078, 0.20251843333244324], [0.21203139424324036, -0.11293123662471771, -0.25684982538223267, -0.11688762158155441, 0.09488816559314728, -0.25685733556747437, 0.11067420244216919, 0.07516919821500778, 0.030098535120487213, 0.13298949599266052, -0.12057138234376907, -0.05325496196746826, -0.1260303109884262, -0.06219020113348961, 0.03629661351442337, 0.03981731832027435, -0.017165569588541985, -0.10195519775152206, -0.2453145682811737, 0.18487894535064697, -0.10190924257040024, 0.13378548622131348, 0.15934859216213226, -0.10722300410270691, 0.03873549774289131, 0.1438058465719223, -0.08263805508613586, 0.30274954438209534, 0.28699198365211487, -0.2034679651260376, -0.16467729210853577, 0.17788128554821014, 0.013712964951992035, 0.1424330174922943, -0.19607453048229218, 0.02801322191953659, -0.010880877263844013, -0.2007344365119934, 0.08924508094787598, -0.19273297488689423, -0.16556759178638458, -0.1816950887441635, 0.09843061864376068, -0.03297428786754608, 0.13258224725723267, -0.028298353776335716, 0.042286694049835205, 0.19670222699642181, 0.09831426292657852, 0.17584040760993958, -0.15715482831001282, -0.16360977292060852, 0.053836654871702194, -0.03159679099917412, 0.0072998967953026295, -0.04248981922864914, -0.13452880084514618, -0.0766507089138031, -0.18342217803001404, 0.02759295515716076, 0.1881924271583557, 0.013161987997591496, -0.11994336545467377, 0.09463142603635788], [0.013655048795044422, -0.016967397183179855, 0.1207374855875969, 0.035120636224746704, -0.03609824553132057, 0.04487230256199837, 0.01685916632413864, 0.05942320451140404, -0.026148749515414238, 0.004296794533729553, -0.08032182604074478, 0.17692340910434723, 0.16351313889026642, -0.02486550621688366, 0.0361335389316082, -0.002770553342998028, -0.0808475911617279, 0.015061893500387669, 0.04265003651380539, -0.24662940204143524, 0.0676497295498848, -0.0878085345029831, 0.05845550820231438, 0.09411881864070892, 0.004592407960444689, -0.10403480380773544, 0.020566172897815704, 0.02324138954281807, 0.08906044811010361, 0.1274196356534958, 0.11592336744070053, -0.10434135794639587, -0.06974384933710098, -0.059458158910274506, 0.13742724061012268, 0.07133915275335312, -0.05910735949873924, -0.03792614862322807, 0.00450987508520484, -0.06815475970506668, -0.12647037208080292, 0.23316392302513123, -0.01531657949090004, 0.13497477769851685, 0.00182539748493582, -0.014670461416244507, -0.3535325825214386, 0.04575099050998688, 0.09857817739248276, 0.03350881114602089, 0.07952425628900528, -0.016049887984991074, 0.051135048270225525, 0.14329248666763306, -0.06953275203704834, -0.02295643836259842, 0.11033906042575836, 0.024506494402885437, 0.12645870447158813, 0.15035971999168396, -0.12330573797225952, 0.07781090587377548, 0.13513538241386414, 0.09022818505764008], [0.013718828558921814, 0.09075600653886795, -0.12858062982559204, 0.10588226467370987, -0.008742738515138626, -0.060588538646698, -0.05628916621208191, -0.1123875081539154, 0.10406970977783203, -0.051733795553445816, 0.09881297498941422, -0.020880604162812233, 0.07422401756048203, 0.1017044335603714, 0.00847600493580103, -0.013515670783817768, 0.025064680725336075, 0.03786240890622139, -0.05299433320760727, -0.055010199546813965, -0.06324948370456696, -0.018173716962337494, -0.07533630728721619, -0.11372725665569305, -0.07971154153347015, 0.09070304781198502, 0.028353571891784668, -0.12199147045612335, 0.10630269348621368, 0.04167577251791954, -0.09365196526050568, -0.07276563346385956, 0.027066588401794434, 0.03312094882130623, -0.09754633903503418, -0.08602900058031082, 0.024282367900013924, -0.10673375427722931, -0.08763286471366882, -0.11911425739526749, 0.11184617131948471, -0.012507006525993347, 0.046030789613723755, -0.10907196998596191, 0.0008266146760433912, -0.09087011963129044, -0.033771783113479614, -0.020358756184577942, -0.028716688975691795, -0.11265004426240921, -0.10316470265388489, -0.0984022468328476, -0.010153660550713539, 0.024893751367926598, -0.1135191023349762, -0.11126735806465149, -0.10013440251350403, -0.09807465970516205, -0.0003990609257016331, -0.12015028297901154, -0.01328304223716259, 0.11374448239803314, -0.11674726009368896, -0.01689085364341736], [0.042878780514001846, 0.23237252235412598, -0.07453206181526184, 0.21871675550937653, 0.01098900567740202, 0.05165969207882881, 0.22259961068630219, 0.04871324449777603, 0.1574362963438034, -0.06316930800676346, 0.12320075184106827, -0.08502040058374405, -0.09652126580476761, 0.10542614758014679, -0.06530212610960007, 0.05322141945362091, 0.09427696466445923, 0.1568414270877838, -0.09524350613355637, -0.11720225214958191, 0.21670302748680115, -0.010104670189321041, -3.59815385309048e-05, -0.14757730066776276, -0.10288310050964355, -0.06046224385499954, -0.029164226725697517, -0.2593892514705658, -0.12150689959526062, 0.16502705216407776, 0.34830808639526367, 0.09931181371212006, 0.03620598837733269, 0.05339061841368675, -0.061858341097831726, 0.19365446269512177, 0.04617299512028694, 0.3244353234767914, 0.04334364831447601, 0.013604017905890942, 0.10271617770195007, 0.024814648553729057, 0.16171063482761383, 0.07161147147417068, 0.006249964702874422, 0.061055347323417664, 0.0811818391084671, -0.0880703404545784, 0.04639560356736183, 0.08436834067106247, -0.08509808033704758, 0.2876054346561432, -0.0998501405119896, 0.0505240373313427, 0.08319120854139328, -0.06980105489492416, 0.02881143055856228, -0.017034024000167847, 0.2082485854625702, 0.11564479768276215, 0.25043684244155884, -0.09104733914136887, -0.037962693721055984, -0.18969593942165375], [0.015455305576324463, 0.09868118166923523, -0.0038289278745651245, -0.05854947865009308, 0.04015490412712097, 0.04937620460987091, -0.11864876747131348, -0.03761442005634308, 0.08381779491901398, 0.10965490341186523, 0.11582168936729431, -0.09934349358081818, -0.009808063507080078, 0.08890727162361145, -0.06687107682228088, -0.016867101192474365, -0.1038990169763565, -0.11850500106811523, -0.11032338440418243, -0.09573911130428314, 0.07720452547073364, -0.10981293022632599, -0.07080826163291931, 0.03677186369895935, -0.03270387649536133, -0.0426894873380661, 0.0023794472217559814, -0.04139351844787598, 0.10321512818336487, -0.11518602073192596, 0.0018093585968017578, 0.0004675835371017456, -0.10251910984516144, 0.006513610482215881, -0.034878209233284, -0.050351470708847046, -0.06967608630657196, -0.02875363826751709, -0.03056657314300537, -0.07840630412101746, 0.09739887714385986, -0.09709510207176208, -0.11331504583358765, 0.00884459912776947, -0.0407833606004715, 0.004424840211868286, 0.09023001790046692, -0.004227921366691589, 0.12417463958263397, -0.03789462149143219, 0.0519774854183197, 0.11493131518363953, -0.09502318501472473, -0.1071673184633255, 0.054241031408309937, -0.11765283346176147, -0.07900327444076538, -0.04818308353424072, -0.03525477647781372, 0.01301148533821106, 0.0656997412443161, -0.027533769607543945, -0.023833826184272766, -0.08860264718532562], [0.04554254189133644, -0.06892214715480804, 0.11893980205059052, 0.006499285809695721, 0.05185464397072792, -0.04272198677062988, 0.0012139593018218875, -0.029837924987077713, 0.15892797708511353, 0.029848754405975342, 0.01912040449678898, -0.19207924604415894, -0.029412241652607918, 0.12965093553066254, 0.10531868785619736, -0.06243763491511345, 0.043996963649988174, 0.09501749277114868, -0.002106664003804326, -0.052526894956827164, -0.04573279991745949, -0.030610216781497, 0.017539117485284805, -0.10511873662471771, -0.15638089179992676, 0.10509601980447769, 0.028988145291805267, 0.23440982401371002, 0.07428095489740372, -0.12124711275100708, -0.14290297031402588, -0.04930456727743149, -0.057098377496004105, -0.03166744112968445, -0.06377220898866653, 0.0604838989675045, -0.11155738681554794, -0.09208890795707703, 0.078004390001297, 0.1192685216665268, 0.2897056043148041, 0.07209852337837219, -0.05525555461645126, 0.0644885003566742, 0.18345697224140167, -0.058750689029693604, 0.14435753226280212, -0.05101095512509346, 0.15918928384780884, 0.046808116137981415, -0.09891285747289658, -0.14492447674274445, 0.06685396283864975, -0.060200922191143036, -0.09438347071409225, -0.005879773758351803, -0.037645164877176285, -0.08203515410423279, -0.20329274237155914, 0.03180711343884468, 0.02163800597190857, -0.10027223825454712, -0.11426137387752533, -0.017080266028642654], [-0.0033924791496247053, 0.1425773650407791, 0.21072997152805328, 0.05177544057369232, -0.05865718796849251, 0.24299836158752441, -0.12901946902275085, 0.22931571304798126, 0.04097174108028412, -0.1821407973766327, 0.1905062198638916, 0.17532971501350403, -0.0649448111653328, -0.0841929242014885, -0.1299716830253601, -0.10418891161680222, -0.10536058247089386, 0.13505032658576965, 0.15121877193450928, 0.004777010530233383, 0.004904442932456732, -0.1653236299753189, -0.06665775924921036, 0.22688741981983185, -0.252673864364624, -0.02679571881890297, -0.005353705957531929, -0.22088350355625153, -0.14061281085014343, -0.17445676028728485, 0.14522022008895874, 0.015578651800751686, -0.15032565593719482, -0.08210965245962143, 0.18429473042488098, -0.02573099359869957, 0.073250912129879, -0.05868656560778618, -0.12038425356149673, 0.21068629622459412, 0.05561832711100578, 0.15100258588790894, 0.06735223531723022, 0.10497567057609558, 0.17496727406978607, 0.001102695008739829, -0.20543503761291504, -0.024032825604081154, -0.12409833818674088, -0.09949394315481186, 0.01456711906939745, 0.06997168809175491, -0.22331054508686066, 0.027141012251377106, -0.00800466537475586, -0.19128231704235077, 0.19954510033130646, 0.10960869491100311, 0.2766374349594116, 0.13670819997787476, -0.09298202395439148, 0.14567036926746368, -0.01946941204369068, -0.21279920637607574], [0.0074529219418764114, 0.15681374073028564, 0.24752697348594666, -0.2859327793121338, 0.009377919137477875, 0.23079638183116913, 0.06030048057436943, 0.10145082324743271, -0.06460736691951752, -0.21200233697891235, 0.18076907098293304, 0.15669935941696167, -0.017893897369503975, -0.02984604239463806, -0.17391934990882874, 0.04424489289522171, -0.03374534472823143, 0.09300567209720612, 0.24618184566497803, 0.09011559933423996, -0.23646731674671173, -0.09415416419506073, -0.23887944221496582, 0.19343647360801697, -0.14207710325717926, 0.07521738111972809, -0.1414678990840912, -0.28836867213249207, -0.2432285100221634, -0.004361206199973822, -0.049371615052223206, -0.03736387938261032, -0.13782936334609985, -0.12113703787326813, 0.09325968474149704, -0.07928285747766495, 0.30110660195350647, 0.0801815614104271, -0.15927284955978394, 0.3117868900299072, -0.10779181122779846, 0.16486912965774536, 0.12894445657730103, 0.2114933580160141, 0.027299923822283745, -0.08627209812402725, 0.13848979771137238, 0.1368008404970169, -0.22292636334896088, -0.3050682246685028, 0.07331390678882599, -0.15918685495853424, -0.3282757103443146, 0.08720340579748154, -0.044580329209566116, -0.20364993810653687, 0.19578883051872253, -0.0205363929271698, -0.01075118500739336, 0.12386556714773178, 0.057891763746738434, 0.09812300652265549, -0.04991105571389198, 0.1161491870880127], [0.03538899123668671, -0.033252060413360596, 0.06644318252801895, -0.02964097261428833, -0.06545217335224152, -0.08991168439388275, 0.052958205342292786, -0.08125501871109009, -0.13068217039108276, -0.005813390016555786, -0.051020458340644836, 0.08888599276542664, -0.023536093533039093, 0.02161221206188202, -0.07846285402774811, -0.12189964950084686, -0.0028982742223888636, 0.07695624232292175, -0.11593075841665268, -0.024038463830947876, -0.10877622663974762, -0.0787399485707283, 0.08144864439964294, -0.08702382445335388, 0.004276111721992493, -0.025386160239577293, -0.04601426422595978, -0.026259690523147583, -0.05275444686412811, -0.07324890792369843, -0.12126100063323975, 0.05584494769573212, -0.030820876359939575, -0.06966255605220795, -0.0393548309803009, 0.08171049505472183, -0.09535248577594757, -0.046200305223464966, -0.006142674945294857, 0.07034765183925629, -0.07564572244882584, -0.07779936492443085, -0.12696531414985657, 0.07323649525642395, 0.09902623295783997, -0.10109595954418182, 0.08696503937244415, -0.0303824320435524, -0.001169798313640058, 0.03649434447288513, 0.05389058589935303, -0.051797766238451004, -0.045651018619537354, -0.047823868691921234, -0.07422588765621185, -0.07816345989704132, 0.10793466866016388, -0.10100561380386353, -0.09466756880283356, 0.03516712784767151, 0.1108659878373146, 0.010641975328326225, -0.1054232269525528, 0.05375371873378754], [-0.032349999994039536, 0.03376004099845886, 0.023211099207401276, 0.05283018574118614, -0.12211614847183228, -0.05305689573287964, 0.04250712692737579, 0.015443667769432068, -0.009831096976995468, 0.01093448605388403, 0.09898588061332703, 0.07834836095571518, -0.12831389904022217, -0.10195992887020111, -0.035863157361745834, -0.09516992419958115, 0.036823295056819916, 0.10075490176677704, 0.10598037391901016, 0.014120280742645264, -0.10544206202030182, 0.0057893735356628895, 0.05775707587599754, -0.045148029923439026, 0.11782139539718628, 0.06737436354160309, 0.037498459219932556, -0.04467017948627472, -0.07396236062049866, -0.017537835985422134, -0.10181933641433716, -0.02852877974510193, 0.09628663957118988, -0.00573381781578064, 0.015465829521417618, -0.09282857924699783, -0.05138082429766655, 0.03945145010948181, -0.0679173693060875, -0.03798645734786987, 0.10350070148706436, 0.11338261514902115, -0.056736405938863754, 0.0159068014472723, -0.09347441792488098, -0.046791501343250275, -0.0783630982041359, 0.01793771982192993, -0.012099948711693287, 0.05772402510046959, 0.02882063202559948, -0.10369651764631271, 0.07026289403438568, -0.03872133791446686, -0.0542214959859848, 0.1014862135052681, -0.010458769276738167, 0.040261730551719666, 0.028240147978067398, -0.09502308815717697, 0.038525115698575974, -0.10678468644618988, -0.09781065583229065, 0.01962461695075035], [-0.04038221016526222, 0.3215962052345276, -0.22785991430282593, -0.25423362851142883, -0.05709046125411987, -0.28966179490089417, 0.32831111550331116, -0.1730189025402069, 0.09796097874641418, 0.04883832484483719, -0.366009384393692, -0.08073262870311737, 0.03743256628513336, -0.1932666003704071, 0.24320298433303833, -0.29798442125320435, 0.10388664901256561, 0.15216191112995148, -0.14944060146808624, -0.20072074234485626, -0.17184871435165405, -0.011538878083229065, -0.19855983555316925, -0.2636505365371704, -0.37680548429489136, -0.0470571406185627, -0.27468976378440857, -0.35433751344680786, -0.265176922082901, -0.26811349391937256, 0.439315527677536, -0.12430519610643387, 0.20521846413612366, 0.27661651372909546, -0.1795966625213623, 0.15103234350681305, -0.2799241244792938, 0.4638535976409912, -0.0024145229253917933, 0.10921718925237656, 0.39704611897468567, 0.04135432466864586, 0.2749253213405609, -0.3357550799846649, -0.05463384836912155, -0.13561685383319855, -0.3484681248664856, 0.14833292365074158, 0.18870195746421814, 0.23782359063625336, -0.3944443166255951, -0.2726595401763916, -0.14376932382583618, -0.10224872827529907, 0.06782426685094833, 0.25309762358665466, -0.39975252747535706, 0.08923313021659851, 0.17885664105415344, -0.34265023469924927, 0.22090190649032593, -0.4223836064338684, 0.3383549153804779, -0.3850647807121277], [0.007553920149803162, 0.2143615186214447, -0.03863000124692917, 0.19418731331825256, 0.12753185629844666, -0.08693133294582367, 0.14277997612953186, -0.10791167616844177, 0.1582975685596466, 0.13613933324813843, -0.10734725743532181, 0.10501836240291595, -0.15732043981552124, 0.17297795414924622, -0.010381840169429779, -0.03575480356812477, 0.12299033999443054, 0.15498986840248108, -0.04079141840338707, -0.09608490020036697, 0.3452286422252655, 0.0032574436627328396, -0.022261615842580795, 0.0333252027630806, -0.11777013540267944, -0.005951997824013233, -0.06279181689023972, -0.4097937345504761, -0.2978270947933197, 0.1686059981584549, 0.4216875433921814, -0.029587775468826294, 0.09970445930957794, 0.2195192575454712, -0.11052047461271286, 0.16465838253498077, -0.02302270196378231, 0.2545125186443329, 0.08312495797872543, 0.15338237583637238, 0.2618134021759033, 0.023795170709490776, 0.09758526086807251, 0.03788995370268822, 0.13054394721984863, -0.18366850912570953, 0.016494931653141975, -0.030552001670002937, 0.1401733011007309, 0.05222828686237335, -0.09377028048038483, 0.2780323028564453, -0.10309725999832153, 0.16083493828773499, 0.07321134209632874, 0.03889681398868561, -0.17408578097820282, -0.0603061318397522, 0.09869129210710526, -0.03748370707035065, 0.22035665810108185, -0.139273539185524, 0.1809934824705124, -0.22197018563747406], [-0.18158753216266632, 0.23189197480678558, -0.1866968274116516, -0.06744285672903061, 0.04183085262775421, -0.09136941283941269, 0.1845189332962036, -0.06409833580255508, 0.17776453495025635, 0.07417985051870346, -0.36521509289741516, 0.04473470151424408, 0.08983297646045685, 0.05769146978855133, 0.1704455465078354, -0.20723366737365723, 0.06948888301849365, 0.12350627779960632, -0.13059471547603607, -0.25050321221351624, -0.03742246329784393, 0.06307525187730789, 0.03666328638792038, -0.13719387352466583, -0.12636199593544006, -0.09455551952123642, -0.24474699795246124, -0.31550541520118713, -0.20972402393817902, -0.1365676373243332, 0.22855152189731598, -0.011141808703541756, 0.16947799921035767, 0.19275397062301636, -0.007266601547598839, 0.11221218854188919, -0.29903918504714966, 0.12844112515449524, -0.11764730513095856, 0.07004030793905258, 0.08890581130981445, 0.14069771766662598, 0.12747424840927124, -0.12410177290439606, 0.05327969044446945, -0.16848492622375488, -0.2250051349401474, 0.046045880764722824, 0.02733800746500492, 0.15577886998653412, -0.24282576143741608, -0.3483160734176636, -0.06992854923009872, 0.05280366167426109, 0.07862471044063568, -0.051737260073423386, -0.2206549197435379, 0.07448233664035797, 0.23712623119354248, -0.27367547154426575, 0.1980074644088745, -0.23349206149578094, 0.12620848417282104, -0.2748764455318451], [-0.10287798941135406, -0.01791141927242279, -0.02053692378103733, 0.10305416584014893, -0.13673819601535797, -0.11907553672790527, -0.10986681282520294, 0.10495904833078384, -0.12287469208240509, -0.015460452996194363, 0.0630079135298729, 0.060578200966119766, -0.07217468321323395, -0.043093517422676086, 0.08129578083753586, 0.03555885702371597, -0.05911485478281975, -0.12769551575183868, -0.09592090547084808, 0.06198751553893089, -0.04683315008878708, 0.058225031942129135, -0.06228593736886978, -0.12520286440849304, -0.02492143213748932, 0.04043959081172943, 0.08452487736940384, 0.031125111505389214, 0.05383801460266113, 0.0005536713288165629, -0.061182692646980286, 0.033060360699892044, -0.005679100751876831, 0.09361516684293747, 0.06766604632139206, -0.13200834393501282, -0.05328512564301491, 0.004727826453745365, -0.12314260005950928, -0.02870994247496128, 0.08953404426574707, 0.014039181172847748, -0.06369676440954208, -0.012835531495511532, 0.09386604279279709, 0.10169809311628342, 0.12555579841136932, -0.013980859890580177, -0.000729692867025733, -0.09188105911016464, -0.01125001534819603, 0.0678257867693901, -0.04581823945045471, -0.09751628339290619, 0.10912935435771942, 0.037281110882759094, -0.07320577651262283, -0.053262561559677124, -0.04945995658636093, 0.045280974358320236, 0.07885973155498505, 0.12354898452758789, -0.04278337210416794, 0.08814733475446701], [0.30147507786750793, 0.11159317940473557, -0.24639396369457245, -0.047955602407455444, 0.08547913283109665, -0.17875675857067108, 0.2017495483160019, -0.05030273273587227, 0.10277975350618362, 0.2198561578989029, -0.047302454710006714, -0.07798799872398376, 0.1757810264825821, -0.1684587448835373, 0.0883592739701271, 0.024560699239373207, 0.22398138046264648, -0.017902694642543793, -0.02611721120774746, 0.044533491134643555, -0.016870729625225067, 0.08520136028528214, 0.004236426204442978, -0.13219891488552094, 0.09035477787256241, -0.07731518894433975, 0.04121246188879013, 0.12532517313957214, 0.20800159871578217, -0.19542063772678375, 0.21346648037433624, 0.06413140147924423, 0.011381534859538078, 0.27370911836624146, -0.1372014433145523, 0.2264714390039444, -0.06696722656488419, 0.12269764393568039, 0.0575425922870636, 0.08722631633281708, 0.0595557875931263, 0.13704468309879303, 0.03135552257299423, -0.0796547532081604, 0.11242852360010147, 0.021568981930613518, -0.2193537950515747, 0.08831217139959335, 0.21297933161258698, 0.10389109700918198, -0.007624410092830658, 0.04668808728456497, 0.2183428853750229, 0.1229974627494812, -0.006128684617578983, 0.06280823051929474, -0.14325037598609924, 0.060311973094940186, 0.302628755569458, -0.0002313993318239227, -0.04692395031452179, -0.20944498479366302, 0.23581166565418243, -0.010435723699629307], [0.045961882919073105, -0.16589446365833282, -0.05726512521505356, -0.035140495747327805, 0.03761610388755798, 0.14285525679588318, -0.014534534886479378, 0.05088698863983154, 0.17176568508148193, 0.20913513004779816, 0.03420422598719597, -0.019778097048401833, 0.16300778090953827, -0.14092671871185303, -0.0887770876288414, 0.1624048799276352, 0.047252390533685684, 0.0020173692610114813, -0.043590743094682693, 0.23867525160312653, -0.014781203120946884, 0.08541660010814667, 0.1753184199333191, -0.06515449285507202, 0.1448746770620346, 0.13895326852798462, 0.2302246391773224, 0.23787721991539001, 0.23989716172218323, -0.05454500764608383, -0.036932721734046936, 0.13642314076423645, 0.13080266118049622, -0.1414005011320114, -0.05704604461789131, 0.0033356952480971813, 0.05336787551641464, -0.32699522376060486, 0.20002824068069458, -0.09953827410936356, -0.13884001970291138, -0.19219596683979034, -0.10683607310056686, -0.1638394147157669, -0.08920285850763321, 0.21929337084293365, -0.0066313063725829124, 0.11926019191741943, -0.037586212158203125, -0.007781910244375467, 0.001738609978929162, -0.029689859598875046, 0.2629925310611725, 0.053972914814949036, 0.06833453476428986, 0.22796383500099182, -0.10778062790632248, 0.08683709800243378, 0.05442614108324051, -0.0117119662463665, 0.07778149098157883, 0.07084910571575165, 0.07458308339118958, -0.01834145560860634], [0.17063798010349274, -0.02625834196805954, -0.0815257728099823, -0.23993326723575592, 0.04819050803780556, 0.1604592651128769, 0.06573639065027237, 0.2008017897605896, -0.06192338839173317, 0.014632385224103928, -0.25761300325393677, -0.09236431121826172, -0.036800432950258255, -0.1170375868678093, 0.029919715598225594, 0.13561761379241943, 0.08843837678432465, -0.1758286952972412, 0.08017494529485703, 0.03502689301967621, -0.22840921580791473, 0.05681714043021202, 0.03751686215400696, 0.021572833880782127, 0.13295391201972961, -0.11810097843408585, -0.334002822637558, -0.07083018869161606, -0.09184107184410095, -0.0020001207012683153, -0.2118544727563858, 0.04691139981150627, -0.13453461229801178, -0.0023043148685246706, 0.16746728122234344, 0.09374548494815826, -0.04443101957440376, 0.060728251934051514, -0.043792400509119034, 0.11007706075906754, 0.024060888215899467, 0.21520178020000458, 0.1491795927286148, 0.2154637724161148, -0.1065821498632431, 0.21577546000480652, -0.210008904337883, -0.04897071421146393, -0.13061147928237915, 0.19492748379707336, 0.09188289940357208, -0.10338004678487778, -0.010903403162956238, -0.09833844751119614, -0.042548976838588715, 0.059405162930488586, -0.037702955305576324, -0.049496978521347046, -0.028508704155683517, 0.08786244690418243, -0.224185049533844, 0.05201931297779083, 0.020876195281744003, -0.029655495658516884], [0.13518618047237396, -0.3584711253643036, -0.10001813620328903, -0.0887259691953659, -0.07994680851697922, -0.21507062017917633, -0.08319824934005737, 0.1072600707411766, 0.16254392266273499, 0.1462431401014328, -0.06775803118944168, -0.03104262612760067, 0.0970761626958847, -0.14699195325374603, 0.06751706451177597, 0.23089025914669037, 0.14465133845806122, -0.03976565971970558, -0.2567301094532013, 0.2693129777908325, -0.22468134760856628, 0.17056609690189362, 0.28461727499961853, -0.07051293551921844, 0.06314390152692795, 0.14298182725906372, 0.028809497132897377, 0.403413861989975, 0.36353927850723267, -0.0887056291103363, -0.36220329999923706, 0.15132807195186615, 0.13412712514400482, -0.0074163819663226604, -0.06869380176067352, 0.010476727038621902, -0.14640919864177704, -0.295564740896225, 0.10890831798315048, -0.30461424589157104, -0.11626674979925156, -0.1712654083967209, 0.02392350509762764, -0.08605586737394333, -0.1478361189365387, -0.012367655523121357, -0.13955624401569366, 0.16862709820270538, 0.07796937972307205, 0.18399818241596222, -0.07480886578559875, -0.14643487334251404, 0.27975624799728394, 0.0031854838598519564, -0.07867512106895447, 0.28181222081184387, -0.09721898287534714, -0.10354346036911011, -0.183673694729805, -0.027094217017292976, -0.15480242669582367, 0.10351338982582092, 0.11689630150794983, 0.1931207925081253], [-0.09262438863515854, -0.2926161587238312, 0.056017741560935974, 0.20817463099956512, 0.1309635043144226, 0.16711629927158356, -0.1260247826576233, -0.0177591685205698, 0.06937520205974579, 0.13047417998313904, 0.19502997398376465, -0.11932620406150818, 0.1393033266067505, 0.043643176555633545, -0.06510297954082489, 0.17511558532714844, -0.03272424638271332, -0.04092869535088539, 0.02549484558403492, -0.029987087473273277, 0.3345809578895569, 0.023582493886351585, 0.04655015841126442, -0.06745760142803192, 0.07657458633184433, 0.09672004729509354, 0.19366446137428284, -0.18144866824150085, 0.05526602268218994, 0.3889305293560028, -0.3597794473171234, 0.10319361090660095, -0.010093354620039463, -0.15445512533187866, -0.08781903237104416, -0.022162318229675293, 0.024740051478147507, -0.25829440355300903, -0.02845517173409462, -0.17302580177783966, -0.19765858352184296, -0.022428229451179504, -0.21043750643730164, 0.1982734650373459, 0.02946881763637066, 0.21010245382785797, 0.08467461168766022, 0.0038551967591047287, -0.09523850679397583, 0.07393502444028854, 0.1023814007639885, 0.24458110332489014, -0.03248884156346321, 0.20633196830749512, -0.0003744798304978758, -0.2081533968448639, 0.11608675867319107, 0.09589581191539764, -0.00962748471647501, 0.1321100890636444, 0.13868233561515808, 0.016305699944496155, -0.13756433129310608, 0.14407368004322052], [0.1271706372499466, -0.19172486662864685, -0.2084667682647705, -0.31484436988830566, -0.007363439537584782, -0.2130846083164215, 0.086675725877285, -0.2224734127521515, 0.008019602857530117, 0.17259949445724487, -0.10659956932067871, -0.1260400265455246, -0.030940381810069084, -0.35322093963623047, 0.20073071122169495, -0.03685399517416954, 0.17057648301124573, -0.09941416233778, -0.2766038477420807, 0.2998519837856293, -0.3071509301662445, 0.12745125591754913, 0.07842350006103516, -0.2568526864051819, 0.16749806702136993, 0.15008728206157684, -0.09762018918991089, 0.23726455867290497, 0.22932881116867065, -0.2555212080478668, -0.26413214206695557, 0.2080332636833191, 0.19550712406635284, 0.1479949653148651, -0.16638542711734772, 0.14860515296459198, -0.1813814342021942, -0.17648454010486603, 0.20562390983104706, -0.20830696821212769, -0.019270407035946846, -0.21608510613441467, 0.002192904008552432, -0.22234009206295013, -0.021040190011262894, 0.054735537618398666, -0.1878345012664795, -0.02298145182430744, 0.0471143014729023, 0.22640931606292725, 0.01546903233975172, -0.08290499448776245, 0.014883248135447502, -0.014414940029382706, -0.05762122571468353, -0.040038302540779114, -0.09994968771934509, -0.002414315938949585, -0.012162509374320507, 0.031837351620197296, 0.05383983626961708, -0.027636315673589706, -0.16395007073879242, 0.1553017795085907], [0.01905232109129429, -0.0952320247888565, 0.009629284031689167, 0.3254896104335785, 0.053491681814193726, 0.22230957448482513, 0.04128669947385788, 0.009442692622542381, 0.033471111208200455, 0.040555063635110855, 0.0841674655675888, 0.10357511788606644, 0.056214652955532074, 0.3624178171157837, -0.0198962539434433, 0.03680424019694328, -0.11192792654037476, 0.055344682186841965, 0.06236249953508377, 0.07234354317188263, 0.21798904240131378, 0.02288186550140381, 0.029014568775892258, 0.18824847042560577, 0.04045673459768295, -0.08475591242313385, 0.06905639171600342, -0.1976722776889801, -0.03225640207529068, 0.18049316108226776, -0.03158741444349289, 0.05401907488703728, -0.10372312366962433, -0.11309793591499329, 0.13858209550380707, -0.043895088136196136, 0.004810974467545748, -0.09040142595767975, 0.15188726782798767, 0.024615593254566193, 0.19495944678783417, 0.06362035125494003, -0.09911759197711945, 0.01464264839887619, -0.09797447919845581, 0.023290859535336494, 0.1509801596403122, 0.047204338014125824, 0.013901390135288239, -0.12848804891109467, 0.06844817101955414, 0.24808019399642944, 0.04605311155319214, 0.019405202940106392, 0.01133059523999691, -0.005436184350401163, 0.07945152372121811, 0.09791262447834015, -0.15384316444396973, 0.13202352821826935, 0.026552541181445122, 0.17758819460868835, 0.17626185715198517, 0.1935744285583496], [0.2549712657928467, -0.24557164311408997, -0.3381126821041107, -0.2809500992298126, -0.014064027927815914, -0.23866243660449982, 0.05236539617180824, -0.18264338374137878, 0.08824034780263901, 0.1211615726351738, -0.28671279549598694, -0.08571282029151917, 0.21520911157131195, -0.28836074471473694, 0.07951875030994415, 0.21290943026542664, 0.10340273380279541, -0.039433468133211136, -0.2765774726867676, 0.21338433027267456, -0.3184542655944824, 0.17094293236732483, 0.27285629510879517, -0.11024580150842667, 0.13127510249614716, 0.10495481640100479, 0.15716025233268738, 0.3614860475063324, 0.25755566358566284, -0.3652350604534149, -0.27838578820228577, -0.002139158546924591, 0.13637325167655945, 0.08932537585496902, -0.13285285234451294, 0.0025318635161966085, -0.27137598395347595, -0.25059229135513306, 0.0862928107380867, -0.3961077928543091, -0.17260362207889557, -0.26953431963920593, 0.03325768932700157, -0.2202390879392624, -0.08537429571151733, -0.020354073494672775, -0.07059098035097122, 0.14900623261928558, 0.03785508871078491, 0.11605261266231537, -0.0879717469215393, -0.2427564412355423, 0.22165389358997345, -0.24239934980869293, 0.04376445710659027, 0.07113999873399734, -0.12006496638059616, 0.1225784420967102, 0.013922912999987602, -0.036946140229701996, 0.07804874330759048, -0.16322442889213562, 0.05025530606508255, -0.00997903198003769], [0.19256936013698578, -0.07716387510299683, -0.1713031530380249, -0.35977858304977417, 0.030202828347682953, -0.43750500679016113, 0.16452616453170776, -0.12707936763763428, 0.16397039592266083, 0.17713037133216858, -0.20556624233722687, -0.1257285624742508, 0.11318915337324142, -0.15210315585136414, 0.0704255998134613, 0.2437865138053894, 0.08134052157402039, -0.10984896123409271, -0.25966864824295044, 0.27966800332069397, -0.37699049711227417, 0.2733021080493927, 0.29493746161460876, -0.11977457255125046, 0.28653058409690857, 0.06329702585935593, -0.018324101343750954, 0.2740819454193115, 0.2947717607021332, -0.30243998765945435, -0.31187891960144043, 0.2507461607456207, 0.15354718267917633, -0.04172609746456146, -0.2196410745382309, 0.021566445007920265, -0.35204750299453735, -0.23484370112419128, 0.21582888066768646, -0.431952565908432, -0.20607849955558777, -0.1682751178741455, -0.012346924282610416, -0.16245993971824646, -0.022805245593190193, 0.10609956830739975, -0.018062148243188858, 0.11572913825511932, 0.045709606260061264, 0.1419019103050232, 0.010182114318013191, -0.18963509798049927, 0.1788392812013626, -0.06595087796449661, 0.026076048612594604, 0.1014944538474083, 0.01396807562559843, 0.008255109190940857, -0.25200098752975464, -0.07945588231086731, -0.010802908800542355, 0.008466067723929882, 0.050578925758600235, 0.028960296884179115], [0.2559472322463989, 0.1726914495229721, -0.21724556386470795, -0.13926002383232117, 0.25699567794799805, -0.08173768222332001, 0.14712443947792053, -0.15833371877670288, 0.10935770720243454, 0.07707765698432922, -0.15285977721214294, -0.11128316819667816, 0.08217329531908035, -0.12245136499404907, 0.22202183306217194, -0.05569757893681526, 0.18431520462036133, 0.12302267551422119, -0.1288447380065918, 0.14840839803218842, -0.12055671960115433, 0.2021968811750412, 0.1504286527633667, -0.09602238237857819, 0.02603140100836754, 0.10885417461395264, -0.005511464085429907, 0.02059420570731163, 0.0013001358602195978, -0.022579750046133995, 0.1319831758737564, 0.2101212739944458, 0.2771305739879608, 0.13412587344646454, -0.07552964985370636, 0.06326668709516525, 0.032495953142642975, 0.13572774827480316, 0.1954495906829834, -0.06513924896717072, 0.2414369136095047, -0.17265114188194275, 0.2894943058490753, -0.20702719688415527, 0.22445447742938995, -0.08690331131219864, -0.15513668954372406, 0.22207944095134735, 0.0877952128648758, 0.2166355401277542, 0.034262269735336304, -0.15031041204929352, 0.00817621685564518, 0.1611529141664505, -0.0999307781457901, -0.0150185227394104, -0.04565328359603882, -0.02631080150604248, 0.16242218017578125, 0.09894569218158722, 0.19365820288658142, -0.07455825805664062, 0.09418807923793793, 0.0317709818482399], [0.01204320415854454, -0.20100648701190948, -0.12804058194160461, -0.27604860067367554, -0.06888826191425323, -0.0891885906457901, -0.02262880653142929, 0.01618979312479496, 0.05786508694291115, 0.0967995747923851, -0.04820394888520241, -0.20736846327781677, -0.052437592297792435, -0.17240309715270996, 0.1042877733707428, 0.11924626678228378, 0.05124707147479057, 0.0971301719546318, -0.15056094527244568, 0.214111328125, -0.16335579752922058, 0.09261403977870941, 0.05801081284880638, -0.1804516613483429, 0.10170169919729233, 0.12825046479701996, 0.10793932527303696, 0.304630845785141, 0.10413441807031631, -0.11130222678184509, -0.23591382801532745, 0.19910864531993866, 0.1295948177576065, 0.04515913501381874, -0.18744638562202454, 0.16471442580223083, 0.08415266126394272, -0.18987888097763062, -6.299756933003664e-05, -0.12016918510198593, 0.10147009789943695, -0.1270418018102646, 0.1324024200439453, -0.011628430336713791, 0.07449363172054291, -0.0754045695066452, 0.1979489028453827, 0.1693304181098938, 0.16194485127925873, 0.0017600201535969973, -0.08960676938295364, -0.1232302337884903, 0.1271653175354004, 0.03954656422138214, 0.07588444650173187, 0.04082081466913223, 0.003171459538862109, -0.05152784287929535, -0.10316075384616852, 0.15777117013931274, 0.20424175262451172, 0.1190415769815445, -0.1581456959247589, 0.09494613111019135], [0.012700997292995453, 0.18318501114845276, -0.0025744521990418434, 0.13743115961551666, -0.031586840748786926, 0.09485641121864319, 0.2648351490497589, -0.06728710234165192, 0.125111922621727, -0.1455894410610199, 0.027951547876000404, 0.05580710992217064, 0.07228226959705353, 0.2500576674938202, -0.014314679428935051, 0.07295820862054825, 0.02817380242049694, 0.17865662276744843, 0.14984700083732605, -0.0500311553478241, 0.18915148079395294, -0.10726168751716614, 0.0031678618397563696, 0.10505066066980362, -0.03234754130244255, 0.05146970599889755, -0.012345007620751858, -0.20179656147956848, -0.27284321188926697, 0.12228292226791382, 0.4103167653083801, -0.09961719810962677, 0.07438234239816666, 0.03737851604819298, 0.07218130677938461, 0.015330110676586628, -0.08594211935997009, 0.0655004158616066, -0.04392822086811066, 0.14027957618236542, 0.16113685071468353, 0.16976270079612732, 0.0007266714819706976, 0.05197567492723465, -0.04925575107336044, -0.05750181898474693, 0.01280147023499012, -0.08674459904432297, 0.06169390305876732, 0.02951475791633129, 0.0003342533309478313, 0.15394335985183716, -0.0426650270819664, 0.003575721522793174, 0.08564770966768265, 0.09923817217350006, 0.12793928384780884, 0.04873628914356232, 0.11701902002096176, 0.059205230325460434, -0.021113917231559753, -0.0260243471711874, 0.02102838270366192, -0.11984138935804367], [-0.13331684470176697, 0.09427075833082199, 0.2149350792169571, 0.10813478380441666, -0.146863654255867, 0.21952109038829803, -0.0958370715379715, 0.2310863733291626, 0.08345511555671692, 0.07121210545301437, 0.18851831555366516, 0.12499257177114487, 0.15810526907444, 0.05070158839225769, 0.021835777908563614, 0.007400632835924625, 0.07075204700231552, 0.11469759047031403, 0.195964977145195, 0.10862571746110916, -0.012168481945991516, -0.06908303499221802, 0.08673954755067825, 0.15434834361076355, 0.1995617151260376, -0.009580811485648155, 0.015013077296316624, -0.03309816122055054, -0.02713734097778797, 0.002498073736205697, 0.09042870253324509, 0.07149650156497955, -0.1277286857366562, -0.12106961011886597, 0.18133138120174408, -0.05050709471106529, 0.17127567529678345, -0.12525205314159393, 0.02940010279417038, 0.0486445352435112, 0.005203782115131617, 0.19224011898040771, -0.14357784390449524, 0.17268861830234528, 0.039813339710235596, 0.1910664290189743, 0.0012205938110128045, -0.03925514966249466, -0.15846623480319977, -0.06940655410289764, 0.06639901548624039, -0.05559755116701126, 0.10530536621809006, 0.03984010964632034, 0.0888393372297287, -0.030868517234921455, 0.14148738980293274, -0.07969360053539276, 0.14607581496238708, 0.014767942950129509, 0.018343588337302208, 0.038918666541576385, 0.17174923419952393, 0.04129361733794212], [0.016755858436226845, 0.11719205975532532, -0.06949932128190994, 0.023610133677721024, 0.1593707948923111, -0.2629861533641815, 0.39653000235557556, -0.20642532408237457, 0.058396629989147186, 0.16247962415218353, -0.26123782992362976, 0.05755603685975075, 0.09211689978837967, -0.02976587601006031, 0.19613252580165863, -0.133100226521492, 0.03775745630264282, 0.007243423722684383, -0.11148707568645477, -0.10332813858985901, 0.08455733209848404, 0.12941962480545044, -0.1785827875137329, -0.1753980964422226, -0.1922772079706192, -0.07695434987545013, -0.17143377661705017, -0.21405933797359467, -0.14781725406646729, -0.06763806194067001, 0.22766686975955963, -0.2000347226858139, 0.007268971763551235, 0.04755602777004242, -0.06055789440870285, 0.12212524563074112, -0.13440661132335663, 0.3208652436733246, -0.014966783113777637, 0.06370948255062103, 0.1965773105621338, 0.18139676749706268, 0.19476456940174103, -0.13707934319972992, -0.15254607796669006, -0.0449426993727684, -0.13461415469646454, 0.017191622406244278, 0.22664670646190643, 0.018108703196048737, -0.040625520050525665, -0.14462582767009735, 0.043358348309993744, 0.008517042733728886, -0.013754189945757389, 0.2259087860584259, -0.25260984897613525, 0.016774266958236694, 0.2567733824253082, -0.1944817453622818, 0.19305282831192017, -0.21453851461410522, 0.10486924648284912, -0.004503349773585796], [0.10004402697086334, 0.4606632888317108, -0.21573853492736816, -0.2044735997915268, 0.04289478063583374, -0.018257780000567436, 0.33123961091041565, -0.059051766991615295, 0.21875181794166565, 0.09815368056297302, -0.34978970885276794, -0.02066899836063385, 0.05899594724178314, 0.032967522740364075, 0.1529293656349182, -0.20164617896080017, -0.04369450733065605, 0.07684370130300522, -0.12935496866703033, -0.2166355550289154, -0.016879409551620483, 0.058585770428180695, -0.01772606559097767, -0.044404689222574234, -0.33051106333732605, -0.04944999888539314, -0.26991134881973267, -0.4458032250404358, -0.24084217846393585, -0.24044649302959442, 0.47071442008018494, -0.2651791572570801, 0.0671238824725151, 0.20617596805095673, 0.07581034302711487, 0.2519949674606323, -0.30643296241760254, 0.34546637535095215, 0.047563184052705765, 0.13709786534309387, 0.21188391745090485, 0.03590802103281021, 0.0932685062289238, -0.0814490094780922, -0.09242477267980576, -0.054572973400354385, -0.402874231338501, -0.08703170716762543, 0.023052053526043892, -0.009100822731852531, -0.08928513526916504, -0.1917998045682907, -0.11495935171842575, -0.07337357848882675, 0.061156198382377625, 0.2821560204029083, -0.3875320553779602, -0.048466622829437256, 0.33038491010665894, -0.23933126032352448, 0.08964747935533524, -0.16206206381320953, 0.3493264615535736, -0.1201581358909607], [-0.19969205558300018, -0.01808394491672516, -0.029692839831113815, -0.04544791579246521, 0.018368735909461975, 0.041971419006586075, -0.1043166071176529, -0.15293128788471222, -0.11372462660074234, -0.1322377771139145, -0.14200684428215027, -0.07183099538087845, 0.10588198155164719, -0.0804186537861824, 0.060364481061697006, -0.21372313797473907, -0.055413804948329926, 0.10379879921674728, 0.05714070051908493, 0.16259446740150452, 0.18303246796131134, 0.15316668152809143, -0.1680188626050949, 0.07698013633489609, 0.19579866528511047, 0.14225898683071136, 0.23507846891880035, -0.021896375343203545, -0.17736978828907013, -0.23507829010486603, -0.020831098780035973, 0.009481631219387054, 0.08263125270605087, -0.030343031510710716, 0.09554004669189453, 0.06342307478189468, 0.09869105368852615, -0.043708447366952896, 0.01411273330450058, 0.005430860910564661, 0.08826567232608795, -0.02873760089278221, -0.03981538489460945, 0.04447215422987938, 0.0635685920715332, 0.10576392710208893, 0.08876306563615799, 0.20621691644191742, 0.07364290207624435, -0.11197175830602646, 0.09412826597690582, 0.24239468574523926, -0.0546695813536644, 0.16437368094921112, 0.08936527371406555, 0.24813561141490936, -0.08418534696102142, -0.09091290831565857, -0.13271240890026093, 0.04473961517214775, 0.09923692792654037, -0.006859245710074902, 0.021370848640799522, -0.08113277703523636], [0.26258406043052673, 0.020850934088230133, -0.22913603484630585, -0.2259887307882309, 0.0941186174750328, -0.12121248245239258, 0.2772715985774994, 0.0008106636232696474, 0.1361764818429947, 0.25538206100463867, -0.1745998114347458, 0.052024222910404205, 0.16490109264850616, -0.122369185090065, 0.24129533767700195, 0.07928051054477692, 0.07777081429958344, 0.10645536333322525, -0.15137484669685364, 0.16425821185112, -0.03715663030743599, 0.29586881399154663, 0.02918945997953415, 0.06804308295249939, 0.08164329081773758, 0.20880770683288574, 0.07438533753156662, 0.050846584141254425, 0.11036381870508194, -0.18191446363925934, -0.009098485112190247, -0.030243882909417152, 0.20009104907512665, 0.17212405800819397, 0.011168341152369976, 0.1447325497865677, -0.09486059099435806, 0.11441292613744736, 0.22071312367916107, 0.0880943313241005, -0.027905531227588654, -0.04162119701504707, 0.25805768370628357, -0.14296184480190277, 0.042125869542360306, -0.05603303760290146, -0.1321273297071457, -0.029387086629867554, 0.1900709569454193, 0.1630457043647766, 0.039729829877614975, 0.01870390586555004, 0.07213060557842255, 0.0825042873620987, -0.01467938907444477, 0.114005908370018, -0.17796312272548676, -0.0599871426820755, 0.1668587327003479, 0.003456829348579049, 0.23446139693260193, -0.1367039829492569, 0.018711810931563377, 0.07716257870197296], [-0.039075225591659546, 0.055729061365127563, 0.04441925883293152, -0.07691384851932526, 0.09363752603530884, -0.046156540513038635, 0.06940220296382904, 0.03819012641906738, -0.04683704674243927, 0.003159448504447937, 0.014540836215019226, -0.10950332880020142, -0.04975390434265137, -0.014689698815345764, -0.02619391679763794, -0.01779767870903015, -0.11592668294906616, 0.12081107497215271, -0.09792850911617279, -0.003851756453514099, 0.03278911113739014, -0.0642276406288147, 0.12010172009468079, 0.061832308769226074, -0.04082246124744415, 0.008570641279220581, 0.09874159097671509, -0.07995468378067017, 0.09538279473781586, 0.07605274021625519, -0.0029287785291671753, -0.061036333441734314, -0.025886282324790955, -0.0012005269527435303, -0.0037996619939804077, -0.0137539803981781, -0.017872676253318787, 0.06750786304473877, -0.11125059425830841, -0.09140981733798981, 0.10779492557048798, 0.0815187394618988, -0.00804203748703003, -0.026819422841072083, 0.11489976942539215, -0.058471083641052246, -0.03299896419048309, 0.10746175050735474, -0.07614155113697052, -0.10388769209384918, 0.096926748752594, -0.049531444907188416, -0.061675265431404114, 0.011068880558013916, 0.0575358122587204, 0.07281631231307983, 0.030518263578414917, -0.02412790060043335, -0.07335638999938965, -0.0935579389333725, -0.12353229522705078, -0.005933985114097595, -0.04325540363788605, -0.03158579766750336], [-0.057342611253261566, -0.08745431154966354, -0.05917517840862274, -0.09587396681308746, -0.00039650604594498873, -0.16676011681556702, 0.15677988529205322, -0.17192737758159637, 0.08036695420742035, -0.08285949379205704, 0.029195958748459816, -0.3103888928890228, 0.05776144936680794, -0.1720246970653534, 0.04061277210712433, -0.04713999107480049, 0.09870550036430359, -0.027658170089125633, -0.12658363580703735, 0.14632755517959595, -0.11129458993673325, 0.08964689821004868, -0.04680982232093811, -0.08696649223566055, -0.050122786313295364, 0.018010295927524567, 0.10089638084173203, 0.14029596745967865, 0.17672835290431976, -0.08572720736265182, 0.03571951761841774, -0.04923165962100029, 0.19211021065711975, -0.14113882184028625, -0.1294025331735611, 0.1740245521068573, -0.0010830563260242343, -0.050187401473522186, 0.1292235255241394, 0.16481216251850128, -0.028153719380497932, -0.006078297272324562, 0.06439855694770813, -0.24825580418109894, 0.3012210428714752, -0.10870903730392456, 0.028360703960061073, 0.17613759636878967, 0.04795406758785248, 0.1864650398492813, -0.021676117554306984, -0.09726908057928085, -0.03209814801812172, 0.169419065117836, 0.013818648643791676, -0.09508433938026428, -0.30210769176483154, -0.057126328349113464, -0.1613674759864807, 0.1946689486503601, 0.13909268379211426, -0.17739275097846985, -0.2066979706287384, -0.29582479596138], [0.18248164653778076, 0.1582043170928955, -0.08229201287031174, -0.04513479024171829, 0.07113657146692276, -0.14674526453018188, 0.23749300837516785, 0.07371300458908081, -0.0038423771038651466, 0.013218979351222515, -0.16727223992347717, 0.12407314777374268, 0.07282654196023941, 0.01878645457327366, 0.05121281370520592, -0.16724488139152527, 0.15768679976463318, 0.04969417303800583, -0.09322179853916168, -0.23138245940208435, -0.051639895886182785, 0.14556732773780823, 0.020763985812664032, -0.07387153804302216, -0.07089546322822571, 0.059702757745981216, -0.35420647263526917, -0.09067268669605255, -0.12796524167060852, -0.16033907234668732, 0.24920374155044556, 0.06426680833101273, -0.08539929986000061, -0.008277528919279575, 0.08059194684028625, 0.06889389455318451, -0.2592274844646454, 0.22035975754261017, 0.021291587501764297, -0.012502522207796574, 0.1438039243221283, 0.06346238404512405, 0.14897675812244415, -0.023671075701713562, 0.033165138214826584, 0.12000492215156555, -0.3370174765586853, 0.10601148009300232, 0.17576390504837036, 0.006211037281900644, -0.19401545822620392, -0.15471504628658295, -0.1102830246090889, -0.002898312406614423, 0.1098247841000557, 0.21051651239395142, -0.2164006382226944, -0.01090550422668457, -0.007238843943923712, -0.22001345455646515, -0.06978250294923782, -0.038339778780937195, 0.2812124788761139, -0.0737573578953743], [-0.20253005623817444, -0.03436807915568352, 0.12330431491136551, -0.07615993171930313, 0.09795557707548141, 0.10214829444885254, -0.09905461221933365, 0.17764431238174438, 0.019240109249949455, -0.22406215965747833, 0.15315106511116028, 0.1419457048177719, 0.046894676983356476, 0.09792634844779968, -0.1736544966697693, 0.041161272674798965, -0.04136139526963234, 0.01685064472258091, 0.0831560492515564, 0.24623063206672668, 0.030515475198626518, -0.14888663589954376, -0.05848678946495056, 0.09191147983074188, -0.2831871211528778, 0.04441596940159798, -0.08707869797945023, -0.13490945100784302, -0.1237979382276535, -0.15981291234493256, 0.05742449313402176, -0.0009856317192316055, -0.19189895689487457, -0.06244359537959099, 0.13823464512825012, -0.09199237078428268, 0.26979994773864746, 0.13123300671577454, -0.0516246035695076, 0.29453814029693604, 0.04894614964723587, 0.05821234732866287, -0.038659386336803436, 0.10198138654232025, -0.026970941573381424, 0.03012343868613243, 0.09516008198261261, -0.016485564410686493, -0.13726596534252167, -0.15032748878002167, 0.10178834199905396, -0.0833113044500351, -0.1007264032959938, 0.05706602707505226, -0.09953179210424423, 0.04948781803250313, -0.027569469064474106, -0.05984148383140564, -0.11887867748737335, 0.12239767611026764, 0.06590432673692703, 0.22147803008556366, 0.06412938237190247, -0.17379683256149292], [0.19998285174369812, 0.009370226413011551, 0.012828228995203972, -0.23452748358249664, 0.16460153460502625, -0.09481934458017349, -0.03231774643063545, 0.06482865661382675, 0.18841198086738586, 0.23229649662971497, -0.17803603410720825, 0.00022618102957494557, 0.10481026023626328, -0.0521971695125103, 0.15543629229068756, 0.04420853778719902, 0.19839632511138916, 0.13274598121643066, -0.14411956071853638, 0.030256105586886406, -0.1543951779603958, 0.20778246223926544, 0.24398714303970337, 0.09071791172027588, 0.08024150133132935, 0.10608083009719849, 0.1712404191493988, 0.18885499238967896, 0.11161472648382187, -0.09345822036266327, -0.06825689226388931, 0.019550465047359467, 0.11818072944879532, 0.1451328992843628, 0.026425175368785858, 0.14692969620227814, -0.12269575148820877, 0.07450461387634277, 0.06576167047023773, 0.021355850622057915, 0.03295886516571045, 0.06396374851465225, 0.03192634508013725, -0.16158437728881836, 0.20134367048740387, -0.07334410399198532, -0.03332352265715599, 0.03606487065553665, 0.24784353375434875, 0.17128725349903107, 0.013791308738291264, -0.1416967809200287, 0.10648014396429062, -0.10005766153335571, 0.04458903521299362, -0.008919917047023773, 0.0776718407869339, 0.01417987048625946, 0.05619072914123535, 0.01658879779279232, 0.09067323058843613, -0.06426461786031723, 0.09825015068054199, 0.0774417519569397], [0.020904337987303734, -0.10303936898708344, -0.2177959680557251, -0.29362204670906067, -0.0435183122754097, -0.19089549779891968, 0.053311608731746674, -0.2200377732515335, -0.054466284811496735, 0.088410384953022, -0.08771412074565887, -0.006028447765856981, 0.0680631473660469, -0.2922377288341522, 0.11495091021060944, 0.09691129624843597, 0.16857556998729706, -0.065330870449543, -0.16540241241455078, 0.2356013059616089, -0.3987627625465393, 0.12368158996105194, 0.24556924402713776, -0.20611849427223206, 0.17575165629386902, 0.055507030338048935, -0.02530774101614952, 0.46563562750816345, 0.35424134135246277, -0.31501007080078125, -0.32997187972068787, 0.1783726066350937, 0.07622890174388885, -0.014276267029345036, -0.11354725062847137, 0.1339670717716217, -0.1656956523656845, -0.16399194300174713, -0.0020692222751677036, -0.19910453259944916, -0.10335227847099304, -0.17937859892845154, -0.09468116611242294, -0.2529626488685608, 0.12870362401008606, 0.10012337565422058, -0.18407978117465973, -0.06648755073547363, 0.07826214283704758, 0.22685015201568604, -0.09982116520404816, -0.3469915986061096, 0.1888662427663803, -0.01744050718843937, 0.09497584402561188, 0.1856231987476349, 0.039091404527425766, -0.030053645372390747, -0.13858674466609955, -0.19757036864757538, 0.05682447552680969, -0.052940864115953445, -0.07627192884683609, 0.01935446448624134], [0.02146737277507782, 0.173543781042099, 0.042256880551576614, 0.2706166207790375, -0.08692379295825958, 0.16489142179489136, -0.1009492501616478, 0.13548704981803894, -0.06454160809516907, 0.12770503759384155, 0.12085958570241928, 0.07611871510744095, 0.15265601873397827, 0.11804994195699692, -0.1212584525346756, 0.12126100808382034, -0.15132111310958862, 0.044585902243852615, 0.19551511108875275, -0.06541166454553604, 0.22280937433242798, -0.07064551115036011, 0.023949673399329185, 0.1358773410320282, -0.02351580560207367, 0.045378439128398895, 0.1165681704878807, -0.08815871179103851, 0.015913143754005432, 0.0958900898694992, 0.07290221005678177, 0.03826741874217987, -0.050031643360853195, 0.0755198746919632, 0.02666880004107952, 0.009795289486646652, 0.1607501059770584, 0.09320815652608871, -0.02564268186688423, -0.10879997164011002, -0.058697719126939774, -0.04105617105960846, -0.1293693482875824, -0.01361218560487032, -0.01211345661431551, 0.16444338858127594, 0.11992921680212021, -0.0829804465174675, -0.10595428198575974, -0.1134556233882904, 0.11032319068908691, 0.15650077164173126, 0.058270882815122604, 0.10068650543689728, -0.0796041339635849, -0.20777936279773712, 0.19294317066669464, 0.0910118818283081, 0.21021389961242676, -0.01687115617096424, -0.046079736202955246, 0.047154881060123444, 0.04721919074654579, 0.1863906979560852], [0.07391467690467834, -0.05891646444797516, -0.010123481042683125, -0.3043716549873352, 0.0776914581656456, -0.1979890912771225, 0.15011078119277954, -0.15018190443515778, 0.17261265218257904, 0.24070286750793457, -0.1808740794658661, -0.08050452917814255, -0.07747214287519455, -0.17142876982688904, 0.014458687976002693, 0.07040711492300034, 0.0710565522313118, 0.16072417795658112, -0.13307957351207733, 0.30350586771965027, -0.12349880486726761, 0.277518093585968, 0.050011590123176575, -0.19212065637111664, 0.00015088521467987448, 0.25947248935699463, 0.1094854474067688, 0.15588656067848206, 0.10619496554136276, -0.2890768349170685, -0.07368696480989456, 0.09892794489860535, 0.22206449508666992, 0.17732250690460205, -0.25932425260543823, 0.0576479472219944, 0.001570816501043737, -0.08947815746068954, 0.1824692040681839, -0.09573035687208176, 0.12803025543689728, -0.1420886218547821, 0.09515789896249771, -0.11335047334432602, 0.03471054881811142, -0.1406838446855545, -0.015174091793596745, 0.22341692447662354, 0.12198174744844437, 0.29396310448646545, -0.06489196419715881, -0.29525819420814514, 0.2185789793729782, -0.03601798787713051, -0.11514680087566376, 0.16450358927249908, -0.17980143427848816, 0.02724616229534149, 0.07281098514795303, 0.07891585677862167, 0.2281491458415985, -0.1033601313829422, 0.09221694618463516, 0.007778890430927277], [0.19042199850082397, -0.028695644810795784, -0.09373129159212112, -0.28063103556632996, 0.06605799496173859, -0.056448694318532944, 0.07897235453128815, -0.03460153564810753, 0.1884932518005371, 0.13821345567703247, -0.062223564833402634, -0.07579599320888519, 0.18021175265312195, -0.31099721789360046, 0.18547791242599487, 0.07262743264436722, 0.10102778673171997, 0.13499154150485992, -0.02242601290345192, 0.20508933067321777, -0.3192758858203888, 0.03495742008090019, 0.08256460726261139, 0.060431528836488724, 0.19828295707702637, 0.18730251491069794, -0.03116386942565441, 0.1819540560245514, 0.2134137898683548, -0.09432986378669739, -0.1424979865550995, 0.1697087436914444, 0.15910224616527557, 0.05528254806995392, -0.10802951455116272, 0.16866335272789001, 0.07269608974456787, -0.13764633238315582, -0.027525730431079865, 0.025117969140410423, -0.015456180088222027, -0.042391031980514526, 0.20168647170066833, -0.014064253307878971, 0.17536798119544983, -0.05160798132419586, -0.11803694069385529, 0.0031110651325434446, 0.029293615370988846, 0.16725091636180878, 0.011022538878023624, -0.3480127453804016, 0.26832640171051025, -0.10060910135507584, -0.11684096604585648, 0.0566604919731617, 0.015982963144779205, 0.041728079319000244, -0.11317680031061172, 0.0661732405424118, 0.17474310100078583, -0.12864439189434052, 0.033329326659440994, 0.04690179228782654], [-0.017552584409713745, -0.3540249764919281, 0.058560796082019806, -0.11351849883794785, -0.08269616961479187, 0.053032904863357544, -0.0208086259663105, -0.04900963976979256, 0.009239204227924347, 0.10743184387683868, -0.20832102000713348, -0.11342758685350418, 0.09014857560396194, 0.007406328804790974, -0.015520346350967884, 0.019330138340592384, -0.028426289558410645, 0.11930115520954132, -0.16216792166233063, 0.07117553055286407, -0.15575101971626282, 0.24518397450447083, 0.3061524033546448, 0.0010369165102019906, 0.14440187811851501, 0.06578917801380157, 0.11576865613460541, 0.39324951171875, 0.1886357069015503, -0.22476710379123688, -0.21466150879859924, 0.19621641933918, 0.19732405245304108, 0.04972352460026741, -0.05488380044698715, 0.14332254230976105, -0.10058611631393433, -0.26021894812583923, 0.1934857964515686, -0.042000554502010345, 0.11983505636453629, -0.13909371197223663, -0.04219527542591095, 0.030811462551355362, -0.006155203562229872, 0.08886163681745529, -0.0017977652605623007, 0.09021097421646118, 0.05334731191396713, 0.17711319029331207, 0.10439831018447876, -0.15156497061252594, 0.3007851541042328, -0.028860406950116158, -0.10704013705253601, -0.012623761780560017, -0.009415598586201668, 0.013255000114440918, -0.10182105749845505, 0.003288215259090066, 0.08074922859668732, 0.18111172318458557, -0.04250930994749069, 0.18650098145008087], [-0.010325941257178783, -0.036671094596385956, -0.08932344615459442, -0.2883193790912628, 0.09623358398675919, -0.15438605844974518, -0.039003822952508926, -0.1592029184103012, 0.10415887832641602, 0.04165538772940636, -0.16570788621902466, -0.2737845778465271, -0.160054549574852, -0.1018209382891655, 0.015157835558056831, 0.0530509352684021, 0.07481838017702103, 0.008508817292749882, 0.027191635221242905, 0.14858029782772064, -0.41929343342781067, 0.14774051308631897, -0.023182282224297523, -0.029483234509825706, -0.10062888264656067, 0.14007151126861572, -0.06538276374340057, 0.08510583639144897, 0.23729580640792847, -0.19470173120498657, -0.12957020103931427, 0.14438419044017792, 0.04431162402033806, -0.095707006752491, -0.13971829414367676, -0.007552632130682468, -0.061947666108608246, 0.04538663849234581, 0.09310025721788406, -0.04833288863301277, 0.22426007688045502, -0.11900436133146286, 0.1752897948026657, -0.27033311128616333, 0.2040526419878006, -0.09644584357738495, 0.12591715157032013, 0.20495040714740753, 0.06174859777092934, 0.0488467775285244, -0.2051396369934082, -0.2818494439125061, 0.003844895400106907, 0.03529214859008789, 0.09195324778556824, -0.131402850151062, -0.1306058019399643, 0.04846453666687012, -0.18168869614601135, 0.14380578696727753, 0.15798106789588928, -0.08680492639541626, -0.2068495899438858, 0.08712299913167953], [-0.05299561470746994, -0.04576939344406128, 0.13728411495685577, 0.10077408701181412, -0.10622942447662354, 0.09991522878408432, -0.12775826454162598, 0.009534334763884544, 0.0896444246172905, -0.032170504331588745, 0.001310432329773903, 0.11727072298526764, 0.03581491857767105, 0.19155196845531464, 0.09227679669857025, -0.07829849421977997, -0.09554319828748703, 0.05648345500230789, 0.16839313507080078, 0.06853888928890228, -0.021225789561867714, -0.0038452898152172565, -0.004187639802694321, 0.022781647741794586, -0.00488700158894062, 0.08170710504055023, 0.0843644067645073, -0.02836878038942814, -0.0026741481851786375, 0.14784841239452362, -0.12267854064702988, 0.09904825687408447, -0.04723886772990227, 0.04215046018362045, 0.058197855949401855, -0.07755209505558014, 0.10083317756652832, -0.02948932722210884, -0.09267674386501312, 0.15153993666172028, 0.06245911121368408, -0.015370983630418777, 0.01856115646660328, 0.11923150718212128, -0.05415799841284752, 0.00895104743540287, 0.09957866370677948, 0.05308014154434204, -0.1381804496049881, -0.030808063223958015, -0.07221478223800659, 0.009805001318454742, 0.06576872617006302, 0.057138338685035706, -0.06983810663223267, 0.05639577656984329, 0.18815690279006958, 0.047498464584350586, -0.15930624306201935, 0.13496699929237366, 0.0608852282166481, 0.12304595857858658, 0.07996830344200134, -0.05451314151287079], [0.16460569202899933, -0.2846226394176483, -0.07212545722723007, 0.09638112783432007, 0.04430871456861496, -0.005354531109333038, 0.018929900601506233, 0.0985473096370697, -0.07476262748241425, -0.1394883096218109, 0.03873828053474426, -0.0773005336523056, 0.0468377061188221, 0.22245556116104126, 0.2540005147457123, -0.0025631540920585394, 0.12490528076887131, -0.30996862053871155, -0.09190673381090164, -0.05306757614016533, -0.08458998799324036, -0.09705943614244461, -0.2147335708141327, 0.2297116369009018, 0.17690588533878326, -0.19818343222141266, 0.005294516682624817, 0.036613885313272476, 0.19735018908977509, 0.02770588919520378, -0.3038022816181183, -0.21051721274852753, -0.06466512382030487, -0.22896946966648102, 0.03500214219093323, 0.046092841774225235, -0.004531972575932741, 0.10627889633178711, 0.14018560945987701, -0.07829076796770096, -0.0222556684166193, 0.15311171114444733, 0.15830077230930328, 0.1770273596048355, 0.08612284064292908, -0.10266285389661789, -0.29376351833343506, 0.03555581346154213, 0.17216351628303528, 0.05620146542787552, 0.25787511467933655, 0.010040191933512688, -0.3208087086677551, -0.07584396749734879, 0.07817040383815765, -0.35829517245292664, -0.43999239802360535, -0.032873332500457764, -0.07398384809494019, -0.0054266685619950294, -0.09173187613487244, -0.3556685149669647, -0.11377140879631042, -0.06701440364122391], [0.08664679527282715, 0.09672379493713379, 0.15085624158382416, 0.1672297567129135, -0.032137539237737656, 0.2138594388961792, -0.06003241986036301, -0.006076203193515539, 0.134677454829216, 0.12081240862607956, -0.073267363011837, 0.13505370914936066, 0.1264471411705017, 0.26304906606674194, -0.1109185591340065, 0.08652240037918091, -0.11484923213720322, 0.05545764043927193, -0.04704419523477554, -0.256943941116333, 0.293580025434494, -0.0471450574696064, -0.08378028869628906, -0.0555841363966465, -0.0898570716381073, -0.1471121907234192, -0.050473231822252274, -0.16597908735275269, -0.09443125873804092, 0.16127245128154755, 0.31431707739830017, -0.008340662345290184, 0.09946901351213455, -0.10804905742406845, 0.13421277701854706, -0.04898034781217575, -0.06840666383504868, 0.10375851392745972, -0.0446828156709671, 0.07566266506910324, 0.11800604313611984, 0.09101533144712448, 