{"q_net.0.weight": [[-0.046867698431015015, 0.25461500883102417, 0.07468461245298386, -0.21347960829734802, 0.03885866329073906, 0.39307674765586853, 0.06363306194543839, 0.2834125757217407, -0.0948045626282692, 0.12443871796131134, -0.13204634189605713], [-0.22707204520702362, -0.050701435655355453, -0.11998159438371658, -0.20184068381786346, -0.22989985346794128, -0.018212659284472466, -0.010267731733620167, 0.22923395037651062, -0.005869124084711075, 0.38483625650405884, -0.19512322545051575], [0.31887587904930115, -0.12612424790859222, 0.38815584778785706, 0.08624359220266342, 0.33641767501831055, -0.20366758108139038, -0.04824569448828697, 0.10581228882074356, -0.18465803563594818, -0.22039107978343964, -0.22386173903942108], [0.4181021451950073, -0.2795857787132263, 0.25264468789100647, 0.16419290006160736, 0.28686168789863586, -0.40356093645095825, 0.17666268348693848, 0.009190362878143787, 0.24333524703979492, 0.14966699481010437, -0.03523119166493416], [-0.0708058625459671, 0.25943663716316223, 0.32611775398254395, -0.010947673581540585, 0.039922431111335754, 0.040954429656267166, -0.21764199435710907, 0.17272183299064636, 0.10272694379091263, -0.3796536922454834, 0.22335948050022125], [0.4688970446586609, 0.07721153646707535, -0.21505571901798248, 0.18436889350414276, -0.008934538811445236, 0.14248310029506683, -0.0869184359908104, -0.06601989269256592, -0.13777606189250946, 0.04992496222257614, -0.12373272329568863], [-0.016846979036927223, -0.24379344284534454, -0.04366636276245117, 0.3438858687877655, -0.28598982095718384, 0.03713865578174591, -0.007806094828993082, -0.013501947745680809, 0.09319479018449783, 0.07230718433856964, 0.033074963837862015], [-0.14609019458293915, -0.07221962511539459, 0.16476841270923615, 0.23773923516273499, -0.010934136807918549, -0.11257995665073395, 0.18461966514587402, 0.273497074842453, 0.0011072707129642367, 0.10681117326021194, -0.3469855785369873], [0.26374632120132446, -0.046954527497291565, 0.07947452366352081, -0.07097872346639633, -0.17182260751724243, 0.13658438622951508, 0.27649882435798645, 0.1386033445596695, -0.08451960235834122, 0.1726623922586441, -0.25462937355041504], [-0.4361867308616638, 0.3112144470214844, 0.24959857761859894, 0.2908482551574707, 0.11552876234054565, 0.25743916630744934, 0.26784369349479675, -0.0466037280857563, -0.11182998865842819, 0.13552255928516388, 0.30850160121917725], [0.09489141404628754, 0.14012563228607178, 0.09319860488176346, -0.1189698576927185, -0.47506317496299744, -0.014721681363880634, 0.18570803105831146, 0.22791847586631775, -0.19025620818138123, 0.38506758213043213, 0.15288199484348297], [-0.146988645195961, -0.0683225691318512, -0.2918751835823059, -0.13532204926013947, 0.10726001113653183, 0.13020838797092438, -0.20775166153907776, 0.1332436203956604, -0.24456925690174103, -0.4078802764415741, -0.11171630024909973], [-0.4429665207862854, 0.17450940608978271, -0.0878785029053688, 0.0773850679397583, 0.11443942785263062, -0.25108566880226135, 0.08559355139732361, 0.1088181883096695, 0.15070834755897522, 0.033338598906993866, 0.19179734587669373], [0.2640388309955597, -0.11631602793931961, -0.23290452361106873, -0.17244158685207367, 0.2352924942970276, 0.021404286846518517, 0.1869124174118042, 0.27523937821388245, 0.04786045849323273, 0.02581319957971573, 0.15709444880485535], [0.22748562693595886, 0.34285444021224976, -0.2743467092514038, -0.21592774987220764, 0.20923614501953125, 0.2178613841533661, 0.1652921587228775, 0.20466944575309753, 0.2544711232185364, 0.18232284486293793, 0.3373103141784668], [0.046526990830898285, -0.1732179820537567, 0.21974414587020874, -0.08956487476825714, -0.3700052499771118, 0.09715765714645386, 0.3637974262237549, 0.14720024168491364, 0.06268178671598434, -0.05768774449825287, 0.016688555479049683], [0.19474954903125763, 0.28799358010292053, -0.27640533447265625, 0.34737253189086914, -0.07172739505767822, 0.038779567927122116, -0.05626434087753296, 0.18116126954555511, 0.2974804937839508, -0.24753771722316742, -0.2500389516353607], [0.2624060809612274, 0.24623729288578033, 0.31081846356391907, -0.02184080146253109, -0.2685743272304535, 0.18982936441898346, 0.3195188343524933, 0.050992753356695175, 0.07970576733350754, -0.23981139063835144, 0.10362526029348373], [-0.2800006866455078, -0.16572540998458862, -0.10225026309490204, -0.1337074339389801, 0.2540901303291321, -0.2132728397846222, 0.08098313957452774, -0.10376521944999695, -0.19891053438186646, -0.09265273809432983, -0.13245542347431183], [0.3703427314758301, -0.03900586813688278, -0.23876343667507172, -0.17151272296905518, 0.44863370060920715, -0.13168805837631226, -0.07129734009504318, -0.039205219596624374, -0.03492245450615883, -0.19283883273601532, -0.051654983311891556], [0.4774318039417267, -0.28531113266944885, 0.00888880342245102, -0.02861151657998562, -0.10540610551834106, 0.2739711105823517, -0.10007500648498535, 0.1001754030585289, 0.29435163736343384, -0.16932781040668488, -0.11824975162744522], [0.37581855058670044, -0.023072119802236557, 0.38496559858322144, 0.27743473649024963, 0.2427825778722763, 0.2810373306274414, -0.14718206226825714, 0.1011866107583046, -0.06289730966091156, -0.1635441929101944, -0.048209406435489655], [-0.07772857695817947, -0.05305137485265732, 0.232332244515419, -0.08083178102970123, 0.08975827693939209, 0.08986982703208923, -0.006039494648575783, -0.1655563861131668, 0.05353822559118271, -0.26114073395729065, -0.1851944625377655], [0.369042307138443, 0.3328351378440857, -0.2811460494995117, 0.018033090978860855, 0.03705276548862457, 0.17007337510585785, 0.09102044254541397, 0.2900218367576599, 0.21771587431430817, 0.0122377322986722, 0.3070666193962097], [0.4633147120475769, -0.04597281664609909, 0.1782035380601883, 0.035432737320661545, -0.1693238615989685, 0.4152162969112396, 0.3103187680244446, -0.1684749275445938, -0.005861528683453798, -0.03223932534456253, -0.10661277920007706], [0.1145889014005661, -0.2276473194360733, -0.2826040983200073, -0.22872011363506317, -0.1485939919948578, -0.04291654750704765, -0.06501863151788712, -0.16725380718708038, -0.02327927201986313, 0.1453329175710678, -0.1494332253932953], [-0.2017761915922165, 0.04995794966816902, 0.08239081501960754, 0.07619919627904892, 0.31716057658195496, -0.2665865123271942, -0.02394208125770092, 0.14369332790374756, -0.027343284338712692, -0.11978496611118317, 0.21088799834251404], [-0.0935162827372551, -0.06615866720676422, -0.5367979407310486, -0.2015884816646576, 0.36035510897636414, -0.003486886853352189, 0.10614202916622162, 0.12193509936332703, 0.2211402952671051, -0.022515058517456055, 0.1858827918767929], [-0.21166951954364777, -0.03817339241504669, -0.05365247651934624, -0.04358704760670662, -0.16683544218540192, 0.014556176960468292, -0.2897706925868988, -0.07888896018266678, 0.13092389702796936, -0.10422637313604355, -0.1697080284357071], [0.2439475655555725, 0.17032195627689362, 0.01641293615102768, 0.3112262487411499, -0.023917414247989655, -0.025306062772870064, -0.445359468460083, -0.14840686321258545, -0.15709197521209717, 0.2280292809009552, 0.059950705617666245], [-0.396506130695343, -0.29501473903656006, 0.24832254648208618, -0.23927511274814606, 0.21788619458675385, -0.42291945219039917, 0.4050765633583069, -0.1471414715051651, 0.10464160144329071, 0.29140955209732056, 0.14794878661632538], [-0.1001456081867218, 0.18983808159828186, -0.047261808067560196, 0.2808026671409607, 0.35357341170310974, -0.3030213415622711, 0.039413612335920334, 0.032403185963630676, -0.11364730447530746, 0.02962387353181839, 0.21135875582695007], [-0.4040334224700928, 0.28196337819099426, 0.002917194040492177, 0.33353397250175476, -0.07084903866052628, 0.031906481832265854, -0.038055647164583206, 0.0814475417137146, -0.036931417882442474, -0.1621205061674118, 0.06016753986477852], [0.43467023968696594, -0.17098136246204376, -0.014126514084637165, 0.12830965220928192, 0.10849469900131226, -0.4866153597831726, -0.2270028293132782, 0.2272064983844757, 0.10664474219083786, 0.040397509932518005, 0.21930384635925293], [0.4198627471923828, 0.20789359509944916, -0.07998745888471603, -0.3593084514141083, -0.21644176542758942, -0.19034846127033234, 0.3497236967086792, 0.07775707542896271, 0.10882558673620224, 0.2810862362384796, 0.21725475788116455], [-0.08942199498414993, 0.35588642954826355, -0.31023797392845154, -0.260604590177536, -0.3403736352920532, -0.3250727951526642, 0.18288785219192505, 0.02496318519115448, 0.21494249999523163, -0.07733649760484695, -0.1509130895137787], [-0.026580750942230225, -0.044392120093107224, -0.07376709580421448, 0.3525753915309906, 0.5048635005950928, -0.32797372341156006, -0.398438423871994, 0.2727806866168976, -0.1458231657743454, 0.13673967123031616, 0.26084470748901367], [0.2960664927959442, 0.292676717042923, -0.15707647800445557, 6.670969014521688e-06, -0.012593703344464302, -0.163691908121109, -0.4479478597640991, -0.005091268569231033, 0.0927433967590332, 0.23503553867340088, 0.2636032700538635], [0.446542352437973, 0.0005861995741724968, -0.09973646700382233, 0.29569676518440247, -0.0025693781208246946, -0.4582793712615967, -0.44190269708633423, 0.013484882190823555, 0.004479823634028435, -0.08794951438903809, 0.1951189935207367], [0.2325628250837326, 0.23643268644809723, 0.019202837720513344, 0.08869432657957077, -0.2446325570344925, 0.36679399013519287, 0.009706508368253708, 0.24289709329605103, 0.047003649175167084, -0.26952841877937317, -0.1573164314031601], [-0.11044981330633163, -0.008403148502111435, 0.04664993658661842, -0.06800732761621475, -0.04743080213665962, 0.2156583070755005, -0.20806626975536346, 0.2918890118598938, 0.32202866673469543, -0.2378261685371399, 0.19514451920986176], [0.33723214268684387, -0.04468510299921036, -0.05176831781864166, -0.06996633112430573, -0.03596607223153114, -0.16115091741085052, 0.3817024230957031, -0.10160515457391739, -0.15287473797798157, -0.003330531995743513, -0.17541144788265228], [-0.1471744030714035, 0.3670371472835541, 0.006942195817828178, 0.11592311412096024, 0.32241079211235046, 0.028201747685670853, -0.11691907048225403, -0.24841153621673584, -0.23658350110054016, 0.18370459973812103, 0.08876177668571472], [-0.2536966800689697, -0.030140507966279984, -0.23470203578472137, 0.15271112322807312, 0.006486183498054743, -0.010145073756575584, 0.30412086844444275, -0.09273523092269897, -0.028076788410544395, 0.022863393649458885, 0.09508247673511505], [0.21464812755584717, -0.1607254296541214, 0.34033092856407166, -0.17950782179832458, -0.11084027588367462, 0.3021164536476135, 0.023469820618629456, 0.015346120111644268, -0.11535371840000153, 0.2447878122329712, 0.005712253972887993], [0.35952162742614746, 0.041770659387111664, -0.12547564506530762, -0.16926243901252747, -0.3325325548648834, 0.027684994041919708, 0.368457168340683, 0.14397388696670532, -0.04258345440030098, 0.16949209570884705, -0.24837909638881683], [0.40187788009643555, -0.10040061920881271, 0.08661368489265442, 0.10666930675506592, 0.05757038667798042, 0.17169305682182312, -0.11326813697814941, 0.03485473245382309, 0.10380920022726059, 0.03915299475193024, 0.21846646070480347], [0.24488499760627747, 0.25578826665878296, 0.17970547080039978, -0.08678781986236572, -0.3453373610973358, 0.050844818353652954, -0.0715336725115776, -0.009444675408303738, -0.17517846822738647, -0.2843993008136749, -0.017742514610290527], [0.30965718626976013, 0.08805211633443832, -0.149031400680542, -0.20380838215351105, -0.0098186070099473, -0.23296330869197845, 0.19568590819835663, -0.27358442544937134, 0.2599036395549774, 0.17912542819976807, -0.30611714720726013], [0.4332214593887329, 0.02654394321143627, 0.15422776341438293, 0.2001911699771881, -0.005259613040834665, 0.00832359679043293, 0.04294166341423988, -0.0031463168561458588, 0.17159979045391083, 0.1874464899301529, 0.20922724902629852], [-0.2778732180595398, -0.26761654019355774, -0.38650479912757874, 0.27825960516929626, -0.025407347828149796, 0.18618622422218323, -0.12809212505817413, 0.06636781245470047, 0.11009076982736588, 0.3591597378253937, 0.10760828107595444], [-0.253553569316864, -0.13236811757087708, -0.20597612857818604, 0.22451013326644897, -0.18146011233329773, -0.300775408744812, -0.03852464258670807, -0.3323945105075836, -0.042830657213926315, 0.24392618238925934, -0.22165587544441223], [-0.24168533086776733, 0.04575249180197716, -0.18041159212589264, 0.0535111129283905, 0.08675631135702133, 0.381007581949234, 0.44489941000938416, -0.06307739019393921, 0.21637362241744995, 0.0783785879611969, 0.12573674321174622], [-0.15989729762077332, -0.06236174702644348, -0.1286395639181137, -0.1843308061361313, 0.2813970148563385, 0.10853760689496994, -0.2567479610443115, 0.11329762637615204, -0.1386970579624176, 0.02601575292646885, -0.10927680879831314], [0.15777164697647095, -0.14160889387130737, -0.021760065108537674, 0.12031975388526917, -0.07707160711288452, -0.4031277894973755, -0.36096110939979553, -0.17104895412921906, 0.21973936259746552, 0.12373290956020355, 0.27336323261260986], [-0.2879962921142578, 0.14678242802619934, -0.11691989749670029, 0.0020544230937957764, 0.20467497408390045, 0.210260272026062, 0.3971625864505768, 0.2676990032196045, 0.15165673196315765, -0.10958626121282578, 0.12727683782577515], [-0.13887225091457367, 0.21579650044441223, -0.4386972188949585, -0.3716530501842499, 0.3170997202396393, 0.2685792148113251, -0.315060555934906, -0.14206627011299133, -0.0038690208457410336, -0.09462971240282059, 0.07143490016460419], [0.5169757604598999, 0.05389538034796715, -0.056062448769807816, -0.02983877807855606, 0.11831877380609512, 0.16769395768642426, 0.11685644090175629, 0.08619266003370285, 0.3067806661128998, 0.05030395835638046, -0.056689877063035965], [0.4279487431049347, 0.0992707684636116, 0.03721495345234871, 0.12449958920478821, 0.05490649491548538, -0.1982007473707199, -0.34071633219718933, 0.1641753911972046, 0.004909702111035585, -0.05521020293235779, -0.1772526353597641], [-0.3377783000469208, -0.0815965011715889, -0.24808062613010406, 0.20175603032112122, 0.2223225235939026, 0.3774605095386505, 0.3202749192714691, 0.1262291818857193, 0.25010204315185547, 0.26645776629447937, 0.05013829469680786], [0.45793330669403076, 0.027784863486886024, -0.2652704119682312, -0.31295761466026306, -0.445827841758728, 0.40508782863616943, 0.3897564709186554, 0.07596663385629654, -0.04520918056368828, 0.007777778431773186, -0.019265003502368927], [-0.15108045935630798, -0.392844557762146, -0.30522584915161133, -0.2909168303012848, 0.24878613650798798, -0.01432078517973423, -0.06360038369894028, -0.07926996052265167, -0.18894602358341217, 0.21472862362861633, 0.0477658249437809], [0.20674267411231995, 0.19939015805721283, 0.07941056787967682, -0.46999335289001465, -0.363852858543396, 0.49083417654037476, 0.3332056701183319, -0.13317373394966125, 0.21479935944080353, -0.13587310910224915, 0.0077719236724078655], [0.05337586998939514, 0.30306994915008545, 0.23004591464996338, -0.21504510939121246, -0.1484842151403427, 0.13304069638252258, 0.1320163458585739, 0.16625647246837616, 0.06464690715074539, 0.14737243950366974, 0.17351767420768738], [-0.323362797498703, -0.07622773945331573, 0.153910830616951, -0.18570388853549957, -0.4178393483161926, 0.11742744594812393, 0.16701792180538177, 0.1370605081319809, 0.03616980463266373, -0.07278838753700256, 0.12903796136379242], [-0.3715881407260895, 0.037073489278554916, 0.2841602563858032, 0.2216271162033081, 0.2159297615289688, -0.2747441232204437, -0.019462617114186287, 0.12709710001945496, 0.06989671289920807, 0.2542420029640198, 0.19882804155349731], [0.016834039241075516, 0.12165312469005585, 0.10865084826946259, -0.3134519159793854, -0.07038359344005585, -0.14418882131576538, 0.004632863216102123, -0.47129786014556885, 0.11730650067329407, 0.33565598726272583, 0.273785799741745], [-0.19349753856658936, -0.13223358988761902, -0.07968311756849289, -0.13495968282222748, 0.1936456263065338, 0.11318375915288925, -0.0819028913974762, -0.25302544236183167, -0.054544392973184586, 0.016564326360821724, -0.4702644348144531], [0.14172682166099548, 0.01098274439573288, 0.13187536597251892, -0.08733463287353516, -0.08554547280073166, -0.20213425159454346, 0.15682339668273926, -0.0745173767209053, 0.06921223551034927, -0.14815591275691986, 0.1074865311384201], [0.12251903861761093, 0.16047044098377228, 0.2382468432188034, -0.23666681349277496, 0.1010909155011177, -0.11372831463813782, 0.19418852031230927, -0.06790455430746078, 0.3298579454421997, 0.25936320424079895, -0.06590959429740906], [0.2746928632259369, -0.15602931380271912, 0.03993038088083267, -0.026174210011959076, 0.2832127511501312, -0.1293494701385498, 0.017266282811760902, 0.006088764872401953, 0.030407460406422615, 0.11927942931652069, 0.07699113339185715], [0.42696449160575867, -0.16902759671211243, 0.1500740945339203, 0.2608868479728699, 0.2215445339679718, 0.03726130723953247, 0.021013367921113968, -0.16797830164432526, -0.04030923545360565, 0.04061092436313629, 0.21693997085094452], [0.3853342831134796, 0.22467434406280518, -0.07207056879997253, 0.26817071437835693, 0.16639505326747894, -0.3228588402271271, -0.13359671831130981, -0.1016135886311531, 0.08586777001619339, 0.14784488081932068, 0.01372871920466423], [-0.005180333741009235, 0.2741389572620392, -0.20481905341148376, 0.07456737011671066, 0.3954833745956421, -0.0873359739780426, 0.10659178346395493, 0.1880815476179123, -0.25672271847724915, 0.22887352108955383, 0.017641950398683548], [0.16211071610450745, 0.0012231221189722419, 0.02872583642601967, -0.1464119255542755, -0.06899504363536835, 0.35036566853523254, 0.4291060268878937, -0.23501162230968475, -3.6145298508927226e-05, -0.10458787530660629, 0.1434275060892105], [0.046545710414648056, -0.3974093198776245, -0.11152148246765137, 0.05772465094923973, -0.21518857777118683, -0.3974527418613434, 0.09401345998048782, 0.007044314872473478, -0.025049850344657898, -0.23211190104484558, 0.29592829942703247], [-0.30518293380737305, -0.2636374533176422, 0.14440977573394775, 0.1555100679397583, 0.048919953405857086, 0.09731053560972214, -0.28944456577301025, 0.10606733709573746, -0.08745258301496506, -0.12565694749355316, -0.07743518799543381], [0.13914938271045685, 0.37587377429008484, 0.1652749627828598, -0.0498805046081543, -0.29839009046554565, 0.1144924908876419, -0.21070356667041779, -0.11970660090446472, 0.010359581559896469, -0.11283358186483383, 0.18895940482616425], [0.1109861508011818, 0.07942089438438416, 0.422550231218338, 0.12875474989414215, 0.3843753933906555, -0.20399998128414154, 0.1354122906923294, -0.042086705565452576, -0.28542909026145935, -0.13705280423164368, 0.26141250133514404], [-0.38909247517585754, 0.04037582129240036, -0.24820862710475922, 0.2912144064903259, 0.034868884831666946, 0.06220848113298416, 0.1328928917646408, 0.16163362562656403, -0.20823337137699127, -0.19697305560112, 0.16086003184318542], [0.2059258669614792, -0.299559623003006, -0.1840185821056366, 0.17976778745651245, 0.08274569362401962, -0.2760748267173767, -0.22587774693965912, -0.09095098823308945, -0.08882950246334076, 0.12991827726364136, 0.18690520524978638], [0.3179633319377899, -0.17265485227108002, -0.07486403733491898, 0.2542201578617096, 0.2946515679359436, -0.24027110636234283, -0.28679049015045166, 0.2528991103172302, -0.03228895738720894, 0.04982082173228264, -0.12935739755630493], [0.4819760024547577, -0.15350505709648132, 0.16481705009937286, 0.2074832320213318, -0.38625943660736084, 0.05192836374044418, -0.04005960375070572, -0.07535236328840256, 0.15135018527507782, 0.17563699185848236, 0.11886296421289444], [-0.46286630630493164, 0.08486216515302658, -0.031136106699705124, -0.2266714870929718, -0.3688189387321472, 0.34681087732315063, 0.3039291501045227, 0.004528449848294258, 0.09251707047224045, 0.2507300078868866, 0.17111721634864807], [0.02266310341656208, 0.24970769882202148, 0.0016948535339906812, 0.22549936175346375, 0.016017014160752296, -0.22594816982746124, 0.2714741826057434, 0.1503031849861145, -0.11424502730369568, 0.2916465699672699, -0.2700318694114685], [0.3672168254852295, 0.2257329821586609, -0.023426415398716927, 0.004439640324562788, -0.14041639864444733, -0.24243851006031036, 0.29697030782699585, 0.11814921349287033, 0.09933155030012131, -0.11462394893169403, 0.23321647942066193], [-0.37644994258880615, 0.03271421790122986, 0.06326250731945038, 0.296264111995697, -0.11886681616306305, -0.2470565289258957, -0.09070352464914322, 0.07924393564462662, 0.12808780372142792, 0.2737599313259125, -0.16444137692451477], [0.34393754601478577, 0.2059037983417511, 0.18590088188648224, 0.3449050188064575, -0.06319549679756165, -0.09098014235496521, -0.3069123327732086, 0.03646516427397728, -0.15010137856006622, 0.09990277886390686, -0.21947476267814636], [-0.48848506808280945, 0.18098513782024384, 0.18040090799331665, 0.2196275293827057, 0.18527790904045105, 0.32984960079193115, 0.11340877413749695, -0.21070422232151031, -0.041510842740535736, -0.08125142753124237, 0.16271962225437164], [0.17559674382209778, 0.18314209580421448, -0.07556740939617157, -0.15381084382534027, -0.29384899139404297, 0.005058760289102793, 0.1810428351163864, 0.29495155811309814, -0.03357545658946037, -0.10912907868623734, -0.4248962104320526], [-0.03719306364655495, -0.005320646800100803, -0.016223352402448654, 0.2695125937461853, -0.29080402851104736, 0.14632485806941986, -0.24463874101638794, -0.24901536107063293, 0.12527252733707428, 0.16438175737857819, -0.019947435706853867], [-0.041516926139593124, -0.3300386965274811, 0.425569623708725, -0.09876987338066101, 0.40690937638282776, -0.026945436373353004, -0.28596264123916626, -0.07961057871580124, 0.14201653003692627, -0.2976849377155304, -0.07239212095737457], [0.038101281970739365, -0.41458970308303833, -0.42887160181999207, 0.32654905319213867, 0.2967217266559601, 0.00932567659765482, -0.1279926300048828, 0.18459507822990417, -0.07825291901826859, -0.004861241206526756, -0.1866501420736313], [0.3760678172111511, 0.006568415090441704, 0.2915177643299103, 0.27904170751571655, 0.20573627948760986, -0.4079861044883728, -0.0939420536160469, -0.08378007262945175, -0.1087564155459404, 0.03169393911957741, 0.21329709887504578], [0.15851539373397827, -0.3885079622268677, -0.03239620104432106, 0.3014121949672699, -0.041154325008392334, -0.33749839663505554, -0.169082373380661, -0.31285351514816284, 0.04635688289999962, -0.17475087940692902, -0.05747254565358162], [-0.008654181845486164, 0.06887492537498474, -0.0010917939944192767, -0.09823495894670486, -0.2376374900341034, -0.11962375044822693, 0.319848895072937, 0.19021569192409515, 0.21009811758995056, -0.08915281295776367, 0.3083575963973999], [-0.12915627658367157, 0.08788705617189407, 0.11404822766780853, 0.017496587708592415, -0.0018767884466797113, 0.2491922825574875, 0.19209496676921844, 0.35725465416908264, 0.2058349996805191, -0.0996721163392067, -0.2090510129928589], [0.1412273496389389, -0.020892782136797905, 0.21713192760944366, -0.18980872631072998, 0.08156401664018631, 0.18091562390327454, -0.06442828476428986, -0.18216601014137268, -0.254169762134552, -0.008705164305865765, 0.27760064601898193], [0.4858189523220062, -0.008826000615954399, 0.026119427755475044, -0.1361074298620224, 0.27765992283821106, 0.21278654038906097, 0.2098044902086258, 0.08459076285362244, -0.21187643706798553, 0.2839389741420746, 0.07157355546951294], [0.3786367177963257, 0.08121594041585922, -0.2086624801158905, -0.054635703563690186, -0.14572162926197052, -0.11318684369325638, -0.1580696403980255, 0.03554752469062805, 0.02124105952680111, 0.2836516499519348, 0.22296567261219025], [0.47416678071022034, -0.06460938602685928, -0.11629647761583328, 0.13425211608409882, -0.17814306914806366, -0.024839969351887703, 0.07218107581138611, 0.07760555297136307, -0.03409400209784508, -0.06024549528956413, 0.29388540983200073], [0.10663041472434998, -0.45490705966949463, 0.20519350469112396, -0.21144992113113403, -0.10362030565738678, 0.29399824142456055, -0.3860087990760803, 0.13748793303966522, -0.07993409782648087, -0.11135892570018768, -0.09644833207130432], [-0.1171804666519165, 0.3463576138019562, -0.1662146896123886, 0.25473394989967346, -0.04744292050600052, -0.06837356835603714, -0.35377392172813416, -0.03593633696436882, 0.12053560465574265, 0.22230252623558044, 0.03416784852743149], [-0.22398991882801056, -0.14026592671871185, -0.2938937842845917, -0.023702625185251236, 0.17898674309253693, 0.36761388182640076, 0.07087334245443344, -0.10724515467882156, 0.2285902500152588, -0.2660146951675415, 0.18026942014694214], [-0.2505815923213959, 0.15061920881271362, 0.13463953137397766, 0.22344720363616943, 0.01411729771643877, -0.30002138018608093, -0.15896150469779968, -0.021245477721095085, 0.2083737850189209, 0.16163040697574615, -0.20219628512859344], [-0.3752662241458893, 0.11703713238239288, 0.28710928559303284, 0.05016301944851875, -0.09493263065814972, 0.26882225275039673, -0.22915124893188477, -0.1484668105840683, -0.15286609530448914, -0.12152878940105438, 0.31518152356147766], [-0.3682762682437897, -0.06282541155815125, 0.08974204957485199, -0.11535410583019257, -0.1709483116865158, 0.12398455291986465, 0.17444565892219543, -0.2462676465511322, -0.019200162962079048, 0.13659507036209106, -0.017232973128557205], [0.18655626475811005, 0.04113205522298813, -0.19832852482795715, 0.36409157514572144, 0.443381667137146, -0.011355021968483925, -0.3231101334095001, -0.07310257852077484, 0.034778762608766556, 0.27593326568603516, 0.028856728225946426], [0.3175641894340515, -0.19734156131744385, 0.19001151621341705, 0.27267515659332275, -0.18866793811321259, -0.0498519204556942, 0.2061476707458496, -0.1663583666086197, -0.10227569192647934, -0.18559488654136658, -0.02084164135158062], [0.045839231461286545, 0.30966055393218994, 0.05509839206933975, 0.06412357091903687, 0.42658594250679016, -0.1847846806049347, -0.15989382565021515, -0.01844865083694458, -0.23575592041015625, -0.18373246490955353, -0.1269267350435257], [-0.05369778722524643, 0.2562521994113922, -0.2625788450241089, -0.16141735017299652, -0.10824126750230789, 0.1765161007642746, -0.33752185106277466, -0.28008902072906494, 0.23471878468990326, -0.11290742456912994, 0.1556573063135147], [-0.17958129942417145, -0.04455724358558655, -0.18690592050552368, 0.08023548126220703, -0.13928987085819244, 0.061136648058891296, 0.09140172600746155, -0.04136507213115692, 0.014430712908506393, -0.24786752462387085, -0.31151095032691956], [-0.4442812502384186, 0.25544825196266174, 0.055376648902893066, -0.040037546306848526, 0.3039538562297821, -0.1036699041724205, 0.1618894338607788, 0.31385430693626404, 0.11611349880695343, 0.27152159810066223, 0.06458793580532074], [0.028978347778320312, -0.4531345069408417, 0.43248653411865234, 0.015619087964296341, -0.3970918655395508, 0.3565216064453125, -0.3810421824455261, -0.20171618461608887, -0.055163271725177765, 0.1570853441953659, 0.2615176737308502], [0.486422061920166, 0.2207515835762024, 0.000541779154445976, 0.1806386113166809, 0.10286952555179596, -0.052827104926109314, -0.11739925295114517, -0.10955439507961273, 0.039968863129615784, 0.018712159246206284, -0.052305351942777634], [0.28779783844947815, -0.3371709883213043, 0.2381574809551239, 0.17146405577659607, 0.24448519945144653, 0.3043746054172516, 0.006731650326400995, 0.08274610340595245, 0.056629180908203125, -0.07059884816408157, -0.22415561974048615], [0.3959842324256897, -0.040700241923332214, 0.1173480823636055, 0.19115999341011047, 0.31548774242401123, -0.060410935431718826, 0.25606176257133484, -0.11644771695137024, -0.17052364349365234, 0.19036826491355896, 0.29633960127830505], [0.4678042232990265, -0.05442476645112038, 0.2641655206680298, 0.05739391967654228, 0.27031320333480835, 0.01823396421968937, 0.07578951120376587, 0.19876804947853088, -0.15694259107112885, -0.013133109547197819, -0.0705915316939354], [-0.2818227708339691, 0.27949509024620056, -0.14284648001194, -0.3748081624507904, 0.19458389282226562, 0.0525333471596241, -0.006662386003881693, 0.29054394364356995, 0.02531839720904827, -0.2208896279335022, -0.24846988916397095], [-0.40901878476142883, 0.0017067970475181937, 0.3348330855369568, -0.023931395262479782, -0.0505298413336277, 0.32333144545555115, 0.31359201669692993, 0.152503103017807, 0.1318172812461853, 0.22916603088378906, 0.24866117537021637], [0.05863509327173233, -0.13154812157154083, 0.2861636281013489, 0.06774916499853134, -0.14146916568279266, -0.29139283299446106, -0.14171408116817474, -0.35742077231407166, 0.09180927276611328, 0.26149386167526245, 0.057493750005960464], [-0.29274940490722656, -0.11462926119565964, -0.3170631527900696, 0.24951815605163574, 0.09870017319917679, -0.018468348309397697, 0.15533120930194855, 0.2872772216796875, 0.2505791485309601, 0.2228924185037613, 0.2156360149383545], [0.34885257482528687, 0.06118432432413101, -0.24594183266162872, 0.1734188050031662, 0.3129657804965973, -0.048621293157339096, -0.006593111902475357, 0.1994406282901764, 0.1452840119600296, -0.18641461431980133, -0.1574881225824356], [-0.29418468475341797, 0.21561625599861145, 0.1347062736749649, 0.14945872128009796, -0.18460896611213684, -0.12924259901046753, 0.49071770906448364, 0.25321251153945923, 0.20637811720371246, 0.14885777235031128, -0.2914169728755951], [-0.34855228662490845, -0.13328540325164795, 0.139761283993721, -0.0964985340833664, 0.3227647542953491, 0.03817937895655632, -0.27131563425064087, 0.06591252982616425, -0.09266204386949539, -0.18773268163204193, 0.13091173768043518], [-0.34404218196868896, 0.2661474943161011, 0.35192450881004333, -0.03739538416266441, -0.027455521747469902, -0.032943665981292725, 0.31790345907211304, -0.1470542997121811, -0.22531536221504211, 0.31940993666648865, -0.14519329369068146], [0.12061987072229385, 0.3261299133300781, -0.26219049096107483, -0.09791272133588791, -0.24295689165592194, 0.31196391582489014, -0.2641209065914154, 0.15655042231082916, -0.20810820162296295, -0.14949145913124084, -0.04958328232169151], [0.20876316726207733, 0.1650046557188034, -0.3258019983768463, 0.12773725390434265, 0.29809948801994324, -0.18741901218891144, 0.04834970831871033, 0.28737735748291016, 0.28298458456993103, -0.1357763558626175, -0.0592859648168087]], "q_net.0.bias": [0.2916298806667328, -0.02800598368048668, -0.09620076417922974, -0.1762731969356537, -0.04447580873966217, 0.1397174894809723, -0.11705463379621506, -0.19830167293548584, -0.19523268938064575, 0.014926224946975708, -0.08626722544431686, 0.18153180181980133, 0.21811068058013916, 0.21142353117465973, -0.045372337102890015, 0.03707454726099968, -0.15979065001010895, 0.24122171103954315, -0.17606030404567719, -0.17298530042171478, 0.1055528074502945, -0.15245895087718964, -0.14594238996505737, -0.21322385966777802, -0.19132713973522186, -0.0947103202342987, 0.07997502386569977, -0.03629453852772713, -0.2635277807712555, 0.2330540418624878, -0.1130354180932045, 0.19267013669013977, 0.32210609316825867, 0.1759224534034729, 0.13973534107208252, -0.1679641306400299, 0.29243913292884827, 0.07797493040561676, 0.028100738301873207, -0.19359822571277618, 0.016421273350715637, -0.13819585740566254, 0.2531799376010895, 0.2930620014667511, 0.07749305665493011, -0.18440212309360504, 0.052169132977724075, 0.12162429839372635, 0.06984440237283707, -0.1690315157175064, -0.08383476734161377, -0.06175404042005539, 0.2560221254825592, 0.25259560346603394, -0.07110268622636795, 0.3179119825363159, 0.2268109917640686, -0.20824238657951355, 0.12099510431289673, 0.0037742333952337503, 0.1343531757593155, 0.07066558301448822, 0.13981272280216217, -0.08018680661916733, -0.0022068216931074858, -0.23478421568870544, -0.10028640180826187, 0.26742973923683167, -0.261726975440979, -0.11725354939699173, -0.24346581101417542, 0.038098692893981934, -0.08042148500680923, -0.10591910779476166, 0.03620097041130066, 0.039957042783498764, 0.34891965985298157, 0.08392902463674545, -0.030508100986480713, -0.036162830889225006, -0.1323963701725006, -0.18150664865970612, -0.048001572489738464, -0.029901176691055298, -0.04970751330256462, 0.14150182902812958, 0.1480986475944519, -0.025433342903852463, 0.3692852258682251, -0.23879025876522064, 0.15631228685379028, -0.1571180373430252, 0.10222622007131577, 0.10876064002513885, 0.16159464418888092, 0.1846780627965927, -0.06234218180179596, -0.2101317197084427, 0.05444272235035896, -0.03945381939411163, 0.031077081337571144, 0.1312127560377121, 0.25199079513549805, 0.29267701506614685, 0.024700835347175598, 0.34729114174842834, 0.09674365073442459, -0.13907882571220398, 0.3232310116291046, 0.31487518548965454, -0.043824195861816406, 0.1823292076587677, 0.11368029564619064, -0.12075626105070114, 0.20292320847511292, -0.104955293238163, 0.27812960743904114, 0.0368204228579998, -0.052284013479948044, 0.2179907113313675, -0.14344221353530884, -0.093342125415802, 0.20640027523040771, 0.24498791992664337, 0.23980818688869476, -0.09623192995786667, 0.2404385805130005, -0.1279406100511551], "q_net.2.weight": [[0.07403029501438141, 0.0900406464934349, -0.04235987737774849, 0.016169169917702675, 0.08754469454288483, -0.008484814316034317, 0.0376281701028347, 0.07535570859909058, -0.0553375706076622, -0.03802859038114548, -0.032337941229343414, 0.03836748003959656, 0.0795808807015419, 0.022589117288589478, 0.06764300167560577, 0.012354081496596336, -0.04989221319556236, -0.05410511791706085, 0.06657953560352325, 0.09416274726390839, -0.11275441199541092, -0.04118046164512634, 0.021791787818074226, -0.05867582559585571, -0.037739600986242294, 0.10145968943834305, -0.007639793213456869, 0.030869346112012863, 0.06591012328863144, -0.05313213914632797, 0.0943707749247551, 0.0899106040596962, 0.0697573572397232, -0.03617236763238907, 0.08133093267679214, -0.12088483572006226, 0.03191433101892471, 0.020501410588622093, -0.076969213783741, 0.13842347264289856, 0.05517393723130226, -0.03686579316854477, 0.08394777774810791, -0.011266794987022877, 0.0681271031498909, 0.012775310315191746, 0.012665340676903725, 0.07252596318721771, 0.016913816332817078, -0.015447846613824368, 0.06520698964595795, -0.0025393750984221697, 0.04630570858716965, 0.073099784553051, -0.03157759830355644, 0.11694643646478653, 0.1285063475370407, 0.009417508728802204, -0.029672546312212944, 0.04498999938368797, -0.05653386563062668, 0.0031214889604598284, 0.037169016897678375, -0.057588085532188416, 0.19085077941417694, -0.06683843582868576, -0.14485019445419312, -0.005358128808438778, -0.04049447178840637, -0.008587892167270184, 0.021742166951298714, 0.04663931950926781, -0.011673795990645885, -0.05246581882238388, -0.03880168870091438, 0.04804794117808342, -0.0948510617017746, -0.0015625684754922986, 0.08078446984291077, 0.0059338826686143875, -0.0040666889399290085, 0.06443098187446594, -0.0499878004193306, 0.09411489963531494, -0.0726700872182846, -0.05336003750562668, 0.029064465314149857, -0.0050650290213525295, 0.03636705130338669, 0.0947105661034584, -0.033693429082632065, 0.06135678291320801, -0.0031873108819127083, -0.034634049981832504, -0.10644370317459106, 0.09900033473968506, 0.011499373242259026, 0.04450942948460579, 0.05389740318059921, 0.03866978734731674, -0.0031865534838289022, -0.13764341175556183, 0.06454490125179291, 0.06282178312540054, -0.1185087263584137, -0.0368824265897274, 0.07045020163059235, 0.036243196576833725, -0.04354589432477951, 0.1048750951886177, 0.10839656740427017, 0.06553557515144348, 0.10861639678478241, -0.1107964739203453, -0.07313522696495056, -0.19409248232841492, -0.09155024588108063, -0.0688781589269638, 0.2027786374092102, 0.10819420218467712, -0.05257067084312439, -0.07063339650630951, -0.06688717752695084, -0.06868468225002289, 0.0559324212372303, -0.08308866620063782, 0.0011485045542940497, 0.04573008790612221], [-0.09643358737230301, -0.17993460595607758, 0.11825466901063919, 0.08881516754627228, 0.09120833873748779, 0.11676435172557831, 0.14433647692203522, -0.15519535541534424, -0.2667975425720215, -0.03804215416312218, -0.1538587361574173, -0.11420998722314835, -0.053292594850063324, -0.06121078506112099, 0.10674695670604706, -0.28240111470222473, 0.01079808920621872, -0.0409608893096447, 0.03984047845005989, 0.1694231480360031, 0.08816412091255188, 0.19952110946178436, 0.012082753702998161, 0.12027768045663834, -0.043292708694934845, -0.07321062684059143, -0.028914082795381546, 0.040140338242053986, -0.006646736990660429, 0.12309406697750092, -0.19896405935287476, -0.002556441817432642, -0.03476105257868767, 0.13749577105045319, -0.040048565715551376, -0.04138060659170151, 0.05389253795146942, 0.08467341214418411, 0.1419352889060974, -0.055305369198322296, -0.07131858915090561, -0.2500258684158325, 0.03526236489415169, -0.14554017782211304, -0.1632540374994278, -0.17612890899181366, 0.05170822516083717, -0.12177029997110367, 0.07405982911586761, 0.1933102160692215, -0.06784462183713913, -0.02755955047905445, -0.13324414193630219, -0.019636385142803192, 0.09868445247411728, -0.13009873032569885, 0.002539106411859393, 0.0909276157617569, 0.1751071959733963, -0.08283297717571259, -0.1349686235189438, 0.035124409943819046, -0.1378728747367859, -0.07947957515716553, 0.028995925560593605, -0.24943652749061584, -0.006593211088329554, -0.05361253023147583, -0.08074343949556351, -0.05176537111401558, 0.2179805040359497, 0.1748930811882019, 0.11135276407003403, 0.13181251287460327, -0.0638047605752945, 0.08944399654865265, -0.17650191485881805, -0.0015582152409479022, 0.05082035809755325, -0.02426353096961975, 0.1052025631070137, 0.13868407905101776, 0.07194671779870987, -0.10418777912855148, -0.03964705020189285, 0.12055156379938126, -0.09283003211021423, 0.15671098232269287, -0.13905614614486694, -0.13504058122634888, -0.04501733183860779, -0.008268536999821663, 0.13329604268074036, 0.1549128144979477, 0.15628506243228912, 0.01573006436228752, -0.06654664874076843, 0.01238367147743702, 0.013335558585822582, 0.11748402565717697, 0.023483727127313614, -0.19169248640537262, 0.013087817467749119, -0.18420682847499847, -0.05022308975458145, -0.23656798899173737, -0.172413632273674, 0.05844986066222191, -0.03857540339231491, 0.08963486552238464, -0.05519496649503708, 0.00028693207423202693, -0.03147492557764053, -0.09541171044111252, 0.17168912291526794, 0.12401110678911209, 0.11490781605243683, 0.17766232788562775, -0.04535657539963722, -0.23846352100372314, 0.15275676548480988, -0.12210650742053986, 0.07646395266056061, -0.17269204556941986, 0.04436144977807999, -0.25506335496902466, -0.012335789389908314, 0.14753632247447968], [-0.09875130653381348, -0.2553274929523468, 0.21407411992549896, 0.1354898065328598, -0.09579481929540634, 0.1453963667154312, 0.005851341411471367, -0.12029585987329483, -0.11261902004480362, -0.17673298716545105, -0.20002080500125885, -0.0976426750421524, -0.0799485594034195, 0.10941920429468155, 0.007198310922831297, -0.13127484917640686, 0.002657880075275898, -0.007247513625770807, -0.08028288930654526, 0.2533600926399231, 0.12927097082138062, 0.06302540004253387, -0.14215585589408875, -0.00579125015065074, -0.08046053349971771, -0.003259095596149564, 0.09035433083772659, 0.04196398705244064, 0.0003890048828907311, -0.0060987574979662895, -0.20902538299560547, 0.06206969916820526, -0.052368320524692535, 0.19952334463596344, -0.011900268495082855, -0.10837166011333466, 0.10124382376670837, 0.19798743724822998, 0.1408589631319046, -0.16269132494926453, -0.01156849879771471, -0.24037106335163116, -0.033831387758255005, -0.08810440450906754, -0.13556501269340515, -0.015395729802548885, 0.1520535945892334, -0.11976637691259384, -0.014642404392361641, 0.16446001827716827, -0.04283754155039787, -0.04145783185958862, -0.17615409195423126, 0.03810398280620575, 0.10291782766580582, -0.13171781599521637, -0.14429907500743866, 0.19130142033100128, 0.23374727368354797, -0.14132457971572876, -0.2702018618583679, 0.06114837899804115, -0.24365976452827454, -0.12957815825939178, 0.007854471914470196, -0.13911107182502747, -0.017083164304494858, -0.13558366894721985, -0.0614226758480072, 0.08470862358808517, 0.20922282338142395, 0.16604992747306824, 0.09960290789604187, 0.03498891741037369, -0.19189640879631042, 0.1373407542705536, -0.04924144968390465, 0.016658658161759377, 0.039433520287275314, 0.002839507535099983, 0.14486132562160492, 0.1358252912759781, 0.035665519535541534, -0.19060027599334717, -0.009129632264375687, 0.014786549843847752, -0.08510008454322815, 0.08768372237682343, -0.09769388288259506, 0.05905826762318611, 0.015951624140143394, -0.015682127326726913, 0.06046183779835701, 0.20756927132606506, 0.05332355946302414, -0.08943276852369308, -0.1652669608592987, -0.07481472939252853, 0.12820014357566833, 0.0989135205745697, 0.08068060874938965, -0.15435010194778442, 0.06177195534110069, -0.04625386744737625, 0.013519453816115856, -0.14043666422367096, -0.26837271451950073, 0.20589543879032135, 0.06690873950719833, 0.04655712470412254, -0.1670844554901123, -0.006348014809191227, -0.05494309216737747, -0.04015115275979042, 0.12445714324712753, 0.19956280291080475, 0.1293926239013672, 0.04182916134595871, -0.08506322652101517, -0.2515702247619629, 0.14087127149105072, 0.022950710728764534, 0.09720240533351898, -0.08988922834396362, -0.033746082335710526, -0.2276252955198288, -0.01356892567127943, 0.17214922606945038], [-0.049650076776742935, 0.07703012228012085, 0.004610005300492048, -0.03775804489850998, -0.00588264362886548, 0.0029196320101618767, 0.00022605918638873845, 0.06422484666109085, 0.1124565526843071, 0.03690733760595322, 0.11630650609731674, -0.04733234643936157, 0.018378276377916336, -0.04435792192816734, -0.028355546295642853, 0.07372978329658508, 0.06498652696609497, -0.01858779601752758, 0.06142139062285423, -0.02030877023935318, 0.04169124737381935, -0.16918110847473145, 0.07363755255937576, -0.04216428101062775, -0.0013918580953031778, 0.021406859159469604, 0.045350901782512665, -0.05014815554022789, 0.03814731165766716, 0.06921734660863876, 0.1355499029159546, 0.0688854455947876, 0.08798748254776001, -0.04465558007359505, -0.021750014275312424, -0.17111603915691376, 0.045975469052791595, -0.06547863781452179, -0.059616297483444214, 0.17260947823524475, -0.038466133177280426, 0.1198362410068512, 0.0100894495844841, 0.0024710875004529953, 0.009214035235345364, 0.012913624756038189, 0.02733139880001545, 0.09389957785606384, -0.038072966039180756, -0.010249800980091095, 0.21427857875823975, 0.20784206688404083, 0.07411183416843414, 0.009910200722515583, 0.04379407316446304, 0.06671280413866043, 0.15326713025569916, 0.023368101567029953, -0.02713632583618164, 0.026859499514102936, 0.1007583886384964, 0.08592773228883743, 0.08004225045442581, 0.01998903788626194, 0.04858258739113808, 0.1352202445268631, -0.052627068012952805, 0.08592163026332855, -0.010092675685882568, 0.01889515109360218, -0.022928353399038315, -0.09908842295408249, -0.07608571648597717, 0.061917804181575775, -0.01630054973065853, 0.044286664575338364, 0.07665625214576721, -0.01847369410097599, 0.11815208941698074, 0.004811178892850876, -0.10732099413871765, -0.07044023275375366, 0.038679152727127075, -0.04343400150537491, 0.010992045514285564, 0.05988888442516327, 0.008666115812957287, -0.05320059880614281, 0.11230743676424026, 0.19036796689033508, -0.07067892700433731, 0.0413195826113224, 0.021462539210915565, 0.06071440875530243, 0.0684770718216896, 0.12843051552772522, 0.12137483060359955, 0.057730719447135925, 0.018068471923470497, 0.028052693232893944, -0.009685971774160862, -0.17861682176589966, -0.05622052401304245, 0.053745467215776443, 0.10899017006158829, 0.0048349336721003056, -0.06926112622022629, 0.0413818284869194, 0.11342708021402359, 0.1019737645983696, 0.025205178186297417, -0.025235969573259354, -0.014693756587803364, -0.16432245075702667, -0.08277276158332825, -0.028674351051449776, 0.03709068521857262, 0.01719016581773758, 0.06889324635267258, 0.12247898429632187, 0.005792977288365364, 0.002536400919780135, 0.012699631042778492, -0.02640438638627529, 0.02043401636183262, -0.10058057308197021, 0.08201050013303757, -0.060166142880916595], [-0.04939311370253563, 0.07125629484653473, -0.02693002298474312, 0.03407219797372818, 0.04384971782565117, 0.05318336561322212, 0.02255956269800663, 0.007918840274214745, -0.009080865420401096, -0.06912705302238464, -0.08182941377162933, 0.015343813225626945, -0.042797792702913284, 0.008393296971917152, -0.08230311423540115, 0.04267989844083786, 0.08010274916887283, -0.018999295309185982, -0.07055100798606873, -0.007908160798251629, 0.04302951693534851, -0.0033622654154896736, 0.04717394337058067, -0.07827676832675934, 0.030031763017177582, -0.039695799350738525, -0.06212284043431282, -0.07152197510004044, 0.062058620154857635, 0.026834731921553612, -0.08240088820457458, 0.03973810747265816, 0.05215371772646904, -0.06654674559831619, 0.006211227271705866, 0.028095668181777, -0.09232708066701889, 0.015587404370307922, -0.0001053374944604002, 0.0731964111328125, -0.06913850456476212, -0.01486288569867611, 0.06680561602115631, 0.06830448657274246, -0.015502995811402798, -0.012808378785848618, 0.057996537536382675, 0.05841198191046715, 0.0187749695032835, -0.028980646282434464, -0.06523064523935318, 0.0048215026035904884, -0.07478249073028564, 0.0833345353603363, -0.020209601148962975, -0.0892045646905899, -0.00022666575387120247, 0.01598874107003212, -0.0018300749361515045, -0.09369108080863953, -0.08248722553253174, -0.030844854190945625, -0.0757249966263771, 0.05859609320759773, -0.032991088926792145, 0.026245666667819023, 0.06628258526325226, -0.028976716101169586, 0.03756331652402878, 0.07860518991947174, 0.04775688797235489, -0.022055253386497498, -0.06061961501836777, -0.07244715094566345, -0.025291375815868378, -0.041255369782447815, 0.045259084552526474, -0.09455670416355133, 0.05883206054568291, -0.08796153217554092, 0.03885997459292412, 0.038834065198898315, 0.03474865108728409, -0.022218821570277214, -0.08912316709756851, -0.07871469855308533, 0.04583139717578888, -0.01415871363133192, -0.04871285706758499, 0.085675910115242, -0.018931332975625992, -0.06893801689147949, -0.03476826474070549, -0.07233332097530365, -0.019257115200161934, -0.04338671639561653, -0.02173062600195408, -0.08250902593135834, -0.06936115026473999, 0.07438801974058151, -0.030589496716856956, -0.03839455172419548, 0.054506268352270126, -0.05945118889212608, 0.008373577147722244, -0.010810316540300846, -0.06411106139421463, -0.034272048622369766, 0.03699922934174538, 0.07545743882656097, -0.044451385736465454, 0.042205892503261566, -0.09108367562294006, 0.04472457244992256, -0.07722992449998856, 0.0727129727602005, -0.03286745399236679, 0.0801243856549263, -0.016989078372716904, 0.03927738964557648, -0.008814085274934769, 0.04193611070513725, -0.04454673081636429, 0.07547244429588318, 0.05927679315209389, 0.06822958588600159, -0.0773550420999527, 0.04529230669140816], [0.004136022180318832, -0.026208769530057907, 0.14897601306438446, 0.1361411064863205, 0.11674309521913528, 0.16501308977603912, 0.0035834098234772682, -0.08683333545923233, 0.01300581730902195, -0.08832201361656189, -0.000657738943118602, -0.10825618356466293, -0.10744252055883408, -0.013514049351215363, 0.12747719883918762, 0.062636598944664, 0.11207637935876846, 0.014947258867323399, -0.06669893860816956, -0.009202568791806698, 0.1176355853676796, 0.06240162253379822, 0.14723940193653107, 0.02965749241411686, 0.09002438932657242, 0.006578844040632248, 0.0595589242875576, -0.09504066407680511, -0.030494604259729385, 0.05574282631278038, 0.06574275344610214, -0.037346500903367996, 0.04560871049761772, 0.03917033597826958, 0.14139559864997864, -0.09575599431991577, -0.00564437173306942, 0.12744995951652527, 0.0003931917017325759, 0.14383003115653992, -0.0059239743277430534, 0.13686901330947876, 0.022430066019296646, 0.010635479353368282, 0.14401769638061523, 0.1706271916627884, 0.03499319776892662, 0.10570855438709259, 0.031658463180065155, 0.061284203082323074, -0.10847809165716171, -0.018754901364445686, -0.005711325444281101, 0.04277222976088524, -0.04939737170934677, 0.08260830491781235, -0.17241635918617249, 0.20168352127075195, 0.011969199404120445, -0.0710073783993721, 0.19862771034240723, 0.009833820164203644, 0.09111788868904114, 0.15588735044002533, -0.16620071232318878, -0.05030008405447006, 0.12670156359672546, -0.0921773612499237, -0.06657040864229202, 0.12734638154506683, 0.09555084258317947, 0.17702603340148926, 0.05718740448355675, 0.05859675258398056, 0.137052983045578, -0.0672367587685585, -0.03233985975384712, 0.0862085297703743, 0.08410962671041489, -0.0021711038425564766, -0.11924465000629425, -0.052294183522462845, 0.07281326502561569, -0.007470287848263979, 0.09171808511018753, 0.12800286710262299, -0.05768293887376785, -0.00959209818392992, -0.02333766222000122, -0.06352228671312332, 0.09101445227861404, 0.08559209853410721, -0.08571169525384903, 0.07825279980897903, -0.1340271532535553, 0.017241645604372025, 0.003908648621290922, 0.24157366156578064, 0.14499646425247192, 0.12381476908922195, 0.1311282068490982, 0.1146039068698883, -0.060909152030944824, -0.11246111989021301, 0.07723947614431381, 0.06647078692913055, -0.15338461101055145, 0.045072201639413834, 0.01355542428791523, 0.009453954175114632, 0.048151228576898575, -0.20044131577014923, 0.008399090729653835, -0.09505749493837357, 0.11483068764209747, 0.035303473472595215, 0.015371805056929588, 0.11609796434640884, -0.1226511150598526, 0.014160286635160446, -0.12405634671449661, -0.05037328228354454, 0.14665627479553223, 0.05717477574944496, 0.02587312087416649, -0.131832554936409, 0.061338964849710464, 0.06652309000492096], [0.09568070620298386, 0.020400837063789368, -0.1267358958721161, -0.06977825611829758, -0.12243722379207611, 0.045051079243421555, -0.01572139747440815, 0.09180877357721329, 0.21141673624515533, 0.057184960693120956, 0.0533527173101902, 0.046340975910425186, 0.14126060903072357, 0.05722383037209511, 0.01551137026399374, -0.013514436781406403, 0.009686747565865517, 0.10324181616306305, -0.003948748577386141, -0.1887744516134262, -0.012346613220870495, -0.02410115674138069, -0.0701143741607666, 0.09308899939060211, 0.1530008763074875, 0.04351329430937767, -0.005042875651270151, 0.11871770769357681, -0.07844240963459015, -0.07443170249462128, -0.14800795912742615, 0.06299496442079544, 0.1283997744321823, -0.09083996713161469, 0.06547998636960983, -0.1097375899553299, 0.04984280839562416, -0.054778482764959335, -0.03336034342646599, 0.03968087211251259, -0.001229206915013492, 0.16443999111652374, -0.07651964575052261, 0.14128710329532623, 0.021660685539245605, 0.18715953826904297, 0.010384517721831799, 0.10436670482158661, 0.10438431054353714, -0.055543314665555954, -0.04791679605841637, 0.0629616230726242, 0.10202804207801819, 0.010297128930687904, -0.12520143389701843, 0.11101844906806946, 0.0422741174697876, -0.004782235249876976, 0.04045553877949715, 0.026473183184862137, 0.283393919467926, -0.02704058215022087, 0.1397857666015625, -0.0051513793878257275, -0.1555446982383728, 0.12949852645397186, 0.07591330260038376, 0.03221514821052551, 0.11839798837900162, 0.0581781268119812, -0.09974100440740585, -0.009852362796664238, -0.024199092760682106, 0.0832061693072319, 0.1347629427909851, -0.03082679957151413, 0.08974739164113998, -0.10710367560386658, -0.003633196232840419, 0.012846154160797596, -0.04320307448506355, -0.10596810281276703, 0.09128563851118088, -0.15434858202934265, 0.018589090555906296, 0.04898298159241676, 0.0912124440073967, 0.042568355798721313, 0.005238842684775591, 0.07994124293327332, -0.10733193904161453, -0.06277122348546982, -0.043107859790325165, -0.09339652210474014, -0.06695957481861115, 0.06228213384747505, 0.001790283597074449, 0.06584879010915756, 0.08389285206794739, 0.025944439694285393, 0.12872880697250366, 0.15402483940124512, 0.07229968905448914, -0.028953250497579575, 0.013428501784801483, -0.05238614231348038, -0.03209881857037544, -0.14035306870937347, 0.09815557301044464, -0.08081616461277008, -0.008374678902328014, -0.05100977048277855, 0.09396340698003769, 0.058613795787096024, 0.0015856255777180195, 0.11816597729921341, -0.005239519756287336, -0.025898296386003494, -0.013784922659397125, -0.028839316219091415, 0.033817093819379807, 0.07987312972545624, -0.0012947985669597983, 0.07887231558561325, 0.0650104209780693, -0.11722312122583389, -0.05310727655887604, 0.022963466122746468], [-0.06733489781618118, -0.06124940142035484, 0.0027032026555389166, -0.007397330366075039, 0.009836294688284397, 0.011092317290604115, -0.03906811401247978, 0.011194313876330853, -0.07495197653770447, -0.08945734798908234, 0.02866489253938198, 0.030513158068060875, -0.0567607507109642, 0.050589412450790405, -0.032824769616127014, -0.07386663556098938, -0.02967907302081585, -0.08774755895137787, 0.07959965616464615, 0.02257467247545719, 0.0045169866643846035, 0.01731749065220356, -0.0412997268140316, -0.09456715732812881, -0.07966869324445724, 0.01574189029633999, -0.0018556156428530812, -0.044462110847234726, 0.024530034512281418, 0.0311135146766901, -0.009487061761319637, 0.030478989705443382, 0.023198802024126053, 0.06518888473510742, 0.060066107660532, -0.016166266053915024, 0.011883735656738281, 0.06578968465328217, 0.06089930981397629, 0.07794319093227386, -0.09359776228666306, -0.035152021795511246, 0.0036046081222593784, -0.08509554713964462, -0.04266296699643135, 0.029191577807068825, -0.045663073658943176, -0.0015802012057974935, -0.07012127339839935, -0.032218851149082184, -0.015097640454769135, -0.07988972216844559, -0.06584691256284714, 0.08030014485120773, -0.02157091535627842, -0.055384811013936996, -0.07933647185564041, -0.06617618352174759, -0.017901722341775894, -0.022453777492046356, -0.005823045969009399, -0.033824048936367035, -0.0371178537607193, 0.055398933589458466, -0.04491401091217995, -0.05699879676103592, 0.02245119959115982, 0.02872249111533165, -0.0799165889620781, -0.023680247366428375, 0.021944589912891388, -0.026093902066349983, -0.06368931382894516, -0.01741310954093933, -0.011599904857575893, 0.03061826154589653, 0.007451973389834166, -0.0797354131937027, 0.047751929610967636, -0.003809760557487607, -0.03217051550745964, 0.0569714680314064, -0.025896510109305382, 0.004372061230242252, -0.04837282747030258, 0.007627262733876705, 0.06898611783981323, 0.009321492165327072, -0.02613045461475849, -0.022764787077903748, 0.009579220786690712, -0.00846312940120697, -0.07077869772911072, -0.00030166885699145496, -0.08046121150255203, -0.057959482073783875, 0.04766681790351868, -0.031495265662670135, 0.04173853248357773, -0.05598337948322296, -0.01327079813927412, -0.059351105242967606, 0.0029952276963740587, -0.07879430800676346, -0.039456672966480255, 0.05605366826057434, 0.025491930544376373, -0.03931724652647972, 0.013383721932768822, 0.03346208855509758, 0.015816690400242805, -0.03486199676990509, -0.024607183411717415, 0.0403536893427372, 0.07730203866958618, 0.0036123378667980433, 0.07241281121969223, -0.06767752766609192, 0.027831101790070534, -0.017583873122930527, 0.056215766817331314, -0.0469152107834816, -0.015852810814976692, 0.019806131720542908, -0.04880058020353317, 0.06207647547125816, -0.09045666456222534, -0.04273520037531853], [-0.07432365417480469, 0.04773076996207237, 0.1698630452156067, 0.12820816040039062, 0.15626099705696106, -0.051842644810676575, -0.04909003898501396, -0.10691461712121964, -0.1473551243543625, -0.05627875775098801, -0.11811556667089462, -0.07273370027542114, -0.04066384583711624, -0.042275089770555496, -0.015777144581079483, -0.11259275674819946, 0.09586936980485916, -0.059966955333948135, -0.028883613646030426, -0.008001003414392471, 0.04993707314133644, 0.11940385401248932, -0.04964016005396843, 0.004149491433054209, -0.11529035866260529, -0.16879047453403473, 0.15346688032150269, -0.14864954352378845, 0.023759305477142334, -0.023192383348941803, 0.049288976937532425, 0.049638163298368454, -0.13489945232868195, 0.0074717639945447445, -0.03606897220015526, -0.06933080404996872, 0.06029163673520088, -0.03894811123609543, -0.018436133861541748, -0.049770474433898926, -0.03516688570380211, -0.24121932685375214, 0.06302741169929504, -0.10564432293176651, 0.0031492772977799177, -0.1304786205291748, 0.13583625853061676, 0.10007113963365555, 0.03216579556465149, -0.038003284484148026, 0.19170130789279938, 0.09519632160663605, 0.021465720608830452, 0.007274888921529055, 0.14189428091049194, 0.019427191466093063, -0.04379051923751831, 0.12861068546772003, 0.11870171874761581, 0.060891468077898026, -0.2045965939760208, -0.04689018428325653, -0.05110863968729973, 0.08151029050350189, 0.03886483237147331, -0.0736423134803772, 0.047425296157598495, 0.08355052769184113, -0.0880020335316658, 0.009591716341674328, 0.13781601190567017, 0.06919359415769577, -0.016847630962729454, -0.03614725545048714, 0.060334257781505585, -0.16498038172721863, 0.0641876682639122, 0.05834260210394859, 0.08571100234985352, -0.13069917261600494, -0.0371098518371582, 0.17401039600372314, 0.001741438522003591, -0.03947422280907631, -0.10243102163076401, -0.087673619389534, -0.07778030633926392, -0.023753909394145012, -0.025141911581158638, -0.1435624361038208, 0.11665596067905426, 0.1497020274400711, 0.05126958712935448, -0.01579556055366993, -0.06109015271067619, 0.008793355897068977, -0.10978736728429794, 0.19522784650325775, 0.10005971044301987, -0.06604572385549545, -0.026001032441854477, 0.03418540209531784, -0.030551398172974586, -0.013809379190206528, -0.10945631563663483, -0.07907987385988235, 0.09329133480787277, 0.043175384402275085, -0.014244900085031986, 0.03808892145752907, 0.04022795706987381, 0.09280703961849213, 0.012481569312512875, -0.027292568236589432, -0.01322846207767725, 0.010058049112558365, 0.07603118568658829, 0.11433050781488419, -0.1356937289237976, -0.06489481776952744, -0.1185688003897667, -0.02101871743798256, 0.08785898983478546, 0.024940093979239464, 0.17250825464725494, -0.06348153203725815, -0.006982389837503433, -0.00023041175154503435], [0.050686806440353394, 0.04012668877840042, 0.0534282848238945, -0.04134448990225792, 0.024810338392853737, 0.07564734667539597, -0.039203692227602005, 0.12221912294626236, 0.15060915052890778, -0.01790512725710869, 0.09927478432655334, -0.17429764568805695, 0.07205516844987869, 0.1109967827796936, -0.05303874611854553, 0.16329731047153473, 0.058585163205862045, 0.12752072513103485, -0.048832569271326065, -0.2461330145597458, 0.09384411573410034, -0.04747443273663521, 0.07208660989999771, -0.044260427355766296, 0.11538778990507126, 0.11701106280088425, 0.0033451244235038757, -0.12301070988178253, 0.03335157036781311, 0.03525259345769882, 0.014536453410983086, -0.07722456008195877, 0.07679561525583267, -0.032254625111818314, 0.08652611076831818, -0.10970950126647949, 0.008463192731142044, -0.04159554839134216, -0.1710163801908493, 0.15489798784255981, 0.08456071466207504, 0.141440749168396, 0.05276453122496605, -0.01463768444955349, 0.08435659855604172, 0.1556795984506607, 0.07946648448705673, 0.24933575093746185, 0.055723629891872406, 0.040086790919303894, 0.06267239898443222, 0.18367047607898712, 0.02583932690322399, -0.08443333208560944, -0.05291292816400528, -0.022049296647310257, 0.06923928111791611, 0.03792419657111168, 0.007109612226486206, 0.03948470205068588, 0.2593550682067871, 0.006539978552609682, 0.10782437026500702, 0.016738926991820335, -0.12654386460781097, 0.1296759843826294, -0.0765606090426445, 0.04159557819366455, -0.007368914317339659, 0.11575539410114288, -0.04289524629712105, -0.04080089181661606, -0.18021905422210693, -0.030929995700716972, 0.05654790997505188, -0.1775929480791092, 0.014877621084451675, 0.10039988160133362, 0.0882001668214798, 0.08899456262588501, -0.11044574528932571, -0.13326260447502136, 0.03348960354924202, -0.04116896912455559, 0.04846788942813873, 0.017522219568490982, 0.042095888406038284, -0.08026682585477829, 0.04301610216498375, 0.21013012528419495, -0.11209016293287277, 0.13480660319328308, -0.029624421149492264, 0.03691096976399422, -0.1048935055732727, 0.10555169731378555, 0.031339023262262344, 0.16906185448169708, -0.016500618308782578, 0.04652795568108559, 0.03659660369157791, -0.00726765813305974, 0.019946862012147903, 0.03145096078515053, 0.09780470281839371, 0.09001383930444717, -0.17551414668560028, -0.13299895823001862, 0.0770321786403656, -0.00641472777351737, 0.03148455172777176, -0.08262808620929718, 0.11747352033853531, -0.027319082990288734, 0.01595897041261196, 0.11931420117616653, 0.007856732234358788, 0.02278907038271427, 0.1321793496608734, 0.06426868587732315, -0.1381925791501999, 0.07269930094480515, 0.07497452944517136, 0.07691870629787445, 0.07902084290981293, -0.12938472628593445, 0.13330064713954926, -0.10790088027715683], [-0.047911763191223145, 0.07791373878717422, 0.028530552983283997, 0.034356918185949326, -0.06824561208486557, -0.03411106765270233, -0.06579996645450592, -0.07932917028665543, 0.030722301453351974, -0.09601166844367981, 0.0571153350174427, 0.02618495188653469, -0.03548487648367882, -0.059852104634046555, -0.05721208453178406, 0.003318055998533964, 0.06773743033409119, -0.06859828531742096, -0.025864150375127792, -0.010814101435244083, 0.024573875591158867, -0.06328804790973663, -0.051421936601400375, 0.0010187667794525623, 0.038354892283678055, 0.005002556834369898, 0.055633481591939926, -0.04441177845001221, -0.03508943319320679, -0.02142629399895668, -0.007281874306499958, -0.08416902273893356, -0.08331799507141113, -0.04336366057395935, -0.08234826475381851, -0.01544688269495964, 0.03644059598445892, -0.09910713136196136, -0.0243513323366642, 0.02394002117216587, 0.0057773105800151825, 0.0031137396581470966, 0.00690115662291646, -0.03243105113506317, 0.040435921400785446, -0.06114912033081055, 0.06483954191207886, -0.06873124092817307, 0.07245314866304398, -0.033886075019836426, -0.08387953042984009, 0.08668453991413116, -0.003885765327140689, -0.02550160326063633, -0.053374916315078735, -0.03572884947061539, 0.04970837011933327, 0.0623483769595623, 0.024389727041125298, -0.09528739750385284, -0.048868328332901, 0.026983624324202538, 0.017848942428827286, 0.030367925763130188, -0.05156500265002251, -0.038820840418338776, -0.09648196399211884, 0.022507280111312866, -0.05286116525530815, 0.06512428820133209, 0.03932573273777962, 0.06535077840089798, -0.0671277791261673, -0.04968886822462082, 0.01638290286064148, 0.05221405252814293, -0.08819524198770523, 0.047337427735328674, -0.05889086425304413, -0.022003361955285072, 0.01089474931359291, -0.0007040947093628347, -0.08064741641283035, -0.08405547589063644, 0.022025056183338165, 0.049571163952350616, 0.05754512548446655, -0.09529139846563339, 0.04303107038140297, 0.005424246657639742, -0.020467717200517654, 0.025908909738063812, -0.02784152328968048, -0.03805788978934288, -0.06256398558616638, 0.049796074628829956, 0.07367783784866333, 0.038404859602451324, 0.013730265200138092, 0.06987527757883072, 0.02193756401538849, -0.0009983639465644956, -0.06760285049676895, -0.07960157096385956, -0.04926491901278496, 0.04396824538707733, 0.022325094789266586, -0.04623354226350784, -0.0812654197216034, -0.02373037114739418, 0.07239450514316559, 0.03419209271669388, -0.0354074127972126, -0.007569638546556234, -0.05349763110280037, -0.07533420622348785, -0.06485527753829956, -0.06482093781232834, -0.039859652519226074, -0.06870371103286743, -0.012065487913787365, -0.06422404944896698, -0.03635966777801514, -0.016823479905724525, -0.01074925810098648, 0.07430776208639145, -0.03161545842885971, -0.06910636276006699], [-0.06881953030824661, -0.029165402054786682, 0.07786249369382858, 0.032930899411439896, 0.12278933078050613, 0.00713922455906868, -0.21435463428497314, -0.01016977895051241, 0.12995827198028564, 0.028621478006243706, 0.02722511626780033, -0.1829974502325058, -0.0683882012963295, 0.031707584857940674, -0.012856580317020416, -0.008498026989400387, 0.05338777229189873, 0.15268507599830627, 0.012178827077150345, -0.21136322617530823, 0.014504463411867619, 0.12067205458879471, -0.02848452888429165, 0.09910934418439865, 0.08954033255577087, 0.07704572379589081, 0.06292403489351273, -0.206451416015625, 0.019787417724728584, -0.07169076055288315, 0.02657020278275013, -0.04340042173862457, -0.0731765404343605, 0.04413745924830437, 0.0655071958899498, -0.030392436310648918, -0.03796562924981117, 0.0025672700721770525, -0.13756553828716278, 0.10762658715248108, 0.0382869578897953, 0.1602628529071808, -0.0022719893604516983, 0.09135541319847107, 0.023590318858623505, 0.19090813398361206, 0.028335686773061752, 0.1061265841126442, 0.06933703273534775, 0.07180675864219666, -0.15533199906349182, 0.026528753340244293, -0.05105076730251312, -0.12332506477832794, -0.09067297726869583, -0.06488914042711258, -0.16144275665283203, 0.07235174626111984, -0.000557673629373312, 0.05934452265501022, 0.22943730652332306, -0.14894451200962067, 0.1625765711069107, 0.0982360988855362, -0.20594429969787598, 0.004663439001888037, 0.09362035989761353, -0.0547015480697155, -0.04175218567252159, -0.023324191570281982, 0.007672829553484917, 0.10209167748689651, -0.0886053815484047, -0.06439577043056488, 0.15927982330322266, -0.2038482427597046, 0.11567651480436325, -0.014959666877985, 0.01331575307995081, 0.0616653710603714, -0.10064848512411118, -0.1278803050518036, 0.06777866929769516, 0.02943984419107437, 0.029141249135136604, 0.08164279907941818, 0.01348929014056921, -0.16688330471515656, -0.003603748045861721, 0.0632377490401268, -0.022837070748209953, 0.28487783670425415, -0.1703941822052002, 0.014573946595191956, -0.07647053897380829, 0.03294309228658676, 0.007068513426929712, 0.19766949117183685, 0.09903324395418167, 0.07786627113819122, 0.1481795310974121, 0.20741325616836548, 0.04618074744939804, 0.03582574427127838, -0.03585602715611458, -0.020137852057814598, -0.1931391805410385, -0.19869036972522736, 0.10626976191997528, 0.03307679668068886, -0.05537897348403931, -0.04367830976843834, -0.022932153195142746, 0.04118838161230087, 0.0016955266473814845, 0.10847558081150055, 0.05171104520559311, 0.06804900616407394, -0.0785752609372139, 0.019630294293165207, -0.2384665459394455, 0.043884553015232086, 0.11882638931274414, 0.09321467578411102, 0.09698495268821716, -0.09205959737300873, 0.04203740879893303, -0.06576638668775558], [-0.10551770776510239, -0.07376188784837723, 0.14243198931217194, 0.201409250497818, 0.04953423887491226, 0.13723595440387726, 0.17317555844783783, -0.047899164259433746, -0.02061990275979042, -0.19429349899291992, -0.03477742150425911, -0.007537774741649628, -0.059907715767621994, 0.1001487523317337, -0.059099745005369186, -0.06880711019039154, 0.1701579988002777, 0.012650708667933941, -0.03730208799242973, 0.17057880759239197, 0.021495873108506203, 0.027781616896390915, -0.13734357059001923, -0.04714832082390785, -0.07702822983264923, -0.05278712138533592, -0.0002888658782467246, -0.01418602466583252, 0.04070506617426872, 0.08152242749929428, -0.16245010495185852, 0.11280428618192673, -0.15239264070987701, 0.19482561945915222, -0.03284192457795143, -0.021449493244290352, 0.018015626817941666, 0.08775044232606888, 0.18477685749530792, -0.12466371059417725, -0.09078866988420486, -0.19861146807670593, 0.004536997992545366, -0.07854801416397095, 0.02002490684390068, -0.12831227481365204, 0.10345861315727234, -0.0061642443761229515, 0.09383298456668854, 0.12411931902170181, 0.09429197013378143, -0.1377396434545517, -0.18748578429222107, 0.06631838530302048, 0.14468112587928772, -0.0718579813838005, -0.053013455122709274, 0.15449078381061554, 0.2018994688987732, -0.07415030896663666, -0.2424253225326538, 0.061296626925468445, -0.1474720984697342, -0.15643353760242462, -0.056708160787820816, -0.1482575237751007, -0.04816749691963196, -0.034235116094350815, -0.12501050531864166, 0.010505182668566704, 0.13679665327072144, 0.10327857732772827, 0.10744062811136246, 0.04258178174495697, -0.10430806130170822, 0.2326882779598236, -0.06277139484882355, -0.035829510539770126, 0.05704059451818466, -0.09781815111637115, 0.18187694251537323, 0.1572081744670868, 0.0929943099617958, -0.06707266718149185, -0.08465012162923813, 0.09790783375501633, -0.07743193954229355, 0.10805198550224304, -0.137909397482872, 0.025777146220207214, 0.02116268128156662, -0.1345173716545105, 0.14227822422981262, 0.11517845094203949, 0.16726502776145935, -0.06500231474637985, -0.03356768190860748, -0.11705930531024933, 0.024502627551555634, 0.166828453540802, 0.03317780792713165, -0.035434186458587646, 0.020901605486869812, -0.11523810029029846, -0.0073923286981880665, -0.06610845029354095, 0.024207085371017456, 0.16651220619678497, 0.05031757429242134, 0.06899076700210571, -0.15817706286907196, 0.007985491305589676, -0.015688620507717133, -0.053638581186532974, 0.17508463561534882, 0.016513338312506676, -0.023765575140714645, 0.1253495216369629, -0.07665598392486572, -0.14505133032798767, 0.07059227675199509, 0.04216424748301506, 0.10795140266418457, -0.08922477811574936, -0.10010843724012375, -0.17249199748039246, 0.008764823898673058, 0.15346364676952362], [-0.03561428189277649, 0.0075714620761573315, -0.11953656375408173, -0.16726863384246826, 0.047486502677202225, -0.01796184666454792, 0.0910215824842453, 0.13479584455490112, -0.04108824208378792, 0.04231497272849083, -0.1531369984149933, -0.048012640327215195, 0.05334484204649925, 0.03008175641298294, 0.04190514609217644, -0.05268337205052376, -0.14803342521190643, -0.061765387654304504, -0.010462185367941856, 0.009905125014483929, 0.052504636347293854, 0.015605396591126919, -0.130196675658226, 0.0599190779030323, 0.012588148936629295, 0.018859148025512695, 0.15065816044807434, 0.18984085321426392, 0.07854445278644562, -0.06449008733034134, -0.08609617501497269, 0.036687999963760376, 0.01813838817179203, -0.08703973889350891, -0.032290663570165634, -0.07197269797325134, 0.0702221617102623, -0.04421977698802948, -0.004199332091957331, -0.09022833406925201, 0.02132878638803959, 0.05296547710895538, 0.09573128074407578, 0.07730529457330704, -0.0306442491710186, -0.146753191947937, -0.01880466938018799, -0.03262918442487717, -0.005605889018625021, -0.005027374718338251, -0.10951710492372513, 0.05884489044547081, 0.07873915880918503, 0.015729591250419617, 0.06225433200597763, 0.0439959280192852, 0.09865009784698486, 0.056217875331640244, -0.11969472467899323, 0.09120455384254456, 0.019291145727038383, 0.07259174436330795, -0.03350687026977539, 0.029404226690530777, -0.03363152965903282, 0.025132395327091217, 0.09642473608255386, 0.06494000554084778, 0.019166603684425354, 0.09209062159061432, -0.17384901642799377, 0.03758551552891731, -0.0859781876206398, 0.01838000863790512, 0.07159678637981415, -0.010526743717491627, 0.020030053332448006, -0.09903855621814728, -0.09742628782987595, 0.14767856895923615, 0.013513768091797829, 0.04300835356116295, 0.02674723044037819, -0.03620118275284767, 0.09583885222673416, -0.034337762743234634, 0.005694946739822626, -0.0029781991615891457, 0.1367170661687851, -0.09713616967201233, 0.05585666000843048, -0.19640429317951202, 0.08913787454366684, 0.01997252367436886, -0.004758426453918219, 0.01349163893610239, -0.09750210493803024, 0.0010099910432472825, -0.021427754312753677, -0.01495610922574997, 0.03481072187423706, 0.10164785385131836, -0.045503903180360794, 0.0273459330201149, 0.16253119707107544, 0.09868767857551575, -0.005739642772823572, 0.054509859532117844, 0.08083829283714294, 0.1305018663406372, -0.015073621645569801, 0.08850846439599991, 0.07246232032775879, 0.16126768290996552, -0.0701758861541748, 0.11018864810466766, 0.02148425579071045, 4.325228292145766e-05, -0.02111220732331276, 0.08081972599029541, 0.09198005497455597, 0.1493549793958664, 0.10324696451425552, 0.008565192110836506, 0.1179148256778717, 0.056387484073638916, -0.08679498732089996, 0.039099011570215225], [0.015001804567873478, 0.047755904495716095, -0.14287583529949188, 0.01636224426329136, -0.06541048735380173, 0.07614243030548096, -0.01349442545324564, -0.007956597954034805, -0.054877933114767075, 0.08714106678962708, 0.000281281303614378, 0.16820508241653442, 0.04280600696802139, 0.08136951178312302, -0.010421925224363804, 0.019574487581849098, -0.0882582888007164, -0.11836357414722443, -0.02614891529083252, 0.23999276757240295, -0.0759223997592926, -0.022882763296365738, -0.008973712101578712, 0.07363667339086533, -0.1352330595254898, 0.093357153236866, 0.019051600247621536, 0.19297011196613312, -0.04916048422455788, 0.09203534573316574, -0.026139091700315475, 0.016857556998729706, 0.06753326952457428, 0.021556762978434563, -0.011990593746304512, -0.05731632933020592, -0.003354796674102545, 0.003120503621175885, -0.0006322673289105296, -0.11080534756183624, 0.024959048256278038, -0.10828978568315506, -0.02427375502884388, 0.024210764095187187, 0.0003682125243358314, -0.02437875233590603, 0.06675280630588531, -0.22484222054481506, -0.0034758851397782564, -0.0823604166507721, -0.003452455624938011, -0.04464072361588478, -0.03675994649529457, 0.01827290840446949, -0.09744180738925934, -0.02687905915081501, 0.28663671016693115, 0.02622668631374836, -0.008304147981107235, 0.041151586920022964, -0.06838537752628326, 0.019059007987380028, 0.0406213253736496, -0.059547655284404755, 0.25226566195487976, -0.06717206537723541, 0.09896105527877808, 0.05621650069952011, -0.03935801610350609, -0.034691620618104935, 0.10659247636795044, -7.346738129854202e-05, 0.12183304876089096, 0.05846378207206726, 0.031200813129544258, 0.07626556605100632, -0.01398569904267788, -0.11774715036153793, 0.029233567416667938, 0.04103328287601471, 0.09977652132511139, 0.07566250115633011, -0.048469178378582, -0.06240302696824074, 0.008095250464975834, -0.002047948772087693, 0.08111792802810669, -0.009359459392726421, -0.07881820201873779, -0.1654510796070099, 0.03795856609940529, -0.27782928943634033, 0.03441192954778671, 0.047876257449388504, -0.019664067775011063, 0.012304970994591713, 0.0862451121211052, -0.20940245687961578, 0.09298309683799744, 0.012309929355978966, -0.030709920451045036, -0.08599325269460678, 0.01762029156088829, 0.13485324382781982, 0.10140743851661682, -0.0048688482493162155, -0.0064551648683846, 0.18835534155368805, -0.065974660217762, 0.12524822354316711, 0.07502076774835587, 0.13495568931102753, 0.06907585263252258, -0.057041049003601074, -0.0648534968495369, -0.07690572738647461, -0.03356769308447838, -0.05152691528201103, 0.12549442052841187, -0.019085722044110298, 0.14454717934131622, 0.03512365370988846, 0.0935656875371933, 0.08247020840644836, -0.04861665517091751, 0.12820927798748016, 0.0623612180352211, 0.1234399601817131], [0.06976538151502609, 0.031758423894643784, -0.21794746816158295, -0.005967362318187952, -0.014212421141564846, -0.038268961012363434, 0.054186418652534485, 0.019669638946652412, -0.004711619112640619, 0.06853849440813065, 0.12010984122753143, 0.0240172166377306, -0.03871019184589386, 0.11702202260494232, -0.0890827476978302, -0.013589057140052319, 0.04367535188794136, 0.09020394086837769, -0.0309377983212471, 0.02502857707440853, -0.01246594451367855, -0.1454879194498062, 0.020387934520840645, -0.10949482023715973, -0.07239487022161484, -0.03906409442424774, -0.01000966690480709, 0.05248391255736351, 0.08161863684654236, -0.11136291921138763, 0.0961131826043129, 0.017784640192985535, 0.031223654747009277, 0.0006594381993636489, -0.03853904828429222, 0.17169667780399323, 0.05196939781308174, -0.06674584001302719, -0.06088186800479889, -0.014007561840116978, -0.06118181347846985, 0.09249608963727951, 0.05552174523472786, 0.046191997826099396, 0.04780787602066994, 0.10582858324050903, -0.07259519398212433, -0.10290595144033432, -0.06349282711744308, -0.11700355261564255, 0.1463920623064041, -0.03752640634775162, 0.03505752235651016, -0.020503457635641098, -0.027505019679665565, -0.015393836423754692, 0.0639457032084465, -0.1514330953359604, -0.14948253333568573, 0.11884067207574844, 0.1148691475391388, 0.1124156191945076, 0.15301762521266937, 0.0628308579325676, 0.16014836728572845, -0.04091992974281311, 0.10506528615951538, -0.04511680454015732, -0.040215227752923965, 0.04233172908425331, -0.051800426095724106, 0.004078446887433529, -0.11707364022731781, 0.02170712500810623, 0.1428593397140503, 0.0023579716216772795, 0.1218021959066391, -0.016494015231728554, -0.1021612361073494, 0.07418067753314972, 0.0011324221268296242, 0.11123773455619812, -0.025185201317071915, 0.19221170246601105, -0.029009860008955002, 0.011120929382741451, 0.048089031130075455, -0.015957191586494446, 0.12918680906295776, -0.005544826854020357, 0.09445487707853317, 0.001870361971668899, 0.09802374243736267, -0.10542728006839752, -0.011131796054542065, 0.08042240887880325, 0.09152227640151978, -0.18347707390785217, -0.0634414553642273, 0.0014092925703153014, 0.02002747543156147, 0.08136314153671265, 0.029475165531039238, 0.131468266248703, -0.07943491637706757, 0.10568489134311676, 0.06991983205080032, -0.059731122106313705, -0.06949953734874725, -0.09860222786664963, -0.03957211971282959, 0.16361531615257263, 0.062039315700531006, 0.02469705045223236, -0.01441483199596405, -0.0611514076590538, -0.014368245378136635, -0.13547231256961823, -0.008610229007899761, 0.1076594814658165, -0.03767777606844902, 0.008887525647878647, -0.019509274512529373, -0.02627672627568245, -0.007240095175802708, -0.03919703885912895, -0.03313743323087692, 0.012265486642718315], [0.12798495590686798, 0.15395554900169373, -0.15029901266098022, -0.07006272673606873, 0.041977185755968094, -0.13895255327224731, -0.04437030479311943, 0.08828797191381454, 0.0046952860429883, 0.16112984716892242, 0.0949925109744072, 0.19028623402118683, 0.11209152638912201, -0.014629755169153214, 0.0830286368727684, 0.027011461555957794, -0.046965256333351135, -0.00813231710344553, -0.060475848615169525, -0.0215789582580328, -0.0578642413020134, 0.03005663864314556, 0.07510105520486832, -0.13118767738342285, -0.04230837896466255, 0.0010916019091382623, -0.1280178725719452, 0.030072873458266258, 0.08493494987487793, 0.010907400399446487, 0.05038322135806084, -0.022930419072508812, -0.059812355786561966, -0.1709757298231125, 0.05105607584118843, 0.2656790614128113, -0.0889832079410553, -0.08318545669317245, -0.11826924979686737, -0.0995974987745285, -0.024647951126098633, -0.11514858156442642, -0.04699013754725456, 0.09892671555280685, 0.11650265753269196, 0.08275898545980453, 0.0003821392892859876, 0.04621126502752304, -0.05999205261468887, -0.015182488597929478, 0.0050218719989061356, -0.18578629195690155, 0.042509883642196655, 0.004331452306360006, -0.08029743283987045, 0.03936192765831947, -0.004781860392540693, -0.06462496519088745, -0.11898935586214066, 0.04990192875266075, 0.06655779480934143, -0.021164990961551666, 0.13245239853858948, -0.000994891277514398, 0.21436354517936707, -0.02374039962887764, 0.0845106691122055, 0.040839530527591705, 0.031135760247707367, 0.06007037311792374, -0.07489920407533646, -0.16091440618038177, -0.10507257282733917, 0.009093333035707474, 0.04215839505195618, 0.11827290803194046, 0.06801635771989822, 0.15018993616104126, -0.08604396134614944, -0.047659412026405334, -0.19912417232990265, 0.045120298862457275, -0.13949303328990936, 0.17159126698970795, -0.01718895137310028, 0.0657632052898407, 0.1042860746383667, -0.02049059420824051, 0.15071891248226166, -0.03619174659252167, 0.001484445296227932, 0.03860635310411453, 0.07818138599395752, -0.1521034985780716, -0.07224684953689575, 0.08649537712335587, 0.08819316327571869, -0.059343934059143066, -0.025342458859086037, -0.1789122223854065, -0.12836207449436188, 0.07968725264072418, 0.06503268331289291, 0.03927101567387581, 0.04253484308719635, 0.14429007470607758, 0.09983062744140625, -0.04256429895758629, -0.061161305755376816, -0.06822550296783447, -0.018254021182656288, 0.09586035460233688, -0.003948893863707781, 0.10742877423763275, -0.1262395679950714, -0.05435282364487648, 0.07742160558700562, -0.12028554081916809, -0.17283359169960022, 0.10631385445594788, 0.06904317438602448, -0.04880133643746376, -0.18571573495864868, 0.05943983420729637, -0.041570812463760376, 0.025019792839884758, 0.10633548349142075, -0.15297745168209076], [-0.03879621997475624, -0.045554812997579575, 0.09313759952783585, 0.07974310964345932, -0.049427587538957596, -0.005428652744740248, 0.08517507463693619, -0.05420630797743797, -0.2098923623561859, -0.15450118482112885, -0.034805357456207275, 0.04917560890316963, -0.05307435244321823, 0.10652843862771988, -0.0373397022485733, -0.1714540272951126, 0.06469838321208954, -0.03254874423146248, -0.08664063364267349, 0.22163571417331696, 0.015312204137444496, 0.018326664343476295, -0.014237421564757824, -0.041449256241321564, 0.04978324472904205, -0.03387242183089256, 0.06020233780145645, 0.030771875753998756, -0.012988046742975712, 0.06165269389748573, -0.03446207195520401, 0.059622298926115036, -0.12417780607938766, 0.14295031130313873, 0.07664273679256439, -0.13446618616580963, 0.10872726887464523, 0.1848994493484497, 0.16289642453193665, -0.12761040031909943, -0.006334634963423014, -0.06899993121623993, -0.06695590913295746, -0.13902564346790314, -0.06149238348007202, -0.11661336570978165, 0.07384906709194183, -0.1782711148262024, 0.05822709947824478, 0.026223378255963326, -0.015295269899070263, -0.14505843818187714, -0.15364836156368256, 0.08732801675796509, 0.1817270964384079, -0.033680036664009094, 0.05388278141617775, 0.1526491641998291, 0.16197513043880463, -0.08006028831005096, -0.16119812428951263, -0.02303885668516159, -0.15004286170005798, -0.17570847272872925, 0.1681460589170456, -0.04050341993570328, 0.03183046355843544, -0.10893101990222931, -0.09138400107622147, -0.017111988738179207, 0.19031482934951782, 0.04603791981935501, 0.17569126188755035, 0.12675213813781738, -0.16610215604305267, 0.12311821430921555, -0.15811863541603088, -0.08459597080945969, 0.11409373581409454, -0.04504280164837837, 0.10497657209634781, 0.15763185918331146, 0.07842154055833817, -0.11558002978563309, -0.05880199372768402, 0.03074892796576023, 0.01844158209860325, 0.2344120740890503, -0.12699028849601746, -0.10267192870378494, 0.0046503907069563866, -0.01599341444671154, 0.0439676009118557, 0.09012176096439362, 0.08380816131830215, -0.09817513823509216, -0.06624098122119904, -0.06441089510917664, 0.07331477105617523, 0.13375578820705414, 0.07914020866155624, -0.11755776405334473, 0.06706417351961136, -0.041549261659383774, -0.0010277631226927042, -0.17222954332828522, -0.09563712030649185, 0.23431533575057983, 0.0626702681183815, 0.024072373285889626, -0.1076863631606102, 0.09466250985860825, -0.002722903387621045, 0.14634762704372406, 0.12793810665607452, 0.05303598940372467, 0.006520794704556465, 0.02936772257089615, -0.03290976956486702, -0.21986433863639832, 0.14402706921100616, -0.07933097332715988, 0.027521969750523567, -0.11872018873691559, -0.05270686745643616, -0.20812708139419556, 0.014620192348957062, 0.18636295199394226], [-0.019669022411108017, -0.022175151854753494, 0.08368345350027084, 0.04748145118355751, -0.05168280377984047, 0.09856514632701874, 0.028247781097888947, -0.08465562760829926, -0.07541389763355255, 0.0562576986849308, -0.042254745960235596, -0.07567071914672852, 0.0036782119423151016, 0.09299992769956589, 0.14633522927761078, 0.03612232953310013, 0.052803490310907364, 0.03647652268409729, 0.0739854946732521, 0.136383056640625, 0.04887479543685913, 0.045440562069416046, -0.0363050140440464, 0.06087581068277359, 0.03429778292775154, -0.04623892903327942, -0.06700123101472855, -0.032262399792671204, -0.002054943237453699, 0.1065458208322525, 0.01086505502462387, 0.023429622873663902, 0.005539607722312212, 0.06761186569929123, 0.1595432013273239, -0.028335418552160263, 0.1276630461215973, 0.08216014504432678, 0.16659973561763763, 0.06700966507196426, -0.03105577826499939, 0.03817871958017349, 0.031096823513507843, -0.1316530853509903, 0.017841080203652382, -0.06127236410975456, 0.15459373593330383, 0.047897279262542725, 0.1315920203924179, 0.07848789542913437, 0.003208918496966362, -0.04182979092001915, -0.06479712575674057, -0.0013733799569308758, 0.1071181669831276, -0.001947165816091001, -0.11858585476875305, 0.06568747013807297, 0.16654692590236664, -0.07834213972091675, 0.04856545850634575, -0.09806232899427414, -0.04500597342848778, 0.0915515273809433, -0.0738205537199974, -0.0479581393301487, 0.047111209481954575, -0.15607811510562897, -0.06410660594701767, 0.033258724957704544, 0.12737128138542175, 0.0338246151804924, 0.05587177723646164, 0.08365674316883087, 0.05167943239212036, -0.015084275975823402, -0.1587362140417099, 0.06370661407709122, 0.05377064272761345, -0.1183256134390831, 0.015995116904377937, 0.02030615508556366, 0.15793269872665405, -0.07723306119441986, 0.05176694691181183, 0.02026480808854103, -0.045434754341840744, 0.051945775747299194, -0.09428821504116058, -0.076807402074337, 0.0975467711687088, -0.04129336029291153, -0.02385714091360569, 0.11289532482624054, 0.05924418196082115, -0.030791418626904488, -0.09228241443634033, 0.07662354409694672, 0.13160233199596405, 0.1983286589384079, 0.020754028111696243, 0.1455923169851303, -0.0572071298956871, 0.04396537318825722, -0.023204145953059196, -0.10716260224580765, -0.10801467299461365, 0.08239243924617767, -0.03896455094218254, -0.010856136679649353, -0.022768471390008926, 0.015794530510902405, -0.044301748275756836, 0.0715973824262619, 0.1122548058629036, 0.1664249151945114, -0.014788801781833172, 0.08718118816614151, -0.1244724914431572, -0.005746528040617704, 0.04967474937438965, -0.037362631410360336, 0.03972909599542618, -0.0460280179977417, -0.018810652196407318, 0.06805587559938431, -0.008413953706622124, 0.059252649545669556], [0.0876745879650116, 0.11941184848546982, 0.09813442826271057, 0.042726870626211166, 0.007495807949453592, 0.0960884541273117, 0.0454784519970417, -0.04599286615848541, -0.12954264879226685, -0.0276519525796175, -0.023365968838334084, 0.1062786802649498, 0.002321207197383046, -0.006409746129065752, 0.02063548006117344, 0.15707500278949738, 0.0011354308808222413, -0.02520313486456871, -0.08092328906059265, 0.21429558098316193, -0.09744051098823547, -0.02680092118680477, -0.10147126764059067, 0.003167010610923171, -0.08876597881317139, -0.06527266651391983, -0.0023537937086075544, 0.018990477547049522, 0.05579393357038498, -0.05018090084195137, 0.17275258898735046, -0.04975077137351036, 0.025807298719882965, 0.09796459227800369, -0.07183107733726501, 0.04561745747923851, 0.05670726299285889, -0.01976022496819496, 0.09682519733905792, 0.014683469198644161, -0.08781207352876663, -0.06201517954468727, 0.0571475625038147, -0.02234732173383236, 0.03912283852696419, -0.0948425680398941, 0.004995710216462612, -0.08518237620592117, 0.00432315468788147, 0.08577444404363632, 0.13955408334732056, 0.022312866523861885, -0.03824304789304733, -0.0467848926782608, 0.14207175374031067, 0.018692966550588608, 0.0981900617480278, -0.03357027471065521, 0.11985082179307938, -0.007651796564459801, -0.09210994839668274, 0.11123950779438019, 0.07580927759408951, 0.013796921819448471, 0.12667834758758545, -0.1090826541185379, -0.07142961025238037, 0.09281914681196213, -0.05204436928033829, -0.052426960319280624, 0.06695006787776947, -0.0001250257482752204, 0.13575811684131622, 0.05048908293247223, 0.010126668028533459, 0.17282867431640625, -0.00806499645113945, -0.008590982295572758, 0.041991233825683594, -0.02276335470378399, 0.1309492588043213, 0.06767626106739044, -0.0860685333609581, 0.08122847974300385, 0.007653400301933289, 0.059624213725328445, 0.021396636962890625, 0.006591245997697115, 0.05921296030282974, -0.08017921447753906, 0.1193125918507576, -0.03359224274754524, 0.14713001251220703, 0.12484414875507355, 0.07290139049291611, -0.05161096900701523, 0.0965234711766243, -0.04215197637677193, 0.048713136464357376, 0.0758364275097847, -0.10624072700738907, -0.2029833197593689, 0.06471184641122818, 0.07722931355237961, -0.09068679064512253, 0.022130120545625687, 0.18713048100471497, 0.16892997920513153, -0.05756302922964096, -0.01370224729180336, 0.08945414423942566, 0.08743306249380112, 0.050615034997463226, -0.0036813041660934687, 0.004645993001759052, -0.1146622821688652, -0.012416299432516098, -0.07852676510810852, 0.1407935470342636, 0.03947382792830467, 0.15181224048137665, 0.07267233729362488, 0.05112810060381889, 0.02391366846859455, -0.04059610143303871, 0.05702921375632286, 0.10363566130399704, 0.06255136430263519], [-0.007760416716337204, -0.07205440104007721, 0.10561472177505493, 0.017221665009856224, -0.02270996756851673, 0.02258969284594059, -0.013596959412097931, -0.0828133076429367, 0.06544550508260727, -0.030645696446299553, 0.04019242525100708, 0.04153028130531311, -0.030537880957126617, 0.08368711918592453, 0.13721588253974915, -0.008758002892136574, 0.07296022027730942, 0.10201234370470047, -0.07955668121576309, 0.19487331807613373, 0.0012588371755555272, 0.1419028341770172, 0.07344372570514679, 0.17675578594207764, 0.008460801094770432, -0.09317124634981155, -0.03281748294830322, 0.012573206797242165, -0.03263113275170326, 0.03935706242918968, 0.04740563780069351, 0.08023156970739365, -0.013927819207310677, 0.040547341108322144, 0.031315065920352936, -0.18469533324241638, -0.0593721941113472, 0.05136186257004738, 0.06995696574449539, 0.024707995355129242, 0.10874215513467789, 0.10238828510046005, 0.08043794333934784, -0.025461850687861443, 0.08299838751554489, 0.06153121963143349, 0.11843203753232956, 0.11481563001871109, -0.002261475194245577, 0.08424847573041916, -0.10975264757871628, -0.022177550941705704, -0.011362018994987011, -0.02177012898027897, 0.05017916485667229, 0.0161273255944252, -0.07445438206195831, 0.120855912566185, 0.08831651508808136, -0.13983938097953796, 0.05757145583629608, -0.13062790036201477, -0.046469561755657196, 0.1025460883975029, -0.011180573143064976, 0.027796603739261627, 0.00682336650788784, -0.1150364801287651, -0.10219766199588776, 0.10933661460876465, 0.16072280704975128, 0.1572810858488083, 0.06510812044143677, 0.11360931396484375, 0.05466148257255554, 0.04058510437607765, -0.008734652772545815, -0.01711612194776535, 0.06587673723697662, -0.15702660381793976, 0.10881657898426056, -0.005616315640509129, 0.06704256683588028, 0.01819031871855259, 0.03375966474413872, 0.03819017484784126, 0.051453597843647, -0.018205301836133003, -0.067174531519413, -0.1313081532716751, -0.06549938023090363, -0.03297118470072746, -0.014388743788003922, 0.034996021538972855, 0.05186858028173447, -0.04328707978129387, -0.04223112389445305, -0.025371577590703964, 0.11399751901626587, 0.2169160544872284, 0.1385543793439865, -0.0037781610153615475, 0.007411973085254431, -0.015736354514956474, -0.02048913761973381, 0.02871827781200409, -0.1144123300909996, 0.07096389681100845, 0.022206176072359085, 0.03954557329416275, 0.109685979783535, 0.019208043813705444, 0.030397487804293633, -0.06354356557130814, 0.15901918709278107, 0.09370368719100952, 0.14522966742515564, 0.14308470487594604, -0.10806058347225189, 0.013170856051146984, -0.011907725594937801, -0.06022743508219719, 0.02202373370528221, 0.08259071409702301, -0.11742188036441803, -0.06024891138076782, 0.08164966106414795, 0.04771839827299118], [0.08845880627632141, 0.03123655542731285, -0.08790687471628189, -0.14302560687065125, -0.05098319053649902, -0.05567014589905739, 0.06572791934013367, 0.15679268538951874, 0.11790944635868073, 0.09793659299612045, -0.07775775343179703, -0.07309094816446304, 0.07015248388051987, -0.038872137665748596, 0.06509970128536224, 0.08243034780025482, -0.00543248513713479, 0.07748570293188095, 0.08797979354858398, -0.21384407579898834, -0.03455769643187523, -0.027874115854501724, 0.09297682344913483, -0.006441615056246519, 0.15602195262908936, 0.11440568417310715, 0.0448090024292469, 0.057590652257204056, 0.025143155828118324, 0.057259418070316315, -0.13278880715370178, 0.040818680077791214, 0.1301601082086563, 0.06425980478525162, -0.033882007002830505, -0.04426010698080063, 0.07960093766450882, -0.05643731355667114, -0.14503860473632812, 0.10702706128358841, 0.09881245344877243, 0.22999374568462372, -0.054336585104465485, 0.06844144314527512, 0.023538216948509216, 0.09515639394521713, 0.01602708362042904, 0.039091192185878754, -0.012304017320275307, -0.04917365685105324, 0.03995339572429657, 0.17638462781906128, 0.059535231441259384, 0.0678941085934639, -0.06344803422689438, 0.06545205414295197, 0.08283305913209915, 0.03299229219555855, -0.07181278616189957, -0.03607724606990814, 0.0601334348320961, 0.048614513128995895, 0.09062226861715317, 0.009444065392017365, -0.11615988612174988, 0.17308412492275238, -0.003733621211722493, 0.042447950690984726, 0.09226042777299881, -0.047758422791957855, -0.09174291789531708, -0.06219831109046936, -0.07273799926042557, -0.05602773278951645, 0.029619986191391945, 0.04827900603413582, 0.06253118067979813, -0.060363199561834335, 0.057337164878845215, -0.024261774495244026, -0.0647268071770668, -0.021778831258416176, 0.10543187707662582, -0.10625596344470978, 0.016901403665542603, -0.041312120854854584, -0.00031789130298420787, -0.05348443612456322, 0.13019271194934845, 0.0535619780421257, 0.08394232392311096, 0.06647858768701553, 0.0972951352596283, -0.021715695038437843, -0.09951018542051315, -0.02491680160164833, -0.04123372212052345, 0.0466659851372242, -0.017242154106497765, -0.04591480270028114, -0.029150331392884254, 0.1500813066959381, 0.02217891439795494, 0.12294448167085648, 0.11578511446714401, 0.02068917080760002, -0.18184347450733185, 0.044080622494220734, 0.12828780710697174, 0.08097673952579498, 0.01630055159330368, 0.05089154094457626, -0.038929395377635956, -0.08433278650045395, -0.03720366209745407, 0.022897332906723022, -0.01832534186542034, 0.05925169214606285, 0.1577957719564438, 0.023880483582615852, -0.027658626437187195, 0.10250922292470932, -0.009105481207370758, 0.022466562688350677, 0.044239163398742676, -0.09833766520023346, -0.007534663658589125, 0.002605530433356762], [0.025608917698264122, -0.12686589360237122, 0.08108213543891907, 0.11423975229263306, -0.06457757204771042, 0.16673609614372253, 0.010219345800578594, -0.011480077169835567, 0.1163979172706604, -0.0996350571513176, 0.1346772462129593, -0.08549169450998306, 0.017313232645392418, 0.08604555577039719, 0.1046205535531044, 0.06746656447649002, -0.029962869361042976, 0.09603903442621231, 0.007048090919852257, 0.014925328083336353, 0.026322059333324432, 0.09226807206869125, 0.06573934853076935, 0.18315976858139038, 0.1719209849834442, -0.09900027513504028, -0.03797811269760132, 0.03502867743372917, 0.052561502903699875, -0.026476530358195305, 0.0074548181146383286, -0.0389365628361702, -0.01991964876651764, 0.005561272148042917, 0.06667540967464447, -0.08796203881502151, 0.02014877088367939, 0.05540722236037254, 0.09841626137495041, 0.1289621740579605, 0.026415616273880005, 0.12141779810190201, 0.04779352247714996, 0.0005782220978289843, 0.15243709087371826, 0.08757911622524261, 0.13665756583213806, 0.15978799760341644, 0.11687303334474564, 0.11977551877498627, -0.0426015667617321, 0.07184115052223206, -0.05875270068645477, -0.08085766434669495, 0.014243587851524353, -0.0046752807684242725, 0.05033576115965843, 0.15889152884483337, 0.13282819092273712, -0.010997054167091846, 0.188935786485672, -0.12127265334129333, 0.08712773770093918, 0.11054655909538269, -0.12703540921211243, -0.04226192086935043, -0.011710232123732567, -0.12282402813434601, -0.0625213086605072, -0.03744938224554062, 0.030627531930804253, 0.017133552581071854, 0.07971621304750443, -0.013826433569192886, 0.022872567176818848, -0.015025761909782887, -0.10188287496566772, 0.054727666079998016, 0.010406816378235817, -0.12660980224609375, 0.12218063324689865, -0.02862020768225193, 0.1911562979221344, -0.15506544709205627, 0.06176945939660072, 0.13947905600070953, -0.025030162185430527, 0.03334391117095947, 0.010475516319274902, 0.05071984604001045, 0.011231090873479843, 0.0738556757569313, 0.027912355959415436, 0.11910954862833023, -0.03344064950942993, 0.07883191853761673, 0.05774789676070213, 0.08309153467416763, 0.18023422360420227, 0.21286499500274658, 0.13860706984996796, -0.03346731513738632, -0.0718788430094719, -0.00871709268540144, -0.002786175115033984, 0.03968123346567154, -0.10411646217107773, 0.047997210174798965, 0.09685726463794708, 0.018939852714538574, 0.012380818836390972, 0.024341324344277382, -0.08281295001506805, -0.11732293665409088, 0.06602895259857178, 0.11550793051719666, 0.12056788057088852, 0.02565133571624756, -0.03544124215841293, 0.012782898731529713, 0.06998541206121445, -0.06921396404504776, 0.12155183404684067, 0.07746345549821854, -0.14216218888759613, -0.06661839038133621, 0.08589822053909302, 0.0013202305417507887], [0.053282395005226135, 0.10813812911510468, -0.07466211915016174, -0.07444798201322556, -0.07187262177467346, -0.05607883259654045, 0.08258669823408127, 0.1126328855752945, -0.10513463616371155, 0.06306590884923935, 0.09196392446756363, 0.19038957357406616, -0.04743152856826782, -0.04025895521044731, 0.08117634803056717, 0.022263729944825172, -0.14429639279842377, 0.045188192278146744, 0.013621218502521515, 0.24028387665748596, -0.022602804005146027, -4.863835783908144e-06, -0.09768528491258621, 0.05577768385410309, -0.11631939560174942, 0.03614451363682747, -0.04201437160372734, 0.021387847140431404, -0.0872221291065216, -0.0816839188337326, -0.004638482350856066, 0.09409458190202713, 0.028153009712696075, 0.010221731849014759, 0.010153810493648052, -0.06375753879547119, -0.06266556680202484, -0.0014937575906515121, 0.020591339096426964, 0.024534087628126144, 0.025042453780770302, -0.00015970991807989776, 0.10781888663768768, 0.0411703959107399, -0.018068436533212662, -0.006792787928134203, 0.013013504445552826, -0.010506889782845974, 0.05170414224267006, 0.007216868922114372, -0.007520206272602081, -0.0627870112657547, 0.07825033366680145, 0.02754257805645466, -0.08920281380414963, -0.04937461391091347, 0.22056949138641357, -0.0632440373301506, 0.02003004588186741, 0.04783330485224724, -0.04853355884552002, -0.06443144381046295, 0.0507497638463974, -0.016651339828968048, 0.1449417620897293, -0.04285413771867752, 0.04887766391038895, 0.014736708253622055, -0.02886451967060566, 0.05193557217717171, -0.03356143832206726, -0.033885657787323, -0.08996213227510452, 0.051548633724451065, -0.046201545745134354, 0.1739930808544159, -0.020408395677804947, -0.06506737321615219, 0.08929701149463654, -0.012149346992373466, 0.010397739708423615, 0.004884243942797184, -0.11272803694009781, 0.02076483517885208, -0.07742594927549362, -0.04130495712161064, 0.014479992911219597, 0.011094578541815281, 0.08467704057693481, 0.05572480335831642, 0.03592512384057045, -0.08891331404447556, 0.09462961554527283, -0.024027908220887184, -0.03838812932372093, 0.008898323401808739, 0.12062569707632065, -0.09151113778352737, 0.02382461354136467, 0.016825830563902855, 0.008554371073842049, -0.08097836375236511, 0.0878615751862526, 0.12066531181335449, 0.03215004503726959, -0.033468056470155716, 0.11960850656032562, 0.05050148442387581, -0.0890410989522934, 0.03854618966579437, 0.15441982448101044, 0.1396694779396057, -0.03174243122339249, -0.19104257225990295, 0.002312439028173685, -0.09281109273433685, 0.04913739487528801, -0.054541267454624176, 0.09879082441329956, 0.07224289327859879, 0.06800410896539688, 0.05688343197107315, -0.051879554986953735, 0.06343715637922287, -0.0028738281689584255, 0.12279750406742096, 0.06802363693714142, 0.10140588134527206], [0.011246820911765099, 0.20634616911411285, -0.21519514918327332, 0.014644963666796684, 0.07990287989377975, -0.10101430863142014, -0.03441824018955231, 0.022983042523264885, -0.02539493888616562, 0.039319247007369995, 0.13838598132133484, 0.22310778498649597, 0.016239536926150322, 0.034331150352954865, 0.041733451187610626, 0.08103131502866745, -0.09158174693584442, 0.11663239449262619, 0.08805997669696808, 0.06154896318912506, 