{"q_net.0.weight": [[-0.05612082779407501, -0.051934074610471725, -1.4768640995025635, 0.48568132519721985, -0.25744736194610596, -0.0013592572649940848, -0.1288750320672989, 0.03503047674894333, 0.07290158420801163, -0.12845478951931, -0.24876177310943604, 0.21420934796333313, -0.11448923498392105, 0.14248982071876526, 0.16022488474845886, -0.16584734618663788, -0.01834569126367569, 0.17613033950328827, -0.044239629060029984, 0.03274108096957207, 0.137245312333107, -0.056128017604351044, 0.12480339407920837, -0.41609200835227966, -0.06338883191347122, 0.47953736782073975, -0.23778459429740906, 0.04539545252919197], [-0.6524408459663391, -0.26187264919281006, 0.23181620240211487, -0.2314102202653885, 0.16211360692977905, -0.3542633354663849, 0.15552468597888947, -0.22178250551223755, -0.2498452514410019, 0.08027388155460358, -0.028229305520653725, 0.11911311000585556, -0.16255788505077362, -0.3731241822242737, 0.11055523157119751, 0.34345605969429016, -0.24440021812915802, 0.4287984073162079, 0.3852800726890564, 0.005091180093586445, -0.0024594590067863464, -0.016788939014077187, -0.15346784889698029, -0.008469770662486553, -0.1660696566104889, 0.22386705875396729, 0.1117718368768692, 0.05943574756383896], [0.18469543755054474, 0.1497330665588379, -0.33986347913742065, -0.5214776992797852, -0.08311118930578232, -0.05355234071612358, 0.04657956212759018, -0.003654728177934885, -0.07715975493192673, -0.05462982878088951, -0.0019168633734807372, 0.0733518972992897, 0.1281059980392456, 0.032876692712306976, 0.07802972942590714, -0.03271656483411789, 0.04952451214194298, 0.11721467226743698, -0.00013890478294342756, 0.7603857517242432, -0.0025575447361916304, 0.09431668370962143, -0.007236110977828503, 0.13039816915988922, 1.1491663455963135, -0.4610618054866791, -0.4177023470401764, 0.013951585628092289], [-0.3187331557273865, 0.3393535315990448, -0.33119481801986694, 0.3522859811782837, -0.5187775492668152, 0.02516959421336651, -0.012916008941829205, 0.057914044708013535, 0.28244322538375854, -0.12108669430017471, 0.23836569488048553, 0.15793989598751068, -0.04823388159275055, 0.06348107010126114, -0.0198807455599308, -0.018192017450928688, 0.11597491800785065, -0.06457875669002533, 0.02744663693010807, -0.4786878526210785, -0.8835962414741516, 0.4522325396537781, 0.20238566398620605, 0.23794841766357422, 0.3530326783657074, -0.7013760209083557, -0.12827137112617493, -0.1634032130241394], [0.004484858363866806, 0.33991754055023193, -0.050363313406705856, 0.2719363868236542, -0.12291378527879715, -0.03421841561794281, 0.04414660856127739, 0.15449698269367218, 0.03928719088435173, -0.11765167862176895, -0.12836278975009918, -0.015142327174544334, 0.013670429587364197, 0.006512881722301245, -0.029496101662516594, 0.04827539250254631, 0.2650059461593628, -0.07802186906337738, -0.07255659252405167, 0.14240241050720215, -0.06928887963294983, 0.198955699801445, -0.04054208844900131, -0.17933493852615356, 0.36163848638534546, 0.011856532655656338, -0.5214817523956299, -1.3220869302749634], [-0.2224707305431366, 0.32540178298950195, -0.16385501623153687, -0.05363591015338898, -0.13355594873428345, 0.17784631252288818, -0.031362392008304596, 0.4679186940193176, 0.2573520243167877, -0.27923282980918884, 0.02606755681335926, 0.08041073381900787, 0.0920257568359375, -0.030539657920598984, 0.21317391097545624, -0.04822433367371559, 0.18250654637813568, 0.07812421023845673, -0.34087279438972473, -0.38410618901252747, 0.07418440282344818, 0.049718715250492096, -0.02517874166369438, 0.12453088909387589, -0.20482517778873444, -0.12012910842895508, 0.2233428955078125, -0.2658243775367737], [-1.2004936933517456, -0.12592847645282745, -0.06179354339838028, 0.013443677686154842, -0.9789031744003296, -0.8770205974578857, 0.07652569562196732, 0.03260306268930435, 0.31607913970947266, 0.08601559698581696, 0.08980580419301987, 0.020746299996972084, 0.22634918987751007, -0.028801878914237022, -0.04223711043596268, -0.0924513190984726, -0.10115733742713928, -0.006841974798589945, 0.009283865801990032, 0.037060413509607315, -0.1472965031862259, -0.1155056431889534, -0.00587540864944458, -0.11071494221687317, -0.13301248848438263, -0.3132263720035553, -0.02460395358502865, 0.007260724902153015], [0.105428047478199, 0.1325255036354065, 0.12508568167686462, -1.3309179544448853, -0.032454393804073334, -0.10081034898757935, -0.005482336040586233, -0.24280449748039246, -0.050784409046173096, -0.008206972852349281, 0.011098116636276245, -0.3106760084629059, -0.0678245797753334, 0.009465339593589306, -0.006557370536029339, 0.12418416142463684, 0.1495332568883896, -0.09180078655481339, -0.41448113322257996, -0.12960916757583618, -0.17446909844875336, 0.1323973536491394, -0.15748263895511627, -0.016384122893214226, 0.7057309746742249, 0.04632500559091568, 0.29003089666366577, 0.004872678779065609], [0.3842291533946991, 0.14108413457870483, 0.34778785705566406, -0.028064588084816933, 0.1317916214466095, 0.057502083480358124, 0.20959354937076569, 0.21086475253105164, -0.066140316426754, 0.07515149563550949, -0.1822863519191742, 0.04143303260207176, -0.1665530651807785, -0.1545010656118393, 0.043098028749227524, -0.05228010192513466, -0.4254622161388397, 0.37821999192237854, 0.027994349598884583, 0.2679940462112427, 0.16411913931369781, 0.0462980791926384, -0.20827411115169525, -0.2606542408466339, 0.11357967555522919, -0.048156023025512695, 0.11767466366291046, -0.9604002237319946], [-0.19514741003513336, -0.313082218170166, -0.09702343493700027, -0.08902575820684433, -0.14937351644039154, -0.19609321653842926, -0.11447794735431671, 0.2937546968460083, 0.05915765464305878, 0.15926982462406158, 0.17192241549491882, 0.11967094987630844, 0.019524352625012398, -0.07541485875844955, 0.1202310100197792, 0.0574689581990242, -0.415848970413208, 0.11659155786037445, -0.01459052599966526, 0.17077957093715668, -0.04512033984065056, 0.01746649667620659, -0.3816143274307251, 0.22560913860797882, -1.3823223114013672, 0.5920653939247131, 0.3549022376537323, 0.7495816349983215], [0.24642351269721985, -0.10305029898881912, 0.21965643763542175, 0.5680418610572815, -0.14285749197006226, 0.03900422528386116, 0.029557595029473305, -0.16197599470615387, -0.24554705619812012, -0.07640475779771805, -0.2526918053627014, 0.3103974759578705, -0.07813514769077301, -0.13864536583423615, -0.10844507813453674, 0.08633780479431152, -0.21311551332473755, 0.09662484377622604, 0.22911499440670013, 0.1541057974100113, -0.2882886230945587, 0.1263279914855957, -0.08736319839954376, 0.2919689118862152, 0.6333242058753967, 0.10947878658771515, -0.3703020513057709, 0.4357015788555145], [0.21671517193317413, 0.27606260776519775, 0.11478881537914276, -0.20492614805698395, 0.04717494174838066, -0.10038504004478455, 0.11856348067522049, -0.1863541603088379, 0.11398100852966309, 0.175621896982193, -0.1788027435541153, 0.04249578341841698, 0.1076447144150734, 0.23808732628822327, -0.16668392717838287, -0.08180655539035797, -0.1028551310300827, -0.23405008018016815, -0.154343843460083, 0.05644603818655014, -0.21852800250053406, 0.1091410294175148, 0.1599453091621399, 0.25704336166381836, -0.20556238293647766, -0.35972729325294495, -0.216512992978096, 0.0838417261838913], [0.3312143385410309, -0.0410611517727375, -0.31366395950317383, -0.34547320008277893, -0.12323224544525146, 0.10128679871559143, -0.3747924268245697, -0.06530968099832535, 0.10133566707372665, 0.20870262384414673, -0.09214373677968979, -0.178195521235466, -0.1649685651063919, -0.0038046392146497965, 0.04863172769546509, -0.25813740491867065, -0.1989046186208725, 0.5857304930686951, 0.22674480080604553, -0.2271786332130432, 0.13595129549503326, 0.08230914920568466, 0.5033808350563049, 0.07181147485971451, 0.45449674129486084, -0.23793794214725494, 0.6945009231567383, -0.09417314827442169], [0.43015870451927185, -0.23868563771247864, 0.04099196568131447, 0.5201132297515869, -0.12066017091274261, 0.16433584690093994, -0.10636111348867416, 0.10405192524194717, 0.14483724534511566, 0.17951835691928864, 0.19806981086730957, -0.048155929893255234, 0.16103580594062805, 0.10754033923149109, -0.11139819771051407, -0.01541176252067089, 0.14376135170459747, 0.3221868574619293, -0.43546903133392334, -0.09723922610282898, -0.09023962914943695, -0.07232441753149033, -0.19722777605056763, 0.028191102668642998, 0.19252461194992065, -0.5214662551879883, 0.08772917836904526, 0.11234430223703384], [-0.028426021337509155, -0.0886056125164032, -0.1426805555820465, -0.0029937424696981907, -0.04127931967377663, 0.3241303265094757, -0.0034585599787533283, 0.03576319292187691, -0.001169842667877674, 0.0027586815413087606, 0.06979683041572571, -0.034225236624479294, 0.020235570147633553, -1.0461779832839966, -0.037022195756435394, 0.01617291010916233, -0.043165285140275955, 0.3678351044654846, 0.04584654048085213, 0.06047329679131508, 0.0384470634162426, -0.04148409515619278, 0.4657372534275055, -0.012713256292045116, -0.9099847674369812, 0.7683572769165039, 0.19086484611034393, -0.720469057559967], [-0.23340465128421783, -1.2043267488479614, 0.10365895926952362, 0.29719609022140503, -0.11904142051935196, 0.2527032792568207, -0.2529052495956421, -0.35220423340797424, -0.02560342475771904, 0.24250786006450653, -0.13867107033729553, 0.11291557550430298, -0.01830093190073967, -0.05761408805847168, 0.022671930491924286, 0.16847240924835205, -0.23762868344783783, -0.32264289259910583, 0.21125128865242004, 0.3724408447742462, -0.023415762931108475, 0.02262645959854126, -0.357145220041275, -0.2609786093235016, 0.6188284158706665, -0.11915628612041473, -0.3776189088821411, 0.36881133913993835], [0.3249463438987732, -0.26490193605422974, -0.15023311972618103, -0.13520300388336182, 0.12873516976833344, 0.2044457346200943, -0.25855082273483276, -0.2726686894893646, -0.0913848876953125, 0.13608421385288239, 0.029620874673128128, -0.059507329016923904, 0.019838029518723488, 0.003995261155068874, 0.2680742144584656, 0.06223604083061218, -0.3905121386051178, -0.13233765959739685, -0.2880416810512543, -0.4634869396686554, -0.17490598559379578, 0.07744507491588593, -0.01904333382844925, 0.3017749786376953, 1.0951578617095947, 0.2734350860118866, -0.2347441017627716, 0.33985796570777893], [0.41843923926353455, -0.10465680062770844, 0.3867233991622925, -0.014972400851547718, 0.47747448086738586, 0.47698506712913513, 0.08615881949663162, -0.0060110194608569145, 0.05818213149905205, 0.03850015252828598, -0.08988019824028015, -0.10047677904367447, -0.03146147355437279, 0.11559698730707169, 0.1379697024822235, 0.04409618675708771, 0.04335300624370575, 0.04504811391234398, -0.34490376710891724, 0.13585485517978668, 0.08518597483634949, 0.031898126006126404, 0.0958000048995018, 0.2013397067785263, -0.6289969086647034, -0.025708530098199844, 0.08280474692583084, 0.07710561901330948], [-0.01783023774623871, 0.30471646785736084, 0.09865963459014893, 0.019865266978740692, -0.07042708992958069, -0.199462890625, 0.23992057144641876, 0.3063855767250061, -0.14666861295700073, -0.2829979658126831, 0.1260911226272583, 0.10245916992425919, 0.052641861140728, 0.03271639347076416, -0.004715162329375744, 0.2793301045894623, 0.08893967419862747, 0.38227352499961853, -0.0746130421757698, 0.06510203331708908, 0.19981889426708221, 0.0719619169831276, -0.07202322036027908, 0.07768137007951736, 0.2568098306655884, -0.41136613488197327, 0.17572474479675293, -0.21834804117679596], [0.03726797550916672, 0.01898152567446232, 0.03303547948598862, 0.0343225821852684, -0.07074473053216934, 0.17437271773815155, -0.14013279974460602, 0.1593768149614334, 0.036153461784124374, -0.1134585589170456, -0.04725715517997742, 0.09684466570615768, -0.060747019946575165, -0.033618126064538956, -0.0061464435420930386, 0.0769222155213356, 0.1887064129114151, 0.09151963144540787, 0.15497168898582458, -0.014669780619442463, 0.08460890501737595, -0.04672783240675926, 0.44866669178009033, 0.06515942513942719, -0.2529466450214386, 0.03663300722837448, 1.4544790983200073, -0.1655823439359665], [-0.03454397991299629, 0.06094047427177429, 0.321771502494812, -1.5035600662231445, -0.24764889478683472, -0.1174183189868927, -0.03515008091926575, -0.4020731449127197, 0.2274118959903717, 0.042523883283138275, 0.06286029517650604, -0.20341438055038452, -0.01136533822864294, -0.031125642359256744, -0.07253335416316986, 0.19485725462436676, 0.015399099327623844, 0.03547696769237518, 0.0762358084321022, -0.16860291361808777, 0.18187089264392853, 0.19600173830986023, -0.12000293284654617, -0.12444514036178589, 0.4597795009613037, -0.6820598244667053, -0.13169355690479279, 0.04678403586149216], [0.3571047782897949, 0.11468566209077835, -0.3618617653846741, -0.23023536801338196, 0.170024111866951, 0.0367959663271904, 0.02573067881166935, -0.2995990216732025, 0.2506193518638611, -0.13850867748260498, 0.09471406042575836, -0.22617346048355103, 0.17396876215934753, 0.018294721841812134, 0.12518230080604553, -0.1207260936498642, -0.3284168541431427, -0.06188833713531494, 0.16334564983844757, 0.26939865946769714, -0.23325270414352417, -0.06180699169635773, 0.3604350686073303, -0.32698363065719604, 0.1468745619058609, 0.3164089620113373, -0.6946829557418823, 0.09268730878829956], [0.17276941239833832, -0.01556695718318224, 0.3711158335208893, -2.0931265354156494, 0.1840878576040268, -0.18286196887493134, -0.2376338392496109, -0.03391022980213165, 0.13787902891635895, -0.11146952956914902, 0.15093322098255157, -0.6326093673706055, -0.01770753785967827, -0.02926931343972683, -0.06678885966539383, 0.06905439496040344, -0.1914747655391693, 0.08863604068756104, 0.2021699845790863, -0.05627822130918503, 0.042680125683546066, 0.14910058677196503, 0.06139129400253296, 0.08225920051336288, 0.9111287593841553, 0.8182508945465088, 0.19638994336128235, -0.06896767020225525], [-0.14854376018047333, -0.038996368646621704, 0.6774478554725647, 0.38653790950775146, 0.3455428183078766, -0.06369050592184067, 0.23131030797958374, -0.143096461892128, -0.019774459302425385, -0.05205295607447624, 0.2900678515434265, -1.2027240991592407, 0.02025146782398224, -0.1769351214170456, 0.031618982553482056, -0.20215998589992523, -0.1769600808620453, -0.5665788650512695, -0.04710565134882927, 0.14060284197330475, -0.08680138736963272, 0.13237382471561432, -0.0010577529901638627, 0.21378321945667267, 0.2688393294811249, 0.25871893763542175, 0.29907187819480896, 0.00768290227279067], [0.04201934114098549, 0.12020246684551239, -0.16732855141162872, -0.13055004179477692, -0.13678723573684692, -0.18860061466693878, -0.11849460750818253, -0.1557205766439438, -0.002124024787917733, -0.12140572816133499, -0.04117446020245552, 0.31455427408218384, 0.07588370144367218, 0.12309037148952484, -0.17014659941196442, 0.05009640380740166, 0.1503412425518036, -0.7451079487800598, -0.2049945592880249, -0.34725314378738403, -0.06143837049603462, 0.23597918450832367, -0.6163281798362732, -0.12380079180002213, -0.1457240730524063, 0.013473790138959885, -0.20710033178329468, -0.4407758414745331], [0.08727145195007324, -0.910418689250946, 0.17992433905601501, 0.1882423758506775, 0.11698015034198761, -0.1118759959936142, -0.029473276808857918, -0.0727471262216568, -0.0031966702081263065, 0.028120767325162888, 0.1530313491821289, -0.09678234905004501, -0.10992096364498138, 0.05353560671210289, -0.019430426880717278, 0.13323050737380981, -0.3037499785423279, -0.3374243676662445, -0.39206719398498535, -0.0846729651093483, -0.031529441475868225, 0.13192777335643768, 0.05435340851545334, -0.10338359326124191, 0.4587229788303375, -0.32933396100997925, 0.23705115914344788, -0.5711906552314758], [0.010588702745735645, -0.09404458105564117, 0.08332903683185577, -0.2127506285905838, -0.07038325071334839, 0.09026307612657547, -0.06838186085224152, 0.10956545174121857, -0.2523600161075592, 0.2295677214860916, 0.40794500708580017, 0.18414433300495148, -0.10619787871837616, 0.04518643021583557, 0.08175546675920486, -0.03670332580804825, 0.22030216455459595, 0.12210529297590256, 0.12044676393270493, 0.07963619381189346, -0.142487034201622, -0.09344392269849777, -0.09398848563432693, -0.08816279470920563, -0.5901085734367371, -0.11444319784641266, -0.2645952105522156, 0.7638859748840332], [0.024804241955280304, 0.11436022818088531, 0.4824053645133972, 0.027440620586276054, 0.20160773396492004, -0.1928887814283371, -0.052296970039606094, 0.195418581366539, 0.014404341578483582, -0.0026827713008970022, -0.19756364822387695, 0.11374527215957642, -0.08460070192813873, -0.04027251526713371, 0.02516304887831211, 0.07815830409526825, 0.03564172983169556, -0.14806203544139862, 0.25167831778526306, 0.15890225768089294, -0.10367588698863983, -0.01444312371313572, 0.41313594579696655, 0.1463765799999237, 0.62078458070755, -0.27028733491897583, 0.4404318332672119, 0.41013413667678833], [-0.43606677651405334, 0.24228981137275696, 0.1283063143491745, -0.02941327542066574, 0.03064524009823799, -0.2434326857328415, -0.12286530435085297, -0.19016118347644806, 0.07460144907236099, -0.05364163964986801, -0.07108843326568604, 0.02279260754585266, -0.1604408621788025, -0.18430355191230774, 0.1704292744398117, 0.17851105332374573, -0.27050885558128357, 0.47331950068473816, 0.31668567657470703, 0.04399920627474785, 0.24963004887104034, -0.08220706880092621, 0.10932234674692154, -0.17573752999305725, -0.09267880022525787, -0.15990597009658813, -0.35349857807159424, 0.981391191482544], [-0.08272680640220642, 0.13233551383018494, 0.05652265250682831, -0.013097167015075684, -0.04730544611811638, 0.07722368091344833, 0.19251900911331177, 0.01808086410164833, -0.22267021238803864, 0.020254384726285934, 0.13613052666187286, -0.07564987242221832, -0.15106305480003357, -0.09015373885631561, -0.004872937221080065, -0.11458884924650192, 0.07671871781349182, -0.21855078637599945, 0.1467273235321045, -0.9372977614402771, 0.02006583847105503, -0.10840728878974915, 0.24442042410373688, -0.6589877009391785, 0.2596074342727661, 0.11847036331892014, 0.40077918767929077, -0.0386243499815464], [0.12777259945869446, -0.20811156928539276, 0.004842724185436964, 0.3055996894836426, 0.2155197113752365, -0.12487897276878357, 0.09218644350767136, -0.09851910918951035, 0.20923663675785065, -0.03487081453204155, 0.03745577111840248, -0.09226783365011215, -0.10912274569272995, 0.006495780777186155, 0.21205547451972961, -0.01831001415848732, 0.3439674377441406, -0.23848237097263336, -0.14374502003192902, -0.04063137248158455, 0.18723848462104797, 0.13872170448303223, 0.12640497088432312, -0.06410466134548187, -0.3633192479610443, 0.024172086268663406, -0.37951627373695374, 0.4716171324253082], [0.025767922401428223, -1.1900956630706787, -0.08402091264724731, 0.18777745962142944, -0.0740361288189888, -0.02760051190853119, -0.9993902444839478, -0.9863393306732178, 0.0014265473000705242, 0.4279884099960327, 0.08944784104824066, -0.007090273778885603, 0.027947671711444855, 0.04717102274298668, 0.07722495496273041, 0.1855122596025467, 0.33183810114860535, -0.06362051516771317, -0.1733248084783554, -0.10190235078334808, 0.005228943657130003, -0.16818059980869293, -0.08093082904815674, -0.4772438406944275, -0.030813807621598244, 0.006344913970679045, -0.109215646982193, -0.032602496445178986], [0.03318260610103607, 0.1186937689781189, 0.1861671358346939, 0.016759051010012627, -0.1977090686559677, -0.03717198222875595, -0.09651920199394226, 0.07577592879533768, 0.4533921182155609, -0.050266921520233154, -0.09108072519302368, 0.01847679354250431, 0.03975128009915352, -0.024588512256741524, -0.02160641737282276, -0.09143061935901642, -0.010479063726961613, -0.4378221333026886, -0.32359394431114197, 0.33569031953811646, -0.20919594168663025, 0.031001679599285126, -0.16560447216033936, 0.10049786418676376, 0.33022406697273254, -0.14808233082294464, -0.3071860074996948, 0.40238475799560547], [-0.08378241211175919, 0.0749635174870491, 0.08752595633268356, 0.08273689448833466, -0.010944511741399765, 0.0960615947842598, 0.022190121933817863, -0.08962327241897583, 0.032380007207393646, -0.24573762714862823, 0.09339668601751328, -0.014675476588308811, 0.256990522146225, 0.044223904609680176, -0.07671806961297989, -0.10081164538860321, -0.15756851434707642, 0.26617079973220825, 0.16553881764411926, 0.18804693222045898, 0.0037406699266284704, 0.05032927542924881, 0.13362224400043488, 0.20694692432880402, -0.03499101847410202, -0.006172782741487026, 0.05311044678092003, 1.0722112655639648], [-1.1398999691009521, 0.05220656469464302, -0.24858827888965607, -0.1923683136701584, -0.7479784488677979, -0.8060619831085205, -0.15409758687019348, 0.234054833650589, -0.21548454463481903, -0.09290365874767303, -0.3628648817539215, 0.23560962080955505, -0.09609083086252213, 0.115122489631176, -0.07203182578086853, 0.3093552887439728, -0.26928749680519104, -0.32954660058021545, -0.16888411343097687, 0.09179040789604187, 0.4628647267818451, -0.018230929970741272, -0.03253551572561264, 0.030781926587224007, 0.28481775522232056, 0.17675650119781494, -0.038955047726631165, -0.043377041816711426], [-0.04641449451446533, -0.1291038990020752, -0.8519236445426941, 0.3437150716781616, 0.15069431066513062, 0.06629732251167297, 0.1057496890425682, -0.07095900923013687, -0.23727452754974365, -0.11673559993505478, -0.8497205972671509, 0.08060678094625473, 0.10076116770505905, -0.035508349537849426, 0.12887659668922424, -0.356332927942276, 0.16558076441287994, -0.1478956788778305, -0.2528747618198395, -0.024877510964870453, 0.0092161251232028, 0.1144799217581749, -0.04817745462059975, -0.008110175840556622, -0.164698988199234, 0.09721777588129044, 0.17537517845630646, 0.05187439173460007], [-0.05231413617730141, 0.1392323523759842, 0.22247399389743805, -0.15463019907474518, 0.03721529617905617, -0.04961031675338745, 0.00990961492061615, -0.39705631136894226, -0.02359662391245365, -0.07377465069293976, 0.14819985628128052, 0.010666792280972004, 0.20639443397521973, 0.07548641413450241, -0.04785769432783127, -0.04769130051136017, 0.11730440706014633, 0.14720448851585388, -0.477852463722229, -0.2582405209541321, -0.02957776002585888, 0.1128588542342186, 0.20203666388988495, 0.11411656439304352, 0.8940994739532471, -0.002794150961562991, 0.6201178431510925, -0.1251956969499588], [-1.1721460819244385, -0.2821127474308014, 0.0840451791882515, -0.029294155538082123, -0.45260006189346313, -0.16998422145843506, 0.06128337234258652, 0.08836155384778976, -0.19635623693466187, -0.1695108264684677, -0.22491227090358734, 0.2340126782655716, -0.17803147435188293, 0.418793648481369, -0.08374743163585663, 0.06904280930757523, -0.0321151465177536, 0.038966044783592224, 0.380050390958786, -0.050167664885520935, 0.31890538334846497, 0.03930274024605751, 0.09472538530826569, -0.30381882190704346, 0.2365896999835968, -0.33285200595855713, -0.032418593764305115, 0.0010712714865803719], [-0.07854632288217545, -1.3448327779769897, 0.12429393827915192, 0.02740498259663582, 0.040893469005823135, 0.05086297169327736, -1.1326274871826172, -1.0256646871566772, 0.019155891612172127, 0.3894411027431488, -0.058057427406311035, -0.0561397410929203, 0.02196749486029148, 0.0526389554142952, -0.0788814127445221, -0.1392553597688675, -0.004464440513402224, -0.11797784268856049, 0.03095366805791855, 0.07506947964429855, 0.07787210494279861, 0.12441378086805344, -0.22484959661960602, 0.29157501459121704, -0.14454713463783264, -0.14505085349082947, -0.04640687257051468, 0.0021687778644263744], [-0.6793840527534485, -0.04921606555581093, 0.034829381853342056, 0.11918184906244278, -0.10474460572004318, -0.2563404440879822, 0.12203416973352432, 0.007849950343370438, 0.31412848830223083, -0.22032122313976288, 0.05936692655086517, -0.0064275916665792465, 0.01933354325592518, -0.025017300620675087, -0.006489730440080166, -0.018131952732801437, 0.19436867535114288, 0.4007965922355652, 0.005868230015039444, 0.20139829814434052, -0.11181259900331497, -0.21703281998634338, -0.03990219160914421, -0.3907453119754791, -0.07199707627296448, -0.5485126972198486, -0.2910311222076416, -0.4789228141307831], [0.17140020430088043, 0.2367367297410965, 0.14677926898002625, -0.05385289713740349, 0.010377935133874416, 0.18562360107898712, 0.18091072142124176, 0.20184223353862762, 0.11655979603528976, -0.05411989986896515, -0.1488655060529709, -0.05673275515437126, 0.04369507357478142, 0.04556811973452568, 0.14198285341262817, 0.024198902770876884, 0.23601040244102478, -0.25395023822784424, 0.1304774433374405, -0.28440576791763306, -0.010464473627507687, 0.07883549481630325, 0.01026808749884367, 0.10066841542720795, -0.02437695860862732, -0.20384596288204193, -0.3346901834011078, -0.1307908147573471], [0.06291975826025009, -0.24172598123550415, -0.15497395396232605, -0.04690418764948845, 0.11591154336929321, -0.38651689887046814, 0.46310263872146606, -0.6253775358200073, 0.030529458075761795, -0.3626091480255127, 0.27845147252082825, 0.2927970588207245, -0.13771773874759674, 0.09223742038011551, 0.30516505241394043, -0.1920059621334076, -0.11741115152835846, 0.16935783624649048, 0.14376388490200043, -0.10244182497262955, 0.1612924188375473, -0.0393851064145565, 0.19152714312076569, -0.1532854437828064, 0.19593195617198944, 0.47400015592575073, -0.4563075602054596, 0.009796641767024994], [-0.08083786070346832, 0.09381645917892456, -0.7738913297653198, -0.6673038005828857, 0.18640998005867004, -0.28693920373916626, 0.0017368487315252423, -0.10772431641817093, 0.0008041796972975135, 0.23950687050819397, -0.4863944351673126, -0.04041863977909088, 0.012669140473008156, 0.08110661059617996, -0.07288143783807755, 0.02765486389398575, -0.16227802634239197, 0.24682708084583282, -0.0038244565948843956, -0.1925797462463379, 0.0729215070605278, 0.13190025091171265, -0.0004982550162822008, -0.03052765689790249, 0.2993910014629364, -0.020778436213731766, -0.1834469735622406, 0.17336435616016388], [-0.0414155013859272, 0.10372857004404068, 0.05056246742606163, -1.4683823585510254, -0.007612745743244886, -0.021951325237751007, 0.004603466019034386, -0.23200075328350067, -0.003443629713729024, 0.043602727353572845, 0.021098582074046135, -0.07701694220304489, 0.00727721257135272, 0.18625737726688385, -0.0008486364968121052, 0.02135431207716465, 0.02992268092930317, 0.34464502334594727, 0.15822261571884155, -0.17704346776008606, -0.2154521644115448, -0.04840285703539848, -0.07129668444395065, -0.18455609679222107, 0.011995729058980942, -0.1849791705608368, 0.24017074704170227, -0.04586653783917427], [-0.0702236220240593, 0.12254460155963898, -0.19417209923267365, 0.41433683037757874, 0.05806494131684303, 0.10887400060892105, -0.0001060616341419518, 0.3438512980937958, 0.182272270321846, -0.05479148402810097, 0.06715144217014313, -0.2611609995365143, 0.20240458846092224, -0.06175386160612106, 0.05423643812537193, -0.0756409615278244, 0.03312055021524429, -0.3176024556159973, 0.21815648674964905, -0.0067777689546346664, 0.09040705859661102, 0.25870251655578613, 0.08261051028966904, -0.7335431575775146, -0.5667157769203186, 0.4167037010192871, -1.2247614860534668, -0.9435580968856812], [0.11200521886348724, 0.23652295768260956, -2.6226937770843506, 0.04813765361905098, -0.023231521248817444, 0.16351617872714996, -0.09238749742507935, 0.07159502804279327, 0.10844884812831879, 0.125270813703537, -0.4130849540233612, 0.13365118205547333, 0.2650117874145508, -0.1236940398812294, 0.06208549812436104, -0.13615107536315918, 0.14988228678703308, 0.09324953705072403, -0.3988419473171234, 0.16289888322353363, -0.010351664386689663, -0.020819956436753273, 0.1533178836107254, 0.01446552388370037, 0.4557509422302246, 0.04464352875947952, 0.03898051753640175, -0.02046736143529415], [-0.0708775520324707, -0.0006136856973171234, 0.07688749581575394, -0.08271149545907974, -0.012753291986882687, -0.01026394683867693, -0.08594192564487457, 0.011903691105544567, -0.010904737748205662, -0.0004184638673905283, -0.05621343478560448, 0.2258787751197815, -0.05463430657982826, 0.047611549496650696, -0.023333538323640823, 0.08013257384300232, -0.07932830601930618, -0.007444936782121658, -0.16699230670928955, -0.7812378406524658, -0.25959891080856323, 0.09876269847154617, -0.029058296233415604, -0.010195725597441196, -0.14033716917037964, -0.5751985311508179, 1.0310018062591553, -0.09426042437553406], [-0.1603618860244751, 0.13197118043899536, -0.1223205104470253, 0.03052065707743168, -0.013664821162819862, 0.16353408992290497, -0.2173795998096466, -0.15110985934734344, 0.02211742475628853, -0.05459524318575859, -0.2899447977542877, 0.020995713770389557, 0.016029609367251396, -0.02872537262737751, -0.21343277394771576, -0.15780535340309143, -0.031089989468455315, 0.787345290184021, 0.3319453299045563, 0.15974196791648865, -0.06154019385576248, -0.12162046879529953, -0.22891545295715332, -0.09306805580854416, -0.07634618878364563, -0.13506704568862915, -0.024058658629655838, -0.5571411848068237], [0.20914334058761597, -0.21309784054756165, 0.15659776329994202, -0.3761032223701477, 0.10971726477146149, -0.0074868774972856045, -0.07902566343545914, 0.19278430938720703, 0.21169784665107727, -0.12809957563877106, 0.06753953546285629, 0.22244949638843536, -0.14500382542610168, -0.226453498005867, 0.028979439288377762, 0.06453707814216614, -0.3347720205783844, 0.005074118264019489, -0.6593120694160461, -0.22288630902767181, -0.018939489498734474, 0.11895045638084412, 0.10047513991594315, 0.01178301963955164, 0.5290365219116211, 0.1134372279047966, 0.24376201629638672, 0.12723681330680847], [-0.8277785778045654, 0.2908358871936798, 0.09992638975381851, 0.2858743965625763, -0.06327324360609055, 0.025151357054710388, -0.302729994058609, -0.22275374829769135, -0.22234772145748138, -0.12576328217983246, 0.2731340229511261, 0.058593831956386566, 0.16267813742160797, 0.1807267665863037, -0.18124637007713318, -0.05084783956408501, 0.1780584454536438, 0.07474905252456665, 0.309319406747818, 0.13412947952747345, -0.09066275507211685, 0.14081119000911713, 0.07726655155420303, -0.07631946355104446, 0.5067487955093384, -0.06965847313404083, 0.3973860442638397, -0.3228245675563812], [0.26049569249153137, -0.07388153672218323, -0.10208812355995178, 0.10906331986188889, -0.06930790841579437, 0.059659458696842194, -0.03343455120921135, 0.022601217031478882, -0.05561637505888939, 0.03725745156407356, 0.035658955574035645, 0.038482822477817535, -0.04735798016190529, 0.050835981965065, -0.021251633763313293, 0.022535808384418488, -0.09322347491979599, 0.07520078867673874, 0.09277667850255966, 0.28699633479118347, 0.12967193126678467, 0.1781020313501358, 0.26022544503211975, 0.07232686132192612, 0.3541659414768219, -0.028116343542933464, -0.37262603640556335, 1.292977213859558], [0.0673145055770874, 0.04103662446141243, 0.2909194529056549, 0.2705053687095642, -0.07247421145439148, 0.11880023777484894, 0.17322938144207, -0.03131106123328209, 0.22167760133743286, 0.07458581030368805, 0.09676693379878998, -0.08567097783088684, 0.05815613642334938, -0.04833479970693588, -0.08301299810409546, 0.060351911932229996, -0.11323155462741852, 0.25616052746772766, -0.27459898591041565, 0.14041540026664734, 0.022358456626534462, -0.15391172468662262, -0.01898602396249771, 0.19838683307170868, -0.3486816883087158, -0.26626893877983093, 0.7674720883369446, 0.5146552324295044], [0.39824071526527405, -0.07743678241968155, 0.15597037971019745, 0.34925130009651184, 0.18008629977703094, 0.47533878684043884, 0.028109043836593628, 0.13456177711486816, -0.13480567932128906, 0.05774955078959465, -0.18055856227874756, 0.20970086753368378, 0.08630264550447464, -0.05772904306650162, -0.004332405049353838, 0.049478136003017426, -0.16758781671524048, -0.9564437866210938, 0.34184592962265015, 0.05034076049923897, 0.41076967120170593, -0.138278990983963, 0.142312690615654, 0.0909939631819725, -0.6355265378952026, 0.5318424105644226, 0.502356231212616, -0.5430448055267334], [0.4742996096611023, 0.29678258299827576, 0.2893139123916626, 0.038256388157606125, 0.03221341595053673, -0.057892270386219025, 0.09634092450141907, 0.25784942507743835, -0.23933357000350952, -0.17897547781467438, 0.06522086262702942, 0.1056404858827591, -0.06473735719919205, 0.052044402807950974, 0.224541574716568, -0.023500854149460793, 0.09479821473360062, 0.35162797570228577, -0.13311973214149475, 0.20232075452804565, -0.1657561957836151, -0.09004690498113632, -0.04918719828128815, 0.3706493675708771, 0.7046449184417725, -0.5403216481208801, 0.1186707615852356, 0.36174771189689636], [0.08782383054494858, -1.1407972574234009, 0.01638689637184143, -0.2012874335050583, 0.18867111206054688, 0.02859785594046116, -0.8421316742897034, -1.0424748659133911, -0.06558214873075485, 0.34940987825393677, -0.06793725490570068, 0.15550360083580017, 0.08787094801664352, -0.01452722866088152, 0.0864194929599762, 0.21205925941467285, 0.2244063913822174, -0.07474111020565033, -0.0019965393003076315, -0.03397578373551369, 0.03353709354996681, -0.03530264273285866, -0.4394608438014984, -0.16518673300743103, -0.6404964327812195, -0.019436398521065712, -0.0177837572991848, 0.04154830425977707], [-0.0536356195807457, -0.07564231008291245, -0.12142940610647202, 0.11078336834907532, -0.04402978718280792, 0.2335648089647293, -0.013724066317081451, -0.31135350465774536, -0.046497028321027756, 0.028250552713871002, -0.09523210674524307, 0.02001696638762951, 0.021550901234149933, 0.014796634204685688, 0.09160750359296799, 0.08351031690835953, 0.11914705485105515, 0.37814608216285706, 0.1956900656223297, -0.2524223327636719, -0.45113706588745117, -0.10629407316446304, -0.2308281660079956, -0.005862281192094088, 0.37782782316207886, -0.031923290342092514, -0.3584575653076172, -0.17633745074272156], [-0.32948729395866394, 0.07000597566366196, 0.22719889879226685, -0.08704652637243271, -0.18164129555225372, -0.26146000623703003, 0.13632982969284058, 0.12971165776252747, 0.09611917287111282, 0.09419706463813782, 0.19423054158687592, 0.02672247216105461, 0.07897784560918808, 0.07004904747009277, -0.006042578723281622, -0.09413120895624161, -0.4824378490447998, -0.3003747761249542, -0.4622242748737335, 0.06901579350233078, -0.011672313325107098, 0.04329061880707741, -0.2014211267232895, -0.23771052062511444, 0.3529609143733978, 1.6155284643173218, 0.10335031151771545, 0.07494842261075974], [-0.006160084158182144, 0.23234772682189941, 0.17294533550739288, -0.16475269198417664, 0.041778337210416794, 0.16268640756607056, 0.00706905871629715, 0.2319706678390503, 0.07842490077018738, -0.15380103886127472, 0.06358623504638672, 0.15948550403118134, -0.038951992988586426, -0.020211342722177505, 0.036872513592243195, 0.1494426727294922, 0.15512794256210327, 0.12432203441858292, 0.12595298886299133, 0.330453097820282, -0.15946678817272186, -0.21375147998332977, 0.17634420096874237, 0.22257669270038605, 0.3165333867073059, -0.5165936946868896, 0.01776920258998871, -0.31960126757621765], [0.28013092279434204, -1.3391523361206055, 0.24129635095596313, 0.09395221620798111, 0.11935664713382721, 0.33265507221221924, -1.165656566619873, -0.9118955135345459, -0.09975734353065491, 0.4257182478904724, -0.01966065540909767, 0.15437687933444977, 0.13954772055149078, 0.105295829474926, -0.08884823322296143, -0.180121049284935, -0.11256443709135056, 0.37264662981033325, 0.03252733126282692, -0.039693016558885574, 0.13663563132286072, 0.00593203492462635, -0.13758176565170288, -0.37367260456085205, -0.09236479550600052, -0.33493372797966003, 0.0907503068447113, -0.08752717077732086], [0.1899845451116562, -0.9779331684112549, 0.09428848326206207, -0.053032681345939636, 0.0021415986120700836, -0.17859451472759247, -0.13798891007900238, -0.272769957780838, -0.05131351575255394, -0.13170360028743744, 0.02901163510978222, -0.014034399762749672, 0.008704866282641888, -0.04675913229584694, -0.04398927092552185, 0.005479555111378431, -0.242337167263031, 0.557476818561554, -0.03113519586622715, 0.24042652547359467, -0.18296951055526733, -0.161092147231102, -0.04283439368009567, 0.16960303485393524, 0.8475672602653503, -0.022539785131812096, 0.2365407645702362, 0.7828130125999451], [-0.3140634596347809, 0.24545620381832123, -0.15229102969169617, 0.19581808149814606, -0.00173167884349823, -0.06729990988969803, -0.24667398631572723, -0.013990362174808979, -0.3374643623828888, -0.005784895736724138, -0.0322345606982708, 0.13119038939476013, -0.0043601165525615215, -0.28588393330574036, 0.08767874538898468, 0.20408539474010468, 0.07430156320333481, 0.2707754075527191, 0.1546756476163864, 0.5466572642326355, 0.3307468891143799, -0.27865609526634216, -0.03467269241809845, 0.0891876220703125, 0.41044744849205017, 0.22137856483459473, -0.5173589587211609, -0.36587658524513245], [-0.06372197717428207, 0.42474085092544556, 0.33554545044898987, -0.15761961042881012, 0.04956679791212082, 0.139944389462471, 0.2835014760494232, 0.16917969286441803, -0.11337166279554367, 0.12718792259693146, -0.10065019130706787, -0.06625159084796906, -0.09443403035402298, 0.17531469464302063, -0.09416799992322922, -0.014924743212759495, -0.102738156914711, -0.06550678610801697, 0.2160656899213791, 0.003113718470558524, 0.06400944292545319, 0.0026443605311214924, 0.019326714798808098, -0.36552199721336365, -0.1790180653333664, 0.5008417963981628, -0.15956906974315643, 0.039453621953725815], [0.010059371590614319, 0.22759780287742615, 0.03976849839091301, 0.1905321478843689, 0.10934340208768845, 0.08535296469926834, 0.26348358392715454, -0.04495073854923248, 0.06809549033641815, -0.21260130405426025, 0.17331737279891968, 0.15497338771820068, 0.12844717502593994, 0.13892202079296112, 0.18296502530574799, 0.1775575578212738, -0.249144047498703, 0.43908047676086426, -0.02715756744146347, -0.09663335978984833, 0.08389177918434143, -0.013256636448204517, -0.2773275077342987, -0.18650874495506287, 0.2775680720806122, -0.276193767786026, 0.06558703631162643, 0.1053997054696083], [-0.6019539833068848, -0.10458850115537643, 0.1873534917831421, 0.455067902803421, -0.10410343110561371, 0.12226180732250214, 0.05398198217153549, 0.3111730217933655, -1.0151562690734863, 0.1768953502178192, 0.10896679013967514, 0.20387566089630127, -0.2611842155456543, -0.062439221888780594, 0.10121766477823257, 0.07031487673521042, -0.4121975898742676, 0.562200665473938, -0.03011983633041382, -0.1437486708164215, -0.308459997177124, -0.33931782841682434, 0.0727243646979332, 0.6687018275260925, -0.9766313433647156, -0.8164188265800476, -0.1838449388742447, 0.6041574478149414], [0.05887318402528763, 0.06937865167856216, 0.20577578246593475, -1.0934205055236816, -0.08060615509748459, -1.0204366445541382, 0.05973862111568451, -1.0054023265838623, -0.028875475749373436, -0.034848131239414215, -0.11050184071063995, 0.3925706744194031, 0.0470757894217968, -0.15249869227409363, 0.1150830015540123, -0.15103504061698914, 0.062181949615478516, 0.10609542578458786, -0.053246255964040756, -0.015466297045350075, -0.018675576895475388, 0.11417925357818604, -0.00048736363532952964, -0.011214636266231537, -0.35292771458625793, -0.08866279572248459, 0.018768971785902977, 0.02454964444041252], [0.25869235396385193, 0.10190647095441818, -0.35671305656433105, 0.1664721965789795, -0.2489415556192398, 0.19176629185676575, 0.1501392126083374, 0.035213638097047806, -0.041549306362867355, -0.04161323606967926, 0.35878002643585205, 0.02263137325644493, 0.047043606638908386, -0.009469148702919483, -0.031103549525141716, 0.02547355368733406, -0.0425478033721447, -0.04964219406247139, 0.05851948633790016, 0.078780896961689, 0.013079903088510036, -0.008386427536606789, -0.04753221198916435, -0.40133464336395264, -0.6414289474487305, 0.44478699564933777, -0.5364940762519836, 0.36559852957725525], [0.07936186343431473, 0.029554111883044243, 0.13553044199943542, 0.03374313935637474, 0.1881253719329834, -0.0803581029176712, 0.2331060767173767, 0.032658882439136505, -0.03636140748858452, -0.04336601123213768, 0.1694229245185852, -0.046416740864515305, -0.025353863835334778, 0.0021881605498492718, 0.06361696869134903, -0.12736186385154724, -0.2104288935661316, -0.4825654923915863, -0.05432630702853203, -0.009206506423652172, 0.1900472640991211, -0.21404513716697693, -0.21984177827835083, 0.17674346268177032, -0.01757536642253399, -0.003776554949581623, 0.22828581929206848, -0.7848207354545593], [0.2425878942012787, -0.36672401428222656, -0.5076065063476562, -0.2935519218444824, 0.21423843502998352, -0.02411816082894802, -0.24888759851455688, -0.5827450752258301, 0.39915427565574646, -0.3150774836540222, -0.5044689178466797, 0.12884041666984558, 0.17471174895763397, 0.4413025379180908, -0.2152881622314453, -0.3828001618385315, 0.02667365036904812, 0.14440006017684937, -0.08068569749593735, -0.30810782313346863, -0.08187121152877808, -0.018217459321022034, 0.2445705085992813, -0.3174484372138977, -0.0891827642917633, 0.485456258058548, 0.23503710329532623, -0.2175123393535614], [-0.3183312714099884, -0.4828939437866211, -0.43185779452323914, 0.034167878329753876, -0.5264795422554016, -0.09690022468566895, -0.05444533750414848, 0.34436163306236267, -0.39035695791244507, -0.18315348029136658, -0.2659587860107422, 0.057018887251615524, -0.1511019617319107, -0.17122003436088562, 0.11160203069448471, -0.0598425455391407, 0.265015572309494, 0.04484495520591736, 0.33454322814941406, -0.26242324709892273, 0.1916540414094925, -0.14245003461837769, 0.08836615830659866, -0.11465592682361603, 0.1902872622013092, 0.02657337300479412, -0.03259224072098732, -0.10419882833957672], [0.22514936327934265, 0.1554110199213028, 0.25414034724235535, 0.35161224007606506, 0.36778023838996887, 0.025641851127147675, 0.35648277401924133, 0.3153060972690582, -0.008204261772334576, 0.2220594584941864, 0.013656487688422203, -0.004717161413282156, 0.09569250047206879, 0.02236400544643402, -0.019908901304006577, 0.10489712655544281, 0.01671903021633625, -0.16398264467716217, -0.13665930926799774, -0.2296464741230011, 0.06462350487709045, -0.029747987166047096, 0.14549817144870758, -0.251291960477829, -0.11379562318325043, 0.14994752407073975, -0.010122193023562431, -0.018364017829298973], [0.030885767191648483, 0.036063458770513535, -0.24829353392124176, -0.7949817776679993, 0.0022120869252830744, 0.07151739299297333, 0.3132596015930176, -0.1486096829175949, -0.026332208886742592, 0.02923543192446232, -0.1849796175956726, 0.3844287097454071, -0.07296418398618698, -0.02178364060819149, -0.11562193185091019, 0.05019930750131607, -0.03300381079316139, -0.2774459719657898, -0.1974504142999649, 0.2726137042045593, -0.03147266060113907, -0.05458495765924454, 0.07131467759609222, -0.05394039675593376, -0.2526666224002838, -0.1288180947303772, 0.628356397151947, 0.09319571405649185], [0.242740660905838, -0.39911437034606934, 0.16791237890720367, -0.08748519420623779, -0.058926720172166824, -0.10490591078996658, 0.030681218951940536, -0.07846177369356155, -0.09041197597980499, 0.2297610640525818, -0.12715765833854675, 0.05936988815665245, 0.025832122191786766, 0.042186178267002106, 0.18840061128139496, -0.035340748727321625, 0.009813581593334675, 0.15081696212291718, -0.10171633958816528, 0.026426728814840317, 0.12052049487829208, 0.02037440799176693, -0.5850387811660767, 0.11095024645328522, 0.2270711362361908, -0.6050918698310852, 0.7391898036003113, 0.03587935492396355], [0.12324672192335129, -1.2653415203094482, 0.16504566371440887, 0.06440901756286621, 0.07679521292448044, -0.07373416423797607, -0.3538857698440552, -0.07005273550748825, -0.045835137367248535, -0.22885605692863464, 0.1426345258951187, 0.04265616089105606, 0.001600048621185124, -0.006843638606369495, -0.041440922766923904, 0.10301254689693451, 0.44179725646972656, 0.3241118788719177, -0.10727297514677048, 0.18478961288928986, 0.08876734226942062, -0.01842944137752056, 0.6482702493667603, -0.005557982251048088, 0.3724289536476135, 0.3256801664829254, -0.4475398659706116, -0.18368253111839294], [0.47657835483551025, -0.03355437144637108, -0.15789975225925446, 0.1528480052947998, 0.2976967692375183, -0.08807571977376938, 0.16836708784103394, -0.027158232405781746, 0.20183679461479187, 0.13370947539806366, 0.10325147956609726, 0.09911748021841049, -0.16913118958473206, 0.11696061491966248, -0.14635030925273895, -0.10297361016273499, 0.07066413760185242, 0.36772453784942627, -0.0889711007475853, 0.055816035717725754, 0.0019108346896246076, 0.046939652413129807, -0.15834671258926392, -0.014666377566754818, -0.18673548102378845, -0.03659721836447716, -0.3178095817565918, -0.27168500423431396], [0.04854902625083923, -0.5099877715110779, 0.14848758280277252, -0.15808476507663727, -0.08707558363676071, -0.24870027601718903, 0.09584736078977585, -0.07931236922740936, 0.03257249295711517, -0.01107539888471365, 0.08147019147872925, 0.11514225602149963, 0.0515497587621212, 0.04591264948248863, 0.0831131637096405, -0.053694337606430054, 0.07686925679445267, 0.4483187794685364, 0.15248684585094452, 0.07815928757190704, 0.1963561624288559, 0.055295005440711975, 0.2272661179304123, -0.39316442608833313, 0.05953240022063255, -0.2747303545475006, -0.267435222864151, -0.6165844202041626], [0.05913807079195976, -0.008300768211483955, 0.17259463667869568, -0.4709877669811249, 0.175301194190979, -0.3066944181919098, 0.21779659390449524, -0.18391695618629456, -0.07786484062671661, -0.18850436806678772, -0.164527028799057, 0.23128549754619598, -0.0031593008898198605, 0.13295458257198334, -0.09570314735174179, -0.01214197650551796, -0.08690908551216125, 0.04156515374779701, 0.5348813533782959, -0.34728673100471497, 0.30611100792884827, -0.13666000962257385, 0.289754718542099, -0.4045392870903015, -0.48586124181747437, 0.07610348612070084, -0.3482661545276642, 0.27079319953918457], [-0.21884754300117493, -0.19612538814544678, -0.2888015806674957, -0.13353055715560913, -0.2359924018383026, -0.16395460069179535, 0.09487944096326828, 0.23393990099430084, 0.36553966999053955, -0.13948428630828857, 0.06183552369475365, 0.04341841861605644, 0.17805331945419312, 0.1776280254125595, -0.2499522864818573, -0.2700546383857727, -0.2614717185497284, -0.04937879741191864, -0.05643124878406525, 0.0016655286308377981, 0.3164960741996765, -0.30693262815475464, -0.08121141046285629, -0.08722934126853943, -0.05245458334684372, 0.2649287283420563, -0.4619549810886383, -0.26413413882255554], [0.08285518735647202, -0.0467333123087883, 0.10248330235481262, 0.19139181077480316, 0.24669216573238373, 0.47145217657089233, 0.06088188290596008, -0.10523394495248795, -0.02552092634141445, 0.010770044289529324, 0.007450663950294256, -0.024441801011562347, -0.07101653516292572, -0.0018750728340819478, -0.041808322072029114, 0.00018969479424413294, -0.20496512949466705, -0.06901773065328598, -1.0911706686019897, -0.4577628970146179, 0.09300853312015533, 0.029770247638225555, -0.2881443202495575, -0.25484710931777954, -0.14361433684825897, 0.5922673344612122, -0.7553648352622986, 1.02596116065979], [-0.0780317634344101, -0.10657420754432678, -1.3067556619644165, 0.05835648253560066, -1.2348960638046265, -0.0700186938047409, -1.1683106422424316, 0.0341927707195282, 0.10478539019823074, 0.15804517269134521, 0.47811177372932434, -0.010798128321766853, -0.0927053913474083, 0.0595652312040329, -0.0551556833088398, -0.016770634800195694, -0.030791563913226128, -0.04491601511836052, -0.011882551945745945, 0.040928032249212265, -0.17698051035404205, 0.017589837312698364, -0.15320315957069397, 0.05872253328561783, -0.021108480170369148, 0.35985058546066284, 0.0684477835893631, -0.057592157274484634], [-0.6572875380516052, 0.3947944641113281, 0.09641198813915253, 0.05732952058315277, -0.2069566696882248, -0.05280667170882225, -0.04547330364584923, 0.11456041038036346, 0.18016363680362701, -0.030812960118055344, -0.5635423064231873, -0.09870163351297379, -0.03903802111744881, 0.14906831085681915, -0.31506940722465515, -0.18717606365680695, 0.06330019235610962, 0.069562166929245, 0.052310362458229065, 0.15157698094844818, -0.18910229206085205, -0.7930294871330261, 0.04141887277364731, 0.03134308010339737, 0.4629329442977905, 0.2872033417224884, 0.03344397246837616, 0.1323666125535965], [-0.027802960947155952, -0.3006003797054291, 0.22494211792945862, 0.21205247938632965, -0.23461079597473145, -0.18359491229057312, -0.1358085721731186, 0.13461709022521973, 0.11678793281316757, -0.1157759577035904, 0.06459671258926392, -0.24287378787994385, -0.02423195354640484, -0.16506575047969818, -0.055982157588005066, -0.0053365882486104965, 0.0646449401974678, -0.5304685235023499, 0.19297465682029724, -0.08082079887390137, 0.05900118499994278, -0.07336685806512833, -0.09022607654333115, 0.0581720732152462, 0.26244649291038513, -0.5099005103111267, 0.3395316004753113, -0.11621599644422531], [0.023526081815361977, 0.1598687320947647, 0.17747069895267487, -1.5145591497421265, -0.012248566374182701, -1.2811425924301147, -0.01761525869369507, -1.0712192058563232, 0.17350949347019196, 0.08319636434316635, -0.0549238920211792, 0.17150798439979553, -0.16167618334293365, 0.22602292895317078, -0.0890960767865181, 0.23357947170734406, 0.05169019475579262, -0.013892454095184803, 0.091654472053051, -0.15746340155601501, 0.14237703382968903, -0.23837211728096008, 0.08890707790851593, -0.18896110355854034, -0.3234928250312805, -0.12186122685670853, 0.07489948719739914, -0.08841939270496368], [-0.034971196204423904, -1.6295825242996216, 0.16104476153850555, -0.008150247856974602, 0.07684515416622162, 0.05350582301616669, 0.2531163990497589, 0.027601951733231544, 0.12183959782123566, -0.41344931721687317, 0.19301535189151764, 0.23823270201683044, 0.019527794793248177, -0.1942170113325119, 0.22449304163455963, -0.10509006679058075, -0.11741022765636444, -0.48683837056159973, 0.053235989063978195, 0.1986323744058609, 0.16244831681251526, -0.43234363198280334, -0.14340834319591522, 0.06063242629170418, 0.2786029577255249, 0.45976459980010986, 0.32757943868637085, -0.3386037051677704], [-1.2950812578201294, 0.2726850211620331, 0.25467678904533386, 0.20897389948368073, -1.1378917694091797, -0.6964132189750671, 0.09801588952541351, -0.057026635855436325, 0.21571408212184906, -0.06659188121557236, -0.054314907640218735, -0.015738453716039658, 0.14464826881885529, 0.06179055571556091, 0.012629246339201927, 0.030024247244000435, -0.219435453414917, -0.03510785847902298, -0.0948123037815094, -0.018956460058689117, -0.1814228743314743, 0.14130140841007233, 0.025555869564414024, 0.020405204966664314, -0.44293326139450073, -0.15169568359851837, -0.03432765603065491, -0.1395324468612671], [-0.13086333870887756, -2.026839017868042, 0.01884402334690094, 0.16369086503982544, 0.03731229156255722, 0.14413686096668243, -0.22056584060192108, -0.03928687423467636, 0.22504645586013794, -0.404590904712677, 0.07195623219013214, 0.17414286732673645, 0.13097722828388214, 0.12239255756139755, 0.07710002362728119, 0.04249604791402817, 0.12452442944049835, -0.08139700442552567, 0.06757593154907227, -0.4553947448730469, -0.1087552085518837, 0.11994785070419312, -0.17668455839157104, 0.10058429837226868, 0.23838962614536285, 0.14164204895496368, 0.2528456449508667, -0.04250799119472504], [-0.12344788014888763, -0.08714067190885544, 0.2899969816207886, 0.12144505232572556, 0.14045119285583496, -0.2773972451686859, 0.20920522511005402, -0.14285464584827423, 0.06403915584087372, 0.005857162643224001, 0.31542161107063293, 0.0945800319314003, -0.10668706893920898, -0.04431804269552231, 0.01155274547636509, 0.024722758680582047, -0.07951217144727707, -0.5457086563110352, -1.147762656211853, -0.01748555526137352, 0.23068217933177948, -0.8433927297592163, 0.12165064364671707, 0.04109440743923187, -1.312829852104187, -0.15698616206645966, -0.9889459013938904, -0.001473340205848217], [-0.08508208394050598, 0.11958321183919907, -0.016789181157946587, 0.43871745467185974, 0.05408285930752754, 0.19483545422554016, -0.013015185482800007, 0.08642858266830444, 0.00924732442945242, 0.010729534551501274, -0.04685017839074135, -0.03849228098988533, -0.09936109930276871, -0.0752587616443634, -0.03638366982340813, 0.0416119210422039, -0.010122586041688919, -0.2114599198102951, 0.29198455810546875, 0.2132118195295334, -0.09427562355995178, -0.10642913728952408, -0.08976683765649796, 0.26741349697113037, -0.033175550401210785, -0.33159127831459045, 0.06725403666496277, 0.23265019059181213], [0.16665083169937134, -0.17425325512886047, -0.4486188292503357, 0.17885571718215942, -0.3729490041732788, 0.04647495970129967, -0.2526581287384033, 0.026410071179270744, 0.054023295640945435, 0.09684042632579803, 0.09286405891180038, 0.19828681647777557, -0.1257537305355072, -0.07983989268541336, 0.1510063260793686, 0.08219832926988602, -0.31420087814331055, -0.016859402880072594, 0.06052997708320618, -0.11700841039419174, 0.14483444392681122, -0.11687149107456207, 0.09237156063318253, 0.1973327398300171, 0.4492073655128479, -0.43340805172920227, -0.7862967252731323, 0.2229098677635193], [0.13174694776535034, 0.3659542202949524, 0.009586134925484657, 0.44359642267227173, -0.12054696679115295, 0.2480437159538269, 0.16029278934001923, 0.45223939418792725, -0.17542576789855957, -0.05957378074526787, -0.0050537362694740295, 0.23232005536556244, 0.17537429928779602, -0.041250742971897125, 0.06365559250116348, 0.17050136625766754, 0.1051526814699173, -0.294455349445343, -0.29584524035453796, 0.07393293082714081, -0.02172144316136837, 0.0006018996937200427, 0.18037953972816467, -0.24070629477500916, 0.4353969693183899, 0.5226659178733826, 0.01965387351810932, 0.1061072126030922], [0.13775180280208588, 0.1629866659641266, 0.10076040774583817, -0.8831538558006287, 0.0582655631005764, -0.5880297422409058, 0.13383661210536957, -0.7336277961730957, -0.17427846789360046, -0.12985265254974365, -0.04366740956902504, 0.220741406083107, -0.005403399467468262, 0.10446195304393768, -0.09702048450708389, 0.2574080228805542, -0.19691714644432068, -0.045053526759147644, 0.11639170348644257, -0.45217186212539673, -0.007704119198024273, 0.33332905173301697, 0.16346676647663116, 0.30995386838912964, -0.04583250731229782, 0.5711743235588074, 0.012387686409056187, -0.17637145519256592], [-0.1208677664399147, 0.22719629108905792, 0.2509801983833313, -0.027034705504775047, -0.11157382279634476, -0.008378216065466404, 0.05466744676232338, -0.1388792097568512, 0.17855869233608246, 0.1024589091539383, -0.1554139256477356, -0.05321872979402542, 0.052607860416173935, -0.00538986548781395, 0.2111707329750061, 0.14551787078380585, 0.08419496566057205, -0.5176333785057068, 0.14180107414722443, -0.22105541825294495, -0.08622495830059052, 0.1420261561870575, 0.021290700882673264, -0.1035667210817337, 0.0633341521024704, 0.6711589097976685, 0.23663604259490967, -0.676398515701294], [0.13939602673053741, -1.4471263885498047, -0.10155810415744781, -0.0202945563942194, 0.03942064568400383, -0.059789132326841354, -1.1818201541900635, -0.9624672532081604, -0.02310376986861229, 0.3856284022331238, 0.03657802939414978, 0.1055469736456871, -0.017481204122304916, -0.09665191918611526, 0.08331587165594101, 0.2060517966747284, -0.3385809063911438, 0.10644873231649399, 0.09987519681453705, 0.11717474460601807, -0.01421063207089901, 0.03280657157301903, 0.07541158050298691, -0.08764462918043137, -0.5584515333175659, -0.3301814794540405, -0.004096786957234144, -0.036091890186071396], [-0.00735216960310936, 0.16170194745063782, -0.15063859522342682, 0.41845908761024475, -0.5608800649642944, 0.010659770108759403, 0.0671660453081131, -0.192587748169899, 0.0687493085861206, -0.07110568135976791, 0.21272669732570648, -0.027514828369021416, -0.16163083910942078, 0.0482034794986248, -0.006492573767900467, 0.06467374414205551, -0.18137302994728088, -0.10294598340988159, 0.37583279609680176, 0.255219042301178, 0.09232214093208313, -0.07515399903059006, -0.1166205182671547, 0.25301849842071533, 0.3788391351699829, 0.1291760951280594, 0.06156627833843231, -0.12173230946063995], [0.05821603164076805, 0.47831568121910095, 0.04163537919521332, -0.28383487462997437, 0.07965799421072006, 0.0284421369433403, 0.2766883969306946, 0.28411734104156494, 0.052798692137002945, -0.042143192142248154, -0.09417801350355148, 0.13699212670326233, -0.045147959142923355, 0.18258337676525116, -0.11839089542627335, -0.2561388611793518, -0.4947059154510498, 0.16146688163280487, -0.2937365770339966, 0.019578494131565094, -0.5047416090965271, 0.058223605155944824, -0.3853696286678314, 0.028968337923288345, -0.2923411428928375, 0.11682186275720596, 0.879505455493927, -0.03041509911417961], [0.06186719238758087, 0.6396287083625793, 0.11398151516914368, 0.033641960471868515, 0.11185647547245026, -0.13316476345062256, 0.33857131004333496, -0.07330881804227829, -0.21630609035491943, -0.008494365960359573, 0.08146971464157104, 0.1550554782152176, 0.06320947408676147, 0.007043199613690376, -0.10323188453912735, 0.13889312744140625, 0.13526907563209534, -0.15257598459720612, 0.0069806212559342384, -0.2324189394712448, -0.08307470381259918, 0.03173187002539635, -0.0010631647892296314, 0.09939844161272049, -0.12298034876585007, 0.6783725619316101, 0.8928055167198181, -0.18107841908931732], [-0.17118173837661743, -0.10233979672193527, 0.09699859470129013, -0.23620446026325226, 0.12269547581672668, 0.12454964220523834, -0.29764261841773987, -0.33910825848579407, 0.19509275257587433, 0.20962166786193848, -0.13021863996982574, 0.12741127610206604, -0.04904097318649292, 0.07494934648275375, 0.05352793261408806, 0.1065872386097908, -0.5824556946754456, -0.09484544396400452, 0.13686706125736237, 0.008565195836126804, -0.318060964345932, -0.03480638191103935, -0.02748606726527214, -0.05486544221639633, -0.6062484979629517, -0.16802331805229187, 0.12424527853727341, -0.3977747857570648], [0.10035567730665207, 0.09155574440956116, 0.04431137442588806, 0.10414201021194458, -0.022313669323921204, 0.04637990891933441, -0.05048643425107002, -0.038120511919260025, -0.01137493085116148, -0.0446464940905571, -0.05630986765027046, 0.024803081527352333, 0.004963744897395372, -0.02602156065404415, -0.00045170934754423797, -0.017817797139286995, 0.22919028997421265, -0.06346456706523895, 0.010590944439172745, 0.5168274641036987, 0.09948375076055527, -0.00286032329313457, 0.09312932938337326, -0.10234716534614563, 0.05511326342821121, -0.06306759268045425, -0.746802806854248, -0.021663129329681396], [-0.06559798121452332, -0.408717542886734, 0.2957238256931305, 0.17168337106704712, 0.1055235043168068, 0.08626411110162735, 0.07736799865961075, -0.023436112329363823, -0.027762917801737785, 0.1252860277891159, 0.003755273763090372, -0.09000000357627869, 0.05838962644338608, -0.08316518366336823, 0.10178528726100922, -0.04388818144798279, 0.25454825162887573, 0.24435560405254364, 0.2756236493587494, -0.21736080944538116, -0.04856839403510094, 0.13682913780212402, 0.0035557355731725693, -0.17981763184070587, -0.18676522374153137, -0.08352424949407578, 0.34377267956733704, 0.7324059009552002], [-0.17780645191669464, 0.11252149939537048, 0.36641785502433777, 0.27964696288108826, 0.2500918209552765, -0.1712765097618103, 0.1558467447757721, 0.1103706806898117, 0.1200910434126854, -0.08355436474084854, 0.1740397959947586, 0.10650245100259781, 0.157961905002594, 0.043080952018499374, -0.06164000555872917, -0.06307218223810196, 0.10723534971475601, 0.18321990966796875, 0.29032841324806213, -0.8214442133903503, 0.1645895391702652, 0.12629887461662292, 0.1901639848947525, 0.030314253643155098, -0.09836563467979431, -0.20786872506141663, -0.10806548595428467, -0.062869593501091], [-0.006642408203333616, 0.07871858030557632, 0.032508041709661484, -0.35550394654273987, -0.2682676315307617, -0.1855284422636032, -0.009408511221408844, -0.6603473424911499, -0.23810939490795135, 0.07014572620391846, -0.21180963516235352, -0.04274599626660347, 0.12389074265956879, 0.234910786151886, 0.009625065140426159, 0.034934353083372116, 0.046120535582304, -0.04209936782717705, -0.1247057244181633, -0.16441218554973602, 0.13416916131973267, -0.28296467661857605, 0.1568039059638977, 0.11294890195131302, 0.4982171058654785, 0.05537271872162819, -0.032442640513181686, 0.26567167043685913], [0.035230182111263275, 0.013470365665853024, -0.10244090855121613, 0.3906342685222626, 0.1395217776298523, 0.018936006352305412, 0.13451027870178223, -0.07661551982164383, -0.39314207434654236, -0.29659005999565125, 0.1066122055053711, -0.47517770528793335, -0.06196713447570801, -0.43551477789878845, 0.10735343396663666, -0.2976965308189392, 0.35980138182640076, -0.04501079022884369, 0.04935891553759575, 0.1501506119966507, 0.058198340237140656, 0.2972409129142761, -0.000893830438144505, 0.004911545664072037, -0.3014898896217346, -0.4544875919818878, -0.12869936227798462, -0.018200673162937164], [-0.026978980749845505, 0.0997399389743805, 0.18438322842121124, -0.01444305945187807, 0.07931862026453018, -0.10554094612598419, -0.038576480001211166, 0.01432280708104372, 0.001121753710322082, 0.019148634746670723, -0.0733121782541275, 0.010232844389975071, -0.047198738902807236, -0.05978516489267349, 0.018351290374994278, 0.049120739102363586, -0.511322021484375, -0.25929340720176697, -0.20869281888008118, 0.29990333318710327, -0.20786631107330322, 0.21479648351669312, -0.041992735117673874, 0.023075973615050316, 0.18494951725006104, 0.16943039000034332, 1.1277559995651245, -0.18460994958877563], [0.005508169066160917, -0.2034163922071457, -0.049246322363615036, 0.224241241812706, -0.4946308434009552, -0.009203185327351093, -0.08685462921857834, 0.09308446198701859, -0.6300618052482605, -0.4489418566226959, -0.5616587400436401, 0.294033944606781, -0.3458213806152344, -0.19821327924728394, -0.6220652461051941, -0.4570751488208771, 0.00897769071161747, 0.07905472069978714, 0.08253183960914612, 0.2940486669540405, -0.2600862979888916, -0.3953390419483185, -0.47002139687538147, 0.42835673689842224, 0.5607155561447144, 0.5529314875602722, -0.22972466051578522, -0.19217367470264435], [-0.05989633873105049, 0.12267043441534042, 0.2157987654209137, -0.12028127908706665, -0.03410213440656662, 0.0816911980509758, 0.04483308643102646, 0.28522875905036926, 0.3309739828109741, -0.04083024710416794, 0.06658703088760376, -0.1096092239022255, -0.030762135982513428, 0.22803494334220886, 0.03840698301792145, -0.07337688654661179, 0.26094239950180054, -0.07195877283811569, -0.24093514680862427, 0.3984726667404175, 0.05076504871249199, 0.3984576165676117, -0.4445790648460388, -0.26682811975479126, -0.4902210831642151, -0.3407944440841675, 0.8926511406898499, -0.8308780789375305], [0.1930101066827774, 0.12260283529758453, 0.13874368369579315, 0.276102751493454, 0.07239207625389099, 0.3138585090637207, 0.24676480889320374, 0.3367771506309509, -0.10990341752767563, 0.0038414341397583485, 0.0037071439437568188, -0.17783018946647644, -0.04454829543828964, 0.02163797616958618, 0.04925832524895668, -0.12881503999233246, -0.29095259308815, -0.1551494151353836, -0.18900056183338165, -0.2461952120065689, -0.19343726336956024, -0.03963460773229599, -0.007431962061673403, 0.050006840378046036, 0.6975329518318176, 0.4932844042778015, -0.035473283380270004, -0.06132849305868149], [0.6540747284889221, 0.2967081069946289, 0.221429243683815, 0.03184371814131737, 0.008120491169393063, 0.23313067853450775, 0.4815346598625183, 0.08097158372402191, 0.04973744601011276, -0.2614055275917053, 0.10042973607778549, 0.042741723358631134, 0.018138395622372627, -0.0662831962108612, -0.06542126089334488, 0.013081186451017857, 0.0364062674343586, -0.24552157521247864, 0.2083388715982437, -0.21376977860927582, -0.08875185996294022, 0.1456129401922226, -0.2007814347743988, -0.2703516483306885, 0.056491732597351074, -0.6418178677558899, 0.07484379410743713, -0.25073421001434326], [-0.12032166123390198, 0.21246960759162903, 0.10477946698665619, -0.08725573122501373, -0.26779425144195557, 0.045538436621427536, 0.38014498353004456, -0.08619294315576553, 0.015867121517658234, -0.09791233390569687, 0.011856078170239925, 0.029628360643982887, -0.02392466366291046, -0.0027669663541018963, 0.1242232546210289, 0.015208404511213303, 0.10021740198135376, -0.12016946822404861, -0.36482006311416626, 0.19907435774803162, 0.144438698887825, 0.056478261947631836, -0.03801867365837097, -0.1729704737663269, 0.184345543384552, 0.13604018092155457, 0.6643071174621582, -0.7654281854629517], [0.17769667506217957, 0.07460899651050568, -0.04206205904483795, -1.3897879123687744, -0.10459195077419281, -0.2093023806810379, 0.09335552901029587, 0.1637515127658844, -0.11427352577447891, 0.08844638615846634, 0.015203510411083698, -0.12906606495380402, -0.05919438600540161, -0.06912442296743393, 0.07643250375986099, 0.03925569728016853, 0.04618467390537262, 0.011684983037412167, 0.2242777943611145, -0.06267108023166656, 0.07249617576599121, -0.36425334215164185, 0.36779847741127014, 0.06844668835401535, -0.1706615388393402, 0.2182874232530594, 0.05307578667998314, 0.21303586661815643], [-0.41823437809944153, -0.8946879506111145, -0.006446083541959524, -0.12299112975597382, -0.1340004801750183, -0.16353952884674072, -1.0537221431732178, -0.5750464200973511, -0.20943188667297363, 0.1938508152961731, -0.04340687021613121, -0.15506987273693085, 0.19255396723747253, 0.051888082176446915, -0.055832862854003906, -0.06307289749383926, -0.19527864456176758, -0.15004567801952362, 0.16494126617908478, -0.03622585907578468, 0.15016530454158783, -0.21576909720897675, -0.02338915877044201, -0.1408844292163849, -0.11217152327299118, 0.3894459009170532, -0.0021817591041326523, -0.021931195631623268], [0.07489798218011856, -0.06907754391431808, -0.1810602992773056, -0.12311770021915436, -0.03486938029527664, -0.107587069272995, -0.0398884192109108, 0.030942587181925774, 0.029254652559757233, -0.10164081305265427, -0.011104417033493519, 0.021432703360915184, 0.02744757942855358, 0.0734158307313919, -0.03974693641066551, -0.033470429480075836, -0.7878565192222595, -0.05913659557700157, -0.046884361654520035, -0.10855519771575928, -0.10461142659187317, 4.637233359972015e-06, 0.6421205401420593, -0.17227178812026978, 0.0043214550241827965, -0.004524268675595522, 0.5920055508613586, -1.1474251747131348], [-0.10777964442968369, -0.21198046207427979, -0.3689032196998596, -0.06073543429374695, -0.2678222060203552, 0.21163973212242126, -1.6865726709365845, -0.16895534098148346, -0.14559289813041687, 0.17700007557868958, 0.2772828936576843, -0.08954095095396042, 0.2272273749113083, -0.027823274955153465, 0.028839780017733574, 0.11246146261692047, -0.028805211186408997, 0.26113060116767883, 0.07532167434692383, 0.02373628318309784, -0.16397985816001892, -0.25588181614875793, 0.0008559055859223008, -0.19372433423995972, -0.18520116806030273, -0.31587496399879456, -0.11858699470758438, 0.09742765128612518], [0.06057392805814743, 0.08982197195291519, -1.03114914894104, -1.0054724216461182, 0.26889097690582275, -0.822293221950531, 0.22138701379299164, -0.7383244037628174, 0.13574576377868652, 0.07800944149494171, -0.5524458885192871, 0.02757147327065468, 0.04871172457933426, 0.10522371530532837, 0.15173260867595673, -0.16578447818756104, 0.022283578291535378, 0.06780485808849335, -0.02156818099319935, 0.2788258194923401, 0.006141159683465958, -0.41340330243110657, -0.06603233516216278, -0.3436681628227234, 0.33033981919288635, -0.16996176540851593, 0.09195829927921295, 0.05311575159430504], [0.11525799334049225, -0.06373536586761475, 0.09204647690057755, -0.8435092568397522, 0.35748806595802307, -0.36219483613967896, 0.11845632642507553, -0.35380688309669495, 0.0692337229847908, -0.037106018513441086, 0.035466261208057404, 0.2572185695171356, -0.13344573974609375, 0.21044622361660004, -0.05444495752453804, 0.19529394805431366, 0.1636219471693039, 0.10330843925476074, 0.24768398702144623, -0.025134213268756866, 0.11266469210386276, -0.5925915837287903, -0.12550446391105652, 0.3713877499103546, 0.04884965717792511, -0.08926056325435638, 0.07485593855381012, -0.02129421941936016], [0.21147726476192474, 0.14619380235671997, 0.24045635759830475, -0.35502731800079346, -0.018761765211820602, -0.14142590761184692, 0.16646048426628113, -0.09119760990142822, -0.017251022160053253, 0.0170309916138649, 0.08586792647838593, -0.3895566463470459, 0.04111113026738167, -0.046757664531469345, 0.06647347658872604, -0.04800334945321083, -0.16979043185710907, 0.586301326751709, -0.027793487533926964, -0.6267393827438354, 0.09502159804105759, -0.17125779390335083, 0.10651149600744247, 0.11004316806793213, -0.01468247827142477, 0.11592133343219757, 0.8737272620201111, 0.1392396092414856], [0.07630353420972824, 0.10944174975156784, 0.022410809993743896, -0.25118890404701233, 0.09716707468032837, 0.03288409486413002, 0.15085187554359436, 0.2191719114780426, -0.1710951179265976, 0.03450290486216545, -0.18223296105861664, 0.10007750988006592, 0.06178703531622887, 0.08974313735961914, 0.16725867986679077, 0.13253159821033478, 0.3055570721626282, 0.46072518825531006, 0.4584328532218933, 0.03261885046958923, 0.08596444129943848, -0.017051169648766518, 0.08712245523929596, 0.14689606428146362, -0.35639092326164246, -0.18072301149368286, 0.20269650220870972, 0.24762685596942902], [-0.031014546751976013, 0.008655974641442299, -1.9113438129425049, -0.12792395055294037, -0.27824175357818604, 0.1637999564409256, -0.0962810218334198, 0.20952638983726501, 0.13957276940345764, 0.14233024418354034, -0.5277397036552429, 0.24725863337516785, -0.100304014980793, -0.02647692896425724, 0.055284082889556885, 0.131780207157135, -0.5370911359786987, -0.24627061188220978, -0.0009412762010470033, 0.1582447737455368, -0.26965993642807007, 0.18342222273349762, -0.24408821761608124, 0.13858096301555634, 0.17644540965557098, 0.4787958264350891, 0.6954928040504456, 0.08859794586896896], [0.2085595726966858, 0.08508135378360748, -1.477721929550171, -0.03426049277186394, -0.9143045544624329, -0.05425218492746353, -0.806650698184967, 0.1271536499261856, -0.10666815936565399, -0.04378105700016022, 0.07881907373666763, -0.003914752043783665, 0.2916610836982727, 0.012167277745902538, 0.24299734830856323, -0.06678751111030579, 0.12375745177268982, 0.06014383211731911, -0.12707175314426422, -0.06971866637468338, 0.27274569869041443, -0.08901095390319824, -0.06933387368917465, 0.005774051882326603, -0.3375755250453949, -0.2031002640724182, -0.13005560636520386, -0.021402761340141296], [-0.8721622824668884, 0.3653988242149353, -0.19160443544387817, -0.07907766103744507, 0.07770153135061264, -0.1247442290186882, -0.14305202662944794, -0.29978394508361816, -0.8370470404624939, 0.030526811257004738, 0.21427573263645172, -0.45461955666542053, 0.6001698970794678, -0.41010981798171997, -0.2347864955663681, -0.3020484447479248, -0.41077980399131775, 0.2465822547674179, -0.27414876222610474, 0.23888899385929108, -0.047939278185367584, 0.2670826017856598, 0.08855079859495163, 0.1556292474269867, 0.2550909221172333, 0.003512258641421795, 0.052169498056173325, 0.1854206770658493], [-1.3500069379806519, 0.04417520388960838, 0.13339519500732422, -0.05095204338431358, -1.2835949659347534, -1.1661573648452759, -0.01671760343015194, 0.16054505109786987, 0.31379908323287964, -0.10255452990531921, 0.09591537714004517, 0.10261297225952148, -0.16636639833450317, -0.24028436839580536, 0.1396411657333374, 0.09939341992139816, 0.11375411599874496, -0.13611754775047302, -0.06270825117826462, 0.026077087968587875, 0.0260927677154541, -0.2513420581817627, -0.14743463695049286, -0.04485689103603363, -0.03357681632041931, 0.2149517983198166, 0.003465626621618867, -0.20053908228874207], [0.18715816736221313, -0.0339876264333725, 0.05774775519967079, -0.09838274121284485, 0.14136816561222076, 0.07407014816999435, 0.031032957136631012, 0.004182729870080948, 0.007189489901065826, -0.030396409332752228, -0.07616572082042694, 0.10803446173667908, 0.060624200850725174, 0.02429550513625145, -0.008754588663578033, 0.029033176600933075, -0.25106072425842285, 0.006435716524720192, 0.1423443704843521, -0.7432358264923096, -0.013869324699044228, -0.09539603441953659, -0.03199415281414986, 0.021802276372909546, 0.10157104581594467, 0.07499758154153824, 1.2120898962020874, 0.3291255831718445], [-0.26675945520401, -0.038738708943128586, -0.2299841195344925, -0.30932146310806274, 0.21034321188926697, 0.0208701454102993, 0.20197798311710358, -0.12950189411640167, 0.04004994407296181, 0.006257783155888319, -0.34247639775276184, -0.0713685005903244, -0.24256229400634766, 0.13756415247917175, 0.02169780619442463, 0.10929708182811737, 0.5907593965530396, -0.022925589233636856, 0.211931049823761, -0.09068173170089722, 0.11535872519016266, 0.47841575741767883, -0.025287913158535957, 0.01658535934984684, 0.17767831683158875, 0.47914302349090576, -0.3716535270214081, 0.3950955271720886], [0.17511892318725586, 0.026438526809215546, 0.12737110257148743, -0.007685847580432892, -0.07846227288246155, 0.034579310566186905, -0.042650006711483, -0.003234308445826173, 0.04582458361983299, -0.03582068532705307, -0.1639457643032074, 0.19960081577301025, -0.16253070533275604, 0.1463163197040558, -0.08235005289316177, 0.10669433325529099, 0.09236626327037811, -0.635222852230072, -0.0856906995177269, 0.3606793284416199, 0.1556258201599121, 0.038888055831193924, 0.11604680120944977, -0.2610056400299072, 0.059801135212183, -0.05619610846042633, 0.21076422929763794, 0.6903638243675232], [0.08241233229637146, 0.08427629619836807, 0.08084818720817566, 0.14341820776462555, -0.017780693247914314, 0.11384478211402893, 0.23318485915660858, 0.20200315117835999, 0.06963429600000381, -0.08304863423109055, -0.062047962099313736, 0.07531125098466873, -0.07816899567842484, -0.16296982765197754, -0.08943860232830048, 0.23744407296180725, -0.19720202684402466, -0.5065259337425232, -0.23617365956306458, 0.020230326801538467, -0.060576628893613815, -0.09383495151996613, 0.09096398949623108, -0.008176456205546856, -0.0723981112241745, 0.08259640634059906, -0.9876365065574646, -0.5852315425872803], [0.22192110121250153, -0.12381328642368317, 0.11891332268714905, 0.013312703929841518, 0.15905077755451202, -0.3148716688156128, -0.4751385450363159, -0.01183248870074749, 0.023005470633506775, -0.14126698672771454, 0.11445101350545883, -0.16538242995738983, -0.04467617720365524, 0.06689789146184921, 0.007125968113541603, 0.08685050159692764, 0.013433937914669514, -0.11208100616931915, 0.6647958159446716, 0.24644553661346436, 0.2230788767337799, 0.12002100050449371, 0.3549359142780304, -0.1955779790878296, 0.4366922080516815, -0.01176122110337019, 0.35260170698165894, 0.3678615689277649], [0.4161367416381836, -0.07119514793157578, -0.011580737307667732, 0.310197114944458, 0.21573969721794128, 0.035553086549043655, -0.06014493480324745, -0.04431236907839775, 0.3473844528198242, -0.5457150936126709, -0.21681304275989532, 0.04818610101938248, 0.07504550367593765, -0.23251931369304657, -0.13764846324920654, -0.14913113415241241, -0.14796355366706848, -0.14616943895816803, -0.08479181677103043, -0.33281463384628296, 0.12974144518375397, 0.024902518838644028, -0.8152580261230469, 0.18816085159778595, 0.11737054586410522, 0.7394154071807861, 0.0420830138027668, -0.3677149713039398], [0.06789082288742065, -0.2630389928817749, 0.27934542298316956, -0.407962441444397, 0.35424456000328064, 0.33988747000694275, -0.006899342406541109, 0.08142271637916565, -0.24978849291801453, 0.05228770524263382, 0.05973789840936661, 0.09639309346675873, 0.26631104946136475, 0.060157839208841324, 0.06642994284629822, -0.03560382500290871, -0.06231897696852684, -0.2557300925254822, -0.38944047689437866, 0.022486209869384766, -0.43794575333595276, -0.0322423093020916, -1.2372130155563354, -0.1265774518251419, -0.5737391710281372, -0.2941559851169586, -0.2518826127052307, -0.3320854902267456], [-0.12560585141181946, 0.3043922185897827, 0.3155072033405304, 0.007990597747266293, -0.06893407553434372, 0.03727192059159279, -0.0970378890633583, 0.04564812779426575, -0.15858756005764008, -0.15071266889572144, -0.0058019328862428665, 0.23083940148353577, -0.1618133783340454, 0.0002700283657759428, -0.25814035534858704, 0.21511255204677582, 0.14893224835395813, 0.1944086104631424, -0.16173237562179565, -0.2767253816127777, -0.17711475491523743, 0.19205330312252045, 0.14907994866371155, -0.0644993931055069, 0.3095100224018097, 0.21848639845848083, -0.2796972095966339, -0.781568706035614], [0.2564403712749481, 0.02695784531533718, 0.10081574320793152, -0.14749541878700256, -0.1403692364692688, 0.09742369502782822, -0.1442781686782837, 0.11857335269451141, 0.11906036734580994, 0.19552810490131378, 0.22770783305168152, 0.18504910171031952, 0.14823324978351593, 0.031234128400683403, -0.10719677805900574, -0.05870341137051582, 0.22751766443252563, 0.41464945673942566, 0.16403885185718536, 0.003311930224299431, -0.008004225790500641, -0.03034537099301815, 0.1216173842549324, 0.11833898723125458, -0.36520177125930786, -0.4684138298034668, 0.317596435546875, -0.32168933749198914], [-1.345362901687622, -0.9302309155464172, 0.16262495517730713, 0.3288246691226959, 0.3781840205192566, 0.29662570357322693, -0.6732803583145142, -0.6319762468338013, -0.7356654405593872, 0.07678971439599991, 0.2083541750907898, 0.08510327339172363, 0.003525833133608103, 0.08503890037536621, -0.1585986167192459, -0.2058740109205246, -0.11121448874473572, -0.1517856866121292, -0.06919734925031662, -0.008840098045766354, 0.03228092938661575, 0.15033766627311707, -0.21722206473350525, -0.543511152267456, 0.2804136872291565, 0.022346995770931244, 0.09255477786064148, 0.08724737912416458], [-0.10435272008180618, 0.30653005838394165, 0.6422356963157654, 0.20276570320129395, 0.26337242126464844, 0.24043186008930206, 0.09244441241025925, 0.03153911978006363, -0.11420506983995438, -0.17542237043380737, -0.08488539606332779, 0.12605291604995728, 0.007897160947322845, 0.08390441536903381, -0.0378619059920311, -0.11328261345624924, 0.32774874567985535, -0.10334418714046478, 0.006662845611572266, -0.30738672614097595, -0.4373202323913574, -0.008593353442847729, -0.43299600481987, -0.11762861907482147, 0.3750854730606079, 0.9078172445297241, -0.4771955609321594, -0.024659886956214905], [0.12017999589443207, 0.011082408018410206, 0.2518674433231354, -1.244038701057434, -0.03774140775203705, -0.3092670738697052, -0.2126075029373169, -0.04730973765254021, -0.09038905799388885, -0.12432800978422165, 0.2605620324611664, -0.3063899576663971, 0.003591245971620083, 0.1276163011789322, 0.0676083043217659, 0.128459170460701, 0.5233592391014099, 0.11528988927602768, 0.035594161599874496, -0.23609356582164764, 0.0037327734753489494, 0.14995107054710388, 0.06624290347099304, -0.09302891790866852, -0.06894155591726303, -0.024237846955657005, -0.05573129653930664, 0.14525602757930756], [-0.6628236174583435, -0.46869900822639465, -0.059072431176900864, 0.18405669927597046, -0.08932870626449585, -0.026887238025665283, -0.03733444958925247, 0.06536868214607239, -0.14935648441314697, -0.07840380817651749, 0.11517960578203201, -0.18205396831035614, 0.15313082933425903, -0.04897654056549072, 0.0807768777012825, 0.015725700184702873, -0.3190048933029175, -0.26655641198158264, 0.38885068893432617, 0.09701378643512726, 0.18239106237888336, 0.07350939512252808, -0.061793942004442215, -0.03012472577393055, -0.4283844232559204, 0.023277457803487778, 0.5627974271774292, 0.7901280522346497], [0.21075236797332764, -0.03545906022191048, 0.500065803527832, 0.6082856059074402, 0.3235412538051605, 0.1717347800731659, -0.038878146559000015, 0.05995378643274307, 0.1308956742286682, -0.026388194411993027, -0.030742300674319267, 0.15397322177886963, 0.22459779679775238, 0.014040622860193253, 0.05998845398426056, -0.11286929994821548, -0.3888019919395447, -0.27562248706817627, -0.1523865908384323, -0.14458146691322327, 0.11786723136901855, -0.025154532864689827, 0.10589165985584259, 0.28747621178627014, 0.12930381298065186, 0.1208811104297638, 0.020664958283305168, -0.05047684907913208], [0.12355893105268478, 0.1331510692834854, 0.1764332354068756, -0.9686283469200134, 0.12382511794567108, -0.2858023941516876, 0.3089978098869324, -0.18549871444702148, 0.10583049058914185, -0.08789035677909851, 0.11192522197961807, -0.3481471836566925, -0.13215631246566772, 0.09547845274209976, -0.12623266875743866, -0.021330149844288826, -0.2563300132751465, 0.29716619849205017, -0.10026760399341583, -0.28041738271713257, 0.035539545118808746, -0.037238702178001404, 0.1363229602575302, -0.6248789429664612, -0.16164402663707733, 0.5093041062355042, -0.7977209091186523, 0.2030763328075409], [-0.05801395699381828, 0.13884100317955017, 0.014618840999901295, 0.33587464690208435, -0.016242705285549164, -0.13752618432044983, -0.013953992165625095, 0.07876665890216827, -0.0008591230143792927, 0.17837439477443695, 0.03251521289348602, 0.23510420322418213, -0.19687804579734802, -0.032526589930057526, -0.1131681278347969, 0.16802218556404114, 0.4232424199581146, 0.37908780574798584, -0.11560576409101486, -0.08511392772197723, 0.2786758840084076, 0.22551469504833221, 0.12988492846488953, -0.14546075463294983, 0.3610744774341583, -0.36664488911628723, 0.11251192539930344, -0.32923802733421326], [-0.010095160454511642, 0.0312188770622015, -0.12498334050178528, -0.018521590158343315, 0.05077959969639778, 0.04087824374437332, 0.010344572365283966, -0.02558642253279686, -0.018183143809437752, 0.0010912162251770496, 0.07271359860897064, -0.04251421242952347, 0.015212045051157475, 0.007757666986435652, 0.028137030079960823, -0.010423557832837105, -0.1861696094274521, -0.006997194141149521, -0.4247623085975647, 0.6008045673370361, -0.053948644548654556, -0.0785394012928009, -0.3106585443019867, 0.1393951028585434, -0.03764856606721878, -0.0023001148365437984, -0.7609928250312805, -0.04600323364138603], [0.04238162189722061, -0.05478968098759651, -0.03330710157752037, -0.015183709561824799, 0.05771063268184662, 0.02467649057507515, 0.02707347460091114, 0.05284280702471733, 0.0016245429869741201, 0.018249040469527245, -0.0344453826546669, -0.10485853254795074, -0.10065576434135437, -0.06356292963027954, -0.06367046386003494, -0.04526698216795921, -0.07173503190279007, 0.059785712510347366, 0.24220505356788635, 0.09071845561265945, -0.032551996409893036, 0.05877292901277542, -0.13699159026145935, 0.2262459397315979, 0.05914747714996338, 0.14683066308498383, -0.7807915210723877, 0.13153597712516785], [-0.22489036619663239, -0.04814182221889496, -0.21687990427017212, -0.024251461029052734, 0.05389821156859398, -0.0130111463367939, -0.14724920690059662, -0.14842623472213745, 0.21627233922481537, 0.02163468673825264, 0.001147342030890286, 0.15982121229171753, -0.07713520526885986, 0.1617456078529358, -0.07698239386081696, 0.12302056699991226, -0.041888922452926636, -0.4052395820617676, -0.18970558047294617, 0.27531012892723083, 0.19673660397529602, 0.2710076868534088, -0.46582698822021484, 0.19223526120185852, -0.7572154998779297, 0.05074962228536606, 0.6837610602378845, -0.2434547394514084], [0.010268417187035084, 0.2544917166233063, -0.4573582112789154, -0.2525891363620758, -0.046945106238126755, 0.026086516678333282, -0.06513357162475586, 0.09025204926729202, 0.19580774009227753, 0.03897924721240997, -0.09112804383039474, -0.2914727032184601, -0.0415823794901371, 0.04265528544783592, -0.011441947892308235, 0.05172782763838768, -0.12082996964454651, -0.5212940573692322, -0.14585229754447937, -0.4614655375480652, -0.04689032956957817, -0.07271549105644226, -0.07660822570323944, -0.23217229545116425, -0.3489401936531067, -0.23359201848506927, -0.07425682246685028, -0.17213517427444458], [0.12737518548965454, 0.1314314752817154, -0.008406332693994045, 0.012513462454080582, -0.0572785846889019, -0.014425034634768963, -0.32289302349090576, -0.8751382231712341, -0.09055214375257492, -0.31571850180625916, 0.060337163507938385, 0.06508093327283859, 0.11994503438472748, 0.11028353869915009, -0.12556396424770355, -0.25089699029922485, 0.038196586072444916, -0.0063226851634681225, 0.1265578269958496, 0.06299422681331635, -0.08169208467006683, -0.14255334436893463, 0.27211830019950867, -0.06829032301902771, 0.9212960600852966, -0.4804016053676605, 0.036367762833833694, -0.4418924152851105], [-1.2062846422195435, 0.08922311663627625, 0.20758500695228577, 0.2916909456253052, -0.9326407313346863, -0.9516443610191345, 0.023793743923306465, 0.07847782224416733, 0.3844545781612396, 0.09740032255649567, -0.12361782044172287, -0.11728121340274811, -0.12629087269306183, -0.05758155509829521, -0.05229271948337555, 0.12224026024341583, 0.07053567469120026, -0.07236777991056442, 0.10420680791139603, 0.028786003589630127, 0.187808096408844, 0.04511334374547005, -0.036892615258693695, 0.06051655113697052, -0.2037983536720276, 0.009945157915353775, -0.08292238414287567, 0.07319352775812149], [0.24005064368247986, 0.25795868039131165, 0.07927266508340836, -0.13253726065158844, 0.18647028505802155, -0.0896727442741394, 0.27742528915405273, 0.11053501069545746, -0.03373589739203453, 0.13400056958198547, 0.017018843442201614, 0.21475885808467865, -0.10721123218536377, -0.1525857299566269, -0.03767375648021698, 0.037039633840322495, 0.05377933755517006, -0.03842557594180107, 0.11633401364088058, -0.06620288640260696, 0.07093144208192825, 0.15099923312664032, 0.09226745367050171, 0.08010857552289963, -0.4703892171382904, 0.33788788318634033, -0.4462094008922577, 0.4045531749725342], [0.19691915810108185, 0.06644368916749954, -0.026815928518772125, -0.411960244178772, 0.2360721230506897, -0.2544528841972351, -0.012609683908522129, -0.028856003656983376, -0.11903010308742523, 0.07057815045118332, 0.16110754013061523, 0.2066822648048401, -0.056299593299627304, 0.06534767895936966, 0.1187099814414978, 0.0433746762573719, -0.10046013444662094, 0.05468165874481201, 0.14929211139678955, -0.4437888562679291, -0.17804765701293945, -0.15457919239997864, 0.231339693069458, -0.05244729295372963, -1.0432454347610474, 0.24729877710342407, -0.6854511499404907, 0.10976412892341614], [0.05539029836654663, 0.03878157585859299, -0.1215754896402359, -0.02291230484843254, 0.002921679988503456, 0.01656356453895569, 0.01938406378030777, -0.10255413502454758, -0.007564931642264128, 0.11517830193042755, 0.001805116655305028, 0.20297525823116302, 0.12831541895866394, 0.11463238298892975, 0.11489982903003693, 0.13809269666671753, 0.04007693752646446, 0.2745931148529053, -0.17904017865657806, 0.0045554786920547485, 0.0932968482375145, -0.17424893379211426, -0.06687027215957642, 0.024707185104489326, -0.1866457462310791, -0.20113903284072876, -0.5145033001899719, -0.5328108668327332], [-0.00011861143138958141, -0.21309243142604828, -0.07582684606313705, 0.08102215826511383, -0.018481746315956116, -0.08847597241401672, -0.07468562573194504, 0.018957486376166344, -0.19919326901435852, 0.11723276972770691, 0.0596001036465168, 0.07788407057523727, 0.11444835364818573, -0.032029889523983, -0.04850202798843384, 0.026509959250688553, 0.7676974534988403, -0.5739568471908569, -0.28178656101226807, 0.33781176805496216, 0.018925312906503677, 0.3656877875328064, -0.13643239438533783, 0.06471727788448334, 0.3037615120410919, -0.2130502313375473, -0.08795756101608276, 0.6810683012008667], [0.0007129779551178217, -0.05325619503855705, 0.12424296140670776, 0.014860112220048904, -0.006628751754760742, 0.029751529917120934, 0.03488666191697121, 0.0018279062351211905, 0.013791023753583431, 0.049130652099847794, -0.0358382910490036, 0.01557378750294447, -0.004276374354958534, -0.006333997938781977, 0.029877174645662308, 0.005521823186427355, -0.06520455330610275, 0.18884213268756866, -0.04178449511528015, 0.21606482565402985, -0.038745298981666565, -0.12560610473155975, -0.2654260993003845, 0.07005171477794647, -0.0989469662308693, 0.038167886435985565, 0.0948629230260849, 1.5668364763259888], [-0.8138503432273865, 0.09497032314538956, 0.15648800134658813, 0.00254427851177752, -0.4703935980796814, -0.18572965264320374, 0.2554551064968109, 0.20163828134536743, 0.17721256613731384, 0.03844054415822029, 0.010614103637635708, 0.05667657405138016, 0.12850847840309143, 0.09876543283462524, -0.12493008375167847, 0.004462215583771467, 0.5639654994010925, -0.4340246319770813, -0.1603417992591858, 0.0725753977894783, 0.21465641260147095, 0.152532696723938, -0.03527974337339401, -0.08348601311445236, -0.09420748800039291, -0.013423396274447441, -0.03634006530046463, -0.34012049436569214], [-0.014740144833922386, -0.16270539164543152, -0.9228576421737671, -0.04205739125609398, -0.899865984916687, 0.0348644033074379, -1.1751354932785034, 0.224521666765213, -0.3348793685436249, -0.1605374962091446, 0.21000562608242035, 0.11400778591632843, -0.7648842930793762, 0.255126029253006, -0.7992902398109436, 0.1847667694091797, -0.05145453289151192, -0.08481843769550323, -0.37459859251976013, 0.1603287011384964, -0.2397385984659195, 0.08534363657236099, -0.22045287489891052, -0.08007070422172546, -0.3282286822795868, 0.22455869615077972, 0.21889038383960724, 0.09787707030773163], [0.1200173869729042, 0.12530213594436646, 0.04293446242809296, 0.1877967268228531, 0.3050342798233032, 0.2535630464553833, -0.015092544257640839, -0.0036598281003534794, -0.07328242808580399, -0.04655272886157036, -0.03473645821213722, 0.03196769207715988, 0.06516466289758682, -0.03977661579847336, 0.10548355430364609, 0.013247356750071049, -0.08600360155105591, 0.4062081575393677, 0.15744803845882416, 0.21319881081581116, -0.1434401422739029, 0.1915770024061203, 0.12508369982242584, -0.038336947560310364, -0.15551218390464783, -0.47976505756378174, -0.20551778376102448, 0.24424691498279572], [-0.543123722076416, -0.07894161343574524, -0.2789211571216583, 0.3496992290019989, -0.12528680264949799, 0.0264017004519701, 0.02940087579190731, 0.004265177063643932, 0.02800772339105606, 0.20564259588718414, -0.20475256443023682, -0.20994418859481812, 0.036736860871315, -0.05266891047358513, 0.33865031599998474, -0.00277764187194407, 0.07615955919027328, 0.3898508846759796, -0.7850164771080017, -0.2468671053647995, -0.8784922361373901, 0.16631782054901123, -0.12056127935647964, -0.005408662371337414, -0.4504230320453644, 0.5788602828979492, 0.11789386719465256, 0.41125404834747314], [-0.0812864601612091, -0.13827475905418396, -0.0713658556342125, 0.34942859411239624, -0.08121007680892944, 0.058802735060453415, -0.0822327509522438, 0.10998257994651794, -0.2826961576938629, -0.09505818784236908, 0.018702130764722824, -0.048084504902362823, -0.03126140311360359, -0.05790213495492935, -0.006394901312887669, 0.2161690890789032, -0.38937124609947205, -0.40843382477760315, -0.09822209924459457, -0.015023943036794662, 0.02259833551943302, 0.05867745354771614, 0.025915727019309998, 0.01037183403968811, -0.026010002940893173, -0.0760941132903099, 0.07940559834241867, 0.026842733845114708], [-0.20108743011951447, 0.2274218052625656, 0.0062551433220505714, -0.2832653820514679, 0.21304552257061005, -0.01857607252895832, -0.05150635540485382, -0.19534431397914886, -0.2627124786376953, 0.4183686375617981, -0.29906830191612244, -0.20800644159317017, 0.06028248369693756, -0.004740301053971052, 0.07444165647029877, -0.6602550745010376, 0.22055549919605255, -0.2103472352027893, 0.08253324031829834, -0.6380196809768677, 0.030622491613030434, 0.1651553362607956, -0.15438799560070038, -0.20716112852096558, -0.6320008039474487, 0.3488733470439911, 0.16348038613796234, -0.18141867220401764], [0.06159590184688568, 0.05975259467959404, -0.060772448778152466, 0.1295873522758484, -0.04642558470368385, 0.03236911818385124, -0.053323712199926376, -0.02724461257457733, -0.007958595640957355, -0.023109575733542442, -0.12182913720607758, -0.008523762226104736, 0.031660307198762894, 0.01822102814912796, 0.04260605201125145, 0.04977862909436226, -0.13463473320007324, 0.04220467433333397, 0.08666026592254639, -0.13028624653816223, 0.07658880949020386, 0.026248158887028694, 0.10542801022529602, 0.05049363523721695, 0.20227381587028503, -0.2769392430782318, -1.20558762550354, -0.007229102309793234], [0.19814437627792358, -0.8591839671134949, 0.0897122472524643, -0.8307167291641235, 0.045400697737932205, -1.0647618770599365, 0.1441706418991089, -0.490947961807251, 0.2489812672138214, -0.7627237439155579, -0.02916876971721649, -0.2679826021194458, -0.04868084192276001, -0.8445501327514648, 0.14550182223320007, -0.18864451348781586, 0.02559657394886017, -0.2339923083782196, 0.3905928432941437, -0.22614933550357819, 0.008068067021667957, -0.31473228335380554, 0.2559582591056824, 0.4430882930755615, -0.07911540567874908, 0.1501985490322113, -0.0058432514779269695, -0.047777581959962845], [-0.19185228645801544, -0.036840032786130905, -0.17881381511688232, -0.09557675570249557, -0.3013821840286255, -0.11722327768802643, 0.05205203592777252, 0.028458785265684128, -0.011265554465353489, 0.04819832369685173, 0.17591583728790283, 0.0655457079410553, 0.2657276391983032, 0.04721619933843613, 0.14138080179691315, -0.10152976959943771, 0.03783848509192467, 0.05945528298616409, 0.08833028376102448, 0.06794462352991104, -0.5408685803413391, 0.288095086812973, -0.23511943221092224, 0.10730790346860886, -0.6924305558204651, -0.1691967099905014, -0.5913792848587036, 0.07816335558891296], [-0.027602186426520348, 0.06360471248626709, -0.20109811425209045, -0.08344662934541702, -0.10506324470043182, 0.21262499690055847, 0.20603998005390167, 0.2657628655433655, -0.06516505777835846, -0.008297910913825035, 0.18414439260959625, 0.028615465387701988, -0.03232157975435257, -0.0875604897737503, 0.012288998812437057, 0.09711122512817383, -0.011486624367535114, -0.060045648366212845, -0.07036653161048889, -0.5319058299064636, -0.07325095683336258, -0.3651401400566101, -0.04516855627298355, -0.016824811697006226, -0.18747666478157043, 0.22044089436531067, -0.8463260531425476, -0.07321012020111084], [-0.31966841220855713, -0.04746844246983528, 0.36797070503234863, 0.3242175877094269, 0.042235542088747025, -0.03409147262573242, 0.13881459832191467, 0.09668654203414917, 0.15272383391857147, 0.11544111371040344, -0.12711508572101593, -0.12299427390098572, 0.20935913920402527, -0.1258813887834549, 0.019812356680631638, 0.15650181472301483, -0.25805628299713135, 0.05842133238911629, 0.1117253303527832, 0.26809796690940857, -0.09200774133205414, 0.1550498604774475, -0.08023691177368164, -0.21513386070728302, 0.1553061157464981, -0.5752466917037964, 0.09044243395328522, 0.07421577721834183], [0.12495289742946625, 0.3104424476623535, -0.4128864109516144, 0.04746155068278313, -0.4869440793991089, -0.027712039649486542, -0.15432198345661163, 0.1940762996673584, -0.010545548051595688, 0.0015401148702949286, -0.08565650880336761, -0.21040132641792297, -0.11754276603460312, 0.044022560119628906, -0.13847441971302032, 0.15929248929023743, 0.019015353173017502, -0.1849566102027893, 0.1635008007287979, -0.11477430164813995, -0.022929523140192032, -0.04404694214463234, 0.08215717226266861, -0.31184327602386475, 0.7222781777381897, -0.24873633682727814, -0.03703930974006653, 0.6052805781364441], [0.042021494358778, -0.004184352699667215, -0.02540808543562889, -0.25842249393463135, 0.05306989327073097, 0.09663403034210205, -0.14220808446407318, -0.18691368401050568, 0.0369417630136013, -0.001977411098778248, -0.023325016722083092, 0.008878028020262718, -0.005886816885322332, -0.019441407173871994, 0.020160548388957977, -0.003409208729863167, -0.31635627150535583, -0.23359829187393188, 0.05455063283443451, -0.6901302933692932, 0.2764637768268585, 0.22023020684719086, -0.03496614471077919, -0.20336826145648956, 0.06328470259904861, 0.18772387504577637, 1.084363341331482, -0.12462347745895386], [-0.03791983425617218, 0.02890496887266636, -0.034860771149396896, -0.0587652325630188, -0.04673890024423599, -0.03913004323840141, -0.02554362453520298, -0.019207051023840904, 0.04428386315703392, -0.022146005183458328, -0.0027086881455034018, 0.013325212523341179, 0.010977440513670444, 0.02313506416976452, -0.014721843414008617, -0.019291378557682037, 0.7670046091079712, 0.040341876447200775, -0.015551742166280746, 0.13202418386936188, 0.5478034615516663, 0.5109676718711853, -0.3285646438598633, -0.3808097541332245, -0.10036769509315491, -0.04237334802746773, 0.05552596226334572, 0.6764493584632874], [0.3262520134449005, 0.39265745878219604, 0.23078790307044983, 0.32532942295074463, -0.17557696998119354, 0.2728545069694519, 0.21935607492923737, 0.2359314113855362, -0.09370127320289612, 0.027034087106585503, 0.10530022531747818, 0.10245344787836075, 0.13910305500030518, 0.005625920370221138, 0.19256696105003357, -0.10385877639055252, -0.39711686968803406, 0.24779991805553436, 0.26039668917655945, -0.2494698017835617, 0.3948719799518585, -0.3113676607608795, -0.21046684682369232, -0.08392323553562164, 0.5523616671562195, -0.12092474848031998, -0.09020672738552094, 0.06944728642702103], [-0.15643081068992615, 0.25420939922332764, 0.07790027558803558, -0.1982010304927826, -0.03261258453130722, -0.07911801338195801, 0.17919230461120605, -0.005034903530031443, -0.019429892301559448, -0.06195429340004921, 0.0024487802293151617, 0.091197170317173, 0.019953623414039612, -0.00880351196974516, -0.04152052849531174, -0.014324262738227844, 0.16690334677696228, 0.1563611924648285, 0.6265624761581421, 0.2315434068441391, 0.3057052493095398, 0.15628449618816376, -0.24613945186138153, 0.07594883441925049, 0.011239071376621723, -0.3104088604450226, 0.6322693824768066, -0.7528956532478333], [-0.23401311039924622, -0.20185953378677368, 0.18787939846515656, 0.11995347589254379, -0.09250011295080185, -0.026014359667897224, -0.23272515833377838, -0.06767403334379196, -0.23207002878189087, 0.06964997947216034, 0.2456451952457428, 0.11258456856012344, 0.1809956431388855, -0.06294449418783188, 0.16269530355930328, -0.16778509318828583, 0.11420459300279617, -0.17083176970481873, 0.3412718176841736, -0.8057571649551392, -0.2730765640735626, -0.056679826229810715, -0.05303546041250229, 0.10075406730175018, -0.18025681376457214, -0.13403624296188354, 0.26121991872787476, -0.013286066241562366], [-0.21988745033740997, -0.2424599975347519, 0.3149617612361908, 0.3467615842819214, 0.13710375130176544, 0.23349390923976898, 0.3620639145374298, 0.3738860487937927, -0.030107473954558372, -0.015642130747437477, -0.12108267843723297, -0.07026446610689163, -0.030803462490439415, -0.21575649082660675, -0.03680615872144699, 0.06797496974468231, 0.3151339292526245, -0.04723207652568817, 0.3679037094116211, 0.21607676148414612, 0.037593234330415726, 0.34988075494766235, 0.24958498775959015, 0.34049752354621887, -0.35199424624443054, 0.04245510697364807, -0.1330719292163849, 0.12492334842681885], [-0.052592355757951736, 0.2540859878063202, -0.22137241065502167, -0.43623387813568115, 0.0674206018447876, 0.01030587125569582, 0.08870106190443039, -0.07622676342725754, -0.13664491474628448, 0.5119466781616211, 0.19927525520324707, -0.017586547881364822, 0.024478033185005188, 0.0033728161361068487, -0.053173135966062546, 0.15902413427829742, 0.2335030436515808, -0.1318206638097763, 0.030181260779500008, 0.29036521911621094, 0.2596326172351837, -0.07767670601606369, -0.023760559037327766, 0.4360639154911041, 0.06933069974184036, -0.3885684311389923, 0.32328328490257263, 0.5067062973976135], [0.3793271780014038, 0.05290129408240318, -0.02307525835931301, 0.18791234493255615, 0.2211003601551056, 0.06697321683168411, 0.008269202895462513, 0.05507778748869896, 0.1925533562898636, -0.047300536185503006, 0.05213724076747894, -0.03442183509469032, 0.09048594534397125, -0.09849455207586288, -0.035421840846538544, 0.027627283707261086, 0.32981085777282715, 0.23462258279323578, -0.23424258828163147, 0.007836489006876945, 0.1015772819519043, 0.134630024433136, -0.17974333465099335, -0.3563559949398041, -0.1889985054731369, -0.36243316531181335, 0.15718355774879456, -0.2973126769065857], [0.16664928197860718, 0.6276170611381531, -0.2116919457912445, 0.24874918162822723, -0.05264705792069435, -0.02614743635058403, -0.11494051665067673, 0.2933519184589386, 0.0801730826497078, 0.12425624579191208, 0.04504222050309181, -0.02021501399576664, 0.10634484887123108, 0.07110509276390076, -0.02115667052567005, 0.05658106878399849, -0.34466689825057983, -0.23118659853935242, 