{"q_net.0.weight": [[-0.038782957941293716, -0.03321710601449013, -1.428773045539856, 0.49027878046035767, -0.21263717114925385, -0.002280104672536254, -0.12062837183475494, 0.08658650517463684, 0.08802788704633713, -0.15739265084266663, -0.2274446189403534, 0.21248093247413635, -0.12853114306926727, 0.13692714273929596, 0.17596004903316498, -0.17823472619056702, -0.04094449430704117, 0.21677929162979126, -0.01728976145386696, 0.02543516457080841, 0.12318967282772064, -0.0400022454559803, 0.08773816376924515, -0.35552746057510376, -0.04842332378029823, 0.39146021008491516, -0.20185042917728424, 0.07680798321962357], [-0.6387546062469482, -0.2761423885822296, 0.19179069995880127, -0.21805468201637268, 0.1341608762741089, -0.28376883268356323, 0.14832328259944916, -0.2191259264945984, -0.2584097683429718, 0.08372829109430313, -0.022740136831998825, 0.11555372178554535, -0.19247913360595703, -0.37369391322135925, 0.10878859460353851, 0.3423541784286499, -0.39367565512657166, 0.3740736246109009, 0.42630353569984436, -0.00831911526620388, -0.03666631132364273, 0.06255501508712769, -0.18001189827919006, -0.1151384711265564, -0.15445297956466675, 0.16051644086837769, 0.18324053287506104, 0.047962918877601624], [0.20512528717517853, 0.16982831060886383, -0.3248642683029175, -0.5181052088737488, -0.05574450641870499, -0.023812195286154747, 0.03654787316918373, -0.012890120968222618, -0.08795955777168274, -0.047664813697338104, 0.016323760151863098, 0.06681656092405319, 0.10379952192306519, 0.0450318418443203, 0.08266356587409973, -0.04800410941243172, 0.05759039521217346, 0.11811257153749466, -0.012028547003865242, 0.7576133608818054, 0.012086925096809864, 0.11961822211742401, -0.008033978752791882, 0.21685612201690674, 1.094379186630249, -0.4324757158756256, -0.38275206089019775, -0.021618736907839775], [-0.30633750557899475, 0.3673146963119507, -0.3652796149253845, 0.33253324031829834, -0.5177693963050842, 0.012516044080257416, -0.04669851437211037, 0.1020519956946373, 0.2924063205718994, -0.06188245862722397, 0.23506274819374084, 0.15549832582473755, -0.05112214386463165, 0.05577282980084419, -0.030007148161530495, -0.011705354787409306, 0.09488437324762344, -0.12579107284545898, 0.05816685035824776, -0.4220468997955322, -0.8835962414741516, 0.42920154333114624, 0.18542897701263428, 0.22322119772434235, 0.30937477946281433, -0.8264602422714233, -0.1294284611940384, -0.15418213605880737], [-0.010757895186543465, 0.32761114835739136, -0.018273744732141495, 0.2637777626514435, -0.1256410777568817, -0.03211918845772743, 0.05782473087310791, 0.1630041003227234, 0.022248564288020134, -0.11229268461465836, -0.127680242061615, -0.0078312698751688, -0.0006058893050067127, 0.007972640916705132, -0.006296811159700155, 0.05948309227824211, 0.26020634174346924, -0.012611616402864456, -0.07678403705358505, 0.17247793078422546, -0.0624447837471962, 0.18822187185287476, 0.0024349833838641644, -0.2300749272108078, 0.3170997202396393, -0.005046729929745197, -0.5436086058616638, -1.3290421962738037], [-0.21294619143009186, 0.3288097381591797, -0.16718105971813202, -0.04760284349322319, -0.1328255832195282, 0.18333260715007782, -0.04466507211327553, 0.468243271112442, 0.263441801071167, -0.28917619585990906, 0.013455311767756939, 0.09195557981729507, 0.10326661914587021, -0.01262074988335371, 0.20135511457920074, -0.05936702340841293, 0.18670673668384552, 0.06486514955759048, -0.2951408922672272, -0.3597872257232666, 0.07482822984457016, 0.06871707737445831, -0.013801413588225842, 0.10686888545751572, -0.20071479678153992, -0.1781604290008545, 0.2143375128507614, -0.27435579895973206], [-1.1836180686950684, -0.13856598734855652, -0.06310351192951202, 0.004790949169546366, -0.9720776677131653, -0.8836525082588196, 0.07710395008325577, 0.026369603350758553, 0.31189268827438354, 0.04556919261813164, 0.08326837420463562, 0.03831588104367256, 0.2200298011302948, -0.013805515132844448, -0.06253328174352646, -0.06852129846811295, -0.12589675188064575, -0.009464613161981106, 0.01751505583524704, 0.028688741847872734, -0.1472965031862259, -0.1155056431889534, -0.02149445004761219, -0.055362917482852936, -0.16308850049972534, -0.3709166347980499, -0.024742718786001205, 0.012816567905247211], [0.13414312899112701, 0.13274909555912018, 0.10935459285974503, -1.3290388584136963, -0.042082492262125015, -0.1014803946018219, -0.0005187016795389354, -0.24703951179981232, -0.020755531266331673, -0.01178276352584362, 0.013698922470211983, -0.3356437385082245, -0.04937848448753357, 0.020401518791913986, -0.013370619155466557, 0.10399346798658371, 0.15350176393985748, -0.06080107390880585, -0.4069027602672577, -0.08384875953197479, -0.17388327419757843, 0.1630842238664627, -0.1710822731256485, -0.037900786846876144, 0.6935831904411316, 0.08397937566041946, 0.28150033950805664, 0.03089664690196514], [0.3716375529766083, 0.12759341299533844, 0.34820231795310974, -0.0036714859306812286, 0.11542880535125732, 0.07978489995002747, 0.1896590143442154, 0.22397896647453308, -0.06897103786468506, 0.07535756379365921, -0.18917788565158844, 0.04417814314365387, -0.16631440818309784, -0.1599845588207245, 0.034144800156354904, -0.04333213344216347, -0.4080235958099365, 0.3921678364276886, 0.03380894288420677, 0.24893055856227875, 0.18267329037189484, 0.06649565696716309, -0.23274217545986176, -0.1643759161233902, 0.0999826192855835, -0.014733023010194302, 0.1111779734492302, -1.0068511962890625], [-0.2092585563659668, -0.290021687746048, -0.09879263490438461, -0.11184500902891159, -0.13507401943206787, -0.1950058788061142, -0.13264714181423187, 0.34536099433898926, 0.02584494836628437, 0.15058879554271698, 0.17888200283050537, 0.12997983396053314, -0.002011002041399479, -0.06068706512451172, 0.14807593822479248, 0.09507858753204346, -0.3994556665420532, 0.1157497763633728, -0.007711569778621197, 0.15302008390426636, -0.04066117852926254, -0.014180582948029041, -0.30938205122947693, 0.2116011679172516, -1.2888250350952148, 0.5600984692573547, 0.31067633628845215, 0.75601726770401], [0.25599929690361023, -0.10205554217100143, 0.21533705294132233, 0.5559337139129639, -0.10187146067619324, 0.06888893991708755, 0.023263586685061455, -0.13939468562602997, -0.23749300837516785, -0.07321205735206604, -0.26213085651397705, 0.29589447379112244, -0.06854867935180664, -0.13382069766521454, -0.10456094145774841, 0.09458707273006439, -0.23435325920581818, 0.10480328649282455, 0.22262774407863617, 0.1685628592967987, -0.19233234226703644, 0.1550903469324112, -0.010639737360179424, 0.2903401851654053, 0.6546755433082581, 0.18810568749904633, -0.3959798812866211, 0.4602777659893036], [0.21338672935962677, 0.27300283312797546, 0.1144283264875412, -0.21501944959163666, 0.0510752871632576, -0.10384931415319443, 0.10894174128770828, -0.20571768283843994, 0.11333956569433212, 0.17026007175445557, -0.19121244549751282, 0.03681492432951927, 0.10701896995306015, 0.23081763088703156, -0.17631828784942627, -0.09092437475919724, -0.10981862992048264, -0.2426348477602005, -0.16920027136802673, 0.05611525848507881, -0.2336641401052475, 0.08788091689348221, 0.16239145398139954, 0.2618902027606964, -0.21946068108081818, -0.36896511912345886, -0.21919496357440948, 0.09191436320543289], [0.3622921407222748, -0.046723611652851105, -0.3243505358695984, -0.36739829182624817, -0.11449943482875824, 0.056805696338415146, -0.4321821928024292, -0.07393146306276321, 0.13001690804958344, 0.22167550027370453, -0.05602961778640747, -0.15248827636241913, -0.13100062310695648, -0.018090900033712387, 0.02374110370874405, -0.2115190625190735, -0.20388981699943542, 0.5688197612762451, 0.3052789866924286, -0.2744782865047455, 0.1709020882844925, 0.035449862480163574, 0.47976815700531006, 0.14683173596858978, 0.4014686346054077, -0.2558077275753021, 0.6146160364151001, -0.10602307319641113], [0.4194889962673187, -0.2359546273946762, 0.022357437759637833, 0.5285897850990295, -0.09209295362234116, 0.1682814657688141, -0.10477401316165924, 0.13999661803245544, 0.12135784327983856, 0.1947789341211319, 0.1703781932592392, -0.05389392375946045, 0.17173655331134796, 0.10805882513523102, -0.09750117361545563, 0.009983988478779793, 0.14524158835411072, 0.34788528084754944, -0.4563864469528198, -0.1310378611087799, -0.060517895966768265, -0.1262950450181961, -0.16124767065048218, 0.060119979083538055, 0.20893561840057373, -0.4713164269924164, 0.10808153450489044, 0.07463730871677399], [-0.05032510310411453, -0.07621115446090698, -0.15047360956668854, 0.020610909909009933, -0.03679550811648369, 0.2835630178451538, 0.003985905088484287, 0.045273557305336, -0.011574571952223778, -0.0010880902409553528, 0.07204174250364304, -0.0306425578892231, 0.020116133615374565, -0.9943350553512573, -0.043693963438272476, 0.011541753076016903, 0.009463302791118622, 0.3119255602359772, -0.002945702988654375, 0.05904381722211838, 0.07869121432304382, -0.05575588718056679, 0.43881478905677795, -0.05448725074529648, -0.9132615327835083, 0.6542956233024597, 0.12329933792352676, -0.7147929072380066], [-0.21031303703784943, -1.2139027118682861, 0.0929495245218277, 0.29002004861831665, -0.12415118515491486, 0.28345370292663574, -0.2402341663837433, -0.3871021568775177, -0.003922289237380028, 0.23824214935302734, -0.13186310231685638, 0.09726279228925705, -0.035989657044410706, -0.04528501629829407, 0.02014804445207119, 0.17483334243297577, -0.18596753478050232, -0.32571831345558167, 0.16720828413963318, 0.35272660851478577, -0.03689221665263176, -0.050540730357170105, -0.33090853691101074, -0.12282749265432358, 0.6633002758026123, -0.031280096620321274, -0.3583747446537018, 0.3634977638721466], [0.32903406023979187, -0.28782960772514343, -0.12077533453702927, -0.1505674123764038, 0.12933863699436188, 0.2127104103565216, -0.2682071924209595, -0.31624096632003784, -0.08575344830751419, 0.1280466765165329, 0.023870397359132767, -0.04210926592350006, 0.008785753510892391, 0.02976432628929615, 0.25931602716445923, 0.071478933095932, -0.2992951273918152, -0.12539894878864288, -0.3058988153934479, -0.43762943148612976, -0.13597916066646576, -0.015859974548220634, -0.002591300057247281, 0.31489482522010803, 1.0575218200683594, 0.3418373763561249, -0.23221147060394287, 0.3336048424243927], [0.41220396757125854, -0.09424939751625061, 0.381671667098999, -0.012339932844042778, 0.48169252276420593, 0.4926114082336426, 0.08198163658380508, -0.0028068560641258955, 0.06685317307710648, 0.029304485768079758, -0.09522415697574615, -0.12053363025188446, -0.03921142593026161, 0.12029080092906952, 0.1342252939939499, 0.051624175161123276, 0.04000645503401756, 0.05851294845342636, -0.3330385386943817, 0.14533501863479614, 0.09615784138441086, 0.026473049074411392, 0.08053480088710785, 0.22735579311847687, -0.5958420634269714, 0.04473103955388069, 0.09355723857879639, 0.07996813952922821], [-0.013371430337429047, 0.29428333044052124, 0.08506838232278824, 0.020749719813466072, -0.06470789760351181, -0.18434958159923553, 0.21566985547542572, 0.3264750838279724, -0.13626554608345032, -0.2791341543197632, 0.1135985478758812, 0.12144564092159271, 0.04860290512442589, 0.053303807973861694, -0.006325193680822849, 0.2754060626029968, 0.08472295850515366, 0.3730534613132477, -0.06546305119991302, 0.0521356426179409, 0.20091868937015533, 0.04583432897925377, -0.07921695709228516, 0.09328177571296692, 0.29754430055618286, -0.32189202308654785, 0.18233773112297058, -0.2066737860441208], [0.026763390749692917, 0.01125106681138277, 0.028115252032876015, 0.04704468324780464, -0.07822699099779129, 0.17896588146686554, -0.1467003971338272, 0.14293912053108215, 0.04055442288517952, -0.09373630583286285, -0.06209878250956535, 0.11870897561311722, -0.062224503606557846, -0.03504208102822304, -0.007029323372989893, 0.09184859693050385, 0.20393773913383484, 0.06957847625017166, 0.1578827202320099, -0.008035511709749699, 0.15288569033145905, -0.07220920920372009, 0.3973998427391052, 0.06979510188102722, -0.23546884953975677, 0.07319849729537964, 1.4243767261505127, -0.15980732440948486], [-0.031030399724841118, 0.07075274735689163, 0.3205735683441162, -1.4050803184509277, -0.2162982076406479, -0.09378153830766678, -0.030213089659810066, -0.36228251457214355, 0.22705164551734924, 0.07937818020582199, 0.0666494071483612, -0.244889497756958, -0.040161196142435074, -0.03743968904018402, -0.06367938965559006, 0.19909898936748505, 0.01567690074443817, 0.06451040506362915, 0.0841621607542038, -0.255562961101532, 0.1181614100933075, 0.1725570410490036, -0.08587245643138885, -0.16026006639003754, 0.44054684042930603, -0.6375627517700195, -0.21222780644893646, 0.02011852338910103], [0.39110374450683594, 0.11002500355243683, -0.3302142322063446, -0.20161005854606628, 0.19684547185897827, 0.059039030224084854, 0.02648957632482052, -0.2992127239704132, 0.26874279975891113, -0.14715580642223358, 0.1052715852856636, -0.21841464936733246, 0.1854543387889862, 0.01678396202623844, 0.1332281529903412, -0.13233914971351624, -0.3299041986465454, -0.1368132084608078, 0.15816810727119446, 0.2247896045446396, -0.19026705622673035, -0.03516865521669388, 0.3664001524448395, -0.3439173400402069, 0.09726391732692719, 0.34403377771377563, -0.6839872598648071, 0.11457211524248123], [0.1592852771282196, -0.010788297280669212, 0.3666541874408722, -2.0109105110168457, 0.19659927487373352, -0.2148476541042328, -0.22528941929340363, -0.03444739803671837, 0.14139893651008606, -0.11915887147188187, 0.16108176112174988, -0.7007285356521606, -0.022496100515127182, -0.044367026537656784, -0.05536318197846413, 0.06308653205633163, -0.2388497143983841, 0.053634729236364365, 0.19351206719875336, -0.18699561059474945, 0.04612875357270241, 0.15233567357063293, 0.06417656689882278, 0.062131259590387344, 0.8705653548240662, 0.7868613004684448, 0.14274126291275024, -0.03859124705195427], [-0.16225014626979828, -0.043396901339292526, 0.6411804556846619, 0.36677291989326477, 0.3244002163410187, -0.09727448970079422, 0.2511591613292694, -0.15567022562026978, -0.017591917887330055, -0.029053116217255592, 0.29738861322402954, -1.1713017225265503, 0.0091026546433568, -0.19470332562923431, 0.0550142377614975, -0.19166693091392517, -0.19829219579696655, -0.5525491237640381, -0.04570778086781502, 0.06885358691215515, -0.12473931163549423, 0.12652307748794556, 0.02701764553785324, 0.14743152260780334, 0.2697352170944214, 0.2346893697977066, 0.2849024534225464, -0.05432015657424927], [0.053541552275419235, 0.12462963163852692, -0.16887177526950836, -0.13416902720928192, -0.11104469001293182, -0.19006839394569397, -0.14628154039382935, -0.1693926304578781, -0.010965604335069656, -0.09990216791629791, -0.04621724784374237, 0.3178962767124176, 0.09474866092205048, 0.12095576524734497, -0.19699729979038239, 0.06780143827199936, 0.13718339800834656, -0.7451079487800598, -0.14753808081150055, -0.3039509952068329, -0.021406695246696472, 0.22336722910404205, -0.5851795673370361, -0.14624252915382385, -0.13769908249378204, 0.0020820831414312124, -0.21623271703720093, -0.4523087739944458], [0.04514945298433304, -0.8837743997573853, 0.18733850121498108, 0.21958766877651215, 0.12107115238904953, -0.1510983258485794, 0.01656121388077736, -0.09957951307296753, -0.01904117688536644, 0.038969095796346664, 0.15343350172042847, -0.04870961979031563, -0.10404092073440552, 0.07172741740942001, -0.010515840724110603, 0.1153029054403305, -0.32844269275665283, -0.34688031673431396, -0.34463778138160706, -0.12045019865036011, -0.08887974917888641, 0.11894480884075165, 0.024571595713496208, -0.042772118002176285, 0.45342886447906494, -0.195501446723938, 0.2265937328338623, -0.5755287408828735], [-0.00353438057936728, -0.06645672768354416, 0.07939136773347855, -0.21095271408557892, -0.046647071838378906, 0.07753179967403412, -0.04430140554904938, 0.13465099036693573, -0.26151469349861145, 0.23270395398139954, 0.4187209904193878, 0.18202759325504303, -0.08816312998533249, 0.0307708028703928, 0.09099690616130829, -0.030878650024533272, 0.1938076764345169, 0.09559835493564606, 0.10919392853975296, 0.14715677499771118, -0.16501225531101227, -0.050930216908454895, -0.07812942564487457, -0.1026119664311409, -0.5529517531394958, -0.12332676351070404, -0.22402040660381317, 0.7567309141159058], [0.010582856833934784, 0.11010877043008804, 0.4579104781150818, 0.05343145504593849, 0.17175674438476562, -0.18522559106349945, -0.04986196383833885, 0.1955944299697876, 0.03525910526514053, 0.002622751286253333, -0.19850857555866241, 0.13512374460697174, -0.060416948050260544, -0.027112867683172226, 0.021479444578289986, 0.0861964300274849, 0.014021922834217548, -0.17245624959468842, 0.25643959641456604, 0.15549270808696747, -0.09926226735115051, 0.033394474536180496, 0.3977319598197937, 0.13998742401599884, 0.5961031317710876, -0.28658121824264526, 0.4635521173477173, 0.38262277841567993], [-0.4284486174583435, 0.2524697482585907, 0.10168300569057465, -0.010375701822340488, 0.03417206555604935, -0.2602221667766571, -0.10831806808710098, -0.20208796858787537, 0.08705218881368637, -0.03960743173956871, -0.08860430866479874, 0.026500636711716652, -0.13550716638565063, -0.18267615139484406, 0.16975092887878418, 0.14892461895942688, -0.2522677481174469, 0.45535311102867126, 0.30587878823280334, 0.05641605332493782, 0.3150809109210968, -0.06198446825146675, 0.10486458986997604, -0.21470843255519867, -0.095621757209301, -0.14036062359809875, -0.37548765540122986, 0.9786291718482971], [-0.07181838899850845, 0.14520080387592316, 0.050566092133522034, -0.016784021630883217, -0.0432051420211792, 0.07007729262113571, 0.1863449364900589, 0.026287974789738655, -0.2119731307029724, 0.038385678082704544, 0.13395744562149048, -0.06941920518875122, -0.15727514028549194, -0.0942782461643219, -0.003098217071965337, -0.11359689384698868, 0.06308319419622421, -0.22501127421855927, 0.12997683882713318, -0.9372977614402771, -0.017391446977853775, -0.11044443398714066, 0.2094367891550064, -0.7514335513114929, 0.26222026348114014, 0.10157518088817596, 0.4138510227203369, -0.06605952233076096], [0.12177711725234985, -0.19754962623119354, -0.0090568782761693, 0.30869147181510925, 0.2183753401041031, -0.12230950593948364, 0.08520733565092087, -0.11219976842403412, 0.20588362216949463, -0.029881080612540245, 0.005163439549505711, -0.09612125158309937, -0.12497621774673462, 0.015554364770650864, 0.20524956285953522, -0.04074147343635559, 0.3321918845176697, -0.2673379182815552, -0.1578725278377533, 0.0022559519857168198, 0.21106122434139252, 0.12187172472476959, 0.10046833008527756, -0.10545933991670609, -0.3293253481388092, -0.01156399492174387, -0.3966631293296814, 0.4631582498550415], [0.017178045585751534, -1.1470450162887573, -0.07668829709291458, 0.18385381996631622, -0.07083231955766678, -0.02379421703517437, -0.9723787903785706, -0.9630990028381348, -0.0313861183822155, 0.41675853729248047, 0.10195653885602951, -0.01132225152105093, 0.010579032823443413, 0.03504713624715805, 0.07597121596336365, 0.18143761157989502, 0.3433161973953247, -0.08185816556215286, -0.17417673766613007, -0.10900267213582993, 0.016218775883316994, -0.1713772714138031, -0.10654238611459732, -0.4772438406944275, -0.04303811490535736, -0.033171869814395905, -0.08677924424409866, 0.0026396815665066242], [0.0357016995549202, 0.12666597962379456, 0.1947830319404602, 0.00991388875991106, -0.17890530824661255, -0.05780339986085892, -0.10039687901735306, 0.07816724479198456, 0.4524245262145996, -0.03658876195549965, -0.09170553833246231, 0.013932304456830025, 0.02791682630777359, -0.03164239972829819, -0.018815210089087486, -0.09741384536027908, -0.009374844841659069, -0.4556412696838379, -0.3251281678676605, 0.34516441822052, -0.20285102725028992, 0.022283224388957024, -0.14612311124801636, 0.08968444168567657, 0.3371132016181946, -0.12518595159053802, -0.271342396736145, 0.40248429775238037], [-0.122770294547081, 0.10053030401468277, 0.09228888154029846, 0.07427694648504257, -0.04809471592307091, 0.11080619692802429, 0.02628479339182377, -0.08814070373773575, 0.014748024754226208, -0.22016797959804535, 0.09744571894407272, -0.01674625463783741, 0.22119973599910736, 0.04458488151431084, -0.11342427879571915, -0.0998879075050354, -0.3063882291316986, 0.23349596560001373, 0.14474590122699738, 0.16126707196235657, 0.06761011481285095, 0.11591888964176178, 0.17788995802402496, 0.19964757561683655, -0.018498525023460388, -0.0034477668814361095, 0.020482320338487625, 1.0904526710510254], [-1.097204566001892, 0.01187424547970295, -0.2714363932609558, -0.18954652547836304, -0.7773717641830444, -0.8010668754577637, -0.1367281675338745, 0.22350981831550598, -0.19763082265853882, -0.13375836610794067, -0.34186193346977234, 0.25651001930236816, -0.07137442380189896, 0.16655950248241425, -0.07878783345222473, 0.32048144936561584, -0.24276849627494812, -0.32634875178337097, -0.1464681625366211, 0.08262971043586731, 0.4200928211212158, 0.07419902086257935, -0.08512923866510391, -0.020205972716212273, 0.28104543685913086, 0.13362868130207062, -0.004619793966412544, -0.06829023361206055], [-0.05561169236898422, -0.12557177245616913, -0.8239150047302246, 0.3459851145744324, 0.14341986179351807, 0.01458088681101799, 0.13702340424060822, -0.06347865611314774, -0.24371843039989471, -0.08527649939060211, -0.8254984617233276, 0.06367617100477219, 0.0762767642736435, -0.06466668844223022, 0.16353923082351685, -0.3571092188358307, 0.15998032689094543, -0.18548418581485748, -0.23286615312099457, -0.0029427576810121536, 0.012842313386499882, 0.06855495274066925, -0.09739774465560913, -0.0529625304043293, -0.20198871195316315, 0.05668240785598755, 0.1725214719772339, 0.019784411415457726], [-0.04777195677161217, 0.1445055454969406, 0.225555881857872, -0.16889524459838867, 0.023758912459015846, -0.0673544779419899, 0.02376084215939045, -0.4276171922683716, -0.030304107815027237, -0.047134678810834885, 0.146394744515419, 0.004312226083129644, 0.19796857237815857, 0.06706589460372925, -0.030299561098217964, -0.048100795596838, 0.12022040784358978, 0.13948535919189453, -0.4889878034591675, -0.21860931813716888, -0.06205317750573158, 0.09592414647340775, 0.21198955178260803, 0.1352006047964096, 0.8617306351661682, 0.025984160602092743, 0.6585996150970459, -0.11293036490678787], [-1.165303349494934, -0.2842848002910614, 0.08660023659467697, -0.0448293536901474, -0.4010288715362549, -0.19512046873569489, 0.03409924730658531, 0.08011116087436676, -0.21534059941768646, -0.18047064542770386, -0.22539971768856049, 0.22897930443286896, -0.17930255830287933, 0.4286663830280304, -0.13172513246536255, 0.07466738671064377, -0.015134869143366814, 0.016151417046785355, 0.3553749918937683, -0.06702148914337158, 0.31219837069511414, -0.08746781945228577, 0.11996627599000931, -0.3500775694847107, 0.2346087396144867, -0.3051895499229431, 0.010472587309777737, 0.029216622933745384], [-0.06849057972431183, -1.3232828378677368, 0.12708166241645813, 0.04758864641189575, 0.07642237097024918, 0.08395300060510635, -1.1329303979873657, -1.005758285522461, 0.030025795102119446, 0.37650227546691895, -0.026835115626454353, -0.049466367810964584, 0.04121970757842064, 0.07322800159454346, -0.10377993434667587, -0.14921914041042328, -0.008976076729595661, -0.02539844624698162, 0.05952901765704155, 0.09285732358694077, 0.004353720229119062, 0.06626122444868088, -0.22484959661960602, 0.3675537109375, -0.16788877546787262, -0.12524856626987457, 0.025784755125641823, -0.02933102659881115], [-0.6091389656066895, -0.03431935980916023, 0.05079494044184685, 0.1005760058760643, -0.09977400302886963, -0.2579593062400818, 0.10683971643447876, 0.017440717667341232, 0.3308284878730774, -0.21806561946868896, 0.09473048895597458, 0.0020249118097126484, 0.028888026252388954, -0.02392962947487831, -0.019601358100771904, -0.01429542526602745, 0.18967658281326294, 0.3803867697715759, -0.0465303398668766, 0.17121505737304688, -0.05454450100660324, -0.30279994010925293, -0.01062028668820858, -0.4311814606189728, -0.046875108033418655, -0.5818524360656738, -0.293245404958725, -0.46334776282310486], [0.17254777252674103, 0.23367787897586823, 0.1546209305524826, -0.04531655088067055, 0.013955598697066307, 0.19077298045158386, 0.17639724910259247, 0.204120934009552, 0.12047996371984482, -0.05153539776802063, -0.1453719288110733, -0.05281743034720421, 0.04310133308172226, 0.03974279388785362, 0.14548467099666595, 0.02790421061217785, 0.22994665801525116, -0.25526392459869385, 0.12871459126472473, -0.28744855523109436, -0.023502133786678314, 0.07929141074419022, 0.0007237785612232983, 0.09547461569309235, -0.02462482824921608, -0.16180048882961273, -0.33250173926353455, -0.12625643610954285], [0.03298327699303627, -0.18099524080753326, -0.16740667819976807, -0.04671792313456535, 0.09328275918960571, -0.4178008735179901, 0.41910600662231445, -0.5582563281059265, 0.017785729840397835, -0.36053910851478577, 0.29418492317199707, 0.26759305596351624, -0.14280562102794647, 0.08506985753774643, 0.3048820495605469, -0.1738191843032837, -0.12707528471946716, 0.1777983009815216, 0.14870627224445343, -0.04367591068148613, 0.173662468791008, -0.08862727880477905, 0.18164047598838806, -0.20379142463207245, 0.18544761836528778, 0.5248674154281616, -0.4780915379524231, 0.07794632017612457], [-0.06554291397333145, 0.07328394055366516, -0.8133943676948547, -0.6371438503265381, 0.18418528139591217, -0.2478134036064148, 0.005216922610998154, -0.0798666924238205, -0.010739758610725403, 0.24815820157527924, -0.4941871464252472, -0.030717210844159126, 0.0004628398164641112, 0.059892453253269196, -0.06591122597455978, 0.025509124621748924, -0.16230803728103638, 0.24549217522144318, -0.01890382543206215, -0.22242794930934906, 0.07154183089733124, 0.04607599228620529, -0.04640944302082062, -0.10119593143463135, 0.2739691436290741, -0.009820105507969856, -0.16939836740493774, 0.1538328230381012], [-0.03875955194234848, 0.10613227635622025, 0.05689726769924164, -1.4160388708114624, -0.003499333281069994, -0.013260763138532639, 0.024829944595694542, -0.2327164262533188, 0.006373612675815821, 0.014813343994319439, 0.026672957465052605, -0.05744938924908638, 0.004494965076446533, 0.21257951855659485, -0.017754776403307915, 0.0026616156101226807, 0.019487522542476654, 0.3157050907611847, 0.17054925858974457, -0.16746249794960022, -0.23736028373241425, -0.09488678723573685, -0.07546718418598175, -0.1436627358198166, 0.011323949322104454, -0.18331541121006012, 0.25375309586524963, -0.04386809095740318], [-0.050309501588344574, 0.10081953555345535, -0.16030624508857727, 0.42238518595695496, 0.05639868602156639, 0.09370904415845871, 0.02549469843506813, 0.3247499465942383, 0.1766148805618286, -0.060725197196006775, 0.044705890119075775, -0.2360984832048416, 0.17310670018196106, -0.06487587839365005, 0.06061883643269539, -0.04025063291192055, 0.02610919065773487, -0.35767194628715515, 0.2558838427066803, 0.023712024092674255, 0.06943005323410034, 0.2545727491378784, 0.06438499689102173, -0.6620078086853027, -0.5354050993919373, 0.48326268792152405, -1.2346175909042358, -0.9874060153961182], [0.09863107651472092, 0.20522858202457428, -2.5667943954467773, 0.04785601794719696, -0.04105487838387489, 0.1623682975769043, -0.08353311568498611, 0.06784676015377045, 0.08513383567333221, 0.12551304697990417, -0.4118816554546356, 0.15024158358573914, 0.23531711101531982, -0.12374000996351242, 0.06637902557849884, -0.13048449158668518, 0.13700218498706818, 0.1145707294344902, -0.3988419473171234, 0.1381647139787674, 0.020912274718284607, -0.014167200773954391, 0.1441376805305481, 0.01057643536478281, 0.4451189637184143, -0.01164491567760706, 0.040096964687108994, -0.048249926418066025], [-0.04345772787928581, 0.007517047692090273, 0.0834902971982956, -0.09428101778030396, -0.0035501462407410145, -0.011545713059604168, -0.07028010487556458, 0.047355521470308304, 0.008884704671800137, -0.019553115591406822, -0.06677208095788956, 0.20839552581310272, -0.06425927579402924, 0.04708133637905121, -0.034291476011276245, 0.07600285857915878, -0.07756316661834717, -0.032750483602285385, -0.16991250216960907, -0.6840582489967346, -0.25959891080856323, 0.08936315774917603, 0.03782983496785164, 0.0162315983325243, -0.12325044721364975, -0.6623239517211914, 1.035822868347168, -0.13425740599632263], [-0.16247417032718658, 0.14246328175067902, -0.11098407208919525, 0.04707731679081917, -0.00022396496206056327, 0.15083163976669312, -0.21556156873703003, -0.1706518828868866, 0.01279464177787304, -0.049052126705646515, -0.25278764963150024, 0.04269944876432419, 0.041217196732759476, -0.027792129665613174, -0.19483403861522675, -0.13590107858181, -0.08478273451328278, 0.8036133646965027, 0.3459308445453644, 0.13642843067646027, -0.07120183855295181, -0.18562579154968262, -0.22891545295715332, -0.08023600280284882, -0.12185589969158173, -0.13198122382164001, -0.016302036121487617, -0.5719785690307617], [0.19487088918685913, -0.21279564499855042, 0.16571323573589325, -0.37164291739463806, 0.09608561545610428, 0.008197049610316753, -0.05752917006611824, 0.19518530368804932, 0.21003355085849762, -0.14801040291786194, 0.07799120992422104, 0.21352975070476532, -0.15992935001850128, -0.20746147632598877, 0.018661750480532646, 0.06953059136867523, -0.3658355176448822, 0.004827170632779598, -0.5298272967338562, -0.23532021045684814, -0.104823037981987, 0.13184523582458496, 0.0568159781396389, -0.03099086321890354, 0.4986363649368286, 0.30296432971954346, 0.21879439055919647, 0.18949569761753082], [-0.8077711462974548, 0.293034166097641, 0.1348840743303299, 0.26198914647102356, -0.04627608507871628, -0.02319558523595333, -0.282538503408432, -0.23026143014431, -0.2150171399116516, -0.11429496109485626, 0.2677282989025116, 0.06654433161020279, 0.1704597771167755, 0.1919671893119812, -0.2082403600215912, -0.06529807299375534, 0.1732216328382492, 0.09558721631765366, 0.31319382786750793, 0.14762893319129944, -0.08442377299070358, 0.07516594976186752, 0.10610559582710266, -0.08379616588354111, 0.5124159455299377, 0.02163197472691536, 0.3220520317554474, -0.35590222477912903], [0.25943318009376526, -0.0656324177980423, -0.11442616581916809, 0.1141737699508667, -0.07122429460287094, 0.08777240663766861, -0.03667059168219566, 0.02702394314110279, -0.06094658374786377, 0.03613849729299545, 0.038327883929014206, 0.034299712628126144, -0.05220654979348183, 0.038307495415210724, -0.022068001329898834, 0.021063828840851784, -0.09108007699251175, 0.09696588665246964, 0.07587853074073792, 0.28248274326324463, 0.13299152255058289, 0.1505534052848816, 0.25398293137550354, 0.08305757492780685, 0.3428308963775635, 0.009944151155650616, -0.3425382077693939, 1.307320475578308], [0.07237663120031357, 0.02345510572195053, 0.2984474003314972, 0.24541456997394562, -0.04998799040913582, 0.10444325953722, 0.1733550727367401, -0.0552939847111702, 0.23308789730072021, 0.07569878548383713, 0.10663130134344101, -0.09072860330343246, 0.07220708578824997, -0.034225691109895706, -0.05777110531926155, 0.056064262986183167, -0.0985666960477829, 0.2555294334888458, -0.25482282042503357, 0.13869056105613708, -0.02509910613298416, -0.15228652954101562, -0.02534765750169754, 0.1755266636610031, -0.3737167418003082, -0.2003452628850937, 0.7512230277061462, 0.5585435628890991], [0.38233038783073425, -0.04974723979830742, 0.1523260623216629, 0.34709054231643677, 0.14114205539226532, 0.45219266414642334, 0.04850401729345322, 0.13734063506126404, -0.10519993305206299, 0.06452897936105728, -0.18032582104206085, 0.2069081962108612, 0.10097908228635788, -0.05115899816155434, 0.0011973612708970904, 0.065118707716465, -0.18835487961769104, -0.9484397172927856, 0.347881019115448, 0.041879914700984955, 0.4026031494140625, -0.12915758788585663, 0.17829063534736633, 0.11745277792215347, -0.60439133644104, 0.5758074522018433, 0.5055033564567566, -0.5596686005592346], [0.4714477062225342, 0.27984192967414856, 0.27003100514411926, 0.038347985595464706, 0.0461280457675457, -0.0343075729906559, 0.08010233938694, 0.2571968734264374, -0.24150392413139343, -0.18652941286563873, 0.05546630173921585, 0.09857989847660065, -0.06980373710393906, 0.04002777114510536, 0.22649526596069336, -0.032150182873010635, 0.09583930671215057, 0.3788149952888489, -0.1698136031627655, 0.19618244469165802, -0.0863918662071228, -0.12396698445081711, -0.0359981507062912, 0.37746864557266235, 0.672126054763794, -0.42306703329086304, 0.1658058762550354, 0.30022069811820984], [0.09192259609699249, -1.1213759183883667, 0.022910255938768387, -0.2267458140850067, 0.16131412982940674, 0.05112474784255028, -0.8072956204414368, -1.0174468755722046, -0.047491297125816345, 0.34546998143196106, -0.059725236147642136, 0.13868165016174316, 0.08666818588972092, -0.020064249634742737, 0.0781097412109375, 0.22038550674915314, 0.27532994747161865, -0.11759455502033234, -0.00953943096101284, -0.02290707640349865, 0.07177749276161194, -0.04877405986189842, -0.4394608438014984, -0.13786374032497406, -0.5937188863754272, 0.04449339956045151, 0.002738466253504157, 0.04464650899171829], [-0.04188776761293411, -0.07091260701417923, -0.11215049028396606, 0.11953336000442505, -0.04814299941062927, 0.22284559905529022, -0.022142725065350533, -0.3129362165927887, -0.05821229889988899, 0.034321267157793045, -0.07823783904314041, 0.019070589914917946, 0.04169793799519539, 0.004197223111987114, 0.09559594839811325, 0.08167679607868195, 0.13939040899276733, 0.3883204758167267, 0.21307240426540375, -0.2515285909175873, -0.4784380793571472, -0.1188335195183754, -0.20244070887565613, -0.01229217741638422, 0.38406363129615784, -0.046135660260915756, -0.35604533553123474, -0.16592128574848175], [-0.3218404948711395, 0.07422168552875519, 0.2485617846250534, -0.0792224109172821, -0.16524319350719452, -0.262796014547348, 0.14163203537464142, 0.13119910657405853, 0.0932396873831749, 0.10646963119506836, 0.20914381742477417, 0.03868068382143974, 0.09002196788787842, 0.06632714718580246, -0.010326724499464035, -0.07614027708768845, -0.5011838674545288, -0.3308626413345337, -0.40127456188201904, 0.062181975692510605, -0.07201685756444931, 0.01886788383126259, -0.20265740156173706, -0.21019580960273743, 0.31292101740837097, 1.4924896955490112, 0.09075204282999039, 0.06969038397073746], [-0.014393189921975136, 0.22548015415668488, 0.18494956195354462, -0.16405245661735535, 0.03269986808300018, 0.1661272943019867, -0.018141670152544975, 0.2474602907896042, 0.07801360636949539, -0.16687485575675964, 0.07219193130731583, 0.15665261447429657, -0.04333946108818054, -0.015420349314808846, 0.03350956737995148, 0.14050470292568207, 0.16384641826152802, 0.11129263043403625, 0.1415422111749649, 0.3337138295173645, -0.15965206921100616, -0.27793988585472107, 0.1431124061346054, 0.25761497020721436, 0.33780616521835327, -0.436597615480423, 0.016754327341914177, -0.3294491171836853], [0.28693825006484985, -1.3088197708129883, 0.2747989594936371, 0.0917661190032959, 0.1356138437986374, 0.31619271636009216, -1.1258351802825928, -0.964343786239624, -0.09974005818367004, 0.3982064723968506, 0.016508953645825386, 0.15314023196697235, 0.12917804718017578, 0.10393399745225906, -0.09498699754476547, -0.19465160369873047, -0.13384875655174255, 0.3816610872745514, 0.06781239807605743, -0.031096503138542175, 0.17736415565013885, 0.024223335087299347, -0.2514665722846985, -0.3887270987033844, -0.10817017406225204, -0.3715309798717499, 0.11139969527721405, -0.06263621151447296], [0.16843514144420624, -0.9944801926612854, 0.09162431955337524, -0.048630259931087494, -0.00573610607534647, -0.16896863281726837, -0.12700209021568298, -0.2438129186630249, -0.07686048746109009, -0.1040576696395874, 0.044594455510377884, -0.04218505695462227, 0.009428749792277813, -0.060481686145067215, -0.023140931501984596, 0.0068768104538321495, -0.22645822167396545, 0.5759202241897583, -0.05222082510590553, 0.2490898072719574, -0.14804911613464355, -0.020862987264990807, 0.0008897218503989279, 0.15623562037944794, 0.8181930780410767, 0.05193529650568962, 0.17662419378757477, 0.7677982449531555], [-0.34040769934654236, 0.21659903228282928, -0.12463373690843582, 0.19903936982154846, -0.049526240676641464, -0.08876106142997742, -0.19454526901245117, 0.02225400134921074, -0.3371480405330658, -0.03876828774809837, -0.015828769654035568, 0.12089057266712189, -0.0197009164839983, -0.2884083688259125, 0.06612985581159592, 0.208389550447464, 0.03069138340651989, 0.25615331530570984, 0.12111774832010269, 0.538474440574646, 0.3321760296821594, -0.15973106026649475, -0.049144599586725235, 0.08094813674688339, 0.3863600492477417, 0.24305641651153564, -0.5365758538246155, -0.3703414797782898], [-0.07761082053184509, 0.42460256814956665, 0.3534490764141083, -0.1591358631849289, 0.03562849760055542, 0.13043667376041412, 0.2764027416706085, 0.15571656823158264, -0.13921059668064117, 0.13569490611553192, -0.08157346397638321, -0.04677094146609306, -0.11635687947273254, 0.16384850442409515, -0.07664502412080765, -0.013302262872457504, -0.169099822640419, -0.08670832961797714, 0.21402661502361298, -0.014069011434912682, 0.05750130116939545, 0.013609449379146099, 0.007624984718859196, -0.2908099889755249, -0.1710459291934967, 0.529836893081665, -0.17674855887889862, 0.04287136346101761], [0.014173257164657116, 0.21717965602874756, 0.02528080902993679, 0.1921616792678833, 0.11111116409301758, 0.0996680036187172, 0.24566727876663208, -0.013203307054936886, 0.08033895492553711, -0.20752942562103271, 0.16397583484649658, 0.15541164577007294, 0.12774650752544403, 0.1569651961326599, 0.1815195381641388, 0.17511296272277832, -0.23242221772670746, 0.4491591155529022, -0.02389553189277649, -0.10879870504140854, 0.10892872512340546, -0.022868547588586807, -0.25698840618133545, -0.18022307753562927, 0.288987398147583, -0.1350763738155365, 0.05343665927648544, 0.11547228693962097], [-0.5046535730361938, -0.09443707019090652, 0.17690865695476532, 0.4178623855113983, -0.12048390507698059, 0.1418055146932602, 0.05911659449338913, 0.2878427505493164, -1.0634287595748901, 0.20602835714817047, 0.12402965128421783, 0.1920602023601532, -0.29632505774497986, -0.06353555619716644, 0.11443015187978745, 0.051402874290943146, -0.4035956859588623, 0.561497151851654, 0.05548897385597229, -0.15877817571163177, -0.33688464760780334, -0.3676595091819763, 0.11769489198923111, 0.5447657704353333, -0.938345730304718, -0.7625317573547363, -0.2623380124568939, 0.5139690041542053], [0.04351547360420227, 0.06758508086204529, 0.20626212656497955, -1.0790369510650635, -0.07277264446020126, -0.9799567461013794, 0.03472932055592537, -1.036861538887024, -0.028403975069522858, -8.229386003222317e-05, -0.09410490840673447, 0.3869841396808624, 0.058849036693573, -0.12818823754787445, 0.12307870388031006, -0.1719311773777008, 0.07844697684049606, 0.07576964050531387, -0.0627044141292572, 0.015776583924889565, -0.027932530269026756, 0.03665654733777046, 0.0014881244860589504, -0.03348608314990997, -0.4052286744117737, -0.026562532410025597, 0.01330589596182108, 0.0073099881410598755], [0.26494845747947693, 0.09078624099493027, -0.35957080125808716, 0.16271355748176575, -0.2491428703069687, 0.19460543990135193, 0.13929876685142517, 0.030320677906274796, -0.02890346199274063, -0.04243467003107071, 0.34914740920066833, 0.01787853240966797, 0.05135997012257576, -0.009045997634530067, -0.041940826922655106, 0.024466590955853462, -0.034190643578767776, -0.05098864063620567, 0.061303019523620605, 0.0791827067732811, 0.09155186265707016, -0.030269527807831764, -0.02144843339920044, -0.38575685024261475, -0.6169782280921936, 0.4632289409637451, -0.5391475558280945, 0.35769808292388916], [0.09655497223138809, 0.03910234943032265, 0.13360367715358734, 0.05403130501508713, 0.16552406549453735, -0.08406044542789459, 0.23725223541259766, 0.027398789301514626, -0.017126012593507767, -0.07013822346925735, 0.17300274968147278, -0.03977808728814125, -0.016701070591807365, 0.004095613490790129, 0.06782559305429459, -0.13947340846061707, -0.21329094469547272, -0.5087329745292664, -0.061252910643815994, -0.017972508445382118, 0.19745948910713196, -0.25484713912010193, -0.19605578482151031, 0.17759354412555695, -0.0004756102862302214, -0.038755789399147034, 0.271659255027771, -0.7632690072059631], [0.26278460025787354, -0.39818650484085083, -0.4818982183933258, -0.30618175864219666, 0.19860312342643738, -0.007085307501256466, -0.31246069073677063, -0.573156476020813, 0.4015963673591614, -0.31372013688087463, -0.4751574993133545, 0.1419961154460907, 0.16016477346420288, 0.4369600713253021, -0.22348356246948242, -0.34950652718544006, 0.04329409450292587, 0.19650615751743317, -0.15157374739646912, -0.24502477049827576, -0.09197042882442474, -0.09793560206890106, 0.21498644351959229, -0.34269288182258606, -0.10484610497951508, 0.4608515202999115, 0.2444617599248886, -0.1583990752696991], [-0.3102126121520996, -0.4710957407951355, -0.4484017789363861, 0.02682984247803688, -0.4303881525993347, -0.16719457507133484, -0.021541664376854897, 0.3253592848777771, -0.3458736538887024, -0.2137027233839035, -0.31178903579711914, 0.0839383602142334, -0.0752364993095398, -0.17876556515693665, 0.06033424660563469, -0.0910876914858818, 0.24060240387916565, 0.06871124356985092, 0.2795174717903137, -0.25380244851112366, 0.15909947454929352, -0.03537951782345772, -0.03596729412674904, -0.11004216223955154, 0.23955188691616058, 0.03867349401116371, -0.0765354335308075, -0.10914283990859985], [0.20990429818630219, 0.13402509689331055, 0.2319037765264511, 0.3502568304538727, 0.36430639028549194, 0.022488264366984367, 0.33786386251449585, 0.32216787338256836, -0.0064218537881970406, 0.22028425335884094, 0.004653561860322952, -0.015387997962534428, 0.09794934839010239, 0.020216159522533417, -0.006678752135485411, 0.10591387003660202, 0.023396719247102737, -0.13618651032447815, -0.14911243319511414, -0.2300698310136795, 0.05924330651760101, -0.09516575932502747, 0.11846626549959183, -0.2263219952583313, -0.09788814187049866, 0.18902811408042908, -0.03311958163976669, 0.0004268093325663358], [0.044851988554000854, 0.0369299091398716, -0.2982775568962097, -0.8108773827552795, 0.016557592898607254, 0.04336357116699219, 0.33475109934806824, -0.17484727501869202, -0.0015379039105027914, 0.06699486076831818, -0.2177562266588211, 0.3548406958580017, -0.07863526046276093, -0.026835795491933823, -0.09348797053098679, 0.06283599138259888, 0.0034312375355511904, -0.2466973513364792, -0.32193613052368164, 0.26674360036849976, -0.09877963364124298, -0.08733492344617844, 0.0759022980928421, -0.08379130065441132, -0.24960093200206757, -0.1675586849451065, 0.6254675388336182, 0.05977435037493706], [0.23658674955368042, -0.38084542751312256, 0.17914357781410217, -0.08442740142345428, -0.05471676588058472, -0.08610023558139801, 0.03482484817504883, -0.08885714411735535, -0.10475418716669083, 0.23279829323291779, -0.12275541573762894, 0.07678180187940598, 0.005933229811489582, 0.051742468029260635, 0.18732544779777527, -0.015309612266719341, 0.027789874002337456, 0.16642244160175323, -0.12161201238632202, 0.041513387113809586, 0.08324465155601501, -0.009349720552563667, -0.683132529258728, 0.11327169835567474, 0.22508391737937927, -0.5939226150512695, 0.7452134490013123, 0.08101368695497513], [0.1500874012708664, -1.2237615585327148, 0.1532803475856781, 0.10098066926002502, 0.09230732172727585, -0.03527563810348511, -0.32840386033058167, -0.04683395102620125, -0.04955330491065979, -0.24641454219818115, 0.14839553833007812, 0.027590947225689888, 0.003398117609322071, 0.012417931109666824, -0.053861550986766815, 0.07965182512998581, 0.450257271528244, 0.32820484042167664, -0.038782913237810135, 0.14497976005077362, 0.09356217086315155, -0.11965908110141754, 0.6716750860214233, 0.07104302942752838, 0.36135023832321167, 0.3946245610713959, -0.44504836201667786, -0.184799462556839], [0.48358359932899475, -0.04710042476654053, -0.14269813895225525, 0.1601347178220749, 0.3098878860473633, -0.07956133037805557, 0.1777164489030838, -0.03116747923195362, 0.2023531198501587, 0.1320435106754303, 0.10177959501743317, 0.08586183935403824, -0.1641387790441513, 0.10646707564592361, -0.12422191351652145, -0.10519175976514816, 0.07565285265445709, 0.3753381371498108, -0.10223264247179031, 0.062440816313028336, 0.022898009046912193, 0.01634596288204193, -0.13990619778633118, 0.040361784398555756, -0.16690951585769653, 0.049517951905727386, -0.2976723313331604, -0.31193143129348755], [0.04265487194061279, -0.48649391531944275, 0.14028459787368774, -0.1362026035785675, -0.07867656648159027, -0.2515146732330322, 0.0848848894238472, -0.07691764086484909, 0.023194007575511932, -0.005143700633198023, 0.0848274976015091, 0.12514382600784302, 0.044813089072704315, 0.05515545234084129, 0.05708328261971474, -0.046469464898109436, 0.08222953230142593, 0.47196030616760254, 0.16067424416542053, 0.060534242540597916, 0.17565815150737762, 0.025135813280940056, 0.22438831627368927, -0.4090536832809448, 0.059980813413858414, -0.20156386494636536, -0.2491794228553772, -0.6365973949432373], [0.08382940292358398, 0.025520913302898407, 0.15066900849342346, -0.5016503930091858, 0.17498910427093506, -0.303177148103714, 0.20758767426013947, -0.17856013774871826, -0.07235535979270935, -0.17738044261932373, -0.1651155799627304, 0.21656827628612518, -0.000545547460205853, 0.1211291030049324, -0.0672670528292656, -0.040397435426712036, -0.12482848763465881, -0.01408508699387312, 0.537269651889801, -0.3212237060070038, 0.34242674708366394, -0.09303676337003708, 0.3237758278846741, -0.32467028498649597, -0.4843471348285675, 0.1202750951051712, -0.3438799977302551, 0.26441094279289246], [-0.19585014879703522, -0.1816485971212387, -0.27756842970848083, -0.13204970955848694, -0.22385960817337036, -0.16985243558883667, 0.09826572984457016, 0.21188248693943024, 0.3641625642776489, -0.12993007898330688, 0.052050232887268066, 0.06888701021671295, 0.17259351909160614, 0.1721191555261612, -0.2438209503889084, -0.24286510050296783, -0.2638019323348999, 0.026483962312340736, -0.024599792435765266, 0.003786765970289707, 0.32577136158943176, -0.204140305519104, -0.07226313650608063, -0.09849848598241806, -0.06605345010757446, 0.1767711043357849, -0.4540414810180664, -0.25433769822120667], [0.06718243658542633, -0.05366125702857971, 0.05947564169764519, 0.21600480377674103, 0.2624068558216095, 0.4793740212917328, 0.07323829084634781, -0.09674502909183502, -0.03296131640672684, 0.005380614660680294, -0.02361331693828106, -0.01683143712580204, -0.06758347898721695, -0.004900077823549509, -0.042535364627838135, -0.01786487177014351, -0.2515885531902313, -0.09082885831594467, -0.9999323487281799, -0.4718678891658783, 0.11155668646097183, 0.03121386095881462, -0.28151994943618774, -0.25167572498321533, -0.12844042479991913, 0.5501871705055237, -0.6891031861305237, 1.0748337507247925], [-0.06937717646360397, -0.11375043541193008, -1.2918567657470703, 0.055970966815948486, -1.213606357574463, -0.06782534718513489, -1.1811442375183105, 0.018549863249063492, 0.11001308262348175, 0.15934772789478302, 0.46852919459342957, -0.007334882393479347, -0.08270058035850525, 0.05186352878808975, -0.07417174428701401, -0.01598340831696987, -0.021144064143300056, -0.024670159444212914, -0.033729877322912216, 0.055171918123960495, -0.17698051035404205, 0.04996947944164276, -0.15320315957069397, 0.06286327540874481, 0.01532429177314043, 0.26145413517951965, 0.06698381900787354, -0.01912703551352024], [-0.6391821503639221, 0.3854495584964752, 0.09671296179294586, 0.07126845419406891, -0.21059969067573547, -0.09686935693025589, -0.03690321370959282, 0.12080537527799606, 0.1759234517812729, -0.027226649224758148, -0.5577033758163452, -0.09230432659387589, -0.034353166818618774, 0.14398352801799774, -0.30008623003959656, -0.17773549258708954, 0.12948983907699585, 0.06699099391698837, 0.0577438585460186, 0.16041427850723267, -0.17790015041828156, -0.7873235940933228, -0.06841839104890823, 0.0460604652762413, 0.425219863653183, 0.3160427212715149, 0.07333681732416153, 0.06193999573588371], [-0.022615069523453712, -0.2714075446128845, 0.25638410449028015, 0.21009354293346405, -0.23198187351226807, -0.17451158165931702, -0.11114557832479477, 0.12030873447656631, 0.09693854302167892, -0.07560254633426666, 0.08632922917604446, -0.26431959867477417, 0.003345094621181488, -0.16766925156116486, -0.031278371810913086, 0.0010061698267236352, 0.045330774039030075, -0.5235494375228882, 0.1806241124868393, -0.11986988037824631, 0.0764039158821106, -0.08973430097103119, -0.07321393489837646, 0.07964533567428589, 0.27964097261428833, -0.5318151116371155, 0.32151737809181213, -0.11359722912311554], [0.024249007925391197, 0.14727188646793365, 0.16806229948997498, -1.479085087776184, 0.015617284923791885, -1.2418309450149536, -0.028931308537721634, -1.062371015548706, 0.16711317002773285, 0.0886281207203865, -0.07983911037445068, 0.17269112169742584, -0.14422960579395294, 0.22681833803653717, -0.07924522459506989, 0.23246502876281738, 0.04636525735259056, 0.027565117925405502, 0.06213584914803505, -0.26596078276634216, 0.09303726255893707, -0.2255069613456726, 0.1332775354385376, -0.2017611265182495, -0.3171042203903198, -0.053696684539318085, 0.06667540967464447, -0.08171065896749496], [-0.0027983549516648054, -1.5628377199172974, 0.16555824875831604, -0.024829046800732613, 0.0395759642124176, 0.057215556502342224, 0.26693540811538696, 0.009817824698984623, 0.13538067042827606, -0.4287157654762268, 0.2124422788619995, 0.18629975616931915, 0.0071771335788071156, -0.20730161666870117, 0.2411949783563614, -0.12117526680231094, -0.11577057838439941, -0.5164555311203003, 0.0951307862997055, 0.19227059185504913, 0.17996959388256073, -0.3564773499965668, -0.09542328119277954, 0.0803418681025505, 0.30400606989860535, 0.4750877916812897, 0.3342505395412445, -0.31138426065444946], [-1.264848232269287, 0.2551629841327667, 0.2477014660835266, 0.22500894963741302, -1.1256060600280762, -0.6853014230728149, 0.06827044486999512, -0.03938707709312439, 0.2196362465620041, -0.07917831838130951, -0.05179492011666298, -0.020625194534659386, 0.14646106958389282, 0.07085826992988586, 0.0034896559081971645, 0.02990979515016079, -0.219435453414917, -0.021388329565525055, -0.08493158966302872, -0.04257633537054062, -0.09181621670722961, 0.04773127660155296, 0.03075634501874447, 0.0410577729344368, -0.4574878215789795, -0.24601128697395325, -0.02981794998049736, -0.12431389838457108], [-0.12763307988643646, -1.9004430770874023, 0.036644097417593, 0.18542343378067017, 0.0065260473638772964, 0.14302527904510498, -0.2009580135345459, -0.02756284922361374, 0.20974542200565338, -0.3577794134616852, 0.059605106711387634, 0.18773402273654938, 0.10484589636325836, 0.1307538002729416, 0.09911447018384933, 0.060645539313554764, 0.1461816430091858, -0.1706390231847763, 0.07864653319120407, -0.5615462064743042, -0.05301263928413391, 0.16698534786701202, -0.16386622190475464, 0.16255590319633484, 0.2360832840204239, 0.054631441831588745, 0.2545296847820282, -0.0034190178848803043], [-0.11340479552745819, -0.0489685982465744, 0.275655061006546, 0.0819956585764885, 0.16490624845027924, -0.26344624161720276, 0.2326335459947586, -0.13641908764839172, 0.0684223473072052, -0.004682627972215414, 0.30649301409721375, 0.09125010669231415, -0.10309571772813797, -0.03228818625211716, 0.008080552332103252, 0.023818623274564743, -0.041928574442863464, -0.5310534238815308, -1.1978191137313843, 0.016905665397644043, 0.2569845914840698, -0.8433927297592163, 0.12354238331317902, -0.040944140404462814, -1.2807676792144775, -0.2175278216600418, -0.9506227374076843, -0.013793738558888435], [-0.08593470603227615, 0.1181953176856041, -0.011162727139890194, 0.43360182642936707, 0.05935965105891228, 0.19081468880176544, -0.00642355065792799, 0.08775072544813156, 0.013990404084324837, 0.0035564848221838474, -0.04161376878619194, -0.04121999442577362, -0.09237878024578094, -0.07421254366636276, -0.032118961215019226, 0.036850858479738235, -0.01097871270030737, -0.19064690172672272, 0.29145869612693787, 0.21886909008026123, -0.11820407956838608, -0.1398729830980301, -0.06391998380422592, 0.258699506521225, -0.034616049379110336, -0.3407904803752899, 0.06282766163349152, 0.23783355951309204], [0.16694435477256775, -0.19062009453773499, -0.4397205412387848, 0.17955520749092102, -0.3566594421863556, 0.048743147403001785, -0.23930948972702026, 0.02288624830543995, 0.050057634711265564, 0.1001109629869461, 0.10603056102991104, 0.1873611956834793, -0.10127747058868408, -0.09342259913682938, 0.15230172872543335, 0.07732462137937546, -0.26593226194381714, 0.0033130557276308537, 0.07296665757894516, -0.12228576838970184, 0.14546655118465424, -0.14916515350341797, 0.11574038118124008, 0.200626939535141, 0.4277692139148712, -0.43575552105903625, -0.8223705887794495, 0.21874091029167175], [0.14577716588974, 0.35129064321517944, -0.0003263977123424411, 0.442840039730072, -0.10468384623527527, 0.26899370551109314, 0.14281554520130157, 0.4767744839191437, -0.15570303797721863, -0.08394129574298859, -0.019794072955846786, 0.23256637156009674, 0.18922120332717896, -0.03642469272017479, 0.04558141157031059, 0.15576468408107758, 0.1024247258901596, -0.2790975570678711, -0.3283291459083557, 0.07470235973596573, -0.01589985005557537, -0.029302340000867844, 0.1664392352104187, -0.22161337733268738, 0.40834280848503113, 0.5548843741416931, 0.036365434527397156, 0.10294918715953827], [0.13933390378952026, 0.1263219118118286, 0.057549573481082916, -0.8668066263198853, 0.05730559676885605, -0.5854822993278503, 0.1438503861427307, -0.6965032815933228, -0.16987331211566925, -0.15839950740337372, -0.08131063729524612, 0.22560317814350128, 0.0006273221806623042, 0.09604441374540329, -0.08031889796257019, 0.2664441168308258, -0.23445896804332733, -0.02183009497821331, 0.09273992478847504, -0.45217186212539673, -0.030729450285434723, 0.2809605896472931, 0.15423353016376495, 0.28577202558517456, -0.06875663995742798, 0.5367044806480408, -0.00421104347333312, -0.15028181672096252], [-0.12185966223478317, 0.240388423204422, 0.2648409307003021, -0.026300888508558273, -0.09436390548944473, -0.015298215672373772, 0.06506781280040741, -0.15054242312908173, 0.15400448441505432, 0.10996424406766891, -0.16163021326065063, -0.01995924487709999, 0.03260617330670357, -0.005127333104610443, 0.199388787150383, 0.15850970149040222, 0.07375338673591614, -0.5232802629470825, 0.13727320730686188, -0.23775246739387512, -0.10383760929107666, 0.12396825850009918, 0.010378790087997913, -0.11936735361814499, 0.02851247414946556, 0.5884984135627747, 0.22077970206737518, -0.6608442068099976], [0.1299295872449875, -1.4122117757797241, -0.07338379323482513, -0.06393667310476303, 0.06644146144390106, -0.060852210968732834, -1.1135621070861816, -0.9788990020751953, -0.020228441804647446, 0.35948091745376587, 0.04167049378156662, 0.09670814871788025, -0.023287009447813034, -0.06485553085803986, 0.0697789415717125, 0.21808265149593353, -0.3043341338634491, 0.06982360780239105, 0.10016782581806183, 0.13338959217071533, -0.07096562534570694, 0.027273572981357574, 0.05310337245464325, -0.10796944051980972, -0.5710507035255432, -0.27532243728637695, 0.016613535583019257, -0.014919588342308998], [0.0005706934025511146, 0.11760410666465759, -0.1366017609834671, 0.4128326177597046, -0.5117766857147217, -0.00014890031889081, 0.04850490391254425, -0.2033037394285202, 0.03844330087304115, -0.07689470052719116, 0.21839886903762817, -0.040856800973415375, -0.1481085568666458, 0.04751142859458923, 0.005804956890642643, 0.05133621767163277, -0.16395556926727295, -0.0900607779622078, 0.38795483112335205, 0.2259884625673294, 0.1054898202419281, -0.09042930603027344, -0.10818658024072647, 0.27199891209602356, 0.35775548219680786, 0.09583275765180588, 0.07256101071834564, -0.14397358894348145], [0.07445155084133148, 0.4724785387516022, 0.020292023196816444, -0.30269208550453186, 0.08086149394512177, 0.02620101533830166, 0.26485225558280945, 0.26554498076438904, 0.06929251551628113, -0.03766098618507385, -0.10027450323104858, 0.10486797243356705, -0.03351062536239624, 0.17527979612350464, -0.10898614674806595, -0.27484390139579773, -0.506657600402832, 0.11781129986047745, -0.38035038113594055, 0.03989505022764206, -0.5063477754592896, 0.07351458817720413, -0.3421589136123657, 0.014865177683532238, -0.30831247568130493, 0.15701453387737274, 0.8534163236618042, -0.0339382141828537], [0.09885991364717484, 0.6238411068916321, 0.07886867225170135, 0.0019642289262264967, 0.12886425852775574, -0.12642045319080353, 0.3193424344062805, -0.015817221254110336, -0.1829432100057602, -0.003053811378777027, 0.08232584595680237, 0.14226332306861877, 0.07694091647863388, -0.013125498779118061, -0.08593709766864777, 0.16785430908203125, 0.16697809100151062, -0.16537156701087952, 0.03745272010564804, -0.2276434749364853, -0.08096365630626678, -0.030750801786780357, 0.08123195916414261, 0.08647584170103073, -0.1222490668296814, 0.6622996926307678, 0.8959494233131409, -0.18739955127239227], [-0.16576837003231049, -0.1038886085152626, 0.1275244951248169, -0.23509684205055237, 0.11583216488361359, 0.1173817440867424, -0.28526049852371216, -0.3151583969593048, 0.18411053717136383, 0.19254134595394135, -0.11971867084503174, 0.13143500685691833, -0.08293100446462631, 0.11508800834417343, 0.056377511471509933, 0.11934357136487961, -0.5857341885566711, -0.10259503871202469, 0.15112563967704773, -0.012083102948963642, -0.32885482907295227, -0.0014716109726577997, 0.0011137105757370591, -0.10814548283815384, -0.6024817824363708, -0.2567307949066162, 0.10305292159318924, -0.4079338610172272], [0.0957803949713707, 0.04691512882709503, 0.03142302483320236, 0.15368464589118958, 0.012041107751429081, 0.05294962227344513, -0.07689938694238663, -0.03404701128602028, -0.02599896676838398, -0.053602077066898346, -0.06495120376348495, 0.035308241844177246, 0.008756516501307487, -0.018734844401478767, -0.011744082905352116, -0.009288603439927101, 0.22983546555042267, -0.027030088007450104, -0.05247136205434799, 0.5023215413093567, 0.08298464119434357, -0.018759028986096382, 0.08940200507640839, -0.10234716534614563, 0.06279955804347992, -0.09821164608001709, -0.7216970324516296, 0.03495679050683975], [-0.0753369927406311, -0.4117048978805542, 0.29602161049842834, 0.18886996805667877, 0.1072053611278534, 0.09650645405054092, 0.08143838495016098, -0.020995281636714935, -0.036723051220178604, 0.12568458914756775, 0.011175666935741901, -0.09458493441343307, 0.06661307066679001, -0.08761865645647049, 0.10345875471830368, -0.04993559792637825, 0.24226321280002594, 0.24376754462718964, 0.27542439103126526, -0.2073228657245636, -0.04893733561038971, 0.12120784819126129, 0.02243364043533802, -0.16645468771457672, -0.1700195074081421, -0.07424931973218918, 0.33871081471443176, 0.7346884608268738], [-0.19021590054035187, 0.08264726400375366, 0.3595573902130127, 0.2744075059890747, 0.23612961173057556, -0.147196426987648, 0.135221928358078, 0.09795522689819336, 0.11465779691934586, -0.09343152493238449, 0.1840420663356781, 0.10841839015483856, 0.15922945737838745, 0.04307243227958679, -0.06949450075626373, -0.04710173234343529, 0.09242746233940125, 0.15990190207958221, 0.2921135723590851, -0.802605926990509, 0.16217519342899323, 0.06861277669668198, 0.18065090477466583, 0.03519342467188835, -0.08470387011766434, -0.21653911471366882, -0.09489883482456207, -0.05036178231239319], [-0.03237597644329071, 0.04518609493970871, 0.01420227438211441, -0.2936328053474426, -0.31365981698036194, -0.18577398359775543, -0.03247930482029915, -0.6459733247756958, -0.25023284554481506, 0.06651123613119125, -0.21167834103107452, -0.027445392683148384, 0.07070448249578476, 0.2625415027141571, -0.005899614188820124, 0.0453747995197773, 0.030765201896429062, -0.029864296317100525, -0.1385747492313385, -0.15291593968868256, 0.08457966148853302, -0.31665828824043274, 0.1472848802804947, 0.11764825135469437, 0.4711344242095947, 0.02817622944712639, -0.04474551975727081, 0.308322936296463], [0.05857625976204872, 0.0765153020620346, -0.14759396016597748, 0.3774450123310089, 0.10450594127178192, 0.036363981664180756, 0.14682823419570923, -0.06924819201231003, -0.3727121353149414, -0.29545027017593384, 0.10394249856472015, -0.49754655361175537, -0.06975352019071579, -0.39687758684158325, 0.11935363709926605, -0.34062421321868896, 0.34081676602363586, -0.02853260189294815, 0.042074333876371384, 0.01209653913974762, 0.07610061019659042, 0.3292194902896881, 0.03187350556254387, -0.009972497820854187, -0.2584241032600403, -0.3331107795238495, -0.16227583587169647, -0.0043095010332763195], [-0.020673135295510292, 0.11267416924238205, 0.16854487359523773, -0.016958730295300484, 0.0670747458934784, -0.10381518304347992, -0.04701021686196327, 0.010581396520137787, 0.02078084647655487, 0.01204360369592905, -0.06648461520671844, 0.01803814247250557, -0.04685322940349579, -0.05957605317234993, 0.023158421739935875, 0.039981745183467865, -0.511322021484375, -0.25929340720176697, -0.20869281888008118, 0.303469717502594, -0.20786631107330322, 0.21530109643936157, -0.01026072632521391, -0.007907208055257797, 0.17900998890399933, 0.21258918941020966, 1.1110717058181763, -0.19893278181552887], [-0.01786736212670803, -0.09010136127471924, -0.07242637127637863, 0.24160023033618927, -0.5460945963859558, -0.01885145530104637, 0.00941972155123949, 0.10108612477779388, -0.5436859130859375, -0.516879141330719, -0.6121997237205505, 0.25542446970939636, -0.2874649167060852, -0.23840411007404327, -0.5120105147361755, -0.5577179193496704, 0.09142407774925232, -0.02280501276254654, 0.04663165658712387, 0.30911460518836975, -0.23051521182060242, -0.3669300079345703, -0.46123290061950684, 0.3890727460384369, 0.57981276512146, 0.6634330153465271, -0.16843535006046295, -0.06826505810022354], [-0.10863449424505234, 0.14868921041488647, 0.2270759642124176, -0.12950828671455383, -0.062265146523714066, 0.058895278722047806, 0.07171177864074707, 0.260763019323349, 0.3240675926208496, -0.018255675211548805, 0.05762920901179314, -0.09051606059074402, -0.0480864942073822, 0.22485630214214325, 0.013873684220016003, -0.03100370615720749, 0.24809367954730988, -0.10754387825727463, -0.22721272706985474, 0.3832665681838989, 0.05735378712415695, 0.363985538482666, -0.44316068291664124, -0.21643507480621338, -0.4636632204055786, -0.4918222427368164, 0.8409509658813477, -0.8669061064720154], [0.17864564061164856, 0.13289983570575714, 0.1716621369123459, 0.2650021016597748, 0.06048157066106796, 0.3070980906486511, 0.2376154214143753, 0.3403874933719635, -0.1031036302447319, 0.0022079236805438995, 0.00361849763430655, -0.1728237271308899, -0.06722383946180344, 0.03843500092625618, 0.025531873106956482, -0.11764070391654968, -0.24592727422714233, -0.1150435283780098, -0.1966906636953354, -0.2702101469039917, -0.141350656747818, -0.039553191512823105, 0.019766658544540405, 0.08236764371395111, 0.6997189521789551, 0.5591835379600525, -0.024484926834702492, -0.08544674515724182], [0.6148882508277893, 0.2967955768108368, 0.22146789729595184, 0.02693994902074337, 0.0131038473919034, 0.20679165422916412, 0.45625677704811096, 0.11515121161937714, 0.03218811750411987, -0.2669268548488617, 0.11651815474033356, 0.030610112473368645, 0.03926271200180054, -0.09652572125196457, -0.06550314277410507, 0.02373342029750347, 0.016062919050455093, -0.2854258418083191, 0.19735804200172424, -0.20349286496639252, -0.040768999606370926, 0.07214944064617157, -0.19723322987556458, -0.23038505017757416, 0.07595183700323105, -0.6516134142875671, 0.09342414140701294, -0.2329941987991333], [-0.13252858817577362, 0.21358118951320648, 0.14453741908073425, -0.08210354298353195, -0.25918078422546387, 0.04207431524991989, 0.3275536000728607, -0.045329246670007706, 0.004464589525014162, -0.1181924045085907, 0.01853734441101551, 0.02401082031428814, -0.03025711514055729, 0.009399054571986198, 0.1142718568444252, 0.001643300405703485, 0.10297250747680664, -0.09978819638490677, -0.44188597798347473, 0.18030019104480743, 0.12049371749162674, 0.06253066658973694, -0.021473092958331108, -0.1109355092048645, 0.2069278508424759, 0.09134522080421448, 0.6919735074043274, -0.7552544474601746], [0.1729634404182434, 0.06073569506406784, -0.04573143646121025, -1.3393003940582275, -0.09066002070903778, -0.1885756403207779, 0.0727795958518982, 0.14282622933387756, -0.1056867316365242, 0.05020919814705849, 0.0011704714270308614, -0.14106601476669312, -0.03875061497092247, -0.045402877032756805, 0.0588957816362381, 0.02594151347875595, 0.021616322919726372, -0.011213178746402264, 0.2198178470134735, -0.04354996979236603, 0.10611073672771454, -0.36425334215164185, 0.4570527970790863, 0.11327032744884491, -0.15923628211021423, 0.23719936609268188, 0.035750050097703934, 0.2521383762359619], [-0.4077778160572052, -0.8968902230262756, 0.0014069359749555588, -0.10463304817676544, -0.08271335065364838, -0.15391318500041962, -1.071773648262024, -0.5908161401748657, -0.251308411359787, 0.16887055337429047, -0.07216816395521164, -0.12188693135976791, 0.18439310789108276, 0.06578780710697174, -0.07991631329059601, -0.07970777153968811, -0.19527864456176758, -0.14686940610408783, 0.11573871225118637, 0.013041159138083458, 0.1331154704093933, -0.21576909720897675, -0.028051011264324188, -0.1408844292163849, -0.10865041613578796, 0.37903356552124023, 0.04341106861829758, -0.1231541633605957], [0.0657234713435173, -0.0790390595793724, -0.21927888691425323, -0.10754602402448654, -0.04748202860355377, -0.10890280455350876, -0.038769423961639404, 0.019282665103673935, 0.024742677807807922, -0.08890573680400848, -0.01633044332265854, 0.016479596495628357, 0.02280685491859913, 0.0486137755215168, -0.022386832162737846, -0.030834589153528214, -0.670953631401062, -0.05913659557700157, -0.009749403223395348, -0.10919652134180069, -0.07957043498754501, -0.012626958079636097, 0.6315147876739502, -0.17227178812026978, 0.012711738236248493, -0.10003805160522461, 0.5688192248344421, -1.1465100049972534], [-0.10630717128515244, -0.1971413791179657, -0.389557421207428, -0.08195796608924866, -0.29466092586517334, 0.2263355702161789, -1.6291502714157104, -0.14596547186374664, -0.1452558934688568, 0.1764688789844513, 0.293911337852478, -0.09572114050388336, 0.21410347521305084, -0.005188473500311375, 0.032662004232406616, 0.10971871018409729, -0.052444249391555786, 0.25567537546157837, 0.08849669992923737, -0.019128689542412758, -0.15246881544589996, -0.2588866353034973, -0.05529334396123886, -0.16041986644268036, -0.17315082252025604, -0.3493409752845764, -0.10296463221311569, 0.11352146416902542], [0.05732102319598198, 0.0853288322687149, -0.9595810174942017, -0.9917897582054138, 0.274944931268692, -0.8078956007957458, 0.21900229156017303, -0.7365560531616211, 0.12804090976715088, 0.08742762356996536, -0.5707894563674927, 0.03531107306480408, 0.044542454183101654, 0.11275172233581543, 0.12407267838716507, -0.1603277325630188, 0.023286381736397743, 0.08613328635692596, -0.10942786186933517, 0.2791178524494171, 0.06270921230316162, -0.32828599214553833, -0.07861623913049698, -0.16707199811935425, 0.31512701511383057, -0.17940613627433777, 0.1387913078069687, 0.03156158700585365], [0.0985867902636528, -0.06801009178161621, 0.11139005422592163, -0.892673671245575, 0.3704242706298828, -0.4045344293117523, 0.14313679933547974, -0.34693118929862976, 0.056319911032915115, -0.05472218617796898, 0.07636608183383942, 0.22616004943847656, -0.1177835613489151, 0.19683107733726501, -0.05330990254878998, 0.18482589721679688, 0.13107770681381226, 0.1229429617524147, 0.24675218760967255, -0.038123853504657745, 0.12335892021656036, -0.5925915837287903, -0.09508838504552841, 0.4056893587112427, 0.028582759201526642, -0.09450533241033554, 0.08715187758207321, -0.013547762297093868], [0.20585693418979645, 0.15668846666812897, 0.23115988075733185, -0.34772759675979614, -0.005612113978713751, -0.15864531695842743, 0.18211355805397034, -0.07961366325616837, -0.0017980709671974182, 0.011208566837012768, 0.07840719074010849, -0.36891183257102966, 0.04287424683570862, -0.06117233633995056, 0.04329903423786163, -0.017513399943709373, -0.16184629499912262, 0.6031006574630737, -0.07596881687641144, -0.6267393827438354, 0.11766325682401657, -0.21366292238235474, 0.11816953867673874, 0.12469478696584702, 0.010044531896710396, 0.15783926844596863, 0.8963294625282288, 0.12516863644123077], [0.06972311437129974, 0.11381319910287857, 0.03473016992211342, -0.25756368041038513, 0.10375306010246277, 0.04529491811990738, 0.15260891616344452, 0.22444306313991547, -0.17520838975906372, 0.04182979464530945, -0.17293916642665863, 0.08990888297557831, 0.06422819942235947, 0.09177856892347336, 0.17152756452560425, 0.1445431262254715, 0.2918985188007355, 0.4573821425437927, 0.46148523688316345, 0.004866237752139568, 0.08053452521562576, 0.006174029782414436, 0.09131975471973419, 0.12613064050674438, -0.34460482001304626, -0.12110596895217896, 0.18493886291980743, 0.24829430878162384], [-0.05960315465927124, 0.022472310811281204, -1.8870784044265747, -0.11454121768474579, -0.263100266456604, 0.11129177361726761, -0.10514560341835022, 0.19102181494235992, 0.12530159950256348, 0.12021878361701965, -0.5514654517173767, 0.2624534070491791, -0.1005048155784607, -0.0555146262049675, 0.047573767602443695, 0.13194218277931213, -0.510389506816864, -0.1804870218038559, -0.10477177053689957, 0.18470272421836853, -0.1700887680053711, 0.18288347125053406, -0.33868616819381714, 0.0825357735157013, 0.22898639738559723, 0.4832596182823181, 0.6771969795227051, 0.07922565191984177], [0.177216574549675, 0.056500159204006195, -1.4527170658111572, -0.0419386550784111, -0.8971828818321228, -0.032507333904504776, -0.7977585196495056, 0.12580183148384094, -0.12074439972639084, -0.0542929545044899, 0.09024249017238617, 0.005356122739613056, 0.30149123072624207, 0.01795188896358013, 0.25602060556411743, -0.06752754747867584, 0.10164892673492432, 0.07154154777526855, -0.12707175314426422, -0.06749842315912247, 0.2505600154399872, -0.1032126322388649, -0.06933387368917465, 0.014024556614458561, -0.2088908553123474, -0.17455783486366272, -0.14394311606884003, -0.02678590640425682], [-0.7835153937339783, 0.3778260350227356, -0.20323564112186432, -0.08366281539201736, 0.05005176365375519, -0.07304193824529648, -0.10002076625823975, -0.3055559992790222, -0.772908091545105, 0.04768834263086319, 0.20481882989406586, -0.4274604320526123, 0.5793633460998535, -0.4255792796611786, -0.18699082732200623, -0.3266350328922272, -0.39852413535118103, 0.21074563264846802, -0.28163501620292664, 0.22149886190891266, -0.0404156856238842, 0.3097158372402191, 0.1481603980064392, 0.12009787559509277, 0.20958349108695984, -0.03931107744574547, 0.1401701122522354, 0.10419502854347229], [-1.2953627109527588, 0.03244170546531677, 0.13329137861728668, -0.04665178060531616, -1.2320232391357422, -1.1147119998931885, -0.0021646819077432156, 0.16550502181053162, 0.2899503707885742, -0.09755807369947433, 0.09776926785707474, 0.11089930683374405, -0.1664353311061859, -0.24373731017112732, 0.1474723517894745, 0.10531412810087204, 0.1116003766655922, -0.09668011963367462, -0.04565885663032532, 0.035728950053453445, -0.058065496385097504, -0.1763562262058258, -0.16524873673915863, -0.06705401837825775, -0.06278263032436371, 0.2387280911207199, 0.028257492929697037, -0.2171749472618103], [0.20342987775802612, -0.049039971083402634, 0.08350668102502823, -0.0978049784898758, 0.1542646884918213, 0.08053974062204361, 0.04660741984844208, -0.008872081525623798, 0.016570933163166046, -0.04077135771512985, -0.07584214955568314, 0.10887297987937927, 0.050238125026226044, 0.023736579343676567, -0.007004400249570608, 0.04142213240265846, -0.2124156355857849, 0.028897888958454132, 0.11577187478542328, -0.6972420811653137, 0.03107490949332714, -0.07847563922405243, -0.02164428122341633, 0.010250377468764782, 0.07739297300577164, 0.13015344738960266, 1.2153352499008179, 0.337302565574646], [-0.2544017732143402, -0.035114116966724396, -0.209331676363945, -0.3178936243057251, 0.21446460485458374, 0.025311537086963654, 0.16622823476791382, -0.13454367220401764, 0.02335301786661148, 0.05889531970024109, -0.3355207145214081, -0.07584880292415619, -0.24313822388648987, 0.16382083296775818, 0.018903331831097603, 0.10333985090255737, 0.5976852178573608, -0.008254782296717167, 0.22369739413261414, -0.10190282016992569, 0.154574915766716, 0.3777957558631897, -0.01129683293402195, 0.024410489946603775, 0.10459904372692108, 0.41515469551086426, -0.31745001673698425, 0.34647125005722046], [0.19648349285125732, 0.03649201616644859, 0.09820077568292618, -0.01577172800898552, -0.0472087487578392, 0.03654070571064949, -0.025864725932478905, 0.00464179553091526, 0.07237333059310913, -0.021031001582741737, -0.20139850676059723, 0.19299481809139252, -0.14199252426624298, 0.1558998078107834, -0.08045054972171783, 0.10607066005468369, 0.08779817074537277, -0.6246748566627502, -0.04403594136238098, 0.3716176748275757, 0.1112048551440239, 0.011858711019158363, 0.1395225077867508, -0.20413997769355774, 0.0806644856929779, 0.004849418997764587, 0.18855251371860504, 0.7148829102516174], [0.11598376929759979, 0.08344975858926773, 0.06972470134496689, 0.13114844262599945, 0.003756280755624175, 0.12627306580543518, 0.20861372351646423, 0.17969311773777008, 0.08196831494569778, -0.07163795083761215, -0.058358583599328995, 0.07116003334522247, -0.08959853649139404, -0.1676706224679947, -0.0919608399271965, 0.22714118659496307, -0.18787965178489685, -0.5595324039459229, -0.21526096761226654, 0.013180055655539036, -0.05692117661237717, -0.13390666246414185, 0.10266969352960587, 0.024759378284215927, -0.081329844892025, 0.10163689404726028, -0.9724016189575195, -0.6240150332450867], [0.23801416158676147, -0.15679050981998444, 0.11063646525144577, 0.0003430894867051393, 0.11250970512628555, -0.2782151997089386, -0.46563559770584106, -0.008019527420401573, 0.03920258954167366, -0.12344095855951309, 0.12654103338718414, -0.17917965352535248, -0.04663337394595146, 0.057236842811107635, -0.012556728906929493, 0.10577959567308426, 0.019494296982884407, -0.23406800627708435, 0.652729868888855, 0.18893708288669586, 0.1737872064113617, 0.11004626750946045, 0.3344946503639221, -0.18825243413448334, 0.4003771245479584, 0.1251847892999649, 0.3672042489051819, 0.37314724922180176], [0.4513654410839081, -0.1062043085694313, 0.004077588208019733, 0.30147236585617065, 0.2204207181930542, 0.0012676478363573551, -0.07207553833723068, -0.06439289450645447, 0.35454416275024414, -0.49858295917510986, -0.21270830929279327, 0.04045823588967323, 0.04663513973355293, -0.21376393735408783, -0.12219877541065216, -0.153054341673851, -0.1507980078458786, -0.0027271141298115253, -0.12733091413974762, -0.3160369396209717, 0.17273415625095367, -0.04373164474964142, -0.8152279257774353, 0.16361217200756073, 0.10770860314369202, 0.7383854985237122, 0.015786468982696533, -0.3115237355232239], [0.05056171491742134, -0.2680669128894806, 0.303589791059494, -0.3698727488517761, 0.347653329372406, 0.39422234892845154, 0.021391887217760086, 0.07213880121707916, -0.2513744533061981, -0.010248713195323944, 0.09386658668518066, 0.09417522698640823, 0.28471601009368896, 0.07799172401428223, 0.056002113968133926, -0.0544569194316864, -0.0867246463894844, -0.1854141801595688, -0.4187088906764984, -0.020027117803692818, -0.5458776950836182, -0.047750912606716156, -1.2372130155563354, -0.19865885376930237, -0.5136658549308777, -0.3005293011665344, -0.22571824491024017, -0.2939274311065674], [-0.13838042318820953, 0.28573209047317505, 0.2970055341720581, -0.032332804054021835, -0.1100681722164154, 0.025816647335886955, -0.11539846658706665, 0.036416757851839066, -0.17024196684360504, -0.13159768283367157, -0.019858719781041145, 0.20270130038261414, -0.14405560493469238, -0.01133727002888918, -0.2454565465450287, 0.22189325094223022, 0.1392175406217575, 0.2033635526895523, -0.16462430357933044, -0.2976102828979492, -0.10703163594007492, 0.0704646110534668, 0.1050415113568306, -0.05225266516208649, 0.2793577313423157, 0.1701970249414444, -0.2378067523241043, -0.7944575548171997], [0.24980291724205017, 0.018689732998609543, 0.1013893410563469, -0.14848719537258148, -0.1494542509317398, 0.0878714919090271, -0.16327904164791107, 0.10131465643644333, 0.12003005295991898, 0.1812039315700531, 0.22803309559822083, 0.1825145184993744, 0.14800846576690674, 0.03051864728331566, -0.12118164449930191, -0.06174476072192192, 0.22954615950584412, 0.42522114515304565, 0.16178245842456818, 0.002888727467507124, -0.030851546674966812, -0.08001679182052612, 0.1094164103269577, 0.11750378459692001, -0.3488504886627197, -0.4468882083892822, 0.31396380066871643, -0.34157615900039673], [-1.2483294010162354, -0.9043903350830078, 0.17843905091285706, 0.2958909869194031, 0.3925319314002991, 0.27436739206314087, -0.684808611869812, -0.6114534735679626, -0.7060563564300537, 0.06952294707298279, 0.2370842844247818, 0.07867731899023056, -0.0009550585527904332, 0.08374997228384018, -0.16835451126098633, -0.202163964509964, -0.08802249282598495, -0.16461263597011566, -0.042243339121341705, 0.0057588061317801476, 0.06288152188062668, 0.14066095650196075, -0.10902340710163116, -0.543511152267456, 0.29301005601882935, 0.019462555646896362, 0.14723137021064758, 0.16248086094856262], [-0.14869324862957, 0.27591463923454285, 0.6036481857299805, 0.216326043009758, 0.2397211641073227, 0.263859361410141, 0.05032685771584511, 0.045995838940143585, -0.11377723515033722, -0.23117434978485107, -0.0868300274014473, 0.14751578867435455, 0.020438633859157562, 0.11641064286231995, -0.06030207872390747, -0.10688523203134537, 0.31174612045288086, -0.10364316403865814, -0.04528820514678955, -0.2916209399700165, -0.4184741973876953, 0.054221805185079575, -0.3562522232532501, -0.1384362131357193, 0.34394463896751404, 1.0979596376419067, -0.45893043279647827, -0.0027907320763915777], [0.14568769931793213, 0.02693210542201996, 0.2160884141921997, -1.2046467065811157, -0.07012135535478592, -0.25710636377334595, -0.21549999713897705, -0.0227616336196661, -0.08280842006206512, -0.12261191755533218, 0.23828962445259094, -0.2793042063713074, -0.019526254385709763, 0.15589646995067596, 0.05802055448293686, 0.1311929076910019, 0.5430564880371094, 0.11854342371225357, 0.0595528781414032, -0.23609356582164764, 0.022790953516960144, 0.2232751101255417, 0.10383334755897522, -0.13842611014842987, -0.08896352350711823, -0.11822719871997833, -0.03969685733318329, 0.14196796715259552], [-0.628516435623169, -0.41679540276527405, -0.01876693218946457, 0.17403213679790497, -0.11144815385341644, -0.02401425875723362, -0.0419386550784111, 0.12297177314758301, -0.16256867349147797, -0.10399123281240463, 0.11556218564510345, -0.19267942011356354, 0.13093051314353943, -0.05565238744020462, 0.09795725345611572, 0.03457589074969292, -0.3190048933029175, -0.2776127755641937, 0.4041709303855896, 0.13495424389839172, 0.18239106237888336, 0.20423664152622223, -0.04642829671502113, -0.04987362027168274, -0.3509197533130646, 0.028503159061074257, 0.5259019732475281, 0.7953066825866699], [0.18576452136039734, -0.018950307741761208, 0.49597397446632385, 0.6184567809104919, 0.31747958064079285, 0.15052133798599243, -0.04002051427960396, 0.08467300236225128, 0.1209418922662735, -0.006674985866993666, -0.03379771485924721, 0.1511530727148056, 0.20466244220733643, 0.017827171832323074, 0.05507683381438255, -0.10127978771924973, -0.39469364285469055, -0.2584868371486664, -0.11003543436527252, -0.17273400723934174, 0.1103484109044075, -0.07492713630199432, 0.10513724386692047, 0.2900770306587219, 0.13165271282196045, 0.1661766767501831, 0.023930590599775314, -0.042133770883083344], [0.11655142158269882, 0.12924587726593018, 0.19531431794166565, -0.9704135060310364, 0.12123559415340424, -0.28309765458106995, 0.29301217198371887, -0.22120708227157593, 0.1113782748579979, -0.07269395142793655, 0.15017549693584442, -0.3831733167171478, -0.13829565048217773, 0.07016509026288986, -0.11774615198373795, -0.037935901433229446, -0.26443904638290405, 0.28521203994750977, -0.05797356739640236, -0.2858557105064392, -0.05916436016559601, -0.0007607618463225663, 0.15926772356033325, -0.6248789429664612, -0.1939113587141037, 0.3573422431945801, -0.7657721638679504, 0.21239440143108368], [-0.029623815789818764, 0.11473050713539124, 0.03453093394637108, 0.31687435507774353, -0.001345858909189701, -0.11770015954971313, 0.0027945423498749733, 0.05681692808866501, -0.019644618034362793, 0.17595477402210236, 0.019358424469828606, 0.23014375567436218, -0.19046857953071594, -0.03507985174655914, -0.10569597780704498, 0.17625539004802704, 0.417366087436676, 0.3907597064971924, -0.13087181746959686, -0.10027312487363815, 0.26334699988365173, 0.22250157594680786, 0.0911494791507721, -0.1296364814043045, 0.34740322828292847, -0.30306869745254517, 0.095897376537323, -0.344849556684494], [0.00275479000993073, 0.01862541399896145, -0.15473321080207825, 0.02026340737938881, 0.046670157462358475, 0.042079757899045944, 0.0007356736459769309, -0.02907693013548851, -0.019368866458535194, 0.026878969743847847, 0.07966109365224838, -0.0458492636680603, -0.0017206274205818772, -0.005517785437405109, 0.044807691127061844, -0.004765648394823074, -0.1861696094274521, -0.018241574987769127, -0.4446864128112793, 0.5844670534133911, 0.003320784540846944, -0.0785394012928009, -0.2811347544193268, 0.1361043006181717, -0.06031598150730133, -0.001569623127579689, -0.7753305435180664, -0.027195990085601807], [0.06470166891813278, -0.06537249684333801, -0.04298146441578865, -0.01685900054872036, 0.0346195288002491, 0.04885491728782654, 0.035512931644916534, 0.02674911543726921, 0.008879238739609718, 0.02508092299103737, -0.031489454209804535, -0.09170185774564743, -0.10098429024219513, -0.06295593082904816, -0.0532706119120121, -0.0567827969789505, -0.07155913859605789, 0.023907115682959557, 0.24038109183311462, 0.1599665731191635, -0.11570657789707184, 0.17178209125995636, -0.08159169554710388, 0.18171192705631256, 0.025389883667230606, 0.1900767832994461, -0.7581043839454651, 0.11989560723304749], [-0.21324391663074493, -0.053073700517416, -0.2154301106929779, -0.024323351681232452, 0.0528704896569252, -0.018243156373500824, -0.13589109480381012, -0.1397027224302292, 0.2225535660982132, 0.011823788285255432, -0.0012173900613561273, 0.15711548924446106, -0.07448369264602661, 0.16253730654716492, -0.08752955496311188, 0.13026171922683716, -0.048048071563243866, -0.42021676898002625, -0.17243042588233948, 0.2749244272708893, 0.20720569789409637, 0.24848900735378265, -0.4886525869369507, 0.21811898052692413, -0.6976850032806396, -0.005691403057426214, 0.6840950846672058, -0.2503718435764313], [0.015035619027912617, 0.2632707953453064, -0.4410010874271393, -0.2709392309188843, -0.035909686237573624, 0.02631486766040325, -0.057522356510162354, 0.061573512852191925, 0.2012093961238861, 0.042444635182619095, -0.07312265038490295, -0.2921867072582245, -0.04584754258394241, 0.03500144183635712, 0.003398693399503827, 0.04845196381211281, -0.1500144749879837, -0.49589088559150696, -0.14692790806293488, -0.49585917592048645, -0.05374731868505478, -0.10431309789419174, -0.05829092487692833, -0.23264209926128387, -0.3241085708141327, -0.16628876328468323, -0.09148088842630386, -0.17104342579841614], [0.1335756778717041, 0.12999889254570007, -0.010781506076455116, 0.01044190302491188, -0.09872152656316757, -0.073856420814991, -0.2736354470252991, -0.88937908411026, -0.08483363687992096, -0.3110607862472534, 0.052783507853746414, 0.06896896660327911, 0.10549639910459518, 0.0983874723315239, -0.10981534421443939, -0.2272549569606781, 0.051011841744184494, -0.013633320108056068, 0.1010608971118927, 0.07683897763490677, -0.06199479475617409, -0.12105247378349304, 0.24978117644786835, -0.1149272695183754, 0.9081448912620544, -0.438461571931839, 0.05019547790288925, -0.4223741888999939], [-1.1347243785858154, 0.0753931999206543, 0.20597600936889648, 0.29958733916282654, -0.8969243168830872, -0.8811486959457397, 0.047532808035612106, 0.05853592976927757, 0.39026281237602234, 0.08463245630264282, -0.12041353434324265, -0.11260052025318146, -0.12757283449172974, -0.05413718521595001, -0.026232602074742317, 0.10041647404432297, -0.011061576195061207, -0.056145183742046356, 0.1195947527885437, 0.04505426436662674, 0.19216737151145935, 0.1584511697292328, -0.08838897943496704, 0.05055032670497894, -0.19079971313476562, 0.0033751355949789286, -0.06726882606744766, 0.08459988236427307], [0.2067277729511261, 0.2583942413330078, 0.09556778520345688, -0.12473724037408829, 0.1966896951198578, -0.1047724187374115, 0.28713279962539673, 0.12886157631874084, -0.050253335386514664, 0.1337575763463974, 0.023263685405254364, 0.2199879288673401, -0.11400552839040756, -0.16797885298728943, -0.01490813959389925, 0.02734130620956421, 0.03891242295503616, -0.05522971600294113, 0.1080155223608017, -0.07694139331579208, 0.06090809777379036, 0.14307184517383575, 0.06070913001894951, 0.0620986633002758, -0.4402521848678589, 0.372123658657074, -0.43172964453697205, 0.4086012542247772], [0.18362589180469513, 0.10536164045333862, 0.002234644955024123, -0.4586751163005829, 0.23906444013118744, -0.2849441468715668, -0.012005985714495182, 0.022780457511544228, -0.11494490504264832, 0.06190958246588707, 0.15363191068172455, 0.20807090401649475, -0.05961683392524719, 0.07254618406295776, 0.08297545462846756, 0.05901889130473137, -0.08446598052978516, 0.039525438100099564, 0.14861389994621277, -0.43906304240226746, -0.1378612220287323, -0.08961221575737, 0.23447968065738678, 0.005250807851552963, -0.9964421391487122, 0.24772581458091736, -0.6808373332023621, 0.1400795429944992], [0.05886043980717659, 0.034404341131448746, -0.12359079718589783, -0.026560798287391663, -2.073777432087809e-05, 0.015957150608301163, 0.016995685175061226, -0.1044364869594574, -0.010237244889140129, 0.11305321007966995, 0.0007766805356368423, 0.19977523386478424, 0.12593837082386017, 0.10708966851234436, 0.11669083684682846, 0.13869714736938477, 0.03969833254814148, 0.27570420503616333, -0.17762157320976257, 0.004240820184350014, 0.09339579939842224, -0.1809670478105545, -0.06944198161363602, 0.02225506119430065, -0.19669951498508453, -0.204942524433136, -0.5325707197189331, -0.5504306554794312], [0.01674790121614933, -0.19256919622421265, -0.10768008232116699, 0.09900223463773727, -0.018298810347914696, -0.07471219450235367, -0.07497211545705795, 0.05451200157403946, -0.20940668880939484, 0.14064434170722961, 0.03597184270620346, 0.05723480135202408, 0.147160142660141, -0.027339711785316467, -0.07864921540021896, 0.010953153483569622, 0.7590725421905518, -0.5788408517837524, -0.34716320037841797, 0.3309066593647003, 0.02253742143511772, 0.37498560547828674, -0.080362968146801, 0.013743395917117596, 0.30390092730522156, -0.2157232016324997, -0.1017591580748558, 0.6670871376991272], [-0.0024253546725958586, -0.05142313241958618, 0.11247579753398895, 0.017661800608038902, -0.000918236211873591, 0.03239385038614273, 0.039086584001779556, 0.0037261585239320993, 0.019651493057608604, 0.04790892079472542, -0.04100850969552994, 0.013032205402851105, -0.0016750600188970566, -0.010578382760286331, 0.034514036029577255, 0.0008059727842919528, -0.06520455330610275, 0.19659803807735443, -0.04178449511528015, 0.21159937977790833, -0.038745298981666565, -0.12560610473155975, -0.25821632146835327, 0.07455678284168243, -0.08930749446153641, 0.025673381984233856, 0.09406664967536926, 1.5599095821380615], [-0.8065814971923828, 0.07951520383358002, 0.15702807903289795, -0.008843846619129181, -0.4623963534832001, -0.22388507425785065, 0.27141663432121277, 0.20655187964439392, 0.15118077397346497, 0.0488019734621048, 0.028874356299638748, 0.059637974947690964, 0.12964770197868347, 0.074074387550354, -0.09160817414522171, 0.001349405967630446, 0.5808171033859253, -0.4065627157688141, -0.15482750535011292, 0.03150257468223572, 0.25307801365852356, 0.1970941722393036, -0.027810893952846527, -0.13723628222942352, -0.09119214117527008, -0.11411096900701523, 0.020984148606657982, -0.35274118185043335], [0.009432162158191204, -0.15210890769958496, -0.926967203617096, -0.019940752536058426, -0.9282294511795044, 0.007934425957500935, -1.1667637825012207, 0.2449706345796585, -0.32994356751441956, -0.16068540513515472, 0.23480260372161865, 0.10560794174671173, -0.7203750610351562, 0.27397117018699646, -0.8229693174362183, 0.17250217497348785, -0.08523114770650864, -0.08553038537502289, -0.4019910991191864, 0.15406429767608643, -0.3731321692466736, 0.06794316321611404, -0.27863505482673645, -0.09775762259960175, -0.28065505623817444, 0.08172572404146194, 0.18643148243427277, 0.10595948994159698], [0.11675241589546204, 0.1250363290309906, 0.04491695389151573, 0.18516658246517181, 0.30351653695106506, 0.26233378052711487, -0.017290446907281876, 0.0042487503960728645, -0.07043294608592987, -0.04597003757953644, -0.03582487627863884, 0.03263717517256737, 0.058881621807813644, -0.03689047694206238, 0.10721933096647263, 0.020072024315595627, -0.08014452457427979, 0.40731188654899597, 0.15623657405376434, 0.2211557775735855, -0.17254438996315002, 0.184067502617836, 0.14055339992046356, -0.03963444009423256, -0.156315416097641, -0.42554572224617004, -0.21142545342445374, 0.2407759577035904], [-0.52292799949646, -0.0653005912899971, -0.29449960589408875, 0.3425906300544739, -0.11183732002973557, 0.040547654032707214, 0.013821380212903023, -0.0024416022934019566, 0.057119909673929214, 0.22110337018966675, -0.20811232924461365, -0.19931910932064056, 0.05257149785757065, -0.047337617725133896, 0.3362977206707001, 0.0030390138272196054, 0.06745889782905579, 0.3673441708087921, -0.7850164771080017, -0.2474575638771057, -0.8784922361373901, 0.22808772325515747, -0.07317119836807251, -0.05158591642975807, -0.44675394892692566, 0.6268660426139832, 0.10646958649158478, 0.41522639989852905], [-0.08590876311063766, -0.15055392682552338, -0.0822422206401825, 0.3435618281364441, -0.0937286987900734, 0.053981151431798935, -0.06519045680761337, 0.12053834646940231, -0.2839216887950897, -0.09863874316215515, 0.022591834887862206, -0.04250893369317055, -0.02185853384435177, -0.05002795159816742, -0.022413313388824463, 0.21862336993217468, -0.3514963984489441, -0.4806285500526428, -0.089602991938591, -0.008052743040025234, -0.003014805493876338, 0.06666155904531479, 0.08395756781101227, 0.021169809624552727, -0.028057049959897995, -0.11575639992952347, 0.07439731061458588, 0.010234521701931953], [-0.20076730847358704, 0.22067856788635254, -0.010693603195250034, -0.2863512933254242, 0.20014631748199463, -0.052975088357925415, -0.06794796139001846, -0.18120259046554565, -0.2928164601325989, 0.41423073410987854, -0.2765730023384094, -0.17590613663196564, 0.11084356904029846, -0.0030982813332229853, 0.06473299860954285, -0.6613445281982422, 0.18599475920200348, -0.23794355988502502, 0.11796436458826065, -0.5352430939674377, 0.1089300736784935, 0.08714201301336288, -0.14031197130680084, -0.2695910632610321, -0.6715332269668579, 0.41951170563697815, 0.15811803936958313, -0.23462186753749847], [0.050076499581336975, 0.06215830519795418, -0.04865008220076561, 0.12480486184358597, -0.04540535435080528, 0.01957589201629162, -0.05464798957109451, -0.02398364059627056, -0.0006156132440082729, -0.025111934170126915, -0.12128707766532898, -0.00390967633575201, 0.036931268870830536, 0.015401332639157772, 0.03220304101705551, 0.05482170730829239, -0.14001277089118958, 0.07284104824066162, 0.09019473940134048, -0.12213483452796936, 0.07891282439231873, -0.01922616921365261, 0.1065707877278328, 0.033369507640600204, 0.2262023538351059, -0.2188015729188919, -1.1962614059448242, -0.010146345011889935], [0.22157463431358337, -0.8222056031227112, 0.08826173841953278, -0.7478636503219604, 0.04989133030176163, -0.9442638754844666, 0.10010377317667007, -0.46157652139663696, 0.2453163117170334, -0.7629908919334412, -0.04596048220992088, -0.2679826021194458, -0.025491006672382355, -0.8445501327514648, 0.07915010303258896, -0.18881461024284363, -0.01602358929812908, -0.2339923083782196, 0.3930671811103821, -0.22614933550357819, 0.10666432231664658, -0.31473228335380554, 0.36188045144081116, 0.4649377763271332, -0.04454443231225014, 0.1745985895395279, -0.1034180149435997, -0.04974569380283356], [-0.18560677766799927, -0.011659370735287666, -0.17656153440475464, -0.09126798808574677, -0.30092793703079224, -0.12187500298023224, 0.06639125198125839, 0.017490530386567116, -0.003658496541902423, 0.04872725158929825, 0.1642027497291565, 0.057702116668224335, 0.2610316872596741, 0.04375310242176056, 0.15392839908599854, -0.1195422112941742, 0.02507735975086689, 0.05905977636575699, 0.09470097720623016, 0.07014245539903641, -0.6277952194213867, 0.2719910144805908, -0.2667447030544281, 0.09800263494253159, -0.6665843725204468, -0.204707071185112, -0.579489529132843, 0.10262619704008102], [-0.011078111827373505, 0.05915499106049538, -0.1777842789888382, -0.09977799654006958, -0.10008078068494797, 0.204604834318161, 0.1951262652873993, 0.25806039571762085, -0.06082915514707565, -0.002937175100669265, 0.17286840081214905, 0.036675628274679184, -0.04013990983366966, -0.07430033385753632, 0.00981766078621149, 0.10248197615146637, -0.026472734287381172, -0.05869116261601448, -0.045204538851976395, -0.5319058299064636, -0.08932433277368546, -0.3651401400566101, -0.03784101456403732, -0.014718012884259224, -0.16897433996200562, 0.17233242094516754, -0.8560195565223694, -0.08356238156557083], [-0.3141033947467804, -0.05201476067304611, 0.3618778884410858, 0.3217571973800659, 0.048044174909591675, -0.0258533526211977, 0.1424548178911209, 0.09444157034158707, 0.15317495167255402, 0.11275171488523483, -0.1333126574754715, -0.11986447125673294, 0.2079012244939804, -0.11667202413082123, 0.019055306911468506, 0.1565741002559662, -0.2318250685930252, 0.05622467026114464, 0.10982201993465424, 0.2733997404575348, -0.13715329766273499, 0.17389559745788574, -0.07231272757053375, -0.21683369576931, 0.15933987498283386, -0.5389581918716431, 0.10119732469320297, 0.0954122468829155], [0.13235820829868317, 0.3075198233127594, -0.4142942428588867, 0.057115986943244934, -0.4460827708244324, -0.0013760315487161279, -0.148786261677742, 0.20229050517082214, 0.0035707373172044754, 0.014659039676189423, -0.07592694461345673, -0.2186466008424759, -0.10149044543504715, 0.05269163101911545, -0.1322260946035385, 0.1566563993692398, 0.06427426636219025, -0.1654873937368393, 0.11026362329721451, -0.14209577441215515, -0.031760960817337036, -0.004059561062604189, 0.06559091061353683, -0.24551378190517426, 0.650930643081665, -0.24058806896209717, -0.04024259373545647, 0.658452570438385], [0.06865009665489197, -0.006821029353886843, 0.003327825339511037, -0.2337292581796646, 0.051394734531641006, 0.11223150044679642, -0.1231108233332634, -0.1582358479499817, 0.025272050872445107, -0.008046274073421955, -0.018623869866132736, 0.010215964168310165, -0.09092036634683609, -0.04605170711874962, 0.02281004935503006, 0.024333719164133072, -0.31635627150535583, -0.23359829187393188, 0.1070965901017189, -0.5897716879844666, 0.25774648785591125, 0.2452065348625183, -0.03496614471077919, -0.21177345514297485, 0.09164565801620483, 0.0006772504420951009, 1.0724633932113647, -0.14358307421207428], [-0.032390616834163666, 0.02192383073270321, -0.03954900801181793, -0.04841167479753494, -0.04753978177905083, -0.03282151371240616, -0.027575336396694183, -0.013544526882469654, 0.03639468923211098, -0.0025958558544516563, 0.004119459539651871, 0.013635830953717232, 0.010542050935328007, 0.015329311601817608, -0.02327602356672287, -0.023267818614840508, 0.7590280175209045, 0.047388706356287, -0.007608766667544842, 0.11099985986948013, 0.5783488154411316, 0.49885857105255127, -0.31085264682769775, -0.35498490929603577, -0.07867641001939774, -0.005606648046523333, 0.06288701295852661, 0.6902788281440735], [0.3179752826690674, 0.38002249598503113, 0.22539600729942322, 0.32405754923820496, -0.1751561313867569, 0.2630710303783417, 0.19115500152111053, 0.25290656089782715, -0.09963531792163849, 0.006574853789061308, 0.08768859505653381, 0.09108293801546097, 0.1328682005405426, -0.019111981615424156, 0.18711639940738678, -0.11684019863605499, -0.4226950407028198, 0.2697838246822357, 0.25616785883903503, -0.2835827171802521, 0.3913978040218353, -0.39257654547691345, -0.1541518270969391, -0.08423910290002823, 0.5354502201080322, -0.03053007647395134, -0.08023916184902191, 0.06068025156855583], [-0.1413382887840271, 0.2509399652481079, 0.08012441545724869, -0.19512787461280823, -0.01979152485728264, -0.06760209798812866, 0.17653371393680573, -0.005086666904389858, -0.026156246662139893, -0.057267751544713974, -0.0015081410529091954, 0.0800570398569107, 0.02375112473964691, -0.00045830156886950135, -0.0494857095181942, -0.015741847455501556, 0.18697892129421234, 0.1618133932352066, 0.6106756925582886, 0.21235358715057373, 0.28736603260040283, 0.15025578439235687, -0.16618190705776215, 0.050819505006074905, 0.015052071772515774, -0.3256751596927643, 0.6476914286613464, -0.7860506176948547], [-0.21555116772651672, -0.1976703405380249, 0.1704607456922531, 0.10410801321268082, -0.09776230901479721, -0.01556330919265747, -0.2263495922088623, -0.05721161887049675, -0.23330485820770264, 0.07657532393932343, 0.24662531912326813, 0.08343648165464401, 0.1834096908569336, -0.08292492479085922, 0.17681579291820526, -0.16044756770133972, 0.1387357860803604, -0.2073369026184082, 0.3377295732498169, -0.8430025577545166, -0.28058353066444397, -0.030754873529076576, -0.045656636357307434, 0.09448353946208954, -0.18296335637569427, -0.11074712127447128, 0.26447293162345886, -0.029004333540797234], [-0.21493005752563477, -0.23383945226669312, 0.3168967664241791, 0.33714359998703003, 0.1330215334892273, 0.23995015025138855, 0.387342244386673, 0.3311445116996765, -0.0288759246468544, -0.007189449388533831, -0.12429642677307129, -0.07078283280134201, -0.03225117176771164, -0.2150970995426178, -0.038848571479320526, 0.06693458557128906, 0.2897549271583557, -0.07144344598054886, 0.35807228088378906, 0.2184765338897705, -0.0028270361945033073, 0.40017396211624146, 0.2521240711212158, 0.3298640549182892, -0.31316015124320984, 0.057599615305662155, -0.15965569019317627, 0.07314193248748779], [-0.0876147449016571, 0.30290547013282776, -0.21198566257953644, -0.4249298572540283, 0.09258148074150085, 0.01624666154384613, 0.1022665724158287, -0.0742143839597702, -0.13781601190567017, 0.48993298411369324, 0.18424557149410248, -0.015587334521114826, 0.043458059430122375, 0.03358177840709686, -0.04329639673233032, 0.1597466766834259, 0.3040255904197693, -0.1681341528892517, 0.06257856637239456, 0.2740175426006317, 0.2331383377313614, -0.07214251160621643, 0.10492890328168869, 0.41559064388275146, 0.09222269803285599, -0.32599225640296936, 0.3067754805088043, 0.5537987351417542], [0.37516117095947266, 0.05410283803939819, -0.01421298086643219, 0.18745344877243042, 0.2405620515346527, 0.07501591742038727, 0.011002462357282639, 0.05995272099971771, 0.19165964424610138, -0.056584350764751434, 0.050866689532995224, -0.04523950815200806, 0.10012613981962204, -0.09259308129549026, -0.029773415997624397, 0.02218635194003582, 0.3316156566143036, 0.24665747582912445, -0.22466282546520233, 0.01263805478811264, 0.11416324228048325, 0.09518172591924667, -0.1812046468257904, -0.3698568642139435, -0.20379388332366943, -0.32718372344970703, 0.156073659658432, -0.2888137102127075], [0.1444782167673111, 0.6016771197319031, -0.20096439123153687, 0.23154444992542267, -0.011079044081270695, -0.04427901282906532, -0.10451336205005646, 0.3139617145061493, 0.0937001183629036, 0.1182238981127739, 0.019031912088394165, -0.027693744748830795, 0.13386067748069763, 0.08935114741325378, -0.017236268147826195, 0.04332194849848747, -0.3538823425769806, -0.20872929692268372, 0.19548630714416504, 