{
  "model_info": {
    "architecture": "PPO Policy Network",
    "input_dim": 54,
    "hidden_dim": 64,
    "output_dim": 3,
    "activation": "tanh",
    "framework": "Stable Baselines3 \u2192 TF.js"
  },
  "weights": {
    "policy_layer1": {
      "kernel": [
        [
          0.0019883604254573584,
          0.11813098192214966,
          0.004102142062038183,
          -0.025621194392442703,
          0.00720471516251564,
          0.24219365417957306,
          -0.07323269546031952,
          0.07925529778003693,
          -0.1544075608253479,
          0.00026842294028028846,
          -0.27566924691200256,
          -0.234467551112175,
          -0.29464584589004517,
          -0.28404319286346436,
          -0.10595528781414032,
          0.2723858058452606,
          -0.12543851137161255,
          -0.16483131051063538,
          0.1295848935842514,
          -0.2013414055109024,
          0.11689247190952301,
          0.36510202288627625,
          0.026082493364810944,
          -0.0921052023768425,
          -0.04567471146583557,
          0.19366580247879028,
          0.4554906189441681,
          -0.33442679047584534,
          0.2761678993701935,
          -0.20322783291339874,
          0.20320412516593933,
          -0.06403575092554092,
          0.13100364804267883,
          0.09381604194641113,
          0.15030908584594727,
          -0.22778260707855225,
          -0.2404969185590744,
          0.044860515743494034,
          -0.12366355210542679,
          -0.20237010717391968,
          -0.0014950941549614072,
          -0.04421171545982361,
          -0.003555994713678956,
          0.08872884511947632,
          0.11467614024877548,
          -0.15563464164733887,
          -0.10411477833986282,
          0.1997421532869339,
          0.14898747205734253,
          0.1098719909787178,
          -0.02905721589922905,
          -0.2445264309644699,
          -0.1340140700340271,
          -0.05907958745956421,
          0.11260388046503067,
          0.012264284305274487,
          0.09762178361415863,
          0.24691717326641083,
          -0.05348800867795944,
          -0.13702422380447388,
          -0.3881498873233795,
          0.0737275704741478,
          -0.011216189712285995,
          -0.1356888711452484
        ],
        [
          -0.18176116049289703,
          0.12366466224193573,
          0.005659238435328007,
          0.1699754148721695,
          0.07834554463624954,
          -0.2580242455005646,
          0.2536680996417999,
          -0.31842365860939026,
          -0.0008549076737836003,
          0.07405532151460648,
          -0.2528063952922821,
          -0.10607794672250748,
          -0.0020131394267082214,
          -0.04709884524345398,
          0.12291169166564941,
          -0.21713459491729736,
          0.12501369416713715,
          0.1161801740527153,
          0.06058565154671669,
          -0.0541481152176857,
          -0.18551258742809296,
          0.22653000056743622,
          -0.12237698584794998,
          -0.4322787821292877,
          0.01819310523569584,
          -0.2966728210449219,
          0.004597392864525318,
          -0.11965525895357132,
          -0.008244768716394901,
          0.04006017744541168,
          -0.21205264329910278,
          -0.5292434692382812,
          -0.19223560392856598,
          -0.20803415775299072,
          -0.022750062867999077,
          0.177623450756073,
          0.12867937982082367,
          0.19524922966957092,
          0.2928332984447479,
          -0.00011903134873136878,
          0.12814240157604218,
          -0.22081880271434784,
          0.06724509596824646,
          -0.2777954638004303,
          -0.01589960977435112,
          -0.16332140564918518,
          0.08938882499933243,
          -0.024650173261761665,
          0.1335671991109848,
          0.09322787076234818,
          0.20319636166095734,
          -0.0627233162522316,
          0.17006002366542816,
          -0.05359845608472824,
          0.3559718728065491,
          0.222202330827713,
          0.09691409021615982,
          0.07049478590488434,
          -0.06627590954303741,
          -0.06655042618513107,
          -0.07724098116159439,
          -0.12284312397241592,
          -0.06674955040216446,
          -0.2060263752937317
        ],
        [
          0.20450067520141602,
          -0.20942948758602142,
          -0.22133685648441315,
          0.07883056253194809,
          0.012829474173486233,
          -0.04567801579833031,
          -0.12370771169662476,
          0.17427898943424225,
          0.4572157561779022,
          0.1860416680574417,
          0.021083984524011612,
          -0.09112682193517685,
          -0.059751883149147034,
          0.15852466225624084,
          0.18817217648029327,
          0.11979556828737259,
          -0.14792433381080627,
          0.30330371856689453,
          0.10870824754238129,
          -0.1864774227142334,
          -0.4979425370693207,
          0.01982012577354908,
          -0.11656881868839264,
          0.3779439628124237,
          0.049345940351486206,
          -0.12294767051935196,
          0.14940422773361206,
          -0.11205221712589264,
          0.03896341472864151,
          0.0441548116505146,
          -0.05926079303026199,
          -0.30481600761413574,
          0.08437816053628922,
          -0.03567935898900032,
          0.03589382767677307,
          0.18346858024597168,
          -0.15949131548404694,
          0.01394576020538807,
          0.3542376756668091,
          0.021632123738527298,
          0.07909006625413895,
          0.2025602012872696,
          0.018484314903616905,
          0.049668073654174805,
          0.08723051100969315,
          -0.15139256417751312,
          -0.2562764585018158,
          0.13096345961093903,
          0.029039092361927032,
          0.033504460006952286,
          -0.0281850453466177,
          -0.09000463783740997,
          -0.01772153377532959,
          -0.2912388741970062,
          -0.08687745779752731,
          -0.14235875010490417,
          -0.02034612186253071,
          -0.20276230573654175,
          -0.362954705953598,
          -0.2773014307022095,
          -0.07218556851148605,
          0.05757449194788933,
          0.04397835209965706,
          0.0369345024228096
        ],
        [
          -0.3689205050468445,
          0.00890010129660368,
          0.002376880496740341,
          0.03972601518034935,
          -0.24333050847053528,
          -0.08865391463041306,
          -0.12194570153951645,
          -0.23284253478050232,
          -0.16160568594932556,
          0.06296277046203613,
          -0.03750564157962799,
          -0.04594074562191963,
          -0.1261587291955948,
          0.10345209389925003,
          0.04657553508877754,
          0.1362634301185608,
          -0.18325620889663696,
          0.21877096593379974,
          -0.18456397950649261,
          0.1490270346403122,
          -0.23909996449947357,
          -0.1671501249074936,
          -0.3025805354118347,
          0.26770666241645813,
          0.18866004049777985,
          -0.02781718596816063,
          0.05846487358212471,
          -0.14634287357330322,
          -0.11886416375637054,
          -0.1674952507019043,
          -0.11219227313995361,
          0.029210222885012627,
          -0.1244812160730362,
          0.1751488745212555,
          0.01246132142841816,
          -0.2579340636730194,
          -0.04184951260685921,
          -0.04473114758729935,
          -0.13272172212600708,
          -0.020015813410282135,
          0.04117729514837265,
          0.032094806432724,
          -0.09235049039125443,
          -0.05994633585214615,
          -0.3951558470726013,
          -0.17761386930942535,
          0.052204713225364685,
          0.023739153519272804,
          -0.05830064043402672,
          0.11976184695959091,
          0.04024357721209526,
          -0.02836211584508419,
          0.22507822513580322,
          -0.03997641056776047,
          -0.4225766360759735,
          0.3914848566055298,
          -0.03540646284818649,
          -0.0014863444957882166,
          0.16518224775791168,
          -0.31775757670402527,
          -0.17940542101860046,
          -0.056887559592723846,
          -0.4132298529148102,
          0.18570967018604279
        ],
        [
          -0.3867766261100769,
          0.20443207025527954,
          -0.3254660367965698,
          0.177694171667099,
          0.0991911068558693,
          -0.38248199224472046,
          -0.2045964002609253,
          0.07698014378547668,
          -0.28205209970474243,
          -0.15001097321510315,
          -0.11591170728206635,
          0.42649713158607483,
          0.11441837251186371,
          0.2500956356525421,
          0.27034425735473633,
          0.09816844016313553,
          0.3871348798274994,
          0.5094500184059143,
          -0.19236718118190765,
          -0.014694769866764545,
          0.366446852684021,
          0.2654709219932556,
          -0.028280245140194893,
          -0.17937904596328735,
          -0.45307594537734985,
          -0.04172882065176964,
          0.20651426911354065,
          -0.2750284671783447,
          0.0815901830792427,
          -0.27347955107688904,
          -0.1709124743938446,
          0.11702892929315567,
          0.09497582167387009,
          0.1780712604522705,
          0.12467950582504272,
          -0.07760825008153915,
          0.10037684440612793,
          -0.4688814878463745,
          0.020971348509192467,
          0.221427321434021,
          -0.18264780938625336,
          -0.031135916709899902,
          0.45452794432640076,
          0.3506058156490326,
          0.0013260983396321535,
          -0.30989333987236023,
          -0.01292145811021328,
          -0.3492410480976105,
          0.1350397914648056,
          -0.12553241848945618,
          -0.14646950364112854,
          -0.21963408589363098,
          0.07117602974176407,
          -0.11140788346529007,
          0.11418727785348892,
          0.12707719206809998,
          -0.21245162189006805,
          0.11255679279565811,
          -0.17054502665996552,
          -0.05074183642864227,
          0.09696660935878754,
          -0.027731018140912056,
          0.09046490490436554,
          0.05505547672510147
        ],
        [
          0.06005896255373955,
          0.12558214366436005,
          -0.11782483011484146,
          0.18288525938987732,
          -0.18733805418014526,
          0.37062588334083557,
          0.11864083260297775,
          0.21318188309669495,
          -0.17633044719696045,
          -0.20575810968875885,
          0.38414546847343445,
          -0.07370852679014206,
          0.13520753383636475,
          0.11331488937139511,
          0.217249795794487,
          0.09513799846172333,
          0.13571691513061523,
          0.12692411243915558,
          0.2391781359910965,
          0.026022693142294884,
          -0.17289786040782928,
          0.32279539108276367,
          0.2977881133556366,
          0.24291394650936127,
          0.19606222212314606,
          0.17822876572608948,
          -0.1299591064453125,
          -0.1484023928642273,
          -0.09636345505714417,
          0.4141649603843689,
          0.10378715395927429,
          -0.13124096393585205,
          -0.12861520051956177,
          -0.10461008548736572,
          0.06754235178232193,
          -0.22506770491600037,
          0.13564342260360718,
          -0.10561134666204453,
          0.11762657016515732,
          0.05103582888841629,
          -0.11850129812955856,
          -0.17498435080051422,
          -0.05619152635335922,
          0.016231687739491463,
          -0.008986227214336395,
          -0.3217518627643585,
          0.21390490233898163,
          0.03275420144200325,
          -0.14742793142795563,
          -0.005706207826733589,
          -0.022417208179831505,
          0.13128454983234406,
          -0.2940128743648529,
          0.05118840932846069,
          0.0403565987944603,
          0.33664143085479736,
          -0.0027852102648466825,
          0.06735412031412125,
          -0.041044823825359344,
          0.04414805397391319,
          -0.022480297833681107,
          -0.262180358171463,
          0.057508621364831924,
          -0.0051119509153068066
        ],
        [
          -0.021935906261205673,
          0.06568142771720886,
          0.045279696583747864,
          -0.05376722663640976,
          -0.06272958964109421,
          0.18542911112308502,
          -0.2053977996110916,
          0.20869848132133484,
          -0.12801413238048553,
          0.2170048952102661,
          0.08813584595918655,
          0.10082313418388367,
          -0.038566868752241135,
          0.12498705834150314,
          -0.4702674150466919,
          -0.011534054763615131,
          -0.11738349497318268,
          0.20820307731628418,
          0.18586206436157227,
          -0.16735120117664337,
          -0.11499489843845367,
          -0.07580429315567017,
          0.21421341598033905,
          0.01771780662238598,
          -0.18250441551208496,
          0.05500534921884537,
          -0.0846899002790451,
          -0.18845435976982117,
          0.09006251394748688,
          -0.23437370359897614,
          0.06311748921871185,
          -0.09389762580394745,
          -0.12573392689228058,
          0.17271968722343445,
          0.3027941584587097,
          0.2963605523109436,
          0.19634471833705902,
          0.06686035543680191,
          0.14523175358772278,
          0.3967190384864807,
          -0.0761389508843422,
          -0.02691912278532982,
          -0.1681876927614212,
          -0.06484252959489822,
          -0.2670803666114807,
          0.07082252204418182,
          -0.17421303689479828,
          0.15967883169651031,
          0.0001388327800668776,
          -0.03856509551405907,
          0.05522245913743973,
          -0.05947037413716316,
          0.1147000789642334,
          0.23187632858753204,
          0.17657124996185303,
          0.01506221666932106,
          -0.05689118430018425,
          0.12018347531557083,
          0.0914832130074501,
          -0.05864916741847992,
          0.49389371275901794,
          0.18790389597415924,
          0.10230345278978348,
          0.03193582594394684
        ],
        [
          0.300442636013031,
          -0.0567256323993206,
          -0.18779942393302917,
          0.14622937142848969,
          0.24688316881656647,
          0.04832110181450844,
          -0.04151274263858795,
          0.0737675130367279,
          -0.026898620650172234,
          -0.23741492629051208,
          -0.13241425156593323,
          -0.16214971244335175,
          0.34081947803497314,
          -0.14766603708267212,
          0.31158575415611267,
          -0.1451713740825653,
          -0.2975561320781708,
          0.03774227201938629,
          -0.16471770405769348,
          0.3846171200275421,
          0.16059689223766327,
          -0.11426476389169693,
          -0.3216899335384369,
          -0.06888978183269501,
          0.06715866923332214,
          -0.10242470353841782,
          0.028790803626179695,
          -0.2635160982608795,
          0.27397772669792175,
          0.08380681276321411,
          -0.20194578170776367,
          -0.08109709620475769,
          0.04579050466418266,
          0.35630640387535095,
          0.4348679184913635,
          0.09062016755342484,
          0.09869475662708282,
          -0.047037869691848755,
          -0.06212655454874039,
          0.2504200041294098,
          0.16607102751731873,
          -0.25990092754364014,
          -0.1739085167646408,
          -0.06365571171045303,
          0.19889837503433228,
          -0.004482742864638567,
          0.10014299303293228,
          0.14913254976272583,
          0.015594285912811756,
          0.05369329825043678,
          -0.14049997925758362,
          0.10698162019252777,
          -0.23665480315685272,
          0.05067136511206627,
          -0.12222632020711899,
          -0.04583891108632088,
          -0.11348032206296921,
          0.08822207152843475,
          0.07503311336040497,
          0.018476208671927452,
          0.15720829367637634,
          0.10456406325101852,
          -0.12930552661418915,
          -0.02138618566095829
        ],
        [
          0.38912755250930786,
          0.1173376590013504,
          0.3343789577484131,
          -0.09980252385139465,
          -0.3608860969543457,
          -0.19454891979694366,
          -0.03330550715327263,
          -0.019506288692355156,
          0.04492320120334625,
          -0.2102702409029007,
          -0.13707056641578674,
          -0.2861213684082031,
          0.027251891791820526,
          0.23953112959861755,
          -0.10497846454381943,
          -0.0987059697508812,
          0.11276205629110336,
          0.2156565934419632,
          -0.03885927423834801,
          0.13473039865493774,
          -0.05823506787419319,
          -0.1537843495607376,
          0.037507735192775726,
          -0.21674981713294983,
          -0.039578333497047424,
          0.10733609646558762,
          0.3235119581222534,
          -0.21958254277706146,
          -0.2752402126789093,
          0.04051884263753891,
          0.1893237680196762,
          0.10356975346803665,
          -0.030739666894078255,
          0.06324760615825653,
          -0.1976875364780426,
          -0.03622802346944809,
          0.03826509043574333,
          -0.09515552967786789,
          0.006267949938774109,
          0.21950185298919678,
          -0.13917431235313416,
          -0.08860792964696884,
          -0.11102614551782608,
          0.051345255225896835,
          0.04483477398753166,
          0.28707605600357056,
          0.06907249987125397,
          0.053724151104688644,
          -0.36192986369132996,
          0.07837176322937012,
          -0.16282010078430176,
          -0.19140297174453735,
          0.05459779128432274,
          0.06827095150947571,
          0.16706429421901703,
          0.034801553934812546,
          -0.27002930641174316,
          -0.07496872544288635,
          -0.4108053147792816,
          0.0724576860666275,
          -0.12277554720640182,
          -0.001204212661832571,
          -0.27240777015686035,
          -0.23714295029640198
        ],
        [
          -0.1072365939617157,
          0.025741703808307648,
          -0.07314828038215637,
          -0.06509801745414734,
          0.1949196606874466,
          0.24915798008441925,
          -0.13072437047958374,
          0.11267723888158798,
          -0.0973019152879715,
          -0.01391354575753212,
          -0.31767499446868896,
          0.254630446434021,
          0.31989091634750366,
          -0.07155855000019073,
          0.04784764349460602,
          -0.3531132638454437,
          0.3401559293270111,
          -0.035836800932884216,
          -0.13820883631706238,
          -0.14691928029060364,
          -0.03266149386763573,
          -0.2504750192165375,
          -0.2649475336074829,
          -0.14194035530090332,
          -0.16270995140075684,
          0.28907105326652527,
          0.2954780161380768,
          -0.21295048296451569,
          -0.2767358422279358,
          0.028513826429843903,
          -0.13682271540164948,
          -0.2859973907470703,
          -0.21393945813179016,
          0.0013295043027028441,
          0.054448965936899185,
          0.006042383145540953,
          0.0849914401769638,
          -0.25559091567993164,
          0.26874691247940063,
          0.20643742382526398,
          0.09325535595417023,
          0.13434052467346191,
          0.40483468770980835,
          0.5357325077056885,
          -0.02240809239447117,
          -0.005068160593509674,
          0.023620322346687317,
          -0.18609489500522614,
          0.05431150645017624,
          -0.10287998616695404,
          0.2934701144695282,
          -0.2101110816001892,
          -0.16049468517303467,
          0.1591772735118866,
          0.1368253082036972,
          0.3052740693092346,
          -0.21628223359584808,
          0.1725563257932663,
          0.20756234228610992,
          -0.34721940755844116,
          -0.36060985922813416,
          0.10242816060781479,
          0.008947765454649925,
          0.4571077823638916
        ],
        [
          0.21945518255233765,
          -0.047400251030921936,
          -0.22563835978507996,
          -0.04483860358595848,
          0.16527824103832245,
          -0.21261459589004517,
          0.3142675459384918,
          0.05914365500211716,
          0.08686000108718872,
          -0.10474902391433716,
          -0.031290795654058456,
          0.01858348958194256,
          -0.11361817270517349,
          -0.19641456007957458,
          -0.08358438313007355,
          -0.024427281692624092,
          -0.2557954788208008,
          0.2188795506954193,
          -0.01915956661105156,
          -0.25298842787742615,
          -0.00903807021677494,
          -0.18394771218299866,
          0.09757527709007263,
          0.20172812044620514,
          -0.11898293346166611,
          0.32125523686408997,
          -0.14523643255233765,
          -0.10959887504577637,
          -0.17285533249378204,
          0.09719358384609222,
          0.2277929186820984,
          -0.29165521264076233,
          -0.06041000783443451,
          0.25165456533432007,
          -0.20863080024719238,
          -0.002056688303127885,
          0.32207733392715454,
          0.05727841705083847,
          -0.23859953880310059,
          -0.32732805609703064,
          0.06936711817979813,
          -0.1524650752544403,
          0.2393501251935959,
          -0.2376394420862198,
          -0.11245977133512497,
          -0.05647267401218414,
          0.25339460372924805,
          -0.17500652372837067,
          0.3324050307273865,
          -0.1355261206626892,
          -0.22798874974250793,
          -0.31031322479248047,
          0.01895860955119133,
          0.11844021826982498,
          -0.01856541819870472,
          -0.21386075019836426,
          -0.2047847956418991,
          0.10234567523002625,
          -0.0856904610991478,
          -0.10004962235689163,
          -0.017001723870635033,
          -0.17753227055072784,
          -0.12270595878362656,
          0.1904306709766388
        ],
        [
          0.03267349675297737,
          -0.09741725772619247,
          -0.10368198901414871,
          -0.48224008083343506,
          0.1060376837849617,
          0.0640355721116066,
          -0.24714820086956024,
          0.1228240355849266,
          0.1905600130558014,
          0.01987348310649395,
          -0.10152879357337952,
          0.03478250652551651,
          -0.12232988327741623,
          -0.0656992495059967,
          0.2961788475513458,
          0.023169394582509995,
          -0.16215956211090088,
          0.08610259741544724,
          -0.05736198276281357,
          0.05623214691877365,
          -0.15697945654392242,
          0.13964523375034332,
          0.16671104729175568,
          -0.11732741445302963,
          0.08017276972532272,
          -0.15082141757011414,
          -0.16903334856033325,
          0.1417732983827591,
          -0.2668149769306183,
          -0.0231867004185915,
          -0.3012462258338928,
          0.5718213319778442,
          -0.3399035632610321,
          -0.04678499698638916,
          -0.041817523539066315,
          0.0314544141292572,
          0.24138738214969635,
          0.16996288299560547,
          0.04027137532830238,
          -0.12083100527524948,
          0.03295227885246277,
          -0.12143111228942871,
          -0.20493383705615997,
          0.26497578620910645,
          0.007375107612460852,
          -0.10957714915275574,
          0.1089959591627121,
          0.09720674157142639,
          0.31406503915786743,
          0.11153417825698853,
          0.18087702989578247,
          -0.31134745478630066,
          -0.18213783204555511,
          -0.0705348551273346,
          0.0823933333158493,
          0.010753489099442959,
          -0.06918049603700638,
          0.06589029729366302,
          -0.22008462250232697,
          0.17738303542137146,
          -0.09365212172269821,
          0.06984114646911621,
          -0.0534958578646183,
          0.02752724662423134
        ],
        [
          -0.3083510100841522,
          -0.17248524725437164,
          -0.409007728099823,
          -0.1544124186038971,
          -0.047930359840393066,
          0.0927266925573349,
          0.07394598424434662,
          -0.009290412999689579,
          -0.03869915381073952,
          0.0846027135848999,
          -0.22935855388641357,
          -0.22987979650497437,
          0.060758426785469055,
          -0.02488182671368122,
          0.033154264092445374,
          0.18062062561511993,
          0.1190689206123352,
          -0.10377579182386398,
          0.03958948329091072,
          0.35872235894203186,
          -0.1883169412612915,
          0.240470752120018,
          0.047442588955163956,
          -0.04811594635248184,
          -0.050864022225141525,
          0.0435442291200161,
          -0.1093587875366211,
          -0.21352633833885193,
          -0.19081176817417145,
          0.10476884245872498,
          0.1412934809923172,
          -0.12298397719860077,
          0.09646975994110107,
          -0.3971743583679199,
          0.07799448817968369,
          -0.022903872653841972,
          0.1740414798259735,
          -0.0706443041563034,
          -0.27947649359703064,
          0.11394908279180527,
          0.15937243402004242,
          0.011430393904447556,
          0.001868942752480507,
          0.21105362474918365,
          0.06074438616633415,
          0.12371432781219482,
          -0.1117490902543068,
          -0.0907256081700325,
          -0.1759563535451889,
          0.2994730472564697,
          -0.16430731117725372,
          -0.29404908418655396,
          0.14961948990821838,
          0.2546510100364685,
          0.025142917409539223,
          -0.3922916054725647,
          0.1670762300491333,
          -0.2651277184486389,
          0.13186974823474884,
          -0.1350860595703125,
          0.2634664475917816,
          -0.03130242973566055,
          -0.15539833903312683,
          0.06171285733580589
        ],
        [
          0.11500424891710281,
          -0.07867018133401871,
          0.02849368005990982,
          0.0843750536441803,
          -0.2391943633556366,
          0.14719118177890778,
          0.2631276249885559,
          0.00970057025551796,
          0.03913060948252678,
          0.08793600648641586,
          0.23393738269805908,
          -0.1981351375579834,
          0.1684315949678421,
          -0.07523231208324432,
          0.11899829655885696,
          -0.07887013256549835,
          -0.24179284274578094,
          0.14588294923305511,
          0.29135963320732117,
          -0.23511971533298492,
          0.18705670535564423,
          0.2630247473716736,
          0.10217805951833725,
          -0.14418597519397736,
          -0.20923200249671936,
          -0.018299350515007973,
          0.1809265911579132,
          -0.05719336122274399,
          -0.09023730456829071,
          -0.041458435356616974,
          -0.07183880358934402,
          0.3687671720981598,
          0.2059696465730667,
          0.1847296804189682,
          0.09308899194002151,
          0.2753584384918213,
          0.07207528501749039,
          -0.027964578941464424,
          0.11752178519964218,
          -0.05884652957320213,
          0.3644130825996399,
          0.22370952367782593,
          0.14110033214092255,
          -0.1953008621931076,
          0.08711987733840942,
          -0.058260541409254074,
          -0.08639069646596909,
          -0.371643602848053,
          -0.18221348524093628,
          0.13571301102638245,
          0.34420305490493774,
          -0.05297061800956726,
          0.13671517372131348,
          0.05019392818212509,
          -0.14131027460098267,
          0.020255407318472862,
          0.044730786234140396,
          -0.13477185368537903,
          0.16846448183059692,
          0.22227609157562256,
          -0.08178959786891937,
          0.025167545303702354,
          -0.3607668876647949,
          0.22061404585838318
        ],
        [
          -0.019176678732037544,
          0.2559733986854553,
          -0.12507523596286774,
          0.09442788362503052,
          0.0707998126745224,
          0.13967083394527435,
          -0.09131883084774017,
          0.04360905662178993,
          -0.1046563908457756,
          -0.030240921303629875,
          0.2210226058959961,
          0.006255765911191702,
          -0.1544768065214157,
          -0.14828994870185852,
          -0.2816402018070221,
          -0.014159374870359898,
          -0.21987071633338928,
          -0.20629356801509857,
          -0.027626221999526024,
          -0.1773739904165268,
          -0.13338452577590942,
          0.05616821348667145,
          -0.08730112016201019,
          0.15365393459796906,
          0.23136022686958313,
          -0.36756595969200134,
          -0.21575944125652313,
          0.04640503600239754,
          -0.3151422441005707,
          -0.10010486096143723,
          -0.17597484588623047,
          -0.04131359979510307,
          -0.020719686523079872,
          0.1638028919696808,
          0.21432435512542725,
          0.15962764620780945,
          -0.3471454083919525,
          -0.27840736508369446,
          -0.24989716708660126,
          -0.12431591749191284,
          0.013045931234955788,
          0.21353884041309357,
          0.22237694263458252,
          -0.09170058369636536,
          0.11847240477800369,
          0.33683860301971436,
          0.20482437312602997,
          -0.09088874608278275,
          -0.10647103935480118,
          -0.060818254947662354,
          -0.030653977766633034,
          -0.11154422163963318,
          -0.3315366208553314,
          0.09071401506662369,
          0.3294878602027893,
          0.12048666924238205,
          0.05167604610323906,
          -0.2956906855106354,
          -0.17377673089504242,
          -0.09559725224971771,
          0.12336304038763046,
          -0.08929646760225296,
          -0.2766033411026001,
          -0.3103984594345093
        ],
        [
          0.1310786008834839,
          -0.38583284616470337,
          -0.27408838272094727,
          -0.04659009352326393,
          -0.12022353708744049,
          0.053992949426174164,
          -0.017216505482792854,
          -0.2647978365421295,
          -0.3841538429260254,
          -0.18685898184776306,
          -0.1384575366973877,
          0.02172180823981762,
          0.3527919352054596,
          -0.022093676030635834,
          -0.049963757395744324,
          0.1862272322177887,
          0.17968647181987762,
          0.16559576988220215,
          0.1212853416800499,
          0.021569283679127693,
          -0.16097867488861084,
          -0.3049514889717102,
          -0.16279657185077667,
          0.1929110288619995,
          -0.047795988619327545,
          -0.17704083025455475,
          0.03450419008731842,
          0.065758615732193,
          -0.010991128161549568,
          -0.09354643523693085,
          0.18982067704200745,
          0.27630555629730225,
          -0.07545720040798187,
          -0.07616612315177917,
          0.0865672156214714,
          0.17044973373413086,
          0.03939265385270119,
          0.28851842880249023,
          0.0016246057348325849,
          -0.04852770268917084,
          -0.06284128129482269,
          0.25354158878326416,
          0.25178056955337524,
          -0.3120254874229431,
          0.1749735325574875,
          -0.05412563681602478,
          -0.17505566775798798,
          0.1339392215013504,
          0.007041118107736111,
          -0.12946735322475433,
          -0.11787082999944687,
          -0.22776290774345398,
          -0.08766568452119827,
          0.18071646988391876,
          0.016132427379488945,
          0.12442997097969055,
          0.09961359947919846,
          0.06343521177768707,
          0.08623974025249481,
          0.1396731585264206,
          -0.2598804831504822,
          -0.17942872643470764,
          0.2301982194185257,
          -0.29819920659065247
        ],
        [
          -0.03380533680319786,
          0.1093214824795723,
          -0.11202292889356613,
          -0.06387035548686981,
          0.03107568994164467,
          -0.130153089761734,
          -0.22126975655555725,
          -0.015128110535442829,
          0.18707811832427979,
          -0.13131076097488403,
          0.32293838262557983,
          0.20451870560646057,
          -0.008939780294895172,
          0.22607427835464478,
          -0.1193351000547409,
          -0.28014472126960754,
          0.10010651499032974,
          -0.25481873750686646,
          0.1619553416967392,
          0.29816561937332153,
          0.046927276998758316,
          0.06925071775913239,
          -0.23646460473537445,
          0.1466665416955948,
          -0.06009810417890549,
          0.14797912538051605,
          0.05362486466765404,
          0.07529909163713455,
          0.004296587314456701,
          0.2071152776479721,
          -0.14650480449199677,
          -0.0007008606335148215,
          0.19144625961780548,
          0.12164536863565445,
          0.098881296813488,
          0.1075054407119751,
          0.025137178599834442,
          -0.20115679502487183,
          -0.028722332790493965,
          0.11463484913110733,
          -0.24476705491542816,
          -0.25868597626686096,
          -0.050468578934669495,
          -0.16168634593486786,
          -0.04046551510691643,
          0.02873462624847889,
          -0.31095612049102783,
          -0.39767515659332275,
          -0.04151545837521553,
          0.023868238553404808,
          -0.14599324762821198,
          -0.32736432552337646,
          0.11291056126356125,
          -0.14653605222702026,
          0.2088717371225357,
          -0.0793067067861557,
          0.2965540885925293,
          0.18877941370010376,
          0.10723786801099777,
          0.007603473495692015,
          -0.4366447925567627,
          0.041274379938840866,
          -0.012034316547214985,
          0.103812076151371
        ],
        [
          -0.1821489781141281,
          -0.04871281608939171,
          0.21802343428134918,
          0.13243182003498077,
          0.13500666618347168,
          -0.09858280420303345,
          0.2094947248697281,
          0.5039330720901489,
          -0.20688073337078094,
          -0.2808234691619873,
          -0.21484234929084778,
          -0.011583061888813972,
          -0.1644449084997177,
          0.12138614803552628,
          -0.158896803855896,
          -0.1335601806640625,
          0.10117698460817337,
          0.12270931154489517,
          0.297868937253952,
          0.10520969331264496,
          0.05895105376839638,
          0.04980172589421272,
          0.05390381067991257,
          -0.13945280015468597,
          0.24555303156375885,
          -0.18782368302345276,
          -0.26668551564216614,
          0.10037634521722794,
          -0.13811594247817993,
          0.05966346338391304,
          0.048469334840774536,
          0.19059820473194122,
          0.15126213431358337,
          -0.05394487828016281,
          0.07706541568040848,
          0.08623115718364716,
          -0.03709230199456215,
          -0.08664187788963318,
          -0.013215788640081882,
          0.11715257167816162,
          0.028461288660764694,
          0.2119952291250229,
          -0.07068170607089996,
          -0.29332560300827026,
          0.173345685005188,
          0.0015707231359556317,
          -0.06828773766756058,
          0.21103724837303162,
          0.12610305845737457,
          0.22038620710372925,
          -0.055811699479818344,
          -0.1598004251718521,
          0.01146542839705944,
          -0.33544281125068665,
          -0.03620641306042671,
          -0.0622265599668026,
          -0.4336591064929962,
          0.0631444901227951,
          0.20069414377212524,
          -0.3753070533275604,
          -0.15293698012828827,
          -0.06525417417287827,
          0.05271868407726288,
          0.19168677926063538
        ],
        [
          -0.04112479090690613,
          -0.10605985671281815,
          -0.01816883310675621,
          -0.14597095549106598,
          -0.3337682783603668,
          -0.23814985156059265,
          0.12507852911949158,
          0.011352954432368279,
          0.20757588744163513,
          -0.1338350623846054,
          0.15495620667934418,
          0.10317786782979965,
          -0.2772037982940674,
          -0.28352636098861694,
          0.07245738059282303,
          0.05227746441960335,
          0.029168173670768738,
          0.08325932174921036,
          0.10031482577323914,
          0.1842610090970993,
          0.24585109949111938,
          -0.25404709577560425,
          0.12992611527442932,
          0.0918770283460617,
          0.36791375279426575,
          0.09599938243627548,
          0.5077414512634277,
          0.010260953567922115,
          0.019951945170760155,
          -0.1435053050518036,
          -0.19216987490653992,
          -0.01717512682080269,
          -0.184260293841362,
          -0.1287873536348343,
          0.07885120809078217,
          -0.2105989009141922,
          0.1263536810874939,
          -0.019674308598041534,
          0.2168630212545395,
          0.08389144390821457,
          -0.11465788632631302,
          -0.06385146081447601,
          0.23114129900932312,
          -0.17866796255111694,
          0.10370548069477081,
          0.013315684162080288,
          -0.10818494111299515,
          -0.05052877217531204,
          0.02418118715286255,
          0.019385503605008125,
          0.25382596254348755,
          -0.14244066178798676,
          -0.35252687335014343,
          -0.0337035208940506,
          0.09942986071109772,
          -0.12523260712623596,
          0.0645211786031723,
          -0.03565829619765282,
          0.29865026473999023,
          -0.23415088653564453,
          0.38844501972198486,
          -0.09654264152050018,
          -0.016235128045082092,
          -0.10949046164751053
        ],
        [
          -0.0354616679251194,
          -0.1452806144952774,
          0.0744730532169342,
          -0.05551079288125038,
          0.18152420222759247,
          -0.08298845589160919,
          -0.20621365308761597,
          0.033211108297109604,
          -0.003793449606746435,
          0.17747029662132263,
          0.19974708557128906,
          -0.09120991826057434,
          -0.3525135815143585,
          -0.33601608872413635,
          0.03962606191635132,
          -0.4075874090194702,
          0.29151394963264465,
          0.03599656745791435,
          0.10591710358858109,
          -0.005090518854558468,
          0.01465234998613596,
          0.2385237067937851,
          -0.08519620448350906,
          -0.07174548506736755,
          -0.2819135785102844,
          -0.19346356391906738,
          0.07630960643291473,
          -0.0900762751698494,
          -0.24973569810390472,
          0.18349528312683105,
          0.1199045330286026,
          -0.09015443176031113,
          -0.1337675154209137,
          0.39079704880714417,
          -0.006635882426053286,
          -0.18504540622234344,
          0.2399119734764099,
          0.11355356127023697,
          -0.1058456301689148,
          0.04239489138126373,
          0.04142313078045845,
          0.2526724636554718,
          -0.0751899853348732,
          -0.0008052595076151192,
          -0.1415848284959793,
          0.146854966878891,
          -0.2895224392414093,
          0.15364505350589752,
          -0.15202473104000092,
          -0.07131259888410568,
          -0.14191649854183197,
          0.134255051612854,
          -0.2325996607542038,
          -0.12845657765865326,
          -0.35674142837524414,
          -0.06497439742088318,
          0.022192740812897682,
          -0.1921175718307495,
          0.1135302260518074,
          0.15482504665851593,
          0.020198218524456024,
          -0.30372002720832825,
          0.11144168674945831,
          -0.26814842224121094
        ],
        [
          0.06455133855342865,
          -0.33398500084877014,
          0.2003319263458252,
          0.25182604789733887,
          -0.0764348953962326,
          -0.20740638673305511,
          0.14505453407764435,
          0.10392950475215912,
          0.15209521353244781,
          -0.21293088793754578,
          0.16562043130397797,
          0.02035696431994438,
          0.15063199400901794,
          -0.18808887898921967,
          0.052714280784130096,
          0.23731514811515808,
          0.027999071404337883,
          -0.30585432052612305,
          0.0478329062461853,
          -0.24451890587806702,
          -0.14490650594234467,
          0.12031589448451996,
          -0.1870185285806656,
          0.14362938702106476,
          -0.2642050087451935,
          0.01917666755616665,
          0.024576324969530106,
          0.44109252095222473,
          0.0656057670712471,
          -0.03316712751984596,
          0.14079536497592926,
          -0.017248306423425674,
          -0.4136466085910797,
          0.10123690217733383,
          -0.07962244749069214,
          0.06385203450918198,
          -0.04961416870355606,
          -0.23648180067539215,
          -0.35686516761779785,
          0.40458160638809204,
          -0.005763135850429535,
          -0.01714416965842247,
          0.04507724195718765,
          0.18368320167064667,
          0.011147048324346542,
          -0.13136506080627441,
          0.1002645343542099,
          0.1807192713022232,
          0.0028869148809462786,
          0.34059396386146545,
          0.12179052084684372,
          0.07171011716127396,
          0.14166231453418732,
          -0.11284829676151276,
          0.1087656319141388,
          -0.16742010414600372,
          -0.056378889828920364,
          0.09220194071531296,
          0.10052931308746338,
          0.03503505885601044,
          0.07187599688768387,
          0.013818454928696156,
          -0.16523873805999756,
          -0.23765607178211212
        ],
        [
          -0.049577496945858,
          -0.21651199460029602,
          -0.12315501272678375,
          -0.21603281795978546,
          -0.041474711149930954,
          -0.1395784169435501,
          0.05158005282282829,
          -0.21558456122875214,
          0.15969406068325043,
          -0.10601811110973358,
          -0.35451841354370117,
          0.08447577804327011,
          -0.24582238495349884,
          0.07500611245632172,
          -0.20211796462535858,
          0.1350567787885666,
          -0.18323415517807007,
          0.06713895499706268,
          -0.04748240113258362,
          -0.1863551288843155,
          0.0969744622707367,
          0.10072313249111176,
          0.07220521569252014,
          -0.14087244868278503,
          0.05164147540926933,
          -0.3056526482105255,
          -0.07473858445882797,
          0.15664759278297424,
          0.03956759348511696,
          0.3722236752510071,
          0.3282928168773651,
          0.009780200198292732,
          0.11357066035270691,
          -0.05394803732633591,
          0.0699305459856987,
          0.032865993678569794,
          -0.2643458843231201,
          -0.18440644443035126,
          0.23136299848556519,
          0.2918534576892853,
          -0.0974372923374176,
          -0.0847075805068016,
          -0.007940352894365788,
          0.0008454901399090886,
          -0.20988458395004272,
          -0.07973337173461914,
          0.14836595952510834,
          -0.22547484934329987,
          -0.20397797226905823,
          -0.13217774033546448,
          -0.09404928982257843,
          0.27688509225845337,
          -0.4517553448677063,
          0.1505204141139984,
          -0.14953987300395966,
          -0.18874621391296387,
          -0.11501213908195496,
          0.0133656095713377,
          0.23770341277122498,
          0.1912090927362442,
          -0.13180923461914062,
          0.1767096221446991,
          -0.12686565518379211,
          0.01982729136943817
        ],
        [
          -0.04789895936846733,
          0.18014706671237946,
          0.016796136274933815,
          0.2726914882659912,
          0.2638428807258606,
          -0.05577237159013748,
          -0.06592275947332382,
          0.17455872893333435,
          0.044718459248542786,
          0.08829634636640549,
          -0.10058049857616425,
          -0.015643691644072533,
          0.07524209469556808,
          0.22241468727588654,
          -0.2183540314435959,
          0.23481899499893188,
          0.041572198271751404,
          -0.2554771304130554,
          -0.049305494874715805,
          -0.03402765095233917,
          -0.04092329740524292,
          -0.1167335957288742,
          -0.11386460065841675,
          -0.026896266266703606,
          0.16077643632888794,
          0.23738877475261688,
          -0.020350351929664612,
          -0.12091051787137985,
          -0.1258268505334854,
          0.029982812702655792,
          -0.1962914764881134,
          0.11048324406147003,
          0.04942914843559265,
          -0.04291696473956108,
          0.13880014419555664,
          -0.12202639877796173,
          0.15161268413066864,
          0.41157859563827515,
          -0.007229749578982592,
          0.03577795252203941,
          0.09760019183158875,
          0.008497956208884716,
          0.04110714793205261,
          0.08416468650102615,
          -0.09195293486118317,
          -0.4661586880683899,
          -0.10670168697834015,
          -0.28097277879714966,
          -0.2508787512779236,
          -0.3103157877922058,
          0.26617252826690674,
          -0.05180952325463295,
          -0.01935259997844696,
          -0.09132277965545654,
          -0.04182460159063339,
          -0.31342440843582153,
          -0.38619130849838257,
          -0.09772939234972,
          0.0725310668349266,
          0.09493247419595718,
          -0.029500536620616913,
          -0.0802072286605835,
          -0.16460630297660828,
          -0.47458747029304504
        ],
        [
          -0.24102652072906494,
          -0.4750192165374756,
          0.2713043689727783,
          0.32130029797554016,
          -0.014355442486703396,
          0.09707612544298172,
          0.08802294731140137,
          -0.2852124571800232,
          0.09213819354772568,
          0.05574994161725044,
          0.009195936843752861,
          0.21218574047088623,
          0.048906128853559494,
          0.0440559946000576,
          -0.06911516189575195,
          -0.24753355979919434,
          0.049795616418123245,
          -0.05104683339595795,
          -0.05810605734586716,
          0.010089627467095852,
          0.05866282805800438,
          0.10521773248910904,
          0.05853435769677162,
          0.30476611852645874,
          0.0036667741369456053,
          -0.008267678320407867,
          -0.12079459428787231,
          -0.3955864906311035,
          -0.2784039080142975,
          -0.11063355952501297,
          0.07878919690847397,
          0.09848642349243164,
          0.38642704486846924,
          -0.015444069169461727,
          -0.1774473339319229,
          -0.006562740541994572,
          0.02594231441617012,
          -0.045190323144197464,
          0.10284258425235748,
          0.04977047070860863,
          -0.11313914507627487,
          -0.19035686552524567,
          -0.10217496752738953,
          0.13267193734645844,
          0.2590525150299072,
          -0.05296258255839348,
          -0.09663495421409607,
          0.3058551847934723,
          0.34678754210472107,
          -0.2668573260307312,
          0.08653925359249115,
          -0.030232900753617287,
          -0.1551513522863388,
          0.02555309422314167,
          0.1257442981004715,
          -0.044437866657972336,
          0.05058426782488823,
          0.08995530009269714,
          -0.006969460751861334,
          0.08792510628700256,
          0.07820786535739899,
          0.05228501558303833,
          -0.4439782202243805,
          -0.06231546774506569
        ],
        [
          -0.09777222573757172,
          -0.17483161389827728,
          0.021029435098171234,
          -0.4047941267490387,
          -0.042401380836963654,
          0.14020979404449463,
          -0.13735119998455048,
          -0.1026841327548027,
          -0.02700056880712509,
          0.16954052448272705,
          -0.004014540463685989,
          -0.33165282011032104,
          -0.08590459078550339,
          -0.07986779510974884,
          0.03307062387466431,
          0.05548353120684624,
          -0.01979372464120388,
          -0.26880136132240295,
          -0.15811072289943695,
          -0.02186342142522335,
          -0.04008318856358528,
          -0.019709404557943344,
          0.1520703285932541,
          0.17515285313129425,
          -0.2871939539909363,
          0.050832439213991165,
          -0.058875180780887604,
          0.4621585011482239,
          0.16345487534999847,
          0.04978104680776596,
          0.05275053158402443,
          -0.20009776949882507,
          0.32865995168685913,
          0.16157041490077972,
          0.188892662525177,
          -0.08260797709226608,
          0.15977130830287933,
          0.28904813528060913,
          0.12442061305046082,
          0.2100946456193924,
          -0.15378063917160034,
          -0.010955815203487873,
          0.07309757173061371,
          -0.2506142854690552,
          0.24598495662212372,
          -0.22295035421848297,
          0.040371380746364594,
          -0.027129262685775757,
          0.03944104164838791,
          0.04791941121220589,
          -0.10228478163480759,
          -0.02512049488723278,
          -0.012890844605863094,
          -0.13458707928657532,
          0.25984111428260803,
          0.4139186441898346,
          -0.3597099483013153,
          -0.24611014127731323,
          -0.11592666804790497,
          -0.2107618749141693,
          0.12107362598180771,
          -0.1974514275789261,
          -0.33267542719841003,
          0.0553014874458313
        ],
        [
          -0.13415050506591797,
          0.3489082157611847,
          0.24348582327365875,
          0.010700401850044727,
          -0.21386398375034332,
          0.07059257477521896,
          -0.23149298131465912,
          0.05019577220082283,
          0.015058530494570732,
          -0.16770854592323303,
          0.061840638518333435,
          -0.08744006603956223,
          0.08657029271125793,
          -0.004567255266010761,
          0.45921096205711365,
          -0.09924295544624329,
          -0.2762198746204376,
          -0.09315175563097,
          -0.06685629487037659,
          -0.04293779283761978,
          -0.24352779984474182,
          0.006689709145575762,
          -0.17283383011817932,
          -0.2736515998840332,
          -0.17745272815227509,
          0.02997780218720436,
          -0.07516784220933914,
          0.12238960713148117,
          -0.19760435819625854,
          -0.32636216282844543,
          0.20900487899780273,
          -0.035433169454336166,
          0.19633255898952484,
          -0.32329365611076355,
          -0.20826806128025055,
          0.04289848357439041,
          0.0507524237036705,
          -0.18113674223423004,
          -0.022795291617512703,
          0.13387836515903473,
          0.0757388323545456,
          0.10517261922359467,
          0.04717673733830452,
          -0.13959842920303345,
          0.11729356646537781,
          -0.08587534725666046,
          -0.16912657022476196,
          -0.22043964266777039,
          0.04661398380994797,
          -0.3179534375667572,
          -0.18286019563674927,
          -0.009776465594768524,
          -0.23205670714378357,
          0.058929573744535446,
          -0.2649388015270233,
          -0.13143426179885864,
          -0.005232079885900021,
          0.44586217403411865,
          0.049730315804481506,
          -0.17366746068000793,
          0.22452165186405182,
          0.013735665939748287,
          0.10673905909061432,
          -0.10806606709957123
        ],
        [
          -0.32648733258247375,
          0.16692885756492615,
          0.1984686553478241,
          -0.1290227621793747,
          0.09523080289363861,
          0.07274666428565979,
          -0.1115289032459259,
          -0.04489555209875107,
          0.17558562755584717,
          -0.46444693207740784,
          0.137539342045784,
          -0.20244354009628296,
          0.3291413187980652,
          0.16774865984916687,
          -0.1071721687912941,
          -0.15150511264801025,
          -0.1282912790775299,
          0.3522442877292633,
          -0.030474774539470673,
          0.11114123463630676,
          0.21662364900112152,
          0.01249462179839611,
          0.10752557218074799,
          0.09778410941362381,
          0.007353547029197216,
          -0.07927867025136948,
          0.04397225007414818,
          0.21068653464317322,
          -0.08842922747135162,
          -0.2107481062412262,
          0.19365888833999634,
          -0.25848037004470825,
          0.07570001482963562,
          0.11776886880397797,
          0.17065081000328064,
          -0.2653452455997467,
          -0.24102705717086792,
          0.2172410637140274,
          0.1282990574836731,
          0.08560001850128174,
          0.20686671137809753,
          -0.054666534066200256,
          0.1285068243741989,
          0.3223210573196411,
          0.002314032521098852,
          0.07276030629873276,
          0.12207519263029099,
          0.051493965089321136,
          0.2328718602657318,
          0.01647781766951084,
          0.15828774869441986,
          -0.13502946496009827,
          0.15999500453472137,
          0.02753405272960663,
          -0.06940382719039917,
          -0.2561836242675781,
          0.09567785263061523,
          -0.2427862137556076,
          0.051877185702323914,
          0.1707606464624405,
          -0.11427436769008636,
          -0.27314794063568115,
          0.186193585395813,
          -0.007237373851239681
        ],
        [
          -0.31691116094589233,
          -0.07775471359491348,
          0.019403764978051186,
          -0.12097998708486557,
          0.17018944025039673,
          0.2787036597728729,
          0.0882553979754448,
          0.1015474945306778,
          -0.2981991469860077,
          0.11649245768785477,
          -0.15415923297405243,
          0.1375623643398285,
          -0.2316935658454895,
          0.09303220361471176,
          0.13312093913555145,
          -0.048052605241537094,
          -0.19236920773983002,
          0.25528478622436523,
          0.016049891710281372,
          -0.15824829041957855,
          -0.013854995369911194,
          -0.10569611936807632,
          -0.19951412081718445,
          0.09088075160980225,
          0.21230077743530273,
          0.1618162989616394,
          0.35807204246520996,
          0.25517141819000244,
          0.03347428888082504,
          0.2028680294752121,
          -0.016883838921785355,
          0.02635047771036625,
          -0.05947314202785492,
          0.18946291506290436,
          -0.18573154509067535,
          0.36216092109680176,
          -0.03562569245696068,
          -0.048920076340436935,
          0.10401681065559387,
          -0.06680172681808472,
          -0.03215303644537926,
          -0.15073910355567932,
          -0.2769840359687805,
          0.20867964625358582,
          0.4074772894382477,
          0.0588233582675457,
          0.03827623650431633,
          -0.12810616195201874,
          -0.20649169385433197,
          -0.03357062488794327,
          -0.09451530873775482,
          0.1150265634059906,
          0.2546590268611908,
          0.07186664640903473,
          0.06220029294490814,
          -0.16575028002262115,
          0.0765538290143013,
          0.16622965037822723,
          0.008862750604748726,
          0.0021326623391360044,
          0.11897534877061844,
          -0.4765959680080414,
          -0.07355426996946335,
          -0.1687270998954773
        ],
        [
          -0.05496653914451599,
          0.13178277015686035,
          -0.1433102786540985,
          0.16597531735897064,
          -0.2877015769481659,
          -0.3724009096622467,
          0.1010698601603508,
          -0.16769914329051971,
          -0.19667679071426392,
          0.3426796793937683,
          -0.025360746309161186,
          0.08412454277276993,
          0.1562727838754654,
          0.08842132240533829,
          -0.013853580690920353,
          0.05650302767753601,
          -0.2241474688053131,
          -0.21048477292060852,
          0.22315046191215515,
          0.08617343008518219,
          0.21699270606040955,
          0.007382767740637064,
          0.2562093436717987,
          -0.06384642422199249,
          -0.06451526284217834,
          0.0775211974978447,
          -0.022302433848381042,
          0.15226100385189056,
          -0.10566943883895874,
          0.15177084505558014,
          -0.2570965886116028,
          -0.09743651747703552,
          -0.1101921871304512,
          0.13639512658119202,
          0.05254821106791496,
          0.004014650359749794,
          -0.17085860669612885,
          0.2787446975708008,
          -0.10827535390853882,
          0.3692202568054199,
          0.0026863517705351114,
          0.2425505518913269,
          -0.16944576799869537,
          0.12247011810541153,
          0.13013856112957,
          0.0923280119895935,
          -0.02919863723218441,
          0.14204612374305725,
          0.10260343551635742,
          -0.11279545724391937,
          0.042787130922079086,
          -0.01945115253329277,
          -0.26674965023994446,
          0.16734082996845245,
          -0.16992589831352234,
          -0.19614553451538086,
          0.09907780587673187,
          0.18256987631320953,
          -0.4012550711631775,
          -0.2107231765985489,
          -0.18546465039253235,
          -0.3050675392150879,
          -0.02274308167397976,
          0.23237799108028412
        ],
        [
          -0.10003652423620224,
          0.04636690020561218,
          0.020699787884950638,
          -0.23553037643432617,
          -0.00769861601293087,
          0.0833682119846344,
          0.16080811619758606,
          -0.006014380604028702,
          0.19140544533729553,
          -0.2458796352148056,
          0.14588995277881622,
          0.06129125878214836,
          0.016114618629217148,
          -0.11205369979143143,
          -0.017823565751314163,
          0.2621574401855469,
          -0.2538396120071411,
          0.08366323262453079,
          0.14288902282714844,
          -0.14306636154651642,
          0.42472827434539795,
          -0.1301860362291336,
          -0.24951672554016113,
          -0.16618840396404266,
          -0.01412535086274147,
          -0.05787792056798935,
          -0.2767621576786041,
          -0.03405044227838516,
          -0.1386459767818451,
          0.41161152720451355,
          -0.26611626148223877,
          -0.11855784058570862,
          0.06799614429473877,
          0.02954467572271824,
          -0.1577872335910797,
          -0.12685935199260712,
          0.01192158181220293,
          0.07529567927122116,
          0.10805246978998184,
          -0.004559193272143602,
          0.09199225902557373,
          0.260515421628952,
          0.10175354033708572,
          0.1913776993751526,
          -0.08679892867803574,
          -0.21096381545066833,
          -0.3474224805831909,
          0.3734653890132904,
          -0.18189838528633118,
          -0.03958619758486748,
          -0.2743223011493683,
          -0.1268257200717926,
          0.2014564573764801,
          0.0629660114645958,
          0.14925754070281982,
          0.2521342635154724,
          0.09229274839162827,
          0.16322942078113556,
          -0.060402095317840576,
          -0.020612025633454323,
          0.16529661417007446,
          0.18077605962753296,
          -0.11250177025794983,
          -0.14907227456569672
        ],
        [
          0.283572793006897,
          0.21387474238872528,
          -0.008720752783119678,
          0.009216748178005219,
          -0.11471129953861237,
          0.015353115275502205,
          0.12953440845012665,
          0.0276606734842062,
          0.09523097425699234,
          0.3168705999851227,
          -0.060065481811761856,
          0.2473299205303192,
          0.0625215694308281,
          0.14702525734901428,
          -0.1296825408935547,
          -0.13301396369934082,
          0.003596306312829256,
          -0.006818991620093584,
          -0.0020623761229217052,
          0.1908024698495865,
          0.037403665482997894,
          -0.1845007985830307,
          -0.16694924235343933,
          -0.20776790380477905,
          0.04246092960238457,
          -0.06697572767734528,
          0.03211890161037445,
          0.0012932615354657173,
          0.022526441141963005,
          -0.0789778009057045,
          0.2230147272348404,
          0.017922334372997284,
          0.2165767401456833,
          0.19244816899299622,
          -0.42706114053726196,
          -0.0031441834289580584,
          -0.1777614951133728,
          -0.044389758259058,
          -0.2056419998407364,
          0.04187661036849022,
          0.09715763479471207,
          0.136439248919487,
          -0.23185114562511444,
          0.10894996672868729,
          0.08271251618862152,
          -0.5477828979492188,
          0.09386740624904633,
          0.00114454107824713,
          0.09948689490556717,
          0.29385635256767273,
          -0.08060640096664429,
          -0.18350496888160706,
          -0.2743339240550995,
          -0.05994780361652374,
          0.11099573969841003,
          0.14635448157787323,
          0.15518051385879517,
          -0.3467520773410797,
          0.26725515723228455,
          0.12398593127727509,
          0.25199440121650696,
          -0.14968176186084747,
          0.17891456186771393,
          0.030252128839492798
        ],
        [
          0.2278638631105423,
          0.2803720533847809,
          -0.11851512640714645,
          -0.026997029781341553,
          -0.06647194176912308,
          -0.24263900518417358,
          -0.06083841249346733,
          -0.03887169435620308,
          -0.151859313249588,
          -0.2767086923122406,
          -0.02837270125746727,
          -0.14880093932151794,
          -0.18574224412441254,
          0.07300268858671188,
          0.008035465143620968,
          0.06446769833564758,
          0.32077112793922424,
          -0.173750102519989,
          0.026027625426650047,
          -0.2929242253303528,
          -0.09004244953393936,
          0.18701276183128357,
          -0.0673472210764885,
          0.1151927188038826,
          -0.007956275716423988,
          -0.004476387053728104,
          0.14145232737064362,
          -0.04118272662162781,
          0.06642469763755798,
          0.16819804906845093,
          -0.34206247329711914,
          0.0830833837389946,
          0.18711400032043457,
          -0.04635948687791824,
          -0.20003092288970947,
          0.1750658005475998,
          -0.05255554988980293,
          0.13483937084674835,
          0.015270128846168518,
          0.1572207510471344,
          0.06135530397295952,
          -0.2039453089237213,
          0.050726816058158875,
          0.19995495676994324,
          0.21444086730480194,
          0.16883906722068787,
          0.20018060505390167,
          0.23730282485485077,
          0.1424393504858017,
          -0.3861079812049866,
          -0.023931503295898438,
          -0.23431673645973206,
          0.2132796347141266,
          0.04036836698651314,
          -0.3678017556667328,
          0.1368555873632431,
          -0.005605686455965042,
          -0.1870405226945877,
          0.3927680552005768,
          0.0008375135948881507,
          0.20425818860530853,
          0.08011748641729355,
          0.012945531867444515,
          0.1647336632013321
        ],
        [
          0.16007108986377716,
          -0.010142594575881958,
          -0.11607548594474792,
          0.3490060269832611,
          -0.0230945385992527,
          -0.0032032355666160583,
          0.0850767120718956,
          0.25394269824028015,
          -0.06781308352947235,
          0.11957311630249023,
          -0.23895958065986633,
          0.2618734836578369,
          -0.0714569091796875,
          0.054729532450437546,
          0.08709161728620529,
          -0.2721656262874603,
          -0.4255663752555847,
          0.022486768662929535,
          -0.3720608353614807,
          -0.11480236798524857,
          0.07584592700004578,
          0.11493831127882004,
          0.2152770608663559,
          -0.020011112093925476,
          0.03533700853586197,
          0.03181292489171028,
          -0.009213344193994999,
          0.16897590458393097,
          -0.1743631809949875,
          0.14473342895507812,
          0.20425011217594147,
          0.03563914820551872,
          -0.11471275240182877,
          -0.07614833116531372,
          0.14006905257701874,
          -0.308748722076416,
          0.07173190265893936,
          0.11053226888179779,
          0.07898066192865372,
          0.22911898791790009,
          -0.18753379583358765,
          -0.10983316600322723,
          0.1770152896642685,
          0.02335970103740692,
          0.2256612628698349,
          0.09434307366609573,
          -0.18489091098308563,
          -0.11128097772598267,
          0.03674808517098427,
          0.07061009109020233,
          -0.007676806766539812,
          -0.2447931319475174,
          0.29248690605163574,
          0.049069810658693314,
          -0.23684045672416687,
          0.3397945463657379,
          0.2631722390651703,
          -0.19685125350952148,
          0.08129403740167618,
          -0.0850255936384201,
          -0.06418368965387344,
          0.24835644662380219,
          0.09928689897060394,
          -0.2989744544029236
        ],
        [
          0.3466361165046692,
          -0.35562220215797424,
          0.25575199723243713,
          0.030760640278458595,
          -0.1895868331193924,
          0.13718906044960022,
          -0.2621172368526459,
          0.11031024158000946,
          0.035920195281505585,
          0.0010345608461648226,
          -0.15894043445587158,
          0.3510015308856964,
          -0.11322202533483505,
          -0.2890945076942444,
          -0.15241414308547974,
          0.06744927912950516,
          -0.05100381746888161,
          0.1711163967847824,
          0.04895048588514328,
          0.2682298421859741,
          0.10729589313268661,
          0.387285053730011,
          -0.1653916835784912,
          0.08898168057203293,
          -0.07291919738054276,
          0.2284010350704193,
          -0.23336161673069,
          -0.01810137741267681,
          -0.02252362295985222,
          -0.17405220866203308,
          -0.4292066693305969,
          -0.14556533098220825,
          0.18063658475875854,
          -0.20296423137187958,
          -0.11575738340616226,
          0.014356380328536034,
          -0.23837141692638397,
          0.22865372896194458,
          0.08625343441963196,
          0.11371239274740219,
          0.1294717639684677,
          -0.005121119786053896,
          0.1174415871500969,
          -0.007205266505479813,
          -0.10716520994901657,
          0.12039702385663986,
          0.24340036511421204,
          -0.2697976231575012,
          -0.07480086386203766,
          0.15140146017074585,
          -0.17159096896648407,
          0.04888613522052765,
          0.0816599577665329,
          0.10642870515584946,
          -0.07832122594118118,
          0.0725039541721344,
          -0.1317291408777237,
          0.06652190536260605,
          0.005080951377749443,
          -0.009323615580797195,
          -0.011122029274702072,
          -0.2892358601093292,
          0.11267808079719543,
          -0.1109868735074997
        ],
        [
          -0.09752779453992844,
          -0.043007124215364456,
          -0.02359829843044281,
          -0.04591289535164833,
          -0.1603415161371231,
          -0.179781973361969,
          -0.05176901817321777,
          -0.07566046714782715,
          -0.2235652506351471,
          0.18568415939807892,
          0.049907710403203964,
          -0.24713844060897827,
          0.3293698728084564,
          0.0859440267086029,
          -0.051123254001140594,
          -0.16004356741905212,
          -0.010628672316670418,
          0.14970718324184418,
          -0.06412272155284882,
          -0.2589971423149109,
          0.10926762223243713,
          0.22818538546562195,
          -0.15919966995716095,
          0.01774749718606472,
          0.38182374835014343,
          0.18658411502838135,
          -0.04313432425260544,
          0.09819043427705765,
          -0.1655697226524353,
          -0.10292848199605942,
          -0.10714763402938843,
          -0.2362828254699707,
          0.07653595507144928,
          0.04798005893826485,
          -0.0679909735918045,
          0.20328935980796814,
          0.05770917981863022,
          0.26373380422592163,
          -0.1787399798631668,
          -0.21288523077964783,
          -0.3889269530773163,
          -0.13635148108005524,
          0.27101606130599976,
          0.2591361105442047,
          0.013566482812166214,
          0.1308067888021469,
          -0.2204546332359314,
          -0.061117444187402725,
          -0.048014506697654724,
          0.40921786427497864,
          -0.14062732458114624,
          0.04918532818555832,
          -0.32224440574645996,
          -0.22129596769809723,
          -0.06627372652292252,
          0.01979614421725273,
          -0.23728810250759125,
          0.1349695771932602,
          0.15264256298542023,
          0.17715536057949066,
          0.09871966391801834,
          0.2709273099899292,
          0.09339316934347153,
          0.055273834615945816
        ],
        [
          0.0261389072984457,
          0.042860932648181915,
          0.21104443073272705,
          -0.12090418487787247,
          -0.11009690910577774,
          0.22338029742240906,
          -0.18433158099651337,
          -0.11838541179895401,
          0.2669829726219177,
          -0.026590796187520027,
          0.1854436695575714,
          0.34715086221694946,
          0.09560691565275192,
          0.06219668686389923,
          -0.02545902132987976,
          0.026522306725382805,
          0.24548013508319855,
          0.0957120954990387,
          -0.0924391895532608,
          -0.08835303783416748,
          0.15590240061283112,
          0.1478005051612854,
          -0.040424149483442307,
          -0.19623544812202454,
          0.3068002164363861,
          -0.07047703117132187,
          0.036417361348867416,
          0.007983860559761524,
          0.3652258515357971,
          0.1985873132944107,
          0.16326496005058289,
          -0.135479137301445,
          -0.12351656705141068,
          -0.09703058749437332,
          0.19444981217384338,
          0.23363114893436432,
          0.32112598419189453,
          0.08932685852050781,
          -0.22263242304325104,
          -0.16622526943683624,
          -0.18016880750656128,
          0.24690844118595123,
          -0.027211211621761322,
          -0.07513106614351273,
          0.22551654279232025,
          -0.08937230706214905,
          0.10762125253677368,
          -0.017519105225801468,
          0.2656346261501312,
          0.05145305395126343,
          -0.0016370905796065927,
          -0.04053250327706337,
          0.09627743065357208,
          0.2828107178211212,
          -0.34693339467048645,
          -0.10326094925403595,
          -0.11166999489068985,
          -0.18164889514446259,
          -0.19493180513381958,
          -0.33002710342407227,
          -0.12887990474700928,
          0.07714501023292542,
          -0.2848687469959259,
          -0.1296190321445465
        ],
        [
          -0.1020028218626976,
          -0.10673295706510544,
          -0.07756257057189941,
          -0.0870329737663269,
          -0.033834923058748245,
          0.12849724292755127,
          0.08977407962083817,
          -0.2296466827392578,
          0.08088620752096176,
          0.03995814919471741,
          0.06343124061822891,
          -0.09679973870515823,
          -0.19212539494037628,
          0.0821077898144722,
          0.2645133435726166,
          -0.3367334008216858,
          -0.2167305201292038,
          -0.31865960359573364,
          0.10833616554737091,
          -0.15999069809913635,
          -0.18290969729423523,
          -0.17344525456428528,
          0.2714471220970154,
          0.006431380286812782,
          0.3384428024291992,
          0.057997558265924454,
          -0.24739724397659302,
          -0.32988253235816956,
          0.49640029668807983,
          -0.13576187193393707,
          -0.11250890791416168,
          0.07630567252635956,
          -0.06915710866451263,
          0.11009854078292847,
          -0.10578959435224533,
          -0.12918254733085632,
          0.0858147069811821,
          0.011002798564732075,
          0.15930607914924622,
          0.27435144782066345,
          -0.08953377604484558,
          0.3650156855583191,
          0.2769383192062378,
          0.05829611420631409,
          -0.03237779811024666,
          0.0354987271130085,
          0.273500919342041,
          0.05626557767391205,
          -0.05389895662665367,
          0.1678595393896103,
          -0.28431957960128784,
          -0.15826727449893951,
          0.23246051371097565,
          -0.08939684927463531,
          0.040037088096141815,
          -0.1445387601852417,
          -0.1683814525604248,
          0.0572621114552021,
          0.06689917296171188,
          0.2035709172487259,
          -0.13786618411540985,
          -0.13729877769947052,
          0.03483676165342331,
          -0.15572059154510498
        ],
        [
          -0.17412589490413666,
          0.14031556248664856,
          0.11899247020483017,
          0.0762782171368599,
          -0.2680405080318451,
          0.020864225924015045,
          -0.007796209771186113,
          0.26228582859039307,
          -0.06804244965314865,
          0.32083994150161743,
          -0.17589540779590607,
          -0.031227074563503265,
          0.10742391645908356,
          -0.05424566939473152,
          -0.016600526869297028,
          -0.08573084324598312,
          0.2965806722640991,
          0.03922232985496521,
          -0.22749726474285126,
          -0.2732648253440857,
          0.2709866166114807,
          0.05269584059715271,
          -0.36182016134262085,
          0.26188457012176514,
          0.09935023635625839,
          0.0698159709572792,
          -0.12967035174369812,
          0.2364484667778015,
          0.1453418880701065,
          -0.027759205549955368,
          -0.026206620037555695,
          0.023272432386875153,
          -0.08907727152109146,
          -0.0993630588054657,
          0.1058402881026268,
          -0.18593718111515045,
          0.18947364389896393,
          -0.17257142066955566,
          0.31061702966690063,
          0.025173364207148552,
          0.32756510376930237,
          -0.03809583932161331,
          -0.07438021153211594,
          -0.2796294689178467,
          -0.09573360532522202,
          0.02518244832754135,
          0.18821357190608978,
          0.21528217196464539,
          -0.14563718438148499,
          -0.02380211092531681,
          -0.22327351570129395,
          -0.3976139426231384,
          -0.18473462760448456,
          -0.01688220351934433,
          -0.017141183838248253,
          -0.24303191900253296,
          0.1943877935409546,
          -0.005292825400829315,
          -0.17308777570724487,
          0.31463319063186646,
          -0.02859022654592991,
          0.06527131795883179,
          -0.09992075711488724,
          0.09650228917598724
        ],
        [
          0.06020326167345047,
          0.06996307522058487,
          -0.04199550673365593,
          0.09441033005714417,
          0.23015932738780975,
          0.024184036999940872,
          0.06091348081827164,
          -0.0265826303511858,
          0.2204509675502777,
          -0.0015247751725837588,
          0.08343478292226791,
          0.23904117941856384,
          0.22565250098705292,
          0.09892025589942932,
          0.22707407176494598,
          0.1851520985364914,
          0.07587061822414398,
          0.06639847159385681,
          -0.43348070979118347,
          -0.1657598316669464,
          -0.18724553287029266,
          0.21211566030979156,
          0.2668662667274475,
          -0.25009140372276306,
          -0.05448169633746147,
          0.1167147159576416,
          0.06583379209041595,
          0.09620634466409683,
          -0.01993398368358612,
          -0.15404124557971954,
          -0.20353925228118896,
          -0.012453325092792511,
          0.014932204969227314,
          0.11668446660041809,
          -0.004179929383099079,
          -0.10801701992750168,
          -0.2592984139919281,
          0.011540365405380726,
          0.09394711256027222,
          -0.15106092393398285,
          -0.2245560884475708,
          0.0346209853887558,
          -0.1737898886203766,
          -0.29061466455459595,
          -0.11000722646713257,
          0.1673523336648941,
          -0.2520747184753418,
          0.33601582050323486,
          -0.22943170368671417,
          0.07902935147285461,
          -0.14176899194717407,
          -0.18653054535388947,
          -0.0759265199303627,
          0.3105066120624542,
          0.15430396795272827,
          -0.10402439534664154,
          -0.17480236291885376,
          0.007181681226938963,
          0.42180073261260986,
          0.001172355143353343,
          -0.0830913782119751,
          -0.3221533000469208,
          -0.17401541769504547,
          0.14444933831691742
        ],
        [
          0.024628687649965286,
          -0.3537176251411438,
          -0.1768147349357605,
          0.16186781227588654,
          -0.13720987737178802,
          0.05867801979184151,
          -0.45597341656684875,
          0.10665625333786011,
          0.18092815577983856,
          -0.1317746639251709,
          -0.1292399913072586,
          -0.20563483238220215,
          0.0012968732044100761,
          0.29132142663002014,
          -0.32973599433898926,
          -0.034397415816783905,
          -0.038783688098192215,
          -0.21595576405525208,
          -0.12355978786945343,
          -0.012467630207538605,
          0.14456774294376373,
          -0.016398029401898384,
          0.20818805694580078,
          -0.38397616147994995,
          0.18569912016391754,
          0.11017817258834839,
          -0.03344602882862091,
          0.017898812890052795,
          0.04727621749043465,
          -0.025859743356704712,
          0.01184149645268917,
          -0.045689936727285385,
          -0.31604820489883423,
          0.015234827995300293,
          -0.09062708914279938,
          0.1600620448589325,
          -0.055408116430044174,
          -0.21358072757720947,
          -0.04467504099011421,
          -0.1663239449262619,
          0.2709392309188843,
          -0.1659785360097885,
          0.28471338748931885,
          -0.09378417581319809,
          0.06463086605072021,
          -0.12614773213863373,
          -0.24394401907920837,
          0.13950300216674805,
          -0.004719060845673084,
          -0.13846835494041443,
          -0.11018141359090805,
          0.084895059466362,
          0.03253162279725075,
          -0.23314762115478516,
          -0.15033026039600372,
          0.16584190726280212,
          0.183320090174675,
          0.04091176390647888,
          -0.09485172480344772,
          0.10319163650274277,
          0.17804212868213654,
          -0.3940529227256775,
          -0.13509762287139893,
          0.1905093789100647
        ],
        [
          0.16342125833034515,
          0.0001498759229434654,
          -0.04433411732316017,
          -0.0756504088640213,
          0.4254612922668457,
          -0.066696397960186,
          0.07402253150939941,
          -0.1533454805612564,
          -0.07563254237174988,
          0.19833214581012726,
          0.3759092390537262,
          -0.27921029925346375,
          -0.07739664614200592,
          0.3187785744667053,
          -0.2439853399991989,
          0.20804168283939362,
          -0.06870534271001816,
          0.011551417410373688,
          0.03433467820286751,
          -0.06077484413981438,
          0.1590508073568344,
          -0.018065007403492928,
          -0.33987587690353394,
          -0.14444614946842194,
          -0.22636918723583221,
          0.23586028814315796,
          -0.16860263049602509,
          -0.1047740951180458,
          -0.06490988284349442,
          -0.11743452399969101,
          0.041894376277923584,
          0.20147570967674255,
          -0.1856244057416916,
          -0.23076120018959045,
          -0.021330304443836212,
          -0.12825825810432434,
          0.05080769211053848,
          -0.12444642931222916,
          0.4899882972240448,
          0.06534064561128616,
          -0.10731320083141327,
          -0.0287895817309618,
          0.02397560328245163,
          -0.005768415052443743,
          0.1982700228691101,
          0.14688611030578613,
          0.13237802684307098,
          -0.005620304495096207,
          0.2697129249572754,
          0.3564378023147583,
          -0.09011123329401016,
          0.07303855568170547,
          -0.17448483407497406,
          0.045542288571596146,
          -0.2376326322555542,
          0.017174549400806427,
          0.11801028996706009,
          -0.0025481951888650656,
          0.0928131639957428,
          -0.21600881218910217,
          -0.01911952719092369,
          -0.1620596945285797,
          -0.11480391770601273,
          -0.16752059757709503
        ],
        [
          -0.11614259332418442,
          -0.011367418803274632,
          0.06945329904556274,
          -0.17827677726745605,
          0.10821641236543655,
          0.049906644970178604,
          -0.09016565978527069,
          -0.12804511189460754,
          0.19342252612113953,
          0.2450217753648758,
          0.08367051184177399,
          0.08577214926481247,
          0.26189619302749634,
          -0.008703186176717281,
          -0.024891305714845657,
          -0.06878244131803513,
          0.11587180197238922,
          -0.03538399562239647,
          0.12232312560081482,
          -0.0758405402302742,
          0.015496655367314816,
          -0.03684908524155617,
          0.1570073962211609,
          0.11336662620306015,
          -0.09416628628969193,
          -0.09591055661439896,
          0.2077104151248932,
          -0.232669398188591,
          -0.22054694592952728,
          0.27679434418678284,
          0.08929029852151871,
          0.03777848929166794,
          -0.34389618039131165,
          -0.0954289361834526,
          0.1710016429424286,
          -0.1466488540172577,
          -0.5872672200202942,
          0.19446969032287598,
          -0.10745685547590256,
          -0.02336110919713974,
          0.13739819824695587,
          -0.024507852271199226,
          -0.10155608505010605,
          -0.29224932193756104,
          0.2435319423675537,
          -0.02588666044175625,
          0.24815575778484344,
          -0.17969943583011627,
          0.01449949387460947,
          0.045937761664390564,
          -0.26536694169044495,
          -0.2139206826686859,
          0.16124114394187927,
          -0.2883688807487488,
          -0.15977424383163452,
          0.05024129897356033,
          -0.18180203437805176,
          0.3408992290496826,
          0.0887402817606926,
          0.0765361562371254,
          0.3324160575866699,
          0.16563376784324646,
          -0.014428740367293358,
          -0.04377812147140503
        ],
        [
          -0.13791386783123016,
          0.2958923876285553,
          -0.4555981159210205,
          0.1701057106256485,
          -0.34811103343963623,
          0.23150800168514252,
          -0.06621114909648895,
          -0.06374640762805939,
          0.35716086626052856,
          -0.15121115744113922,
          -0.02675618603825569,
          0.11742916703224182,
          -0.20960509777069092,
          0.005058079492300749,
          -0.1811235249042511,
          -0.02316228672862053,
          -0.04356994479894638,
          0.09493155032396317,
          -0.13768935203552246,
          -0.041726257652044296,
          0.14643099904060364,
          -0.07359062880277634,
          -0.038750529289245605,
          0.08542928844690323,
          -0.33815857768058777,
          -0.02645767293870449,
          -0.028387028723955154,
          -0.07718786597251892,
          -0.21902738511562347,
          -0.21565645933151245,
          -0.06431697309017181,
          -0.029766637831926346,
          -0.13620278239250183,
          -0.0869680717587471,
          -0.03578568622469902,
          0.08768072724342346,
          0.2634892463684082,
          0.25062280893325806,
          -0.04577283561229706,
          0.018952779471874237,
          -0.02397947572171688,
          0.07456742972135544,
          -0.1148950606584549,
          -0.053477585315704346,
          0.43108993768692017,
          -0.0026695451233536005,
          0.2580640912055969,
          0.20366759598255157,
          -0.21022434532642365,
          0.1065305843949318,
          -0.12161444127559662,
          0.3781602680683136,
          0.01655699871480465,
          -0.25944003462791443,
          0.13159970939159393,
          -0.11400606483221054,
          -0.07017116993665695,
          0.025023143738508224,
          0.2281785011291504,
          -0.0016206230502575636,
          -0.2752948999404907,
          0.09222070872783661,
          0.02312019094824791,
          0.05742776766419411
        ],
        [
          0.08513681590557098,
          0.008048610761761665,
          -0.24896781146526337,
          -0.08692094683647156,
          0.1753598153591156,
          0.3849501609802246,
          0.19908921420574188,
          0.14365164935588837,
          -0.07631254941225052,
          -0.074971504509449,
          0.09577814489603043,
          -0.00794130563735962,
          -0.08861649036407471,
          0.11743874847888947,
          0.08642176538705826,
          -0.38376882672309875,
          0.12082330882549286,
          0.15816465020179749,
          0.07139526307582855,
          -0.07165896147489548,
          0.1780024766921997,
          -0.04170692339539528,
          -0.10205455869436264,
          -0.0004361797764431685,
          -0.1570596843957901,
          -0.1676940619945526,
          -0.01175416074693203,
          0.07002861797809601,
          0.248737633228302,
          -0.19837960600852966,
          0.0157358106225729,
          0.08454810082912445,
          -0.08706032484769821,
          -0.2640520930290222,
          -0.297500878572464,
          0.0033644402865320444,
          -0.31213366985321045,
          0.38565781712532043,
          -0.29510948061943054,
          0.25737908482551575,
          -0.1852393001317978,
          -0.30464205145835876,
          0.19475479423999786,
          -0.08523807674646378,
          -0.31272342801094055,
          -0.05355182662606239,
          -0.0635310485959053,
          0.07762763649225235,
          -0.21146443486213684,
          -0.05536460503935814,
          0.14910423755645752,
          -0.08630380779504776,
          -0.1610289067029953,
          -0.0838976576924324,
          -0.11761191487312317,
          -0.12046584486961365,
          0.10989392548799515,
          0.012839735485613346,
          -0.2147199660539627,
          -0.21271967887878418,
          0.03836158290505409,
          -0.011469927616417408,
          -0.3640093505382538,
          0.04349303990602493
        ],
        [
          -0.024507053196430206,
          0.2222515046596527,
          -0.08155298978090286,
          0.007007380481809378,
          -0.1026763990521431,
          -0.10300825536251068,
          0.07331237941980362,
          0.2355041354894638,
          0.4438721835613251,
          0.20562882721424103,
          -0.2878386378288269,
          -0.3454395532608032,
          0.17972446978092194,
          -0.13163091242313385,
          0.0603577122092247,
          0.04038899764418602,
          0.20155255496501923,
          -0.0038860272616147995,
          -0.04822177812457085,
          0.1723162978887558,
          0.2794857323169708,
          -0.003267256310209632,
          0.1507289856672287,
          0.34841588139533997,
          -0.05629240348935127,
          -0.1304987221956253,
          -0.3484279215335846,
          -0.07264634966850281,
          0.20124831795692444,
          -0.007420475594699383,
          0.199880912899971,
          0.08699749410152435,
          -0.053769055753946304,
          0.1547585278749466,
          -0.13695482909679413,
          0.31829696893692017,
          -0.0829811543226242,
          -0.04641285538673401,
          0.11258439719676971,
          -0.13891112804412842,
          -0.15811535716056824,
          0.04380109906196594,
          -0.06072629615664482,
          0.20462699234485626,
          -0.07014244049787521,
          0.20244452357292175,
          -0.06008274480700493,
          -0.1395711451768875,
          -0.02721276506781578,
          -0.05385382100939751,
          0.1908039152622223,
          -0.08656560629606247,
          0.002038215287029743,
          0.05970762297511101,
          -0.0788787454366684,
          0.2669581174850464,
          0.014016841538250446,
          0.3099308907985687,
          0.225968599319458,
          -0.20698904991149902,
          -0.019902652129530907,
          -0.2578165531158447,
          -0.08541363477706909,
          -0.3358042240142822
        ],
        [
          0.07583490014076233,
          -0.020617328584194183,
          -0.23555177450180054,
          -0.46522587537765503,
          -0.00370186404325068,
          -0.13997411727905273,
          0.1932184100151062,
          0.08048737794160843,
          0.0848429724574089,
          0.010149789974093437,
          -0.11769101768732071,
          -0.09911387413740158,
          0.1350419819355011,
          -0.20757600665092468,
          -0.06828800588846207,
          -0.3327007591724396,
          0.13872961699962616,
          -0.02261899597942829,
          -0.0417570136487484,
          -0.16575315594673157,
          0.05832769349217415,
          0.05397586524486542,
          -0.009659413248300552,
          -0.017677998170256615,
          0.1437181830406189,
          0.3229089677333832,
          -0.05359279364347458,
          -0.04442507028579712,
          -0.3506646752357483,
          -0.26312240958213806,
          -0.1661795973777771,
          -0.002260218607261777,
          0.15003937482833862,
          -0.08024956285953522,
          0.2994972765445709,
          0.08703387528657913,
          -0.20812074840068817,
          -0.374033123254776,
          -0.05607036501169205,
          0.10348256677389145,
          -0.30146142840385437,
          0.06160181760787964,
          -0.10117347538471222,
          -0.15872591733932495,
          0.013241345062851906,
          -0.45596155524253845,
          0.09388694167137146,
          0.2263593226671219,
          -0.023856937885284424,
          -0.07871706783771515,
          0.11927624046802521,
          0.24841922521591187,
          0.30646398663520813,
          0.12744830548763275,
          -0.22086204588413239,
          -0.02615865133702755,
          0.10103961080312729,
          -0.029148660600185394,
          -0.15594257414340973,
          0.0171761903911829,
          -0.051107972860336304,
          -0.08426062017679214,
          0.09910345822572708,
          -0.16273491084575653
        ],
        [
          -0.18681369721889496,
          0.09961549937725067,
          0.16516734659671783,
          0.2563581168651581,
          -0.11949830502271652,
          0.2464337944984436,
          -0.06735242903232574,
          -0.2547956705093384,
          0.11229735612869263,
          0.07860420644283295,
          -0.08008089661598206,
          -0.11271369457244873,
          -0.1912553608417511,
          -0.30581557750701904,
          0.21916493773460388,
          0.17534637451171875,
          0.08321328461170197,
          0.09241732954978943,
          0.27071642875671387,
          -0.15032604336738586,
          0.07919841259717941,
          -0.4099482297897339,
          0.00917566753923893,
          -0.11014913022518158,
          -0.09860220551490784,
          0.15881985425949097,
          -0.33987942337989807,
          -0.049840185791254044,
          -0.04122589901089668,
          0.02085178904235363,
          -0.11069580912590027,
          0.006788037717342377,
          -0.1636212319135666,
          0.02909434586763382,
          0.08595862984657288,
          0.14814576506614685,
          -0.24148091673851013,
          -0.15282344818115234,
          -0.05998082458972931,
          0.09547258168458939,
          -0.15732327103614807,
          -0.5099446773529053,
          -0.04073122888803482,
          -0.06793220341205597,
          0.11869119107723236,
          -0.04911825805902481,
          -0.3059637248516083,
          -0.07562945783138275,
          0.0761326402425766,
          0.11065070331096649,
          -0.03291444107890129,
          -0.16933341324329376,
          -0.03580288589000702,
          0.11397729814052582,
          -0.18526142835617065,
          -0.01736053265631199,
          -0.2369517982006073,
          -0.45380809903144836,
          -0.06146122142672539,
          0.12136773020029068,
          -0.15291157364845276,
          -0.02237139455974102,
          0.21066506206989288,
          0.04307503253221512
        ],
        [
          -0.22697529196739197,
          -0.1353825330734253,
          0.062111418694257736,
          0.05440840870141983,
          -0.22447320818901062,
          0.09725193679332733,
          0.14478257298469543,
          0.19885805249214172,
          0.03856613487005234,
          -0.18011078238487244,
          0.105746328830719,
          -0.08171672374010086,
          -0.09660796076059341,
          0.006898502353578806,
          -0.1568976491689682,
          0.025803791359066963,
          0.21236485242843628,
          0.0016428011003881693,
          -0.48823949694633484,
          -0.19237850606441498,
          -0.29690828919410706,
          -0.363828182220459,
          0.15233293175697327,
          -0.1949193775653839,
          -0.22577941417694092,
          0.0022716252133250237,
          0.007530509494245052,
          -0.12987561523914337,
          0.015637541189789772,
          0.3451971113681793,
          -0.29243916273117065,
          0.09142275899648666,
          0.40986400842666626,
          0.15673303604125977,
          0.11904042214155197,
          0.09626156836748123,
          -0.06538858264684677,
          0.14999310672283173,
          -0.038544315844774246,
          -0.016994409263134003,
          0.04015481099486351,
          -0.04175145551562309,
          0.04748557135462761,
          -0.025219570845365524,
          -0.1029050275683403,
          0.023261893540620804,
          0.15428759157657623,
          -0.08767108619213104,
          0.13199177384376526,
          0.41957545280456543,
          0.11077219247817993,
          -0.03903068229556084,
          -0.1891692727804184,
          -0.01939280331134796,
          -0.19269374012947083,
          -0.06672169268131256,
          0.31634658575057983,
          0.24313759803771973,
          -0.15536995232105255,
          -0.0741899237036705,
          0.047095976769924164,
          -0.055998627096414566,
          0.1508428156375885,
          -0.19436313211917877
        ],
        [
          -0.2151644378900528,
          -0.11717940866947174,
          0.02674088627099991,
          -0.022956455126404762,
          0.12750689685344696,
          -0.1025816947221756,
          -0.18520613014698029,
          0.40912652015686035,
          -0.18000903725624084,
          0.019528474658727646,
          0.20392805337905884,
          -0.21265847980976105,
          0.11189622431993484,
          -0.09234103560447693,
          0.13293877243995667,
          0.10429441928863525,
          0.01623258925974369,
          -0.021138280630111694,
          -0.1668267399072647,
          0.020749613642692566,
          0.24243566393852234,
          -0.10523971170186996,
          0.31934839487075806,
          0.07609911262989044,
          0.0884145051240921,
          0.006812122650444508,
          0.21954794228076935,
          -0.13252779841423035,
          -0.10259132832288742,
          -0.056633394211530685,
          -0.13749124109745026,
          -0.14013078808784485,
          -0.12842322885990143,
          -0.08486681431531906,
          -0.4310072064399719,
          0.33060580492019653,
          -0.10470189154148102,
          0.07387076318264008,
          0.032735828310251236,
          0.2550751268863678,
          0.12410856783390045,
          0.10116270929574966,
          -0.13632461428642273,
          -0.17286738753318787,
          -0.12832605838775635,
          -0.1301761120557785,
          0.04031602293252945,
          -0.1405489295721054,
          0.26771280169487,
          -0.032074231654405594,
          -0.38284212350845337,
          0.19586478173732758,
          -0.049563053995370865,
          0.17749445140361786,
          0.1230439692735672,
          0.016240213066339493,
          0.11855705082416534,
          -0.30093440413475037,
          0.14049586653709412,
          0.002950912807136774,
          -0.33745723962783813,
          0.30221086740493774,
          -0.10888788104057312,
          -0.17301738262176514
        ],
        [
          -0.05743791535496712,
          -0.05527546629309654,
          -0.1883905977010727,
          0.254867285490036,
          -0.06609287112951279,
          0.037160441279411316,
          0.019749468192458153,
          0.0762719213962555,
          0.2898227870464325,
