{
  "model_info": {
    "architecture": "PPO Policy Network",
    "input_dim": 54,
    "hidden_dim": 64,
    "output_dim": 3,
    "activation": "tanh",
    "framework": "Stable Baselines3 \u2192 TF.js"
  },
  "weights": {
    "policy_layer1": {
      "kernel": [
        [
          -0.13920502364635468,
          0.05182493478059769,
          0.06882582604885101,
          0.05612046644091606,
          -0.1621336191892624,
          0.09214983135461807,
          0.35215118527412415,
          -0.07958263158798218,
          0.1051507294178009,
          0.16883835196495056,
          -0.2521103620529175,
          0.2768699824810028,
          -0.10226114094257355,
          -0.22022201120853424,
          -0.1281280666589737,
          -0.19502632319927216,
          0.030684035271406174,
          0.10034308582544327,
          -0.03414120525121689,
          0.026729149743914604,
          -0.01079600676894188,
          -0.03873314708471298,
          0.09855815023183823,
          -0.14013439416885376,
          -0.22614704072475433,
          0.2812733054161072,
          -0.07162028551101685,
          -0.17216596007347107,
          0.13595235347747803,
          0.06569448858499527,
          0.20031505823135376,
          0.18165576457977295,
          0.21985848248004913,
          0.21130020916461945,
          -0.10805097222328186,
          -0.2775269150733948,
          0.05671747401356697,
          -0.2335006594657898,
          0.28162476420402527,
          0.2181944102048874,
          0.09241965413093567,
          0.020535388961434364,
          -0.010677254758775234,
          0.02368205226957798,
          -0.13773313164710999,
          -0.2889556586742401,
          0.2902053892612457,
          -0.020885102450847626,
          -0.23181331157684326,
          -0.23260769248008728,
          0.27994582056999207,
          -0.33909112215042114,
          0.16567164659500122,
          -0.16165654361248016,
          -0.11029286682605743,
          -0.049209583550691605,
          -0.0969451516866684,
          -0.2780967354774475,
          -0.20571386814117432,
          -0.35757336020469666,
          -0.038857147097587585,
          0.06059883162379265,
          0.049753546714782715,
          -0.11659745126962662
        ],
        [
          -0.24531540274620056,
          0.003190133487805724,
          -0.24854658544063568,
          -0.1343923956155777,
          0.31957828998565674,
          0.013379976153373718,
          0.3854076564311981,
          -0.2329743206501007,
          0.031959619373083115,
          0.009167567826807499,
          0.29949894547462463,
          -0.18482744693756104,
          -0.17637097835540771,
          0.19783854484558105,
          0.1484348177909851,
          0.1540658175945282,
          -0.1220504641532898,
          -0.03949790075421333,
          0.030546478927135468,
          -0.014530169777572155,
          0.17164751887321472,
          -0.14186431467533112,
          0.029394639655947685,
          0.15282176434993744,
          -0.21843108534812927,
          0.06395512819290161,
          0.29195937514305115,
          0.16236121952533722,
          -0.06256507337093353,
          0.2705724239349365,
          -0.34571924805641174,
          0.12987492978572845,
          0.1838580220937729,
          0.17942553758621216,
          -0.1290600448846817,
          -0.021131349727511406,
          -0.08527874946594238,
          -0.16299882531166077,
          0.14492595195770264,
          -0.20377294719219208,
          -0.0990120992064476,
          -0.29191848635673523,
          0.0054251872934401035,
          0.023563792929053307,
          0.08006580919027328,
          -0.06967491656541824,
          0.002857254585251212,
          0.1096361055970192,
          0.23589563369750977,
          -0.19248296320438385,
          0.2787633240222931,
          -0.16344210505485535,
          -0.06102469936013222,
          0.02534806914627552,
          -0.14911238849163055,
          0.14263415336608887,
          0.12496742606163025,
          -0.1125168576836586,
          0.14577007293701172,
          0.1712784767150879,
          0.06224227696657181,
          0.3872247338294983,
          0.3130839765071869,
          0.2999113202095032
        ],
        [
          -0.24693548679351807,
          -0.0196077823638916,
          -0.12560592591762543,
          0.14542728662490845,
          -0.15717361867427826,
          0.0654582604765892,
          0.44105035066604614,
          0.1814589649438858,
          0.3623407185077667,
          0.08582776039838791,
          -0.01793324388563633,
          -0.15246011316776276,
          0.026171501725912094,
          0.19808384776115417,
          -0.07843659073114395,
          -0.5461987257003784,
          0.13797445595264435,
          0.08968783915042877,
          0.2601552903652191,
          -0.04172056168317795,
          -0.18484625220298767,
          8.432310278294608e-05,
          0.01581190526485443,
          0.39085853099823,
          0.18543627858161926,
          0.09670726954936981,
          -0.0870179533958435,
          0.0037250120658427477,
          -0.08860272169113159,
          0.11100969463586807,
          0.23256564140319824,
          0.1846383512020111,
          0.14841888844966888,
          -0.0006598065374419093,
          0.193607896566391,
          0.03079637885093689,
          -0.3168255090713501,
          -0.033389925956726074,
          0.13090185821056366,
          -0.13357146084308624,
          -0.24267125129699707,
          -0.04995240271091461,
          -0.3415225148200989,
          -0.23760825395584106,
          0.29137536883354187,
          0.2191329449415207,
          0.21477629244327545,
          0.07678066194057465,
          -0.11481048166751862,
          0.015788374468684196,
          0.005116248968988657,
          0.0884794071316719,
          -0.20907361805438995,
          -0.06639298796653748,
          0.11200345307588577,
          0.17901378870010376,
          0.18728837370872498,
          -0.10423440486192703,
          0.16115702688694,
          -0.004654731601476669,
          -0.13133850693702698,
          -0.12414796650409698,
          0.0489661768078804,
          0.020521454513072968
        ],
        [
          -0.2655678987503052,
          0.12005352973937988,
          0.4748864471912384,
          0.13462479412555695,
          0.043410420417785645,
          -0.157418891787529,
          -0.05649827420711517,
          0.023401394486427307,
          0.28611359000205994,
          0.06481137871742249,
          -0.1693091243505478,
          0.03863438591361046,
          0.007992535829544067,
          -0.16320224106311798,
          -0.18051061034202576,
          -0.06248028576374054,
          -0.004140484146773815,
          0.13959458470344543,
          0.17747128009796143,
          -0.27019450068473816,
          -0.058107856661081314,
          0.06627920269966125,
          -0.18736886978149414,
          0.018898511305451393,
          0.14364725351333618,
          -0.004755354952067137,
          0.11613763868808746,
          0.4035443663597107,
          -0.2805033028125763,
          0.2643488347530365,
          -0.043697915971279144,
          -0.050511229783296585,
          -0.18526862561702728,
          -0.24505282938480377,
          0.029991481453180313,
          -0.303787499666214,
          0.1478983759880066,
          -0.14284349977970123,
          0.05587867274880409,
          -0.033862702548503876,
          0.22425930202007294,
          0.20273634791374207,
          0.12365994602441788,
          -0.25887903571128845,
          -0.0801253691315651,
          0.10544047504663467,
          -0.01895919255912304,
          0.11642683297395706,
          0.31559738516807556,
          0.16132426261901855,
          -0.18569296598434448,
          -0.3231971561908722,
          0.23309169709682465,
          0.2109137922525406,
          0.2119721621274948,
          0.007847515866160393,
          0.1839374303817749,
          -0.19312803447246552,
          0.27560457587242126,
          -0.2628324329853058,
          -0.5203455090522766,
          0.1230401024222374,
          0.2732873857021332,
          0.22529926896095276
        ],
        [
          0.2071167677640915,
          -0.1659223437309265,
          -0.11377692967653275,
          -0.2797086238861084,
          0.15408067405223846,
          -0.10444647818803787,
          0.3786187469959259,
          -0.1783663034439087,
          -0.29089826345443726,
          0.06325416266918182,
          -0.03748442605137825,
          0.23006367683410645,
          0.39489737153053284,
          0.14903570711612701,
          0.13803425431251526,
          0.058029767125844955,
          -0.029691725969314575,
          0.20382845401763916,
          0.27983325719833374,
          0.3452196419239044,
          0.06303545832633972,
          -0.43088221549987793,
          -0.14574897289276123,
          -0.11574365943670273,
          0.08941509574651718,
          -0.05847202241420746,
          -0.23590128123760223,
          0.3926568031311035,
          0.20136907696723938,
          -0.17081649601459503,
          -0.44158053398132324,
          -0.15115106105804443,
          0.1225324422121048,
          -0.3188115060329437,
          -0.08557644486427307,
          0.06207560747861862,
          -0.3174668252468109,
          0.17978011071681976,
          -0.012083482928574085,
          0.0500873439013958,
          -0.15828600525856018,
          0.1957741230726242,
          -0.113894522190094,
          0.11470753699541092,
          0.0965714305639267,
          -0.4157867133617401,
          -0.05001400038599968,
          -0.2295352667570114,
          -0.3248741924762726,
          0.09287595748901367,
          0.15805339813232422,
          0.28851306438446045,
          0.0362698920071125,
          0.10497504472732544,
          -0.02303897775709629,
          -0.09927242249250412,
          -0.08669416606426239,
          0.2009085863828659,
          0.20207801461219788,
          -0.12866710126399994,
          0.409566193819046,
          -0.1819181740283966,
          -0.3280051052570343,
          -0.3062717616558075
        ],
        [
          -0.35626646876335144,
          0.0923183336853981,
          -0.1287788450717926,
          -0.08845476806163788,
          -0.23528824746608734,
          -0.14678137004375458,
          0.04761787876486778,
          -0.19047915935516357,
          0.19031302630901337,
          0.09858407080173492,
          0.2879703938961029,
          0.0034357213880866766,
          0.14892718195915222,
          0.1362140029668808,
          -0.007141913287341595,
          0.21187527477741241,
          0.16481605172157288,
          0.07642990350723267,
          0.34672781825065613,
          -0.23385736346244812,
          0.08788895606994629,
          0.28992703557014465,
          -0.12037146091461182,
          -0.02191978134214878,
          -0.3155074119567871,
          -0.10442366451025009,
          -0.11914756149053574,
          -0.20922483503818512,
          -0.15836140513420105,
          -0.005519869737327099,
          0.11378568410873413,
          -0.04606463387608528,
          0.08916815370321274,
          0.14380696415901184,
          0.2596157491207123,
          0.02935359627008438,
          0.06447313725948334,
          0.12559810280799866,
          -0.0002680691541172564,
          0.37255463004112244,
          -0.15597768127918243,
          -0.04911116510629654,
          0.244513139128685,
          -0.48449739813804626,
          0.1393512636423111,
          -0.386592298746109,
          -0.22325178980827332,
          -0.11801455914974213,
          -0.13283874094486237,
          -0.14966799318790436,
          -0.2738540768623352,
          -0.16523657739162445,
          -0.1284022480249405,
          -0.019255824387073517,
          0.03671184182167053,
          0.18596729636192322,
          0.0280208308249712,
          -0.1682295948266983,
          -0.0070985667407512665,
          0.18307431042194366,
          0.09290537238121033,
          -0.1322123408317566,
          -0.10731706023216248,
          0.057437025010585785
        ],
        [
          0.20397475361824036,
          0.04258079081773758,
          -0.0012062921887263656,
          0.12893573939800262,
          0.1591193825006485,
          -0.12259699404239655,
          0.08638306707143784,
          0.09125848859548569,
          0.08871877938508987,
          -0.3112559914588928,
          0.20832376182079315,
          0.07236088812351227,
          0.03565588966012001,
          -0.29071301221847534,
          0.09476517885923386,
          -0.051919326186180115,
          0.03292547166347504,
          -0.12802276015281677,
          -0.2251170575618744,
          -0.113332599401474,
          0.045982614159584045,
          0.17142340540885925,
          -0.10714251548051834,
          0.11954419314861298,
          -0.17210794985294342,
          -0.3595811426639557,
          0.10420501232147217,
          -0.11011482030153275,
          0.23344573378562927,
          -0.21210220456123352,
          -0.322844922542572,
          0.03350787237286568,
          0.006736579816788435,
          0.006156619172543287,
          -0.029692962765693665,
          -0.07575362175703049,
          -0.00949985720217228,
          0.38936111330986023,
          0.24396871030330658,
          0.11894788593053818,
          0.28220120072364807,
          -0.2217387855052948,
          -0.24258072674274445,
          -0.08739374577999115,
          0.39529675245285034,
          -0.020809290930628777,
          0.19483225047588348,
          0.04308723658323288,
          -0.06254931539297104,
          0.12891358137130737,
          -0.0019463239004835486,
          -0.2296556979417801,
          -0.14990882575511932,
          -0.20181503891944885,
          0.01506527978926897,
          0.17984169721603394,
          0.2864200472831726,
          0.08891965448856354,
          0.22875359654426575,
          -0.24290013313293457,
          -0.07169830799102783,
          -0.07546157389879227,
          -0.03475933149456978,
          -0.18736587464809418
        ],
        [
          0.07062393426895142,
          -0.14059796929359436,
          -0.22341755032539368,
          -0.10418381541967392,
          0.0027817771770060062,
          -0.20017944276332855,
          0.15253493189811707,
          -0.23743155598640442,
          0.2518303394317627,
          0.12363945692777634,
          0.0236193984746933,
          -0.11990313231945038,
          -0.10241982340812683,
          -0.11232110857963562,
          0.1319267898797989,
          -0.05971687659621239,
          -0.07453757524490356,
          -0.34539467096328735,
          0.027308650314807892,
          0.10640446841716766,
          0.14582952857017517,
          0.1685425341129303,
          -0.11883283406496048,
          -0.11700580269098282,
          -0.2510109543800354,
          0.22075985372066498,
          -0.20903237164020538,
          0.31758904457092285,
          -0.2510838806629181,
          -0.031628984957933426,
          0.21668586134910583,
          -0.057313982397317886,
          -0.3362831473350525,
          -0.021086938679218292,
          -0.049083638936281204,
          0.14092643558979034,
          0.03187413513660431,
          -0.28505948185920715,
          0.07193954288959503,
          0.09539833664894104,
          0.2156040370464325,
          0.22600090503692627,
          -0.41734859347343445,
          0.33237341046333313,
          -0.06207801401615143,
          0.12019451707601547,
          -0.20149539411067963,
          -0.10847444087266922,
          0.08740201592445374,
          -0.10064054280519485,
          -0.3922575116157532,
          -0.050854843109846115,
          -0.1015458032488823,
          -0.16809292137622833,
          -0.27573060989379883,
          0.09832198172807693,
          0.1794302612543106,
          0.007888136431574821,
          0.0950360968708992,
          -0.11117636412382126,
          0.08589169383049011,
          -0.06317958235740662,
          -0.00221082242205739,
          -0.15269611775875092
        ],
        [
          0.01978146657347679,
          -0.043972235172986984,
          -0.03570079430937767,
          -0.2482527494430542,
          -0.33974435925483704,
          0.2023342251777649,
          -0.17909562587738037,
          0.1215740442276001,
          0.28522542119026184,
          0.06728562712669373,
          0.04953855648636818,
          0.003465296933427453,
          -0.03725568950176239,
          -0.08266321569681168,
          0.37335535883903503,
          0.11606986075639725,
          0.010050034150481224,
          0.13958485424518585,
          0.057097483426332474,
          -0.020171495154500008,
          0.11585628986358643,
          0.04527903348207474,
          0.09137904644012451,
          -0.2840352952480316,
          0.3164385259151459,
          0.1475064605474472,
          -0.06698546558618546,
          0.08688485622406006,
          0.04927171394228935,
          0.20070798695087433,
          -0.22634537518024445,
          -0.035102833062410355,
          0.05360430106520653,
          0.27466726303100586,
          0.061801426112651825,
          -0.11190934479236603,
          0.19618481397628784,
          0.2054625153541565,
          -0.08504243195056915,
          0.12972843647003174,
          0.014336969703435898,
          -0.11429592221975327,
          -0.15399202704429626,
          -0.0034586612600833178,
          -0.0601540207862854,
          0.0732196643948555,
          0.4062615633010864,
          -0.5019177198410034,
          0.14681896567344666,
          -0.05631985887885094,
          -0.018410637974739075,
          0.33790555596351624,
          0.3155287206172943,
          -0.1254015564918518,
          0.011729943566024303,
          0.21887561678886414,
          0.16296179592609406,
          -0.1835169792175293,
          0.2783406376838684,
          0.1093657836318016,
          -0.05793963000178337,
          0.04266543313860893,
          0.06005752831697464,
          -0.0431784950196743
        ],
        [
          0.11886349320411682,
          -0.011202111840248108,
          -0.06636332720518112,
          -0.31888800859451294,
          0.03152225911617279,
          0.1023157387971878,
          0.06083303317427635,
          0.06878210604190826,
          0.07280135899782181,
          -0.285457044839859,
          -0.051882535219192505,
          0.2624620497226715,
          -0.2637856602668762,
          0.15240976214408875,
          -0.11664275079965591,
          0.3132704496383667,
          0.04583749547600746,
          0.16717690229415894,
          -0.22632649540901184,
          -0.4485824704170227,
          -0.1166267991065979,
          -0.08772825449705124,
          -0.12215857952833176,
          -0.31776636838912964,
          -0.053445976227521896,
          0.01157800666987896,
          -0.1121964082121849,
          0.16295196115970612,
          -0.22042879462242126,
          -0.3017813563346863,
          0.017015783116221428,
          -0.11444868892431259,
          -0.023444589227437973,
          -0.10746458917856216,
          0.23605705797672272,
          0.21459437906742096,
          -0.2395389825105667,
          0.3836144506931305,
          -0.0009079283918254077,
          -0.003294291440397501,
          -0.007060667499899864,
          0.18087559938430786,
          -0.2345357984304428,
          0.2576591372489929,
          0.029173636808991432,
          0.03811890259385109,
          0.030222345143556595,
          0.09649333357810974,
          0.06443123519420624,
          -0.4208678901195526,
          0.3009085953235626,
          0.04066136106848717,
          -0.17847953736782074,
          0.08351001143455505,
          0.03427601233124733,
          -0.30396246910095215,
          -0.13514094054698944,
          -0.22627748548984528,
          -0.029638024047017097,
          0.030681166797876358,
          -0.0819036066532135,
          -0.08931076526641846,
          0.048873450607061386,
          -0.03402327001094818
        ],
        [
          -0.18059813976287842,
          0.03783931955695152,
          0.2556018829345703,
          -0.07416678220033646,
          -0.03358137235045433,
          0.2732333242893219,
          -0.07292687892913818,
          0.024076690897345543,
          0.02303173951804638,
          0.11351758241653442,
          -0.04683966934680939,
          0.003815490286797285,
          0.07353609055280685,
          0.14649851620197296,
          -0.28941810131073,
          0.10369059443473816,
          0.24749645590782166,
          0.13577494025230408,
          -0.23999516665935516,
          0.13368090987205505,
          -0.14809724688529968,
          0.0723472461104393,
          -0.008473243564367294,
          0.28013044595718384,
          0.005688078235834837,
          -0.05664154142141342,
          -0.025255326181650162,
          0.215006023645401,
          0.32008999586105347,
          -0.12352710217237473,
          0.06134531646966934,
          0.28683531284332275,
          -0.3835020363330841,
          -0.03382064774632454,
          -0.178045853972435,
          -0.2396247386932373,
          0.07004450261592865,
          -0.025391021743416786,
          -0.20831617712974548,
          0.06323517858982086,
          0.03353383019566536,
          0.001012063235975802,
          0.009252878837287426,
          0.07042057812213898,
          0.3180328607559204,
          -0.15744788944721222,
          -0.1347121000289917,
          -0.1003018170595169,
          0.1861409693956375,
          -0.17697659134864807,
          -0.00022268433531280607,
          0.18055720627307892,
          -0.016955073922872543,
          -0.139238178730011,
          -0.35633349418640137,
          -0.02437601052224636,
          0.33143559098243713,
          -0.2505536377429962,
          0.002155618742108345,
          -0.03664577379822731,
          0.26119136810302734,
          -0.17955517768859863,
          -0.07351088523864746,
          0.4376312792301178
        ],
        [
          0.2654319405555725,
          0.11602960526943207,
          0.34491628408432007,
          -0.08109524846076965,
          0.04276004061102867,
          0.14886240661144257,
          -0.04369622841477394,
          -0.26170551776885986,
          0.37248486280441284,
          -0.07038858532905579,
          0.4116165339946747,
          -0.18997663259506226,
          -0.05453377962112427,
          0.11858947575092316,
          0.07607268542051315,
          -0.0645710676908493,
          0.4262835383415222,
          0.06775017827749252,
          0.09436175972223282,
          -0.08400671929121017,
          -0.029897818341851234,
          0.052247967571020126,
          -0.229500874876976,
          0.07236537337303162,
          0.2902420461177826,
          0.21510957181453705,
          0.2641695737838745,
          -0.07911992073059082,
          0.03945959359407425,
          0.031060736626386642,
          0.20559261739253998,
          -0.21398213505744934,
          0.044013090431690216,
          0.1976632922887802,
          -0.10142339766025543,
          0.0011904697166755795,
          -0.023656874895095825,
          0.03565046191215515,
          0.2224525809288025,
          -0.23751939833164215,
          0.03123827651143074,
          0.20571748912334442,
          -0.06751487404108047,
          -0.006944945082068443,
          -0.023993823677301407,
          -0.0826183557510376,
          -0.06656552851200104,
          0.22121037542819977,
          -0.008331001736223698,
          -0.12426085025072098,
          -0.08464962989091873,
          0.15098413825035095,
          0.167399063706398,
          0.09715131670236588,
          -0.059382304549217224,
          0.07045798003673553,
          -0.37228935956954956,
          0.2103133499622345,
          0.028928134590387344,
          -0.21955808997154236,
          0.1792059689760208,
          0.01910972222685814,
          -0.10147528350353241,
          0.025814145803451538
        ],
        [
          -0.09228578954935074,
          0.1209663450717926,
          0.1803339719772339,
          0.0045167431235313416,
          0.3159579634666443,
          -0.13637734949588776,
          -0.25955337285995483,
          -0.09037350118160248,
          0.28353092074394226,
          0.10630049556493759,
          -0.024422215297818184,
          -0.09076177328824997,
          -0.27300938963890076,
          0.008235657587647438,
          0.14576338231563568,
          -0.21060575544834137,
          -0.05568685382604599,
          0.02942528761923313,
          0.36338210105895996,
          -0.1451261043548584,
          0.27231842279434204,
          0.13054995238780975,
          0.44142353534698486,
          -0.049836717545986176,
          -0.034522589296102524,
          -0.21928250789642334,
          0.036547042429447174,
          0.11621399223804474,
          0.11945272237062454,
          -0.11402960121631622,
          0.003933477681130171,
          -0.005735441111028194,
          -0.11427082121372223,
          -0.16140961647033691,
          -0.16366955637931824,
          0.11309093236923218,
          0.024131406098604202,
          0.029213612899184227,
          -0.010774177499115467,
          -0.11963150650262833,
          -0.2376067042350769,
          0.11782096326351166,
          -0.22388258576393127,
          0.12566734850406647,
          -0.10258025676012039,
          -0.28115999698638916,
          0.05155978351831436,
          -0.269481897354126,
          0.021023228764533997,
          0.03262853994965553,
          0.40195024013519287,
          0.0648045688867569,
          -0.26283493638038635,
          -0.020493118092417717,
          0.2380615770816803,
          0.09625650197267532,
          0.12317486107349396,
          0.042539626359939575,
          -0.38454920053482056,
          -0.08017394691705704,
          -0.12651284039020538,
          -0.04605033993721008,
          -0.27544718980789185,
          0.09440332651138306
        ],
        [
          -0.12409158051013947,
          0.04564487189054489,
          0.03542543575167656,
          -0.2088877260684967,
          0.20656535029411316,
          -0.35620567202568054,
          -0.025759879499673843,
          -0.2564259171485901,
          -0.15660786628723145,
          -0.008970662951469421,
          -0.12017909437417984,
          0.15672670304775238,
          -0.19607003033161163,
          0.27555108070373535,
          0.2310338318347931,
          -0.2735643684864044,
          0.04236636310815811,
          0.2540552318096161,
          -0.3670808672904968,
          0.2500743269920349,
          -0.2992058992385864,
          -0.06522344052791595,
          -0.03668484091758728,
          0.03384033218026161,
          -0.17733359336853027,
          0.03292955458164215,
          -0.17506347596645355,
          -0.12086424976587296,
          -0.06607718020677567,
          0.02762598730623722,
          -0.024872148409485817,
          -0.05424026399850845,
          0.11583258211612701,
          0.07261650264263153,
          -0.12643963098526,
          0.0026793298311531544,
          0.15608002245426178,
          0.16561077535152435,
          -0.09806044399738312,
          0.12449987232685089,
          -0.026367126032710075,
          -0.023011744022369385,
          -0.1841825246810913,
          -0.1812441498041153,
          -0.29656922817230225,
          0.07248811423778534,
          0.07054276019334793,
          0.17372508347034454,
          0.11153971403837204,
          -0.00732641015201807,
          -0.07000981271266937,
          0.07990798354148865,
          0.008169613778591156,
          -0.07386157661676407,
          -0.15339139103889465,
          0.15295927226543427,
          -0.09293554723262787,
          0.08816473931074142,
          0.2391810268163681,
          0.07911060750484467,
          -0.39473843574523926,
          -0.040836405009031296,
          -0.5237351655960083,
          0.23075948655605316
        ],
        [
          -0.11394821852445602,
          -0.13416501879692078,
          -0.24644996225833893,
          0.03952495753765106,
          0.48601922392845154,
          0.20942062139511108,
          0.2646757960319519,
          -0.39344555139541626,
          -0.2731512188911438,
          -0.03945836052298546,
          0.21363216638565063,
          -0.021594299003481865,
          0.16701573133468628,
          -0.1341175138950348,
          -0.22700956463813782,
          -0.1865750551223755,
          -0.35456383228302,
          0.11850964277982712,
          0.05758698657155037,
          -0.22965696454048157,
          -0.033851128071546555,
          0.15188924968242645,
          -0.26031577587127686,
          -0.1961478292942047,
          0.18063044548034668,
          -0.035481229424476624,
          0.10563751310110092,
          0.019413981586694717,
          0.25537317991256714,
          -0.2731752395629883,
          0.16658242046833038,
          -0.1172882616519928,
          -0.06001649796962738,
          0.02151479572057724,
          -0.07022667676210403,
          0.020358333364129066,
          0.05078892782330513,
          -0.0005055891815572977,
          -0.000880114093888551,
          -0.19966469705104828,
          -0.37179556488990784,
          -0.31122127175331116,
          -0.032900769263505936,
          -0.10860055685043335,
          -0.041574057191610336,
          0.004266576841473579,
          0.37704402208328247,
          -0.11561392992734909,
          0.11343276500701904,
          0.042155299335718155,
          -0.2856154143810272,
          0.1660681813955307,
          0.04181254655122757,
          -0.16585035622119904,
          -0.14569365978240967,
          -0.0024355787318199873,
          -0.06941413134336472,
          -0.2802311182022095,
          -0.18843767046928406,
          -0.12452898919582367,
          -0.05140732228755951,
          -0.14623495936393738,
          -0.08351906388998032,
          -0.0873691588640213
        ],
        [
          -0.3329102396965027,
          0.14378146827220917,
          -0.1549222320318222,
          -0.29530856013298035,
          0.03289894759654999,
          -0.2267831563949585,
          -0.21463161706924438,
          0.31156113743782043,
          -0.039701852947473526,
          -0.314836323261261,
          0.2518768608570099,
          0.2518281042575836,
          0.1578071564435959,
          -0.30053532123565674,
          -0.06664577126502991,
          -0.19452828168869019,
          0.24345964193344116,
          0.18214675784111023,
          -0.08783401548862457,
          0.0632607489824295,
          0.07012619823217392,
          0.1549600511789322,
          -0.15473118424415588,
          0.131937637925148,
          -0.09480885416269302,
          0.17577378451824188,
          -0.0832509845495224,
          0.16768106818199158,
          0.053147539496421814,
          0.01903603971004486,
          0.1232258677482605,
          -0.10780328512191772,
          0.17821599543094635,
          0.015716055408120155,
          0.09784486889839172,
          0.06562986224889755,
          0.1292588859796524,
          -0.13538433611392975,
          0.0004376047581899911,
          -0.09359894692897797,
          -0.25987374782562256,
          0.10750950127840042,
          0.28043025732040405,
          0.31676414608955383,
          -0.04041841998696327,
          0.25042372941970825,
          -0.08537321537733078,
          0.13620688021183014,
          -0.08122506737709045,
          -0.01739458367228508,
          0.1326773315668106,
          0.08359307050704956,
          0.15143582224845886,
          0.2583532929420471,
          -0.039556607604026794,
          0.3954121768474579,
          0.3955720067024231,
          -0.04426172003149986,
          -0.19974221289157867,
          -0.09543898701667786,
          -0.006369794253259897,
          0.04029329866170883,
          0.09413186460733414,
          -0.12061018496751785
        ],
        [
          0.11269473284482956,
          -0.12120739370584488,
          -0.08070892840623856,
          0.13476935029029846,
          -0.08580129593610764,
          0.12907156348228455,
          0.0867682695388794,
          -0.3053428828716278,
          -0.05388518422842026,
          -0.17667073011398315,
          -0.11403758078813553,
          -0.1901678591966629,
          0.25264230370521545,
          -0.01943155564367771,
          -0.08832214772701263,
          0.015618967823684216,
          0.0464458130300045,
          0.07741115987300873,
          -0.04164701700210571,
          -0.0015445867320522666,
          -0.12389009445905685,
          -0.13228198885917664,
          0.2738223075866699,
          -0.07248160988092422,
          -0.37192776799201965,
          0.0475795604288578,
          -0.08296705037355423,
          -0.17583374679088593,
          -0.12814950942993164,
          -0.048603519797325134,
          0.17045806348323822,
          -0.06769701838493347,
          -0.41836386919021606,
          -0.05507175996899605,
          0.003597227158024907,
          0.07204949110746384,
          0.015602478757500648,
          0.02232258953154087,
          0.0007548233261331916,
          -0.20823287963867188,
          0.07061220705509186,
          0.09399629384279251,
          0.3173871338367462,
          0.003715201048180461,
          -0.14704817533493042,
          0.04965954273939133,
          0.09543108195066452,
          0.045178208500146866,
          0.018405968323349953,
          -0.0833832323551178,
          0.11345219612121582,
          0.2762066423892975,
          -0.020150890573859215,
          -0.003789210459217429,
          0.5690309405326843,
          0.26994413137435913,
          0.23221983015537262,
          -0.25404077768325806,
          0.35771644115448,
          -0.07034897804260254,
          0.10219225287437439,
          0.3369029462337494,
          -0.10653557628393173,
          -0.06133440509438515
        ],
        [
          0.06120191141963005,
          0.04372956603765488,
          0.1975642293691635,
          -0.13769356906414032,
          0.3184213638305664,
          0.2231561839580536,
          0.0643913745880127,
          0.0515444315969944,
          0.1704540252685547,
          0.1978731006383896,
          -0.09276483952999115,
          -0.12504823505878448,
          0.10683891177177429,
          -0.32112735509872437,
          0.003511750837787986,
          0.05116553604602814,
          0.11561691761016846,
          0.2904653549194336,
          -0.226104274392128,
          0.18604019284248352,
          0.12129853665828705,
          0.2504168152809143,
          0.05883545055985451,
          -0.21498525142669678,
          -0.14775748550891876,
          0.3636839687824249,
          0.07942911237478256,
          0.059971991926431656,
          -0.1572253555059433,
          -0.20232579112052917,
          -0.14650125801563263,
          0.40636903047561646,
          0.07861584424972534,
          -0.17428821325302124,
          -0.04531755670905113,
          0.07488879561424255,
          0.10761312395334244,
          -0.06347627937793732,
          0.28194645047187805,
          0.04945676401257515,
          -0.2708408236503601,
          -0.1163458600640297,
          -0.045707039535045624,
          -0.3249499499797821,
          0.13386832177639008,
          0.23984400928020477,
          -0.32445716857910156,
          -0.01696060784161091,
          0.06331256031990051,
          0.011592388153076172,
          0.05836702138185501,
          0.07110363245010376,
          0.005376260727643967,
          0.022919263690710068,
          0.16814029216766357,
          -0.2543463706970215,
          -0.01610146462917328,
          0.08270739018917084,
          0.10526099056005478,
          0.2758912742137909,
          0.023555953055620193,
          -0.01180893275886774,
          -0.14649072289466858,
          -0.31935545802116394
        ],
        [
          -0.09740468114614487,
          -0.06309502571821213,
          0.002060509752482176,
          0.15853241086006165,
          -0.07096127420663834,
          -0.16061033308506012,
          0.1927093118429184,
          0.33509865403175354,
          0.142567977309227,
          -0.14152446389198303,
          -0.03381706774234772,
          0.10274188965559006,
          -0.2266748696565628,
          0.05938957631587982,
          0.3512004613876343,
          0.18138903379440308,
          -0.193180114030838,
          0.13964028656482697,
          -0.07500448077917099,
          0.2341870367527008,
          0.3860803544521332,
          -0.30598366260528564,
          0.008875335566699505,
          -0.007463415618985891,
          -0.05348825827240944,
          -0.06933072954416275,
          0.31202006340026855,
          -0.13024935126304626,
          0.1370924413204193,
          -0.21712231636047363,
          0.18905656039714813,
          0.06162383407354355,
          -0.09400559216737747,
          -0.0676959753036499,
          -0.10290532559156418,
          0.3144601285457611,
          0.02227640524506569,
          -0.17398618161678314,
          0.05002416670322418,
          -0.23848597705364227,
          0.10198865830898285,
          0.22849076986312866,
          0.13366492092609406,
          -0.3560909628868103,
          0.19022804498672485,
          -0.045507900416851044,
          -0.15070316195487976,
          0.06747061014175415,
          -0.03285396471619606,
          -0.08693616092205048,
          -0.13642656803131104,
          0.2616688013076782,
          0.2287587970495224,
          -0.038155633956193924,
          -0.09847318381071091,
          0.16083694994449615,
          -0.06470555812120438,
          -0.34111765027046204,
          -0.027208101004362106,
          -0.13113988935947418,
          -0.24587219953536987,
          -0.23740141093730927,
          0.0635337084531784,
          0.010603980161249638
        ],
        [
          -0.13421447575092316,
          -0.4047558009624481,
          -0.04701024666428566,
          0.10313977301120758,
          -0.05664278566837311,
          -0.08130645006895065,
          -0.3560381829738617,
          -0.19107624888420105,
          0.007014587055891752,
          -0.23259557783603668,
          -0.04384896531701088,
          0.022615885362029076,
          -0.05461182817816734,
          -0.2393171191215515,
          -0.2926061749458313,
          -0.022198231890797615,
          -0.04942404106259346,
          0.10430470108985901,
          0.02431010827422142,
          0.15221475064754486,
          -0.06881693005561829,
          -0.047961290925741196,
          0.13634029030799866,
          -0.05453271046280861,
          0.20228570699691772,
          0.23398782312870026,
          0.06984138488769531,
          0.3535957932472229,
          0.13747479021549225,
          0.10454847663640976,
          0.10608712583780289,
          -0.014563980512320995,
          0.1632392257452011,
          0.4403482973575592,
          0.16633638739585876,
          0.17433349788188934,
          -0.032556187361478806,
          -0.20051012933254242,
          0.2478010505437851,
          -0.10132293403148651,
          0.3338797688484192,
          -0.06996893137693405,
          0.12621808052062988,
          0.09616678953170776,
          0.2854156792163849,
          -0.03915354236960411,
          -0.051906511187553406,
          0.057210564613342285,
          0.1822860687971115,
          -0.07921721041202545,
          0.1817639321088791,
          -0.24233365058898926,
          -0.3038930892944336,
          -0.04252779483795166,
          0.2927735149860382,
          0.13706620037555695,
          -0.14237567782402039,
          -0.03807034343481064,
          0.2614372968673706,
          0.1734466850757599,
          -0.15131857991218567,
          -0.4425750970840454,
          -0.20599432289600372,
          0.17617683112621307
        ],
        [
          -0.17151479423046112,
          -0.03044428490102291,
          -0.011317495256662369,
          0.258699893951416,
          -0.06218887120485306,
          0.013008813373744488,
          0.019082434475421906,
          -0.11006868630647659,
          0.1388404816389084,
          -0.2544451951980591,
          -0.14289657771587372,
          -0.2075626701116562,
          -0.04034136235713959,
          -0.1663835048675537,
          -0.1047552227973938,
          -0.010259601287543774,
          0.22379739582538605,
          -0.0009590315748937428,
          -0.103174589574337,
          0.056117333471775055,
          0.2358146458864212,
          0.028304671868681908,
          -0.2964686155319214,
          -0.06938312202692032,
          0.28584179282188416,
          -0.036795902997255325,
          0.051532670855522156,
          0.11188486218452454,
          -0.38752150535583496,
          -0.29505524039268494,
          0.08381278067827225,
          0.3610580861568451,
          0.33052772283554077,
          0.05643707886338234,
          0.04809324070811272,
          0.15764597058296204,
          0.02790948748588562,
          -0.08597441017627716,
          -0.5537585616111755,
          0.003887745551764965,
          -0.014312836341559887,
          -0.07475805282592773,
          0.09115654230117798,
          0.05747295543551445,
          -0.32376086711883545,
          -0.2672104835510254,
          -0.012392804957926273,
          0.10231687873601913,
          -0.11970684677362442,
          0.13333000242710114,
          0.14445391297340393,
          0.03128017857670784,
          -0.07068188488483429,
          -0.5051788687705994,
          0.02936556562781334,
          0.05018214136362076,
          0.09165091067552567,
          0.1367599219083786,
          0.15525175631046295,
          -0.04564793407917023,
          -0.0962061658501625,
          0.02962447516620159,
          0.22082705795764923,
          0.13054129481315613
        ],
        [
          0.08534204959869385,
          0.20563815534114838,
          -0.28938812017440796,
          0.32994645833969116,
          0.1569632738828659,
          -0.2748827040195465,
          -0.2012004852294922,
          -0.03223641216754913,
          -0.27694037556648254,
          0.004052749834954739,
          -0.1293870210647583,
          -0.03002198599278927,
          -0.06308668106794357,
          -0.1962558776140213,
          0.03399660810828209,
          0.13913396000862122,
          0.15613941848278046,
          0.10711212456226349,
          0.18030016124248505,
          -0.09237349778413773,
          -0.1516319364309311,
          0.16686119139194489,
          -0.07329391688108444,
          0.19959919154644012,
          0.06831926852464676,
          -0.07959279417991638,
          -0.25631600618362427,
          -0.02653385140001774,
          -0.05360366404056549,
          0.08062700182199478,
          0.303532212972641,
          0.12341520190238953,
          0.2868376672267914,
          0.2578546106815338,
          -0.03463932126760483,
          0.04112784564495087,
          0.07314031571149826,
          0.024897227063775063,
          0.06089334934949875,
          -0.43535715341567993,
          0.012998797930777073,
          0.3908029794692993,
          -0.04859891161322594,
          -0.2517620623111725,
          0.15590596199035645,
          0.18473905324935913,
          -0.08177635073661804,
          -0.4015985131263733,
          0.3159196972846985,
          -0.19866351783275604,
          0.11904255300760269,
          -0.18828092515468597,
          0.19149628281593323,
          -0.26045340299606323,
          -0.029846351593732834,
          -0.26225098967552185,
          0.12051515281200409,
          -0.08219636231660843,
          0.1093396246433258,
          0.06068691611289978,
          -0.01826004683971405,
          0.12727195024490356,
          0.1467093825340271,
          0.05824268236756325
        ],
        [
          0.4418114423751831,
          -0.044704511761665344,
          -0.501960813999176,
          0.1433408558368683,
          0.023520272225141525,
          -0.016857022419571877,
          -0.025049248710274696,
          0.2250068336725235,
          0.06903636455535889,
          0.006143081467598677,
          -0.06433820724487305,
          0.19848935306072235,
          -0.10725245624780655,
          0.002275164471939206,
          -0.27717021107673645,
          -0.26027971506118774,
          -0.2860221564769745,
          0.2943302094936371,
          -0.05058103799819946,
          -0.02286069467663765,
          0.16353262960910797,
          0.2567843198776245,
          0.16699615120887756,
          0.16634231805801392,
          0.11213091015815735,
          0.20578768849372864,
          0.18274544179439545,
          0.19076409935951233,
          0.10538572818040848,
          0.06925460696220398,
          -0.06412596255540848,
          0.09107759594917297,
          -0.1383071392774582,
          -0.057765472680330276,
          0.1486341804265976,
          -0.25150346755981445,
          0.005936725065112114,
          0.27585142850875854,
          -0.12090205401182175,
          0.06812165677547455,
          -0.03847774490714073,
          0.07501678168773651,
          -0.07069503515958786,
          -0.18345920741558075,
          -0.22148847579956055,
          -0.34734925627708435,
          -0.34592103958129883,
          0.07513097673654556,
          0.07412327080965042,
          -0.15605726838111877,
          -0.10272850841283798,
          0.001603520940989256,
          -0.008152417838573456,
          0.0674133375287056,
          -0.0635702833533287,
          0.30282413959503174,
          -0.20080403983592987,
          0.055043794214725494,
          0.09214302897453308,
          -0.039924390614032745,
          0.08377242088317871,
          0.23394791781902313,
          0.025201626121997833,
          0.021177535876631737
        ],
        [
          -0.006619550287723541,
          -0.10973313450813293,
          -0.06864843517541885,
          -0.0009814314544200897,
          0.16454966366291046,
          -0.1578594595193863,
          0.005317877046763897,
          0.03931324928998947,
          0.12792758643627167,
          -0.20039518177509308,
          -0.1261703222990036,
          -0.2301054298877716,
          -0.24072425067424774,
          -0.09462497383356094,
          0.4203783869743347,
          0.21160148084163666,
          0.051219601184129715,
          0.282075434923172,
          -0.1879349648952484,
          -0.07187408953905106,
          -0.3768518567085266,
          0.06758075207471848,
          0.05291983112692833,
          0.02289092168211937,
          0.047748301178216934,
          -0.25083985924720764,
          -0.1434091031551361,
          0.30035439133644104,
          0.0165047999471426,
          0.012644657865166664,
          0.017817161977291107,
          0.16130006313323975,
          -0.060053084045648575,
          0.16095560789108276,
          0.007192118559032679,
          -0.485970139503479,
          -0.1443818211555481,
          -0.16354157030582428,
          0.16154971718788147,
          -0.10311274975538254,
          -0.06723567843437195,
          -0.010584646835923195,
          -0.00015374647045973688,
          0.10599921643733978,
          -0.03866534307599068,
          -0.11743809282779694,
          -0.0056555187329649925,
          0.1519717574119568,
          -0.4345090091228485,
          0.15328043699264526,
          -0.35554519295692444,
          -0.004291341174393892,
          0.08302167803049088,
          -0.08945741504430771,
          0.280446320772171,
          0.06348372250795364,
          -0.08704090863466263,
          -0.1644580364227295,
          -0.2647807002067566,
          0.204347625374794,
          0.2167653739452362,
          0.041124798357486725,
          0.06782513111829758,
          0.010444785468280315
        ],
        [
          -0.15021690726280212,
          0.0031489559914916754,
          0.02503284625709057,
          0.16983655095100403,
          0.09751619398593903,
          0.24263882637023926,
          0.17146746814250946,
          0.025678183883428574,
          0.3377686142921448,
          -0.1037650778889656,
          -0.2492908388376236,
          -0.024665316566824913,
          0.025663582608103752,
          -0.19745227694511414,
          -0.085943304002285,
          0.12144117057323456,
          0.10988887399435043,
          -0.23288947343826294,
          0.11082062125205994,
          0.1454838067293167,
          0.006921286694705486,
          0.06479894369840622,
          0.08627451211214066,
          0.33165979385375977,
          -0.3596266806125641,
          -0.1905117928981781,
          -0.006177457049489021,
          0.004227870609611273,
          0.11950460821390152,
          0.03622424975037575,
          -0.047554995864629745,
          0.011697052977979183,
          0.25181472301483154,
          -0.08641459047794342,
          0.39487648010253906,
          0.010848517529666424,
          0.11713803559541702,
          0.22793471813201904,
          0.18343164026737213,
          -0.10154151171445847,
          0.0904674381017685,
          0.003930531442165375,
          -0.04772832244634628,
          0.1984064280986786,
          -0.42126867175102234,
          0.2153402715921402,
          -0.08729229122400284,
          -0.1529012769460678,
          0.1517544537782669,
          -0.010849046520888805,
          -0.07993054389953613,
          0.09948258846998215,
          0.37868815660476685,
          0.058439239859580994,
          0.009763716720044613,
          0.06051136925816536,
          -0.2512679696083069,
          0.10749353468418121,
          0.00615272531285882,
          -0.0033507784828543663,
          0.09954307228326797,
          -0.23776893317699432,
          -0.10452704131603241,
          0.33197516202926636
        ],
        [
          -0.0579918771982193,
          -0.08252701908349991,
          -0.05598583072423935,
          0.07839415222406387,
          -0.28217053413391113,
          -0.0038590976037085056,
          0.2522152364253998,
          0.025757482275366783,
          -0.3997162878513336,
          -0.10427884757518768,
          -0.33061882853507996,
          -0.14650769531726837,
          -0.10288901627063751,
          -0.08005822449922562,
          -0.03667464107275009,
          0.1385805308818817,
          0.32028526067733765,
          0.06600933521986008,
          0.22347097098827362,
          -0.2172694206237793,
          0.10071732848882675,
          0.02864227257668972,
          0.17616140842437744,
          0.053650885820388794,
          0.0958842784166336,
          0.014435689896345139,
          0.27228108048439026,
          0.20047782361507416,
          0.16413025557994843,
          -0.23037128150463104,
          -0.05112934485077858,
          -0.039872534573078156,
          0.06645240634679794,
          0.183935284614563,
          -0.24806252121925354,
          0.12309199571609497,
          0.3586183488368988,
          0.0344822034239769,
          0.2789804935455322,
          0.25575292110443115,
          -0.06576027721166611,
          0.24772502481937408,
          -0.11642368137836456,
          -0.06193968653678894,
          -0.2603553831577301,
          0.04771396145224571,
          0.1980832815170288,
          0.24362343549728394,
          0.16932810842990875,
          0.07330258190631866,
          -0.20908787846565247,
          0.028270183131098747,
          -0.2641661465167999,
          0.2646277844905853,
          -0.1028098315000534,
          0.01677463762462139,
          0.19530533254146576,
          0.07639327645301819,
          -0.03824017941951752,
          0.28971782326698303,
          0.00269998237490654,
          -0.06774626672267914,
          0.10300541669130325,
          -0.002851045923307538
        ],
        [
          0.23158042132854462,
          -0.0665375143289566,
          0.1309811919927597,
          -0.16765691339969635,
          -0.19378957152366638,
          -0.17345641553401947,
          -0.07826175540685654,
          0.17469820380210876,
          -0.3053746819496155,
          -0.13620656728744507,
          0.16064375638961792,
          -0.34144464135169983,
          -0.1001679003238678,
          0.1656186729669571,
          -0.3471606969833374,
          -0.0070984805934131145,
          -0.06805183738470078,
          0.030506286770105362,
          0.04220011085271835,
          0.13472411036491394,
          0.2458871304988861,
          -0.028531258925795555,
          -0.06609176099300385,
          -0.1989349126815796,
          -0.3878190517425537,
          0.045282065868377686,
          -0.2540220320224762,
          0.36981987953186035,
          -0.05530165135860443,
          0.045462850481271744,
          0.11449746042490005,
          0.09564649313688278,
          0.287549763917923,
          -0.3177087903022766,
          -0.1163855642080307,
          -0.1114179864525795,
          -0.06026192009449005,
          0.04023304581642151,
          0.11747477203607559,
          -0.08820562809705734,
          0.12695778906345367,
          -0.2571738362312317,
          -0.024153517559170723,
          -0.21553930640220642,
          0.09442735463380814,
          0.05346943438053131,
          0.29798415303230286,
          -0.19816571474075317,
          0.007591082248836756,
          -0.05340576171875,
          -0.13342523574829102,
          0.19851064682006836,
          -0.010201851837337017,
          -0.08152670413255692,
          0.056347645819187164,
          0.11908210068941116,
          -0.25727665424346924,
          0.12819363176822662,
          -0.274467796087265,
          -0.07020752131938934,
          -0.011146305128932,
          -0.034720443189144135,
          0.0982009768486023,
          0.1895214319229126
        ],
        [
          0.17207495868206024,
          0.33035796880722046,
          -0.02934998832643032,
          0.03319212794303894,
          -0.08743393421173096,
          0.13729217648506165,
          0.16628526151180267,
          -0.026920737698674202,
          -0.050230253487825394,
          -0.07459787279367447,
          0.11963234096765518,
          0.27730098366737366,
          -0.08200283348560333,
          -0.13032084703445435,
          -0.06428452581167221,
          -0.2100973129272461,
          0.07294692099094391,
          0.07843015342950821,
          0.18828290700912476,
          -0.2613747715950012,
          0.1372459977865219,
          -0.057897429913282394,
          -0.3722649812698364,
          -0.04430704191327095,
          -0.08834259957075119,
          -0.13516828417778015,
          -0.12206011265516281,
          -0.1329912394285202,
          0.20812417566776276,
          0.11715812981128693,
          -0.25706788897514343,
          0.35945433378219604,
          -0.18730904161930084,
          -0.011594103649258614,
          -0.10123584419488907,
          0.056384842842817307,
          0.22098059952259064,
          -0.4559410512447357,
          -0.2694588303565979,
          -0.16830894351005554,
          0.21710583567619324,
          -0.012636851519346237,
          -0.19867824018001556,
          0.07588313519954681,
          -0.019319796934723854,
          0.1551259160041809,
          0.011397503316402435,
          -0.051295049488544464,
          -0.23197445273399353,
          -0.2721760869026184,
          -0.09406422823667526,
          -0.006525098811835051,
          -0.007446571718901396,
          0.15936784446239471,
          0.3050737977027893,
          0.09653454273939133,
          -0.13829125463962555,
          0.05740436911582947,
          0.048415157943964005,
          0.402713418006897,
          -0.05868273228406906,
          -0.07926580309867859,
          -0.15356725454330444,
          0.1824258416891098
        ],
        [
          0.08982028812170029,
          0.02786807343363762,
          0.1826322227716446,
          0.19406184554100037,
          -0.002573377685621381,
          -0.04766729474067688,
          -0.055612221360206604,
          0.015847794711589813,
          -0.1977643519639969,
          -0.029277417808771133,
          0.23745565116405487,
          -0.2969585657119751,
          -0.19167029857635498,
          0.1121644452214241,
          0.0440899096429348,
          -0.2712286710739136,
          -0.0428130105137825,
          -0.11938256770372391,
          0.10984747856855392,
          0.20803970098495483,
          -0.10384180396795273,
          0.27981632947921753,
          0.04916801303625107,
          -0.025380708277225494,
          -0.27546417713165283,
          0.15438462793827057,
          0.08078892529010773,
          -0.06636518239974976,
          -0.02719358168542385,
          -0.33351728320121765,
          -0.14435626566410065,
          0.2373361736536026,
          0.22127170860767365,
          0.1775244176387787,
          0.166702538728714,
          -0.09293284267187119,
          -0.0995413213968277,
          0.023443028330802917,
          -0.2916463315486908,
          -0.061303332448005676,
          0.013361488468945026,
          0.14491887390613556,
          -0.06747882068157196,
          0.2757534086704254,
          0.07504640519618988,
          -0.29187238216400146,
          0.10991908609867096,
          -0.045709557831287384,
          0.048151541501283646,
          0.13740907609462738,
          -0.0832340270280838,
          -0.03722057491540909,
          0.22198757529258728,
          0.5656105875968933,
          -0.038162216544151306,
          -0.14954423904418945,
          0.02483990043401718,
          -0.44244086742401123,
          0.24434931576251984,
          0.050990667194128036,
          -0.06429174542427063,
          -0.10285039246082306,
          0.014486542902886868,
          -0.1507464200258255
        ],
        [
          0.05805268883705139,
          -0.365564227104187,
          0.06726586073637009,
          0.08085355907678604,
          0.351954847574234,
          -0.09088901430368423,
          -0.040201567113399506,
          0.27176976203918457,
          0.12852931022644043,
          0.14754803478717804,
          -0.034246042370796204,
          -0.061080191284418106,
          -0.08968020975589752,
          0.037538912147283554,
          -0.1634989082813263,
          -0.18788598477840424,
          0.1695210188627243,
          0.23607003688812256,
          -0.12159959226846695,
          -0.08920928835868835,
          0.15171779692173004,
          -0.26325398683547974,
          0.07383231818675995,
          0.11427032202482224,
          -0.07376646995544434,
          -0.48313188552856445,
          -0.03151435777544975,
          -0.03693211451172829,
          -0.12291304022073746,
          0.17645412683486938,
          0.22698700428009033,
          -0.3631225526332855,
          0.13166137039661407,
          -0.053507328033447266,
          -0.06891961395740509,
          0.035101525485515594,
          0.12863847613334656,
          -0.2223987728357315,
          -0.1854304075241089,
          0.358225554227829,
          0.13679619133472443,
          -0.253744512796402,
          -0.03828861936926842,
          0.11483419686555862,
          0.06914444267749786,
          -0.13050732016563416,
          0.08099528402090073,
          -0.13209018111228943,
          0.07628872990608215,
          -0.313749760389328,
          -0.08650331199169159,
          0.23833107948303223,
          0.11087219417095184,
          0.2457844316959381,
          -0.11017175018787384,
          -0.15896959602832794,
          -0.00422013271600008,
          0.09477563947439194,
          0.14895759522914886,
          0.22310645878314972,
          0.25084778666496277,
          0.058913104236125946,
          -0.10376986861228943,
          -0.4729864001274109
        ],
        [
          -0.2647249102592468,
          -0.009293797425925732,
          0.3186832070350647,
          -0.016395743936300278,
          -0.1401698887348175,
          0.01739630475640297,
          0.09153290838003159,
          0.21565525233745575,
          -0.3226553201675415,
          -0.08766656368970871,
          0.11174952238798141,
          -0.14287903904914856,
          0.0021187684033066034,
          -0.1232423260807991,
          -0.027410617098212242,
          0.06300606578588486,
          -0.3125881850719452,
          0.2808692157268524,
          0.051200587302446365,
          -0.038787346333265305,
          -0.001090161269530654,
          0.10369706153869629,
          -0.016367070376873016,
          0.28049102425575256,
          -0.027883382514119148,
          -0.13661746680736542,
          -0.1940753161907196,
          -0.022546738386154175,
          -0.19723638892173767,
          0.1771705597639084,
          -0.07427063584327698,
          -0.09515247493982315,
          -0.38472965359687805,
          0.2211914360523224,
          0.2053932249546051,
          0.1838655173778534,
          0.3681265115737915,
          -0.03665130212903023,
          0.12840664386749268,
          0.07551945000886917,
          -0.16955024003982544,
          -0.03622058779001236,
          -0.2544300854206085,
          0.23941069841384888,
          0.06197843700647354,
          -0.0929713100194931,
          -0.2273721694946289,
          -0.01183782797306776,
          -0.06751628965139389,
          0.20511621236801147,
          0.2500416338443756,
          0.12244656682014465,
          -0.05545603856444359,
          -0.16748258471488953,
          -0.07899978756904602,
          -0.023761214688420296,
          -0.49725285172462463,
          -0.06589259952306747,
          0.19724354147911072,
          -0.06547968089580536,
          -0.053929403424263,
          0.0006144613143987954,
          0.12258138507604599,
          -0.14106400310993195
        ],
        [
          -0.22280974686145782,
          -0.026827028021216393,
          -0.15449854731559753,
          0.08422703295946121,
          0.39750033617019653,
          -0.09480506926774979,
          -0.01093424204736948,
          0.3843012750148773,
          0.07077711820602417,
          0.28351595997810364,
          0.16483649611473083,
          -0.08474408090114594,
          0.17012035846710205,
          -0.2799204885959625,
          0.1735745668411255,
          0.2920694947242737,
          0.015168140642344952,
          -0.06993827223777771,
          0.00715905986726284,
          -0.07626772671937943,
          0.034522876143455505,
          -0.23540988564491272,
          -0.101319819688797,
          0.04660690203309059,
          -0.002095320960506797,
          0.43447649478912354,
          -0.20379285514354706,
          -0.11580940335988998,
          0.2859192192554474,
          0.020841002464294434,
          0.23144851624965668,
          0.06580782681703568,
          -0.12360526621341705,
          -0.08556701242923737,
          -0.1694016307592392,
          -0.03578045219182968,
          -0.1770758181810379,
          0.2518332600593567,
          -0.20873160660266876,
          0.204956516623497,
          0.07794257253408432,
          0.046412765979766846,
          0.029489383101463318,
          0.1658259481191635,
          -0.11298942565917969,
          -0.08294390887022018,
          0.20711028575897217,
          0.037445053458213806,
          0.060292962938547134,
          0.05031018704175949,
          -0.09522976726293564,
          -0.04664307087659836,
          -0.2402314394712448,
          0.18055109679698944,
          0.19870932400226593,
          -0.0873810276389122,
          -0.26601386070251465,
          0.047287117689847946,
          0.18061614036560059,
          0.08647698163986206,
          -0.12172085046768188,
          -0.12841646373271942,
          0.0945945754647255,
          0.19539248943328857
        ],
        [
          -0.47588613629341125,
          -0.2826569378376007,
          -0.10476288199424744,
          0.07029698044061661,
          -0.011338564567267895,
          0.18136070668697357,
          0.06486856937408447,
          0.3202250301837921,
          -0.18623816967010498,
          -0.03234199807047844,
          0.2209332138299942,
          0.007723220624029636,
          -0.1628447026014328,
          0.0902533307671547,
          -0.024263476952910423,
          -0.04697928577661514,
          0.12585341930389404,
          -0.012635666877031326,
          -0.016469739377498627,
          -0.21330340206623077,
          -0.2690507769584656,
          0.19532033801078796,
          0.33742302656173706,
          -0.45512720942497253,
          0.08766684681177139,
          -0.00033403723500669,
          -0.07323001325130463,
          -0.24681203067302704,
          -0.03890508785843849,
          -0.09661968052387238,
          -0.2006150484085083,
          -0.014196187257766724,
          0.07814469188451767,
          -0.35885128378868103,
          -0.13551484048366547,
          -0.05342841148376465,
          -0.030127551406621933,
          -0.22916360199451447,
          0.0015886034816503525,
          -0.17503879964351654,
          0.04943166673183441,
          0.2206287533044815,
          -0.09464248269796371,
          0.023206112906336784,
          0.07955808192491531,
          -0.10316959023475647,
          -0.0750664696097374,
          0.048924271017313004,
          0.20892925560474396,
          -0.07225855439901352,
          -0.08055736869573593,
          -0.18782854080200195,
          0.23915225267410278,
          -0.18874245882034302,
          0.013927004300057888,
          0.26003167033195496,
          -0.0970795527100563,
          0.3349069058895111,
          0.1995360553264618,
          -0.10473988205194473,
          0.1985129863023758,
          -0.05249934270977974,
          -0.07200851291418076,
          0.023446056991815567
        ],
        [
          -0.1137564554810524,
          -0.09812197834253311,
          -0.06403370201587677,
          -0.003275795141234994,
          0.023107746616005898,
          -0.11039568483829498,
          -0.20837780833244324,
          0.06308823078870773,
          0.10833975672721863,
          0.15415728092193604,
          -0.17259417474269867,
          0.13154223561286926,
          0.42426949739456177,
          0.2985871732234955,
          0.08210822939872742,
          -0.19505733251571655,
          0.024255001917481422,
          0.1718902438879013,
          0.1174057349562645,
          -0.09444268047809601,
          -0.46916744112968445,
          -0.02868356928229332,
          0.031075747683644295,
          0.0332811214029789,
          -0.1384531706571579,
          0.0723128542304039,
          0.16867250204086304,
          0.09671814739704132,
          0.023252427577972412,
          -0.46194833517074585,
          -0.2707168459892273,
          -0.016661085188388824,
          0.12455475330352783,
          0.030224546790122986,
          -0.37827593088150024,
          0.42431899905204773,
          0.03651398420333862,
          0.12720893323421478,
          0.06842799484729767,
          -0.05717315524816513,
          0.302096426486969,
          -0.33189868927001953,
          -0.09222535043954849,
          0.13789065182209015,
          -0.060210078954696655,
          -0.011029637418687344,
          -0.15800440311431885,
          -0.3754093647003174,
          -0.2782818675041199,
          -0.1763232946395874,
          -0.15788178145885468,
          0.10044418275356293,
          -0.12952014803886414,
          0.005026926752179861,
          -0.07184319943189621,
          0.0820518508553505,
          -0.3069424629211426,
          -0.05249051749706268,
          -0.10467517375946045,
          -0.019077669829130173,
          0.03630772605538368,
          0.1978776752948761,
          0.31842344999313354,
          -0.10884129256010056
        ],
        [
          -0.0967864990234375,
          -0.15301181375980377,
          0.05700448155403137,
          -0.012890792451798916,
          0.010235260240733624,
          0.33637535572052,
          0.28543856739997864,
          0.3026503026485443,
          -0.19453474879264832,
          -0.03552277758717537,
          0.14421671628952026,
          0.0752139687538147,
          0.029520150274038315,
          -0.15155526995658875,
          0.0639086589217186,
          -0.21996404230594635,
          -0.03799193724989891,
          -0.09304085373878479,
          -0.2072448432445526,
          0.21111711859703064,
          -0.03320521488785744,
          0.2713799774646759,
          0.0293525792658329,
          -0.014511254616081715,
          -0.07821840792894363,
          -0.14680583775043488,
          -0.01533210463821888,
          0.22786717116832733,
          -0.15537022054195404,
          0.21629804372787476,
          -0.1049974337220192,
          -0.23143236339092255,
          -0.14692886173725128,
          0.35963064432144165,
          -0.24140195548534393,
          0.2347659021615982,
          -0.3771108090877533,
          0.14366936683654785,
          0.04004662483930588,
          -0.02130085602402687,
          0.0605960413813591,
          0.24057124555110931,
          0.29328790307044983,
          -0.031622450798749924,
          -0.04641374200582504,
          -0.25381582975387573,
          0.03699789568781853,
          -0.31134986877441406,
          -0.20664387941360474,
          -0.18926861882209778,
          -0.16762489080429077,
          0.192125603556633,
          -0.14613892138004303,
          0.07242473214864731,
          0.023590926080942154,
          -0.3154505789279938,
          0.032235145568847656,
          0.2641632854938507,
          -0.12155838310718536,
          0.12729012966156006,
          -0.2749864459037781,
          0.22637270390987396,
          -0.1950964331626892,
          0.07249122112989426
        ],
        [
          -0.17295058071613312,
          -0.29100051522254944,
          0.06418844312429428,
          0.2924278676509857,
          0.10587191581726074,
          0.05238783359527588,
          -0.2548443078994751,
          -0.20116521418094635,
          -0.07683791220188141,
          -0.24887514114379883,
          -0.3196181356906891,
          0.25763052701950073,
          -0.14527428150177002,
          0.19220653176307678,
          0.2883882224559784,
          -0.2374129295349121,
          0.046677105128765106,
          -0.25007957220077515,
          0.09553247690200806,
          0.1009279415011406,
          0.2197289764881134,
          0.16523510217666626,
          -0.2004586011171341,
          -0.1403280794620514,
          0.07708553224802017,
          0.17943458259105682,
          -0.2787526249885559,
          -0.037639319896698,
          0.15559083223342896,
          0.11023708432912827,
          -0.17555013298988342,
          -0.11804220825433731,
          -0.06296566128730774,
          -0.18362300097942352,
          0.106406070291996,
          0.03002414107322693,
          0.15362820029258728,
          0.18049483001232147,
          0.15379512310028076,
          0.03573291748762131,
          -0.1299971640110016,
          -0.24697120487689972,
          0.06921934336423874,
          0.022155726328492165,
          0.2463117092847824,
          -0.18087238073349,
          -0.08710091561079025,
          0.22048839926719666,
          -0.10973189771175385,
          -0.3524235188961029,
          -0.12160312384366989,
          0.21621495485305786,
          0.057714514434337616,
          0.08002211898565292,
          0.0435880571603775,
          -0.28413763642311096,
          0.06623471528291702,
          0.04656185954809189,
          -0.030109472572803497,
          0.08938664942979813,
          0.06391876935958862,
          0.10372743010520935,
          0.19825182855129242,
          0.03587055951356888
        ],
        [
          0.040550969541072845,
          0.05960909649729729,
          -0.21287211775779724,
          -0.3335360884666443,
          0.06225638464093208,
          0.32274433970451355,
          -0.11841931939125061,
          -0.04436987638473511,
          -0.1597759872674942,
          -0.2462625950574875,
          -0.2051871418952942,
          -0.05352511256933212,
          0.029849674552679062,
          -0.13280530273914337,
          0.293659508228302,
          -0.21477225422859192,
          0.047098301351070404,
          -0.2854933738708496,
          0.1589527279138565,
          0.01487062033265829,
          -0.08198417723178864,
          0.08156228810548782,
          0.04598156362771988,
          -0.08785296976566315,
          0.08213983476161957,
          -0.27791592478752136,
          0.12444615364074707,
          0.2582141160964966,
          0.008894851431250572,
          -0.054188117384910583,
          0.17174667119979858,
          -0.1284785121679306,
          0.022063713520765305,
          -0.08820691704750061,
          -0.18463154137134552,
          0.01514215487986803,
          -0.24895110726356506,
          -0.11070910096168518,
          -0.2510291039943695,
          0.4853225648403168,
          0.21960338950157166,
          -0.02387595921754837,
          0.04556472226977348,
          -0.20502987504005432,
          0.11102303862571716,
          0.21396687626838684,
          -0.2904300093650818,
          0.032086387276649475,
          0.0920773446559906,
          0.08199084550142288,
          0.3339812159538269,
          -0.06566587835550308,
          0.19024983048439026,
          0.10160011053085327,
          -0.005381820257753134,
          0.0718332901597023,
          -0.3884066641330719,
          -0.26456061005592346,
          0.012017943896353245,
          0.07892763614654541,
          -0.017340848222374916,
          0.026831554248929024,
          -0.07341144233942032,
          -0.015344720333814621
        ],
        [
          0.10447245836257935,
          -0.09249444305896759,
          0.16283804178237915,
          -0.1358562558889389,
          0.1431223750114441,
          0.2726205885410309,
          -0.10619546473026276,
          0.13919782638549805,
          -0.0926874428987503,
          -0.07831691205501556,
          -0.20323340594768524,
          -0.1355476677417755,
          0.163716658949852,
          0.3524337410926819,
          0.28801098465919495,
          -0.12234118580818176,
          -0.2323128581047058,
          0.07252523303031921,
          -0.08972019702196121,
          -0.31699907779693604,
          0.03001861833035946,
          -0.09314160794019699,
          -0.32906022667884827,
          0.2866615056991577,
          -0.141384094953537,
          0.21420156955718994,
          -0.045977115631103516,
          0.09200060367584229,
          0.0867166742682457,
          -0.15675880014896393,
          0.11995398253202438,
          0.17796240746974945,
          -0.11884091049432755,
          0.05079390108585358,
          0.29988184571266174,
          0.2554151713848114,
          -0.08104485273361206,
          -0.13072873651981354,
          0.13745097815990448,
          0.07052315026521683,
          0.08633200824260712,
          0.12809917330741882,
          0.11481983214616776,
          -0.04090697318315506,
          -0.031843218952417374,
          -0.2839042544364929,
          0.2593803107738495,
          -0.08785148710012436,
          0.24478265643119812,
          0.05348275974392891,
          0.057494159787893295,
          -0.33609387278556824,
          0.2697678506374359,
          -0.13118602335453033,
          0.015333314426243305,
          0.2359699308872223,
          0.16682517528533936,
          0.3046099543571472,
          -0.15724483132362366,
          0.2123585194349289,
          0.04668324068188667,
          0.017930220812559128,
          -0.09200762957334518,
          -0.15260405838489532
        ],
        [
          -0.13899405300617218,
          0.13923460245132446,
          -0.2555598020553589,
          0.15592996776103973,
          -0.37148889899253845,
          -0.000692734494805336,
          -0.015311233699321747,
          -0.11719100922346115,
          -0.1745598465204239,
          0.30136632919311523,
          -0.14748015999794006,
          -0.4102911353111267,
          -0.16047939658164978,
          -0.14071856439113617,
          0.17443005740642548,
          -0.10481586307287216,
          -0.046535834670066833,
          0.06973402947187424,
          -0.3977966606616974,
          -0.18105560541152954,
          -0.04599107801914215,
          0.048844244331121445,
          -0.4021358788013458,
          0.15816466510295868,
          -0.049103327095508575,
          0.12586335837841034,
          0.4127430319786072,
          0.06918265670537949,
          -0.04355861619114876,
          0.22024278342723846,
          -0.06863927096128464,
          -0.26294422149658203,
          0.12040960043668747,
          -0.36080029606819153,
          -0.18430985510349274,
          0.038285572081804276,
          0.07268550246953964,
          0.1728828251361847,
          0.0006755281356163323,
          -0.04224961996078491,
          -0.11598660796880722,
          -0.057122308760881424,
          0.0029579356778413057,
          0.18999671936035156,
          0.1122846007347107,
          -0.09014047682285309,
          -0.08712466061115265,
          -0.15523353219032288,
          -0.07913682609796524,
          -0.18339498341083527,
          0.10671211779117584,
          -0.07973586022853851,
          0.06645933538675308,
          -0.002061388920992613,
          0.28352344036102295,
          0.009997517801821232,
          0.040653523057699203,
          -0.08387762308120728,
          -0.03786765784025192,
          -0.1118222028017044,
          0.0684475526213646,
          -0.3096564710140228,
          -0.16225890815258026,
          -0.005089775659143925
        ],
        [
          -0.03370057791471481,
          0.23628628253936768,
          0.22964443266391754,
          0.3329612910747528,
          0.07959975302219391,
          0.29642027616500854,
          0.007163295056670904,
          0.15495158731937408,
          -0.1614660918712616,
          0.162873312830925,
          -0.12035809457302094,
          0.23939178884029388,
          -0.26299938559532166,
          0.1744311898946762,
          0.037403654307127,
          0.08195725828409195,
          0.3207153379917145,
          0.2010839581489563,
          0.05992196500301361,
          0.3884943425655365,
          0.19126316905021667,
          -0.02565932832658291,
          -0.1899596005678177,
          -0.155398890376091,
          -0.060639336705207825,
          -0.039461299777030945,
          0.03966732695698738,
          0.13097910583019257,
          0.022112440317869186,
          0.06781909614801407,
          0.06263547390699387,
          -0.2087365686893463,
          -0.061058759689331055,
          0.08895064145326614,
          0.01006814930588007,
          0.07425776869058609,
          -0.22064520418643951,
          0.11161892861127853,
          -0.05296586826443672,
          -0.059393469244241714,
          -0.17267122864723206,
          -0.12744133174419403,
          -0.021715238690376282,
          0.15111377835273743,
          -0.006932317744940519,
          0.19598770141601562,
          0.03138488903641701,
          -0.09501329064369202,
          0.17196311056613922,
          0.15509046614170074,
          -0.23748993873596191,
          -0.4408816695213318,
          -0.268967866897583,
          -0.09034129232168198,
          0.1072852686047554,
          0.39701318740844727,
          -0.11916231364011765,
          -0.23914176225662231,
          0.05609515681862831,
          -0.02815033122897148,
          0.16464073956012726,
          0.19976605474948883,
          -0.10314708203077316,
          -0.18016862869262695
        ],
        [
          0.14231590926647186,
          -0.022937489673495293,
          -0.11335133016109467,
          0.08612266927957535,
          -0.2001546025276184,
          0.25088784098625183,
          -0.07989230006933212,
          -0.11588075757026672,
          -0.06398750096559525,
          0.025417566299438477,
          0.2572488486766815,
          0.022920962423086166,
          -0.12448585778474808,
          -0.21213960647583008,
          0.28060853481292725,
          -0.17729255557060242,
          -0.2738838493824005,
          0.3186270296573639,
          0.3240577280521393,
          0.10117707401514053,
          -0.29284679889678955,
          -0.44103243947029114,
          -0.12055102735757828,
          0.016625992953777313,
          -0.025462713092565536,
          -0.1510026752948761,
          -0.14999355375766754,
          -0.17622549831867218,
          -0.10562574118375778,
          -0.23774310946464539,
          -0.22739604115486145,
          0.14669880270957947,
          0.10894668847322464,
          -0.15895551443099976,
          -0.07123102992773056,
          -0.08386681973934174,
          -0.3610268235206604,
          0.01567416451871395,
          0.2292606383562088,
          0.1584092378616333,
          -0.10472055524587631,
          -0.23149511218070984,
          0.23497280478477478,
          0.19146327674388885,
          -0.17871978878974915,
          -0.0510081984102726,
          -0.17901888489723206,
          -0.06110764667391777,
          0.32303306460380554,
          -0.22123554348945618,
          -0.14916110038757324,
          0.1927480399608612,
          -0.3125041425228119,
          -0.0016904376680031419,
          -0.28972452878952026,
          -0.05156693607568741,
          0.14007937908172607,
          0.1349286139011383,
          -0.16919578611850739,
          -0.07340981811285019,
          -0.025887636467814445,
          -0.10389251261949539,
          -0.05692543834447861,
          -0.16942201554775238
        ],
        [
          0.025698021054267883,
          -0.43775540590286255,
          0.042831119149923325,
          0.1746661365032196,
          -0.05122359097003937,
          0.04960097372531891,
          0.10869894176721573,
          -0.11037452518939972,
          0.10889218747615814,
          -0.005675296299159527,
          0.2828737795352936,
          -0.10620835423469543,
          0.06716976314783096,
          0.13307206332683563,
          -0.06498178094625473,
          -0.180571511387825,
          0.03192144259810448,
          0.06311295926570892,
          -0.16344709694385529,
          -0.22987262904644012,
          0.12306595593690872,
          -0.3229728043079376,
          0.1750858873128891,
          -0.020045919343829155,
          0.06467625498771667,
          0.11534392088651657,
          -0.33895426988601685,
          0.12630535662174225,
          0.13231413066387177,
          0.14868539571762085,
          -0.3514530062675476,
          -0.06679554283618927,
          0.04886902868747711,
          -0.06278398633003235,
          -0.12412688881158829,
          0.23838531970977783,
          0.02152351662516594,
          0.3786703646183014,
          -0.22434930503368378,
          -0.03723195940256119,
          0.11739752441644669,
          0.07266809046268463,
          0.06728275120258331,
          -0.0782366394996643,
          -0.1577138900756836,
          0.23144911229610443,
          -0.264517217874527,
          -0.06684044003486633,
          -0.21319088339805603,
          0.20807954668998718,
          -0.0007329618674702942,
          -0.2297852635383606,
          0.09960715472698212,
          -0.0030650871340185404,
          -0.27166491746902466,
          -0.10434867441654205,
          0.012677531689405441,
          -0.3059717118740082,
          -0.3783441483974457,
          0.2371758669614792,
          0.1191498413681984,
          -0.02323010377585888,
          -0.28674066066741943,
          -0.24682170152664185
        ],
        [
          -0.15802915394306183,
          0.2864042818546295,
          -0.08609547466039658,
          -0.18303033709526062,
          0.002134207636117935,
          -0.07860316336154938,
          -0.03174588084220886,
          -0.25987765192985535,
          0.07528593391180038,
          -0.27670687437057495,
          0.0344623364508152,
          0.04157111793756485,
          -0.45257073640823364,
          -0.04373915120959282,
          -0.29485949873924255,
          -0.06178182736039162,
          0.1252565234899521,
          0.03574946150183678,
          -0.19419348239898682,
          -0.004879586398601532,
          -0.13519862294197083,
          -0.18778763711452484,
          0.12141161412000656,
          0.12412067502737045,
          0.02498636022210121,
          0.13766495883464813,
          0.05048505961894989,
          -0.09485442191362381,
          0.37266427278518677,
          0.1956806629896164,
          -0.10155483335256577,
          0.07258214801549911,
          -0.019055044278502464,
          -0.15214815735816956,
          0.11702917516231537,
          0.4312857389450073,
          -0.2111148089170456,
          -0.1386139690876007,
          0.052364107221364975,
          0.31354692578315735,
          -0.017628919333219528,
          0.07141536474227905,
          -0.0019107353873550892,
          -0.03819917514920235,
          0.03929954022169113,
          -0.1746215522289276,
          -0.030850032344460487,
          -0.33574777841567993,
          0.11768259853124619,
          0.3707318902015686,
          -0.33710548281669617,
          0.13376417756080627,
          0.07385681569576263,
          -0.05887139216065407,
          0.2017998844385147,
          -0.2149156928062439,
          -0.0333288349211216,
          0.035335320979356766,
          0.04322633519768715,
          -0.09423279762268066,
          0.0748976320028305,
          0.20423871278762817,
          0.19920779764652252,
          -0.11418726295232773
        ],
        [
          -0.21179772913455963,
          0.21250732243061066,
          0.2989998459815979,
          0.05883895978331566,
          0.18908289074897766,
          -0.03398757427930832,
          0.004904500208795071,
          0.06673800200223923,
          -0.17846249043941498,
          -0.0649046003818512,
          0.0009624462691135705,
          0.05004483088850975,
          -0.18390490114688873,
          -0.09836560487747192,
          -0.00431356905028224,
          -0.20560400187969208,
          -0.2767643630504608,
          -0.21790820360183716,
          0.07058756798505783,
          -0.15515638887882233,
          -0.22930708527565002,
          -0.3688018321990967,
          -0.06232566013932228,
          -0.3805147409439087,
          -0.08271912485361099,
          0.16816967725753784,
          0.38306719064712524,
          0.11003641039133072,
          0.05427338927984238,
          0.017370983958244324,
          0.23408356308937073,
          -0.029600590467453003,
          0.045605141669511795,
          0.04427608102560043,
          0.2473558634519577,
          -0.2414417564868927,
          0.047767698764801025,
          0.2694058120250702,
          0.033720944076776505,
          -0.033543456345796585,
          0.1708391010761261,
          0.09968382120132446,
          -0.0026033720932900906,
          -0.10953360795974731,
          -0.05898312106728554,
          0.07016392052173615,
          -0.22558142244815826,
          -0.2601686120033264,
          -0.35291755199432373,
          0.0021043478045612574,
          0.08136896044015884,
          0.22035595774650574,
          -0.21546971797943115,
          -0.1105707511305809,
          -0.23749259114265442,
          0.1073160469532013,
          0.1690884828567505,
          0.11421868205070496,
          0.16318103671073914,
          0.2985343635082245,
          0.3048396110534668,
          0.010735860094428062,
          -0.013852614909410477,
          -0.06081419810652733
        ],
        [
          -0.06797946989536285,
          -0.09179587662220001,
          -0.22505630552768707,
          0.20007678866386414,
          0.13558180630207062,
          0.07471594959497452,
          -0.19324079155921936,
          -0.054228562861680984,
          -0.09784434735774994,
          -0.040043026208877563,
          0.23824988305568695,
          0.09945914894342422,
          -0.20201876759529114,
          0.2768988013267517,
          0.06686452031135559,
          0.0019539298955351114,
          0.13119037449359894,
          -0.2009613811969757,
          -0.25312167406082153,
          0.04818768426775932,
          0.027431970462203026,
          0.1470995992422104,
          -0.114728644490242,
          0.28396719694137573,
          0.1980694979429245,
          0.055892325937747955,
          -0.05659850686788559,
          0.0038334522396326065,
          -0.2565082907676697,
          -0.13856586813926697,
          -0.17645056545734406,
          0.10256350785493851,
          -0.040090933442115784,
          -0.11242133378982544,
          0.09578096121549606,
          -0.1606610119342804,
          0.1211652010679245,
          -0.3018449544906616,
          0.26654040813446045,
          0.10551101714372635,
          0.21729053556919098,
          0.23248295485973358,
          0.1925210803747177,
          -0.36464375257492065,
          -0.4192676246166229,
          0.2052592784166336,
          0.2288322150707245,
          -0.30345866084098816,
          -0.030312195420265198,
          -0.05830350145697594,
          0.3083823323249817,
          0.16466379165649414,
          -0.4524673521518707,
          0.06944772601127625,
          0.05777670815587044,
          0.0374039001762867,
          -0.16238732635974884,
          -0.21532687544822693,
          -0.017118407413363457,
          -0.07158510386943817,
          0.14694909751415253,
          -0.2938610017299652,
          0.13717694580554962,
          -0.1774522066116333
        ],
        [
          0.0456860214471817,
          -0.5782562494277954,
          0.27007657289505005,
          -0.272962749004364,
          -0.17903922498226166,
          -0.24877306818962097,
          -0.028576985001564026,
          0.04978051409125328,
          -0.19983844459056854,
          0.3695339262485504,
          0.024167053401470184,
          0.281406044960022,
          -0.038048870861530304,
          -0.22902533411979675,
          0.054980844259262085,
          -0.12276407331228256,
          0.2151535451412201,
          0.18665410578250885,
          -0.08491816371679306,
          0.10349900275468826,
          0.11771334707736969,
          0.10708869248628616,
          -0.13029879331588745,
          -0.035248443484306335,
          -0.06052412465214729,
          -0.09227041900157928,
          0.12594647705554962,
          -0.23595033586025238,
          0.08928518742322922,
          -0.0890488475561142,
          0.01619560271501541,
          -0.3160462975502014,
          -0.325778067111969,
          -0.00806979089975357,
          0.23194916546344757,
          0.049619343131780624,
          -0.459570974111557,
          -0.006869459059089422,
          -0.06114617735147476,
          -0.02461378090083599,
          0.12784519791603088,
          -0.18574540317058563,
          -0.3391016125679016,
          -0.12478552758693695,
          -0.30568230152130127,
          0.024501372128725052,
          -0.22476106882095337,
          -0.08363066613674164,
          0.008339688181877136,
          0.27957040071487427,
          0.16003704071044922,
          0.03818949684500694,
          0.2357303351163864,
          0.16125993430614471,
          0.14309652149677277,
          -0.14792077243328094,
          0.1541605293750763,
          0.030189281329512596,
          -0.08872668445110321,
          0.2290765941143036,
          0.21690553426742554,
          -0.012598886154592037,
          0.1937832087278366,
          0.2766653597354889
        ],
        [
          0.05218031257390976,
          -0.23325785994529724,
          0.2012266367673874,
          0.17997312545776367,
          -0.196607768535614,
          -0.18182477355003357,
          -0.021829400211572647,
          -0.15348103642463684,
          -0.1776830404996872,
          0.07499214261770248,
          0.29132819175720215,
          0.23034772276878357,
          0.25644513964653015,
          0.19329935312271118,
          0.2615821659564972,
          -0.044236261397600174,
          0.17566120624542236,
          -0.0028245546855032444,
          -0.3035300374031067,
          -0.10445743054151535,
          0.0856427326798439,
          -0.11679549515247345,
          0.3446009159088135,
          -0.1795264035463333,
          -0.03710533678531647,
          -0.29679664969444275,
          0.15754149854183197,
          0.36135390400886536,
          0.2329629361629486,
          0.09358672797679901,
          0.2689174711704254,
          0.2958049774169922,
          -0.3059428930282593,
          0.006835044361650944,
          0.16201794147491455,
          0.05874023213982582,
          -0.14155784249305725,
          0.07698246091604233,
          -0.09940779209136963,
          0.31280744075775146,
          -0.41446954011917114,
          -0.1314152181148529,
          0.01051194779574871,
          0.1490747630596161,
          -0.15965895354747772,
          0.26659396290779114,
          -0.18986059725284576,
          -0.24525174498558044,
          -0.14902456104755402,
          -0.17982317507266998,
          -0.03451155126094818,
          -0.15087071061134338,
          0.29516124725341797,
          0.25300687551498413,
          0.04315197467803955,
          -0.16198350489139557,
          -0.1155434399843216,
          0.37566372752189636,
          0.19414974749088287,
          -0.13125064969062805,
          -0.14263024926185608,
          -0.14877121150493622,
          0.12940756976604462,
          -0.05153072252869606
        ],
        [
          -0.1876204013824463,
          -0.023099830374121666,
          -0.12470066547393799,
          -0.34461918473243713,
          -0.021275609731674194,
          0.22194424271583557,
          -0.20905335247516632,
          0.024060392752289772,
          0.06446466594934464,
          -0.017168575897812843,
          0.026051118969917297,
          0.1401674896478653,
          -0.08851424604654312,
          0.31310224533081055,
          -0.11581157892942429,
          -0.14804372191429138,
          -0.17391547560691833,
          0.0494600310921669,
          0.14131814241409302,
          0.016262982040643692,
          0.14782452583312988,
          0.0543261282145977,
          -0.09652082622051239,
          0.0014210983645170927,
          -0.17530466616153717,
          -0.21587367355823517,
          0.00874680932611227,
          -0.021712245419621468,
          0.020720485597848892,
          0.2426949143409729,
          0.23877649009227753,
          0.2719986140727997,
          0.04447314143180847,
          0.18570397794246674,
          -0.4704405963420868,
          -0.07311610877513885,
          0.04360836744308472,
          0.3259050250053406,
          0.09007815271615982,
          -0.19600024819374084,
          0.126761332154274,
          0.016573196277022362,
          -0.003415682353079319,
          0.03442216292023659,
          -0.29877305030822754,
          -0.008594509214162827,
          -0.15121802687644958,
          0.23604479432106018,
          0.05880073085427284,
          0.17841215431690216,
          -0.05147938057780266,
          -0.05239591747522354,
          0.06479494273662567,
          -0.1038239449262619,
          0.2810917794704437,
          -0.24586886167526245,
          0.15538662672042847,
          -0.00976423267275095,
          0.21260380744934082,
          -0.021380331367254257,
          0.12501996755599976,
          -0.4191531538963318,
          0.25543931126594543,
          -0.29983577132225037
        ],
        [
          -0.15646672248840332,
          0.01676504872739315,
          0.20198136568069458,
          -0.1723145842552185,
          -0.32445773482322693,
          -0.11066536605358124,
          0.22117921710014343,
          0.02929244190454483,
          0.16822870075702667,
          0.06721247732639313,
          -0.11175578832626343,
          -0.13015659153461456,
          -0.18877913057804108,
          0.01997397281229496,
          0.01834098808467388,
          0.11949165910482407,
          -0.30592435598373413,
          -0.23104983568191528,
          -0.2185494303703308,
          -0.10956637561321259,
          0.01626909337937832,
          0.13852129876613617,
          -0.09144635498523712,
          0.08623338490724564,
          0.17813660204410553,
          -0.08838890492916107,
          -0.38918614387512207,
          0.08439043909311295,
          0.5179330706596375,
          -0.3540470600128174,
          0.13614007830619812,
          -0.1406581550836563,
          0.169524684548378,
          0.08344533294439316,
          -0.06561437249183655,
          -0.11317717283964157,
          -0.0016902175266295671,
          -0.10459176450967789,
          -0.10159555822610855,
          -0.28341245651245117,
          -0.001952572027221322,
          -0.242432102560997,
          0.11649589240550995,
          -0.13895228505134583,
          -0.18649299442768097,
          0.025866936892271042,
          -0.2597845792770386,
          -0.09406591951847076,
          0.13670963048934937,
          -0.1234690323472023,
          0.08413848280906677,
          -0.033893994987010956,
          -0.19039134681224823,
          0.2734491229057312,
          0.07729464024305344,
          -0.00784009788185358,
          -0.03816232085227966,
          0.1443466991186142,
          0.21163074672222137,
          -0.06278251111507416,
          0.019588887691497803,
          0.27713489532470703,
          -0.12203095108270645,
          -0.2689521908760071
        ],
        [
          0.035838235169649124,
          -0.02309119515120983,
          0.28871673345565796,
          -0.06848368048667908,
          -0.052555281668901443,
          -0.0756884515285492,
          -0.10815499722957611,
          0.2953125834465027,
