{
  "model_info": {
    "architecture": "PPO Policy Network",
    "input_dim": 54,
    "hidden_dim": 64,
    "output_dim": 3,
    "activation": "tanh",
    "framework": "Stable Baselines3 \u2192 TF.js"
  },
  "weights": {
    "policy_layer1": {
      "kernel": [
        [
          -0.04384314641356468,
          -0.031161418184638023,
          0.06194652244448662,
          -0.0412604846060276,
          0.14867568016052246,
          0.095008485019207,
          0.08827884495258331,
          0.006518023554235697,
          0.04322678595781326,
          0.008037310093641281,
          0.042560406029224396,
          0.01810183748602867,
          0.1742098033428192,
          0.30619925260543823,
          -0.08598759025335312,
          0.05020781606435776,
          0.3403671979904175,
          -0.061103206127882004,
          0.4416353404521942,
          -0.24188019335269928,
          -0.0019628889858722687,
          -0.057055260986089706,
          0.09064436703920364,
          -0.061488937586545944,
          0.029070693999528885,
          0.23489056527614594,
          -0.3746836483478546,
          0.06716172397136688,
          -0.10055258125066757,
          -0.10846510529518127,
          -0.1477918028831482,
          0.0009528117952868342,
          0.185511514544487,
          0.14931583404541016,
          0.32890093326568604,
          -0.17652025818824768,
          -0.10728557407855988,
          0.0850226953625679,
          0.11642640084028244,
          -0.5299080014228821,
          -0.1563558727502823,
          0.2906446158885956,
          -0.047919902950525284,
          0.18910683691501617,
          0.07109468430280685,
          0.056269943714141846,
          -0.15291675925254822,
          -0.14219459891319275,
          -0.14176279306411743,
          0.14530698955059052,
          0.08309273421764374,
          0.2695543169975281,
          -0.12015839666128159,
          -0.11723068356513977,
          0.2439853996038437,
          0.036697905510663986,
          0.10079559683799744,
          0.18004758656024933,
          -0.044722605496644974,
          -0.12980154156684875,
          -0.09671173989772797,
          0.301104873418808,
          0.32548758387565613,
          -0.11319198459386826
        ],
        [
          -0.18890711665153503,
          0.1867736428976059,
          0.21180668473243713,
          0.14879614114761353,
          0.001371701480820775,
          0.24482938647270203,
          -0.05742429941892624,
          -0.1009548231959343,
          0.08338165283203125,
          -0.04244628921151161,
          0.00488470820710063,
          0.5067760348320007,
          -0.11471109837293625,
          0.028429225087165833,
          -0.19113583862781525,
          0.03291584923863411,
          -0.007178167812526226,
          0.14760498702526093,
          0.0070687769912183285,
          -0.03611716628074646,
          -0.008478064090013504,
          -0.08673840761184692,
          -0.14285728335380554,
          -0.05893266201019287,
          -0.16846340894699097,
          -0.3190530240535736,
          0.014111703261733055,
          0.10087323188781738,
          0.10286688059568405,
          0.01707274094223976,
          -0.25616294145584106,
          0.1609780490398407,
          -0.09526188671588898,
          0.3296706974506378,
          -0.04340529814362526,
          0.05733228102326393,
          0.06236856430768967,
          -0.24027536809444427,
          0.0875851958990097,
          -0.013945446349680424,
          -0.039848074316978455,
          -0.10044898092746735,
          -0.5190675258636475,
          -0.3394838869571686,
          0.2744957506656647,
          0.13724420964717865,
          -0.15144234895706177,
          0.30815818905830383,
          -0.1960504949092865,
          0.18109266459941864,
          0.16155296564102173,
          0.15581095218658447,
          -0.006607994902879,
          0.06950654089450836,
          -0.1270008534193039,
          -0.19307978451251984,
          -0.05720771849155426,
          -0.16824276745319366,
          0.1444682478904724,
          0.09419768303632736,
          0.2525482475757599,
          0.016535378992557526,
          0.13351421058177948,
          -0.02833489328622818
        ],
        [
          0.0692349523305893,
          -0.31238675117492676,
          -0.34836912155151367,
          0.08172239363193512,
          0.019835753366351128,
          0.15289849042892456,
          0.011560103856027126,
          -0.1680864840745926,
          -0.17238397896289825,
          0.2235652357339859,
          -0.08693527430295944,
          -0.29955101013183594,
          -0.13657358288764954,
          -0.27165916562080383,
          -0.19237931072711945,
          -0.27687346935272217,
          0.13130338490009308,
          0.19662460684776306,
          0.20235373079776764,
          -0.11645753681659698,
          0.060860950499773026,
          -0.4437963664531708,
          0.02902592346072197,
          -0.11080609261989594,
          0.3310510814189911,
          -0.018684687092900276,
          0.2097187638282776,
          -0.048112429678440094,
          -0.04266652464866638,
          0.06466364115476608,
          0.01919027976691723,
          0.11483721435070038,
          0.056330546736717224,
          -0.04695156589150429,
          0.06701632589101791,
          0.2154192328453064,
          -0.05298846587538719,
          0.07323309034109116,
          -0.11638334393501282,
          0.180937722325325,
          0.22730697691440582,
          0.11533159017562866,
          -0.3023070693016052,
          0.06202395260334015,
          -0.18168726563453674,
          -0.016990846022963524,
          -0.20826196670532227,
          -0.019849373027682304,
          0.035221610218286514,
          0.2804691791534424,
          0.23825284838676453,
          -0.13090869784355164,
          0.0320756621658802,
          0.28904813528060913,
          0.056523703038692474,
          0.14073964953422546,
          0.2311806082725525,
          0.08013159781694412,
          0.15220369398593903,
          0.12129510939121246,
          0.17404958605766296,
          -0.11068139970302582,
          0.009660167619585991,
          -0.2924072742462158
        ],
        [
          0.16288530826568604,
          0.04886488988995552,
          -0.13981181383132935,
          -0.30523714423179626,
          0.06850138306617737,
          -0.3789645731449127,
          0.029424646869301796,
          0.02757098525762558,
          -0.49418899416923523,
          0.2706204354763031,
          -0.09848220646381378,
          0.07563665509223938,
          0.033523254096508026,
          -0.17186902463436127,
          -0.07939762622117996,
          0.12809538841247559,
          -0.00046180281788110733,
          0.0658922865986824,
          -0.25383153557777405,
          0.1673339307308197,
          -0.0047667259350419044,
          0.07339047640562057,
          -0.006845284253358841,
          0.2758474349975586,
          0.16047075390815735,
          0.07327678054571152,
          -0.1821637898683548,
          -0.12986287474632263,
          -0.3215444087982178,
          0.07929471135139465,
          -0.3456651568412781,
          -0.02217588759958744,
          0.19833846390247345,
          0.20196880400180817,
          -0.20999477803707123,
          0.1899581402540207,
          -0.17231355607509613,
          0.04921907186508179,
          0.09248120337724686,
          -0.03946658596396446,
          -0.32267555594444275,
          -0.13267353177070618,
          -0.0038233771920204163,
          0.033650532364845276,
          0.03332573547959328,
          0.2938786745071411,
          0.19847562909126282,
          -0.10283615440130234,
          0.11215262860059738,
          0.03374464809894562,
          0.1843004673719406,
          0.017204144969582558,
          0.22251248359680176,
          0.03393000736832619,
          0.10598275810480118,
          -0.27784550189971924,
          -0.018754655495285988,
          0.05980582535266876,
          -0.10442643612623215,
          0.2885972559452057,
          0.10806126892566681,
          0.0376911498606205,
          0.01354916114360094,
          -0.10811029374599457
        ],
        [
          0.23364326357841492,
          -0.012521500699222088,
          -0.22493842244148254,
          -0.2319202423095703,
          -0.45888179540634155,
          0.06274883449077606,
          -0.14250122010707855,
          -0.10695262253284454,
          -0.12486419081687927,
          0.46086612343788147,
          -0.4126942753791809,
          -0.20559443533420563,
          0.04488861560821533,
          -0.02728431299328804,
          -0.16627681255340576,
          -0.14966894686222076,
          0.10086403042078018,
          -0.1470046192407608,
          0.17439715564250946,
          0.2928801476955414,
          0.002853905549272895,
          -0.04669874534010887,
          0.18623554706573486,
          -0.008965122513473034,
          -0.015375745482742786,
          -0.420085072517395,
          -0.010814597830176353,
          0.08203080296516418,
          0.37735334038734436,
          -0.007476753555238247,
          0.3516191244125366,
          0.39398086071014404,
          0.22816631197929382,
          0.01656142622232437,
          -0.05149940028786659,
          -0.2901812791824341,
          0.02960406430065632,
          -0.024559536948800087,
          0.09026093035936356,
          0.11939319968223572,
          0.036708708852529526,
          -0.044690508395433426,
          0.1816369742155075,
          -0.03686584159731865,
          0.5626481771469116,
          0.27833762764930725,
          0.14155249297618866,
          0.07050164043903351,
          -0.16275282204151154,
          -0.1707790493965149,
          0.18358884751796722,
          0.1382291615009308,
          -0.2498731017112732,
          0.08722931891679764,
          0.042038626968860626,
          0.12121306359767914,
          -0.04189054295420647,
          -0.06360490620136261,
          0.0631599873304367,
          0.024726077914237976,
          -0.22379575669765472,
          -0.012445911765098572,
          -0.05858945846557617,
          -0.28146597743034363
        ],
        [
          0.21519441902637482,
          0.06935780495405197,
          -0.042159926146268845,
          -0.20914985239505768,
          -0.17458464205265045,
          0.2758323550224304,
          0.22127723693847656,
          -0.032227110117673874,
          -0.16200710833072662,
          -0.2659797966480255,
          0.11150332540273666,
          0.022737901657819748,
          0.302278071641922,
          0.009288739413022995,
          -0.28785625100135803,
          0.09696634858846664,
          -0.31480780243873596,
          0.13831503689289093,
          -0.10515733063220978,
          -0.14665429294109344,
          0.028788067400455475,
          0.26091548800468445,
          0.049278680235147476,
          -0.006746275816112757,
          0.11086934804916382,
          -0.36201778054237366,
          0.051241081207990646,
          -0.025652550160884857,
          -0.14645862579345703,
          -0.10148505866527557,
          -0.10352765768766403,
          -0.1906590312719345,
          0.2817050516605377,
          -0.05412738397717476,
          0.4486108720302582,
          0.3034633696079254,
          0.10843459516763687,
          0.18875661492347717,
          0.12209828943014145,
          -0.0637986809015274,
          0.05639093369245529,
          0.07586503773927689,
          -0.041608985513448715,
          -0.05730254203081131,
          -0.11958815902471542,
          -0.17897680401802063,
          0.22364003956317902,
          0.1257195770740509,
          -0.23075546324253082,
          -0.22180670499801636,
          0.330837607383728,
          0.05166858807206154,
          0.12712262570858002,
          0.1331055909395218,
          -0.06456098705530167,
          0.10330115258693695,
          -0.0788852646946907,
          -0.019775614142417908,
          0.09899264574050903,
          -0.24595999717712402,
          -0.2427937537431717,
          -0.1894722282886505,
          -0.027421806007623672,
          0.015552439726889133
        ],
        [
          0.004023804794996977,
          0.16862617433071136,
          0.10572098940610886,
          0.24099482595920563,
          0.2643970251083374,
          0.14066000282764435,
          0.2741207480430603,
          -0.08920825272798538,
          0.17483381927013397,
          0.1540823131799698,
          -0.03385833278298378,
          -0.18193002045154572,
          -0.05011507868766785,
          0.11100249737501144,
          0.22270913422107697,
          0.23250389099121094,
          -0.020014366135001183,
          -0.3046305775642395,
          0.3001362681388855,
          0.17811240255832672,
          0.19430094957351685,
          -0.10915835946798325,
          -0.05812516063451767,
          0.18934930860996246,
          -0.0986422449350357,
          -0.08082041144371033,
          -0.23995758593082428,
          -0.081828773021698,
          -0.07617416977882385,
          0.06681755930185318,
          0.027707457542419434,
          -0.16967105865478516,
          -0.03569941595196724,
          -0.0005457047373056412,
          -0.05428716912865639,
          0.015996593981981277,
          -0.26092562079429626,
          -0.13603979349136353,
          0.23095084726810455,
          -0.06021018698811531,
          0.3543849587440491,
          -0.10461413115262985,
          -0.20953106880187988,
          0.23057740926742554,
          0.15737949311733246,
          -0.01731068268418312,
          0.3521060347557068,
          0.11546194553375244,
          0.06936998665332794,
          -0.3826329708099365,
          0.018766537308692932,
          -0.16681703925132751,
          0.21568287909030914,
          0.4057614207267761,
          -0.05428578704595566,
          0.21296223998069763,
          -0.10958055406808853,
          0.10660839080810547,
          -0.03897614777088165,
          0.05819040909409523,
          0.14664719998836517,
          -0.13033249974250793,
          -0.03856129199266434,
          0.011051186360418797
        ],
        [
          -0.130945086479187,
          0.22009022533893585,
          0.0016798439901322126,
          -0.1618918478488922,
          -0.04071415588259697,
          -0.026393018662929535,
          -0.3063778579235077,
          0.06968285888433456,
          0.2654227614402771,
          -0.06623858213424683,
          0.14146967232227325,
          0.13933315873146057,
          -0.08096688240766525,
          -0.3024713695049286,
          0.24232794344425201,
          -0.19153763353824615,
          0.5048078298568726,
          0.16845445334911346,
          -0.17656396329402924,
          -0.015625564381480217,
          0.10683298856019974,
          0.03095225617289543,
          -0.13728755712509155,
          0.2530689835548401,
          0.38594290614128113,
          0.023977480828762054,
          -0.2632959485054016,
          0.12804606556892395,
          0.17307551205158234,
          -0.07998258620500565,
          0.1297769993543625,
          -0.24683718383312225,
          0.059858132153749466,
          0.13443028926849365,
          0.41951075196266174,
          0.033637214452028275,
          -0.13598045706748962,
          -0.018942663446068764,
          0.08853527903556824,
          -0.08762756735086441,
          0.18436382710933685,
          -0.25815948843955994,
          0.04104864224791527,
          -0.016241829842329025,
          -0.24417811632156372,
          0.11161108314990997,
          0.1474524587392807,
          0.2835392951965332,
          -0.08195017278194427,
          0.15742093324661255,
          -0.12618513405323029,
          -0.14108906686306,
          0.13220281898975372,
          -0.01941460371017456,
          0.16766631603240967,
          0.06072868034243584,
          -0.11315001547336578,
          -0.005948199890553951,
          0.13069051504135132,
          -0.1418733298778534,
          -0.08798284828662872,
          0.11410555243492126,
          -0.12307512015104294,
          -0.05936368927359581
        ],
        [
          -0.2717660069465637,
          -0.11851323395967484,
          0.3989785313606262,
          -0.054319754242897034,
          0.1237848624587059,
          -0.1517850160598755,
          -0.15692025423049927,
          0.11250496655702591,
          -0.07437752187252045,
          -0.09777390211820602,
          -0.07193677127361298,
          -0.36050644516944885,
          0.040148187428712845,
          -0.22329942882061005,
          -0.10628736019134521,
          -0.2013952136039734,
          -0.21280953288078308,
          0.08727258443832397,
          -0.08303020894527435,
          0.1819351613521576,
          0.014249683357775211,
          -0.22920754551887512,
          -0.11678825318813324,
          0.36269015073776245,
          -0.20625010132789612,
          -0.16187454760074615,
          -0.04297243431210518,
          -0.07495998591184616,
          0.090236134827137,
          0.21048693358898163,
          0.24057936668395996,
          -0.13327477872371674,
          0.10601891577243805,
          0.11136627942323685,
          0.30830466747283936,
          -0.1603681445121765,
          -0.11531258374452591,
          -0.018642984330654144,
          0.06372425705194473,
          0.050425026565790176,
          -0.02900433912873268,
          0.018850933760404587,
          -0.13592328131198883,
          -0.5023460388183594,
          0.024211551994085312,
          -0.01795095019042492,
          0.051101867109537125,
          -0.43149274587631226,
          0.14551115036010742,
          -0.07753343135118484,
          0.2787227928638458,
          0.07409390807151794,
          -0.08482182770967484,
          -0.027902858331799507,
          -0.06472301483154297,
          0.06659997999668121,
          -0.03168080374598503,
          0.3258570730686188,
          0.11424940079450607,
          -0.028592785820364952,
          -0.11532282829284668,
          0.08887259662151337,
          0.3825734853744507,
          0.27662402391433716
        ],
        [
          -0.36497390270233154,
          -0.09002277255058289,
          -0.038301657885313034,
          0.022810131311416626,
          0.0429651252925396,
          -0.41530269384384155,
          -0.22350913286209106,
          -0.10640385746955872,
          0.11417807638645172,
          -0.04623497277498245,
          0.15132662653923035,
          -0.15879574418067932,
          0.10971631854772568,
          0.256435751914978,
          0.1334298700094223,
          -0.04888705164194107,
          -0.015790192410349846,
          0.0829848200082779,
          0.051128048449754715,
          0.13952991366386414,
          0.0642779991030693,
          0.1750689446926117,
          0.27618274092674255,
          0.04557408392429352,
          0.028805384412407875,
          -0.12015915662050247,
          -0.026254311203956604,
          -0.0808887630701065,
          0.14959096908569336,
          0.1397201120853424,
          -0.21392026543617249,
          -0.2916153073310852,
          -0.012949901632964611,
          -0.1788025051355362,
          -0.13814423978328705,
          0.12146297097206116,
          0.023603811860084534,
          0.07391506433486938,
          0.33026552200317383,
          -0.12038927525281906,
          -0.17443497478961945,
          0.16038274765014648,
          -0.6241483688354492,
          0.029368724673986435,
          -0.10788163542747498,
          -0.20388242602348328,
          0.0748019814491272,
          0.262846440076828,
          0.26196205615997314,
          -0.16519151628017426,
          0.1698869913816452,
          0.1506267637014389,
          0.11502836644649506,
          -0.2115655094385147,
          0.33336254954338074,
          0.05684634670615196,
          -0.005761311389505863,
          -0.1322236806154251,
          0.1615574210882187,
          -0.11923164129257202,
          -0.0857110247015953,
          0.123573899269104,
          -0.1443500965833664,
          -0.026260511949658394
        ],
        [
          -0.03228382766246796,
          0.07544797658920288,
          0.10195871442556381,
          0.11750008165836334,
          0.17320765554904938,
          0.35164302587509155,
          -0.3089844584465027,
          0.19253724813461304,
          0.10362187772989273,
          -0.1250091940164566,
          0.11598941683769226,
          -0.16463162004947662,
          0.3229753375053406,
          -0.20571935176849365,
          0.14346107840538025,
          -0.016184650361537933,
          0.14795821905136108,
          0.08770747482776642,
          0.23498176038265228,
          0.3119986653327942,
          -0.03755851462483406,
          -0.33089780807495117,
          0.3166365325450897,
          0.09304117411375046,
          0.0009892676025629044,
          -0.0261169895529747,
          0.1510312259197235,
          0.05277048423886299,
          -0.345941960811615,
          -0.0020617113914340734,
          -0.25068199634552,
          -0.4112785756587982,
          0.18733134865760803,
          -0.055274780839681625,
          -0.13926449418067932,
          -0.10979175567626953,
          0.07323290407657623,
          0.056898362934589386,
          -0.1054476723074913,
          0.022666972130537033,
          -0.057648587971925735,
          0.14164689183235168,
          0.11197850108146667,
          -0.13872520625591278,
          0.27162641286849976,
          0.1927110105752945,
          0.020362189039587975,
          -0.007412844803184271,
          -0.1625753492116928,
          -0.034971684217453,
          0.033897288143634796,
          -0.054374534636735916,
          0.07795591652393341,
          -0.35035380721092224,
          -0.24478740990161896,
          -0.0018521348247304559,
          0.16115722060203552,
          -0.21489518880844116,
          -0.03005051426589489,
          0.13344238698482513,
          -0.13536880910396576,
          -0.17106609046459198,
          -0.25915205478668213,
          -0.15740680694580078
        ],
        [
          -0.06189266964793205,
          -0.03463704138994217,
          -0.10558538138866425,
          0.1914869099855423,
          0.0985342264175415,
          0.2726570963859558,
          0.22398993372917175,
          0.048194415867328644,
          0.1656181812286377,
          -0.16016817092895508,
          -0.03992064297199249,
          -0.11068900674581528,
          0.07759754359722137,
          -0.11644363403320312,
          -0.06055473908782005,
          0.041833966970443726,
          -0.2292739301919937,
          -0.059895921498537064,
          -0.11387921869754791,
          0.35646137595176697,
          0.1309082955121994,
          0.24537748098373413,
          -0.1795240342617035,
          0.01947215013206005,
          0.013905039988458157,
          0.3533390164375305,
          0.3623250126838684,
          -0.07282085716724396,
          -0.0025463965721428394,
          -0.009010804817080498,
          0.2274855524301529,
          0.0993630439043045,
          0.15994924306869507,
          -0.08023487776517868,
          0.03059813193976879,
          -0.16698402166366577,
          -0.17399127781391144,
          0.18694961071014404,
          -0.012079859152436256,
          -0.05207254737615585,
          -0.17213764786720276,
          0.038988757878541946,
          0.08094547688961029,
          -0.2260802537202835,
          0.06847193837165833,
          0.13623493909835815,
          0.07008318603038788,
          0.3197315037250519,
          -0.06380513310432434,
          0.1896996945142746,
          0.04039452224969864,
          0.2381523996591568,
          0.10169858485460281,
          -0.042752888053655624,
          0.39327776432037354,
          0.03950757160782814,
          0.18450039625167847,
          0.18059681355953217,
          0.0706828162074089,
          -0.21059070527553558,
          0.3760705590248108,
          0.3465810716152191,
          -0.3136604428291321,
          0.030489526689052582
        ],
        [
          0.010765043087303638,
          -0.1770462691783905,
          0.33820465207099915,
          -0.38492822647094727,
          -0.08732278645038605,
          -0.04408424720168114,
          -0.0419866144657135,
          -0.17644934356212616,
          0.4840092957019806,
          -0.03649010881781578,
          0.0571008175611496,
          0.022871555760502815,
          0.35249441862106323,
          -0.09156482666730881,
          0.0832420140504837,
          0.1851460039615631,
          -0.08629436790943146,
          0.35582831501960754,
          0.03945288807153702,
          -0.2234581857919693,
          0.06491058319807053,
          0.15964823961257935,
          0.04793538898229599,
          -0.05804070830345154,
          0.023690463975071907,
          0.23379671573638916,
          0.021591000258922577,
          -0.21486634016036987,
          -0.06486750394105911,
          0.08765509724617004,
          0.29694056510925293,
          0.0640728771686554,
          0.15175876021385193,
          -0.09551285207271576,
          -0.31531068682670593,
          -0.24651260673999786,
          -0.1075696274638176,
          -0.06964419782161713,
          0.038687385618686676,
          -0.03080134280025959,
          -0.0595843642950058,
          -0.19203001260757446,
          -0.23652930557727814,
          0.027078090235590935,
          -0.017627593129873276,
          0.07582888752222061,
          -0.034969232976436615,
          -0.16383282840251923,
          -0.06954626739025116,
          0.2955298125743866,
          0.17654730379581451,
          -0.01330521609634161,
          0.13920822739601135,
          0.38302022218704224,
          -0.014434712938964367,
          0.07702641934156418,
          -0.04667487367987633,
          -0.25868794322013855,
          -0.2753343880176544,
          0.03646567463874817,
          -0.14358018338680267,
          -0.0938032865524292,
          -0.013662803918123245,
          -0.09658531844615936
        ],
        [
          -0.23629462718963623,
          0.08690620213747025,
          0.1091560646891594,
          0.2945939898490906,
          -0.1498822420835495,
          -0.14109724760055542,
          0.09197507053613663,
          -0.14100122451782227,
          -0.1499900370836258,
          -0.07837609946727753,
          0.17381452023983002,
          0.18038102984428406,
          0.1256454586982727,
          0.27103227376937866,
          -0.16258415579795837,
          0.03607930615544319,
          -0.09445443004369736,
          0.21151050925254822,
          0.07063278555870056,
          -0.07060325145721436,
          0.32435306906700134,
          -0.3307364284992218,
          -0.1672874093055725,
          -0.29793235659599304,
          -0.07824143767356873,
          -0.04643559083342552,
          0.08614125847816467,
          -0.26827552914619446,
          -0.08003824949264526,
          -0.24233479797840118,
          0.015390437096357346,
          0.11998272687196732,
          -0.02545134909451008,
          -0.11110051721334457,
          0.03661048039793968,
          -0.017891714349389076,
          -0.586617648601532,
          0.19346719980239868,
          -0.2656369209289551,
          0.1237218976020813,
          0.06701318174600601,
          0.07528755813837051,
          0.02696629986166954,
          -0.041297707706689835,
          -0.12122794985771179,
          0.12062526494264603,
          0.461272269487381,
          -0.12484242022037506,
          -0.08579321950674057,
          0.3546869158744812,
          -0.09895153343677521,
          -0.21668113768100739,
          -0.11849875003099442,
          -0.32884666323661804,
          0.013325244188308716,
          -0.22869235277175903,
          -0.3710896968841553,
          0.10715128481388092,
          -0.040787164121866226,
          -0.27372005581855774,
          -0.07679412513971329,
          0.15143626928329468,
          -0.157980278134346,
          -0.32835203409194946
        ],
        [
          -0.23132124543190002,
          0.006156007759273052,
          -0.2705105245113373,
          -0.046224333345890045,
          0.14726418256759644,
          0.2896021902561188,
          -0.1518453061580658,
          -0.41483521461486816,
          0.22953727841377258,
          0.3158937394618988,
          0.17208781838417053,
          -0.03162198141217232,
          -0.0340619795024395,
          -0.020580938085913658,
          -0.0023207273334264755,
          0.12943719327449799,
          -0.0862920805811882,
          -0.3488902747631073,
          -0.33846935629844666,
          0.1770087033510208,
          -0.06760267913341522,
          0.005637674126774073,
          0.013977615162730217,
          -0.15532928705215454,
          0.12967337667942047,
          -0.09565930813550949,
          -0.12015634775161743,
          -0.16746412217617035,
          -0.16555503010749817,
          -0.020331943407654762,
          0.19828207790851593,
          0.011255813762545586,
          0.40381479263305664,
          0.22394588589668274,
          0.15760287642478943,
          0.3073044717311859,
          -0.06972651928663254,
          -0.02010149322450161,
          0.16298721730709076,
          0.22248166799545288,
          0.14519846439361572,
          0.07860883325338364,
          0.1863984614610672,
          0.05102085322141647,
          -0.01730603724718094,
          -0.20950165390968323,
          -0.22225245833396912,
          -0.2319502979516983,
          0.05297059193253517,
          0.14507059752941132,
          0.019594281911849976,
          0.17345930635929108,
          -0.3018570840358734,
          -0.08034403622150421,
          0.015140574425458908,
          -0.04551966115832329,
          -0.11522628366947174,
          -0.2510257065296173,
          -0.3152943253517151,
          0.06502270698547363,
          0.1184677705168724,
          0.002092301147058606,
          0.006749837659299374,
          0.1292913407087326
        ],
        [
          0.08334847539663315,
          0.09290675073862076,
          -0.21522070467472076,
          -0.023247472941875458,
          -0.14035195112228394,
          0.05445931479334831,
          0.3031577169895172,
          -0.0919925719499588,
          -0.14820504188537598,
          -0.16028162837028503,
          -0.3081611096858978,
          -0.2398681491613388,
          0.19774429500102997,
          0.0971764624118805,
          0.13604548573493958,
          0.011585297994315624,
          0.28595539927482605,
          -0.08363201469182968,
          -0.3013747036457062,
          -0.16470594704151154,
          0.29627278447151184,
          -0.1465102881193161,
          -0.05298827216029167,
          0.0385156124830246,
          0.11493762582540512,
          0.16838936507701874,
          -0.01827741041779518,
          0.11098157614469528,
          0.03376040607690811,
          0.06608273833990097,
          0.00779381301254034,
          -0.18808315694332123,
          0.027629004791378975,
          -0.14418882131576538,
          -0.20819436013698578,
          -0.07750646024942398,
          -0.06829112023115158,
          -0.6178025007247925,
          -0.06579848378896713,
          -0.07096376270055771,
          0.05863851308822632,
          0.06391270458698273,
          -0.1393093466758728,
          -0.18295903503894806,
          0.17351014912128448,
          -0.28962844610214233,
          0.03404533118009567,
          -0.0735851600766182,
          -0.0715685710310936,
          0.08496752381324768,
          0.12740430235862732,
          -0.04873622953891754,
          -0.30923572182655334,
          -0.13796782493591309,
          0.1571892946958542,
          -0.10995801538228989,
          -0.05008552968502045,
          -0.18182294070720673,
          0.20595791935920715,
          0.12281273305416107,
          -0.21107268333435059,
          -0.05472637712955475,
          -0.1620941460132599,
          0.3831274211406708
        ],
        [
          -0.26675865054130554,
          -0.31859397888183594,
          -0.08673849701881409,
          0.29901131987571716,
          -0.303105890750885,
          -0.1026497408747673,
          -0.05108113959431648,
          0.33360210061073303,
          -0.18880948424339294,
          0.23556633293628693,
          -0.06223612278699875,
          -0.11331617832183838,
          -0.1093851700425148,
          0.28186988830566406,
          0.11281464248895645,
          0.29642602801322937,
          0.05172005668282509,
          0.24481286108493805,
          -0.02521475777029991,
          0.07195829600095749,
          0.1272568702697754,
          -0.01849209889769554,
          -0.04731377959251404,
          0.17335139214992523,
          0.1304057091474533,
          -0.09142441302537918,
          -0.0674399584531784,
          -0.23840349912643433,
          -0.14430084824562073,
          -0.20389792323112488,
          0.03347817435860634,
          -0.07354049384593964,
          0.10977829247713089,
          -0.09156534820795059,
          0.18369433283805847,
          -0.25920379161834717,
          0.2825468182563782,
          0.18633386492729187,
          0.1553223878145218,
          -0.012901396490633488,
          -0.016484634950757027,
          -0.18173032999038696,
          0.058327894657850266,
          0.07859426736831665,
          0.11511582881212234,
          -0.014318682253360748,
          -0.3575419783592224,
          0.12650041282176971,
          -0.05588410049676895,
          0.10137217491865158,
          -0.00806163065135479,
          -0.17954546213150024,
          -0.23399955034255981,
          0.2489762157201767,
          -0.28632980585098267,
          -0.09729330241680145,
          -0.10642343759536743,
          -0.08303029090166092,
          -0.13165055215358734,
          -0.13626299798488617,
          0.016810478642582893,
          0.08250575512647629,
          -0.2533953785896301,
          0.20843395590782166
        ],
        [
          0.1601458489894867,
          -0.1629684716463089,
          0.1277528554201126,
          -0.07803400605916977,
          0.13469375669956207,
          -0.18132951855659485,
          0.05307113751769066,
          -0.25546377897262573,
          0.3013092577457428,
          0.25065165758132935,
          -0.023358074948191643,
          -0.19919362664222717,
          0.08061571419239044,
          -0.08347181230783463,
          -0.346455454826355,
          -0.0795338973402977,
          0.23496289551258087,
          0.048139091581106186,
          -0.013454598374664783,
          -0.021288126707077026,
          0.04765498638153076,
          0.06376643478870392,
          -0.25582244992256165,
          0.2079169601202011,
          -0.2241002470254898,
          0.16192446649074554,
          0.1606094390153885,
          0.16989590227603912,
          -0.21077857911586761,
          -0.0999409630894661,
          -0.2572173774242401,
          0.16741442680358887,
          0.08392652124166489,
          0.08686117827892303,
          -0.1055283322930336,
          0.15830090641975403,
          0.13944870233535767,
          0.1249796599149704,
          0.28296351432800293,
          0.2705431580543518,
          -0.018644126132130623,
          0.017334483563899994,
          -0.1758018583059311,
          0.2118883728981018,
          -0.024443622678518295,
          0.16105449199676514,
          0.041135936975479126,
          -0.09344934672117233,
          -0.3100070357322693,
          0.015278048813343048,
          -0.23439805209636688,
          -0.07476090639829636,
          -0.12273077666759491,
          -0.2185285985469818,
          -0.23344175517559052,
          0.20555363595485687,
          -0.20321987569332123,
          0.11276493221521378,
          0.3459329307079315,
          -0.2323843538761139,
          -0.045324910432100296,
          0.052733223885297775,
          -0.1712229698896408,
          0.29824504256248474
        ],
        [
          0.031940560787916183,
          0.13253821432590485,
          -0.3417808413505554,
          0.19025574624538422,
          -0.11449266970157623,
          -0.25523772835731506,
          -0.2737560272216797,
          0.223838672041893,
          0.3145817518234253,
          0.09437993913888931,
          -0.39941686391830444,
          -0.10283567756414413,
          0.1825772523880005,
          -0.22993521392345428,
          -0.22354206442832947,
          -0.13019315898418427,
          -0.21423570811748505,
          -0.10285922884941101,
          0.20947891473770142,
          -0.4696004092693329,
          0.052271462976932526,
          0.040271107107400894,
          -0.0064009991474449635,
          0.07128490507602692,
          0.14878647029399872,
          -0.26750311255455017,
          0.09136787801980972,
          0.21479424834251404,
          -0.49347642064094543,
          -0.005360299721360207,
          0.17504897713661194,
          0.00602163327857852,
          -0.01715710014104843,
          0.057965438812971115,
          -0.09874346852302551,
          -0.014163829386234283,
          -0.15707814693450928,
          -0.1818997710943222,
          0.08996232599020004,
          0.009584815241396427,
          -0.004012389574199915,
          0.2299102246761322,
          -0.12089349329471588,
          -0.26348093152046204,
          0.1450953334569931,
          0.23576049506664276,
          -0.07060958445072174,
          0.11582494527101517,
          0.3883880376815796,
          -0.3128730356693268,
          0.0504072830080986,
          -0.18341882526874542,
          0.18544764816761017,
          -0.0446678064763546,
          -0.014321484602987766,
          -0.3208269774913788,
          -0.0029751332476735115,
          -0.059022724628448486,
          -0.13671736419200897,
          -0.26982372999191284,
          -0.11977414041757584,
          0.10695403069257736,
          0.13976967334747314,
          0.24353358149528503
        ],
        [
          0.06080534681677818,
          0.32516220211982727,
          0.10710939764976501,
          0.03468037769198418,
          0.5707562565803528,
          -0.16830211877822876,
          -0.14503780007362366,
          0.06344982236623764,
          -0.18163152039051056,
          -0.061756931245326996,
          -0.35125723481178284,
          0.1330927312374115,
          -0.03915411978960037,
          0.026396967470645905,
          0.020293958485126495,
          0.17329145967960358,
          0.025151308625936508,
          0.3796882927417755,
          0.08777906745672226,
          -0.13336369395256042,
          -0.027675854042172432,
          0.20253171026706696,
          -0.10529738664627075,
          0.1508379578590393,
          0.1928269863128662,
          0.0032083119731396437,
          0.25719740986824036,
          0.012227948755025864,
          -0.015783196315169334,
          -0.05820648744702339,
          0.19059070944786072,
          0.06493867188692093,
          0.3801758885383606,
          0.16036419570446014,
          0.06642583757638931,
          -0.08517313748598099,
          0.00816388614475727,
          0.10801051557064056,
          -0.30185022950172424,
          0.1909501552581787,
          0.15807530283927917,
          0.07901710271835327,
          -0.09524025022983551,
          0.13935019075870514,
          0.17132675647735596,
          -0.23771601915359497,
          -0.14048951864242554,
          -0.13176286220550537,
          0.13764314353466034,
          -0.26904502511024475,
          -0.07630894333124161,
          0.14272677898406982,
          -0.27215248346328735,
          0.061844851821660995,
          0.17855699360370636,
          0.0906687006354332,
          -0.19982744753360748,
          -0.17413082718849182,
          0.2313901036977768,
          0.04751582816243172,
          0.06101565062999725,
          -0.08062972128391266,
          -0.0475754514336586,
          -0.18955707550048828
        ],
        [
          -0.16362214088439941,
          0.3032447397708893,
          -0.2360183447599411,
          0.10003219544887543,
          -0.056757185608148575,
          -0.08148624747991562,
          0.2144501507282257,
          -0.07685142010450363,
          0.18631868064403534,
          -0.18864639103412628,
          0.10348041355609894,
          -0.058665260672569275,
          -0.3102506995201111,
          -0.09008985012769699,
          -0.373391717672348,
          -0.2525482773780823,
          0.119212806224823,
          0.23069024085998535,
          0.16735002398490906,
          0.4382408857345581,
          0.06808608770370483,
          0.30182012915611267,
          0.04110941290855408,
          -0.29635363817214966,
          0.23391611874103546,
          -0.21864338219165802,
          -0.08341150730848312,
          -0.2648528218269348,
          -0.0661277025938034,
          0.25746774673461914,
          0.11606024205684662,
          -0.18198376893997192,
          -0.01766957901418209,
          0.21226312220096588,
          -0.20634686946868896,
          -0.18857833743095398,
          0.10341531783342361,
          -0.11206845194101334,
          -0.17000122368335724,
          -0.038450077176094055,
          -0.09367779642343521,
          0.10571696609258652,
          0.055380940437316895,
          0.2297033667564392,
          0.016771024093031883,
          0.05500347539782524,
          -0.18658651411533356,
          -0.23762403428554535,
          -0.26324331760406494,
          -0.10081972926855087,
          0.08315957337617874,
          -0.09994921833276749,
          0.09335647523403168,
          0.04941840469837189,
          -0.006165097467601299,
          -0.0359036922454834,
          -0.1721966564655304,
          0.19810128211975098,
          0.050573188811540604,
          0.18785914778709412,
          -0.19789153337478638,
          0.03152623400092125,
          -0.03688764199614525,
          0.13356222212314606
        ],
        [
          0.10924937576055527,
          0.2780505120754242,
          -0.2563304603099823,
          0.023877767845988274,
          -0.04807257279753685,
          -0.1364050805568695,
          -0.3636452257633209,
          -0.26059800386428833,
          -0.29559630155563354,
          -0.12647825479507446,
          0.07542887330055237,
          0.033088743686676025,
          0.22377455234527588,
          0.186122864484787,
          0.1558910310268402,
          0.11736831068992615,
          -0.1764291226863861,
          0.05357594043016434,
          0.0762104019522667,
          0.12392698228359222,
          -0.2669828236103058,
          -0.1357271820306778,
          0.3231598138809204,
          -0.20363503694534302,
          0.10105616599321365,
          0.16598807275295258,
          0.04178684204816818,
          0.32847872376441956,
          -0.025708723813295364,
          -0.1079082116484642,
          0.3281073272228241,
          -0.0817427933216095,
          -0.1543184220790863,
          0.12215772271156311,
          -0.0743926391005516,
          0.2351510375738144,
          0.22214370965957642,
          0.0873451828956604,
          0.055640969425439835,
          -0.037681251764297485,
          0.17251238226890564,
          -0.1695459932088852,
          -0.14126408100128174,
          -0.06558551639318466,
          0.1914551854133606,
          0.19714203476905823,
          0.03933665156364441,
          -0.17701536417007446,
          -0.01753944158554077,
          0.20292876660823822,
          -0.02569078467786312,
          0.05279003828763962,
          0.06849934160709381,
          0.16908667981624603,
          -0.035524431616067886,
          0.3820507228374481,
          -0.15314233303070068,
          0.21228285133838654,
          0.08775464445352554,
          0.07807658612728119,
          0.04585082456469536,
          0.16623394191265106,
          -0.017194580286741257,
          0.34311458468437195
        ],
        [
          -0.010750987567007542,
          0.14728926122188568,
          0.1438121199607849,
          -0.003359125228598714,
          -0.03631754219532013,
          -0.05203564092516899,
          0.08084576576948166,
          0.39454084634780884,
          0.18599936366081238,
          0.1713070124387741,
          0.09678791463375092,
          0.22325646877288818,
          -0.2874133586883545,
          0.012738489545881748,
          0.12558776140213013,
          0.08621340990066528,
          0.16707296669483185,
          0.014180113561451435,
          0.028544791042804718,
          -0.1469331681728363,
          0.18934045732021332,
          -0.20904721319675446,
          0.0221308171749115,
          -0.027936488389968872,
          0.0216691717505455,
          -0.08464854955673218,
          0.32149240374565125,
          -0.39710894227027893,
          -0.052194420248270035,
          0.06445764750242233,
          0.17201487720012665,
          0.2952602803707123,
          0.221110537648201,
          -0.10666695982217789,
          -0.02645304426550865,
          0.5361785888671875,
          0.37992095947265625,
          -0.07421880960464478,
          0.1471286118030548,
          -0.21021203696727753,
          0.08737452328205109,
          -0.02467067539691925,
          0.0392678901553154,
          -0.03753757104277611,
          0.212225079536438,
          0.06732800602912903,
          0.14688147604465485,
          -0.21915264427661896,
          0.10646908730268478,
          0.09799081832170486,
          0.07473283261060715,
          0.08089961111545563,
          0.15285508334636688,
          -0.2146378606557846,
          0.27323195338249207,
          0.1031404510140419,
          0.17383705079555511,
          0.1756243258714676,
          0.007943627424538136,
          0.023440388962626457,
          -0.19238805770874023,
          -0.14605769515037537,
          -0.10759329795837402,
          0.15674558281898499
        ],
        [
          0.06250990927219391,
          0.037769727408885956,
          -0.021429048851132393,
          -0.16215983033180237,
          0.05490543693304062,
          0.10061659663915634,
          -0.29225483536720276,
          0.32470187544822693,
          -0.06812657415866852,
          0.1119682714343071,
          -0.21001939475536346,
          -0.34471046924591064,
          -0.12814997136592865,
          -0.18021081387996674,
          -0.1985352486371994,
          0.21076136827468872,
          0.08431845158338547,
          0.3301706910133362,
          -0.2913632392883301,
          0.11482315510511398,
          -0.2861888110637665,
          0.09784608334302902,
          0.12387757003307343,
          0.0948721170425415,
          -0.05354290455579758,
          -0.11805625259876251,
          -0.0725138783454895,
          -0.0062317089177668095,
          -0.057952724397182465,
          -0.12877219915390015,
          0.34816351532936096,
          0.23135143518447876,
          0.003207285888493061,
          0.023233916610479355,
          -0.5028270483016968,
          0.2666069269180298,
          -0.11703039705753326,
          -0.04396693781018257,
          0.16573046147823334,
          -0.3575712740421295,
          0.26763343811035156,
          0.6140280365943909,
          -0.0957837849855423,
          -0.3224541246891022,
          -0.031054142862558365,
          -0.004438890144228935,
          0.13653577864170074,
          0.21863649785518646,
          -0.16582509875297546,
          -0.2590559124946594,
          -0.11084877699613571,
          -0.336647629737854,
          -0.3184763789176941,
          0.06259194761514664,
          -0.22623753547668457,
          -0.06695453077554703,
          0.03931695967912674,
          -0.04079733043909073,
          0.04469854012131691,
          0.1479075849056244,
          -0.14005394279956818,
          0.256867915391922,
          0.3065226376056671,
          -0.04204535856842995
        ],
        [
          -0.05471999570727348,
          -0.3876509666442871,
          0.03180944174528122,
          -0.20345313847064972,
          0.09117128700017929,
          -0.10213068872690201,
          0.23561054468154907,
          -0.12436950206756592,
          -0.09166157245635986,
          0.20105895400047302,
          -0.027792200446128845,
          0.12459781020879745,
          -0.27497178316116333,
          0.08508171886205673,
          0.04287521913647652,
          -0.14019687473773956,
          -0.13289357721805573,
          0.2318412959575653,
          0.11183693259954453,
          0.042057838290929794,
          0.10008643567562103,
          -0.11335252225399017,
          -0.051702193915843964,
          -0.23456302285194397,
          0.07611651718616486,
          -0.03729594498872757,
          0.1548798531293869,
          0.24292659759521484,
          -0.279264360666275,
          -0.28679120540618896,
          0.3072725832462311,
          -0.03279021382331848,
          0.03386852145195007,
          -0.0595003142952919,
          -0.07295705378055573,
          0.24795447289943695,
          -0.3056400418281555,
          -0.24137625098228455,
          -0.0870295837521553,
          -0.13147246837615967,
          0.03671744838356972,
          -0.44513440132141113,
          0.12861505150794983,
          -0.2476399540901184,
          -0.03744414076209068,
          0.10963831096887589,
          -0.2924260199069977,
          -0.022894447669386864,
          -0.4038993716239929,
          -0.5323264002799988,
          0.03873560577630997,
          0.03284190222620964,
          -0.16381321847438812,
          -0.13814881443977356,
          -0.040677979588508606,
          0.03939979895949364,
          0.21546825766563416,
          0.04907941818237305,
          -0.08772528171539307,
          0.03944286331534386,
          -0.08668544888496399,
          0.18950267136096954,
          -0.11211808770895004,
          -0.10172516852617264
        ],
        [
          -0.07233688235282898,
          -0.3242502212524414,
          -0.061524298042058945,
          -0.018819235265254974,
          -0.06958214193582535,
          -0.15781797468662262,
          0.2995312809944153,
          0.1883259266614914,
          0.17138594388961792,
          -0.046155549585819244,
          0.2536718249320984,
          0.07621528953313828,
          0.3215496242046356,
          -0.03715504705905914,
          -0.26023414731025696,
          -0.1959075927734375,
          -0.033506520092487335,
          0.06662031263113022,
          -0.01997349038720131,
          0.10621801018714905,
          -0.44515466690063477,
          -0.2394150048494339,
          0.24655909836292267,
          0.025935376062989235,
          -0.07080011814832687,
          0.28104233741760254,
          -0.10547325015068054,
          -0.22909605503082275,
          0.055255789309740067,
          -0.18593931198120117,
          0.2306184023618698,
          -0.08387267589569092,
          0.0235988050699234,
          0.2630486488342285,
          0.14921531081199646,
          0.06755248457193375,
          0.03052380681037903,
          -0.18795795738697052,
          0.04768110439181328,
          -0.05243118479847908,
          0.07182343304157257,
          -0.04058704152703285,
          0.07673019915819168,
          0.07862688601016998,
          0.23128128051757812,
          0.05304303392767906,
          0.07218153774738312,
          0.0740446001291275,
          0.23288190364837646,
          -0.19578590989112854,
          -0.06727956235408783,
          -0.12470246851444244,
          -0.04113765060901642,
          0.0011574403615668416,
          0.17529712617397308,
          -0.2667560577392578,
          -0.15307262539863586,
          -0.22223502397537231,
          0.45315122604370117,
          -0.010818545706570148,
          0.2261495143175125,
          -0.2392025887966156,
          0.036244891583919525,
          -0.09222095459699631
        ],
        [
          -0.28124046325683594,
          -0.13347133994102478,
          -0.012411815114319324,
          -0.40152648091316223,
          0.13707579672336578,
          -0.058609940111637115,
          -0.03354136645793915,
          -0.14271515607833862,
          0.12793810665607452,
          -0.01784282922744751,
          -0.16475947201251984,
          0.24343831837177277,
          0.07414454221725464,
          0.2188214361667633,
          -0.09943652153015137,
          0.22403281927108765,
          -0.005247954744845629,
          -0.046920422464609146,
          -0.0372309572994709,
          0.2870597243309021,
          0.09642712026834488,
          0.12429360300302505,
          0.11604542285203934,
          -0.006736446171998978,
          -0.029859522357583046,
          -0.21589195728302002,
          0.03859194368124008,
          0.09105115383863449,
          0.050760719925165176,
          -0.21726563572883606,
          -0.11739616841077805,
          0.21175967156887054,
          -0.03542763367295265,
          -0.07400810718536377,
          0.3337615728378296,
          -0.1166570633649826,
          -0.0130044249817729,
          -0.29640424251556396,
          -0.34624817967414856,
          0.09489497542381287,
          -0.030097853392362595,
          0.10899347066879272,
          -0.04843737185001373,
          0.13363489508628845,
          -0.0753406509757042,
          0.12630939483642578,
          0.04682885482907295,
          -0.0827493816614151,
          0.14023064076900482,
          0.17658892273902893,
          -0.020728403702378273,
          -0.5750769376754761,
          -0.04207209125161171,
          -0.16390304267406464,
          0.058066703379154205,
          0.14843721687793732,
          0.48074421286582947,
          0.20141294598579407,
          -0.10081720352172852,
          -0.034481119364500046,
          0.15913575887680054,
          -0.1473357379436493,
          -0.13471660017967224,
          -0.01993666961789131
        ],
        [
          -0.0684909000992775,
          0.07189231365919113,
          0.23274224996566772,
          -0.12141461670398712,
          0.05497840419411659,
          -0.32258468866348267,
          0.00499285152181983,
          -0.014163346961140633,
          -0.038947198539972305,
          -0.019536055624485016,
          -0.04435266554355621,
          0.19507130980491638,
          -0.04672903195023537,
          -0.01235669944435358,
          -0.24908554553985596,
          -0.0755089670419693,
          -0.06990327686071396,
          -0.33080145716667175,
          0.2519521117210388,
          0.09167040884494781,
          0.24676239490509033,
          -0.10690264403820038,
          0.07031670957803726,
          0.18880876898765564,
          0.22628246247768402,
          0.04070025309920311,
          0.010513250716030598,
          0.11760538071393967,
          0.07202140986919403,
          -0.24816133081912994,
          0.2730945944786072,
          -0.0871938094496727,
          -0.1325242519378662,
          -0.07545498758554459,
          0.08016495406627655,
          -0.03259175270795822,
          0.17294809222221375,
          0.03725377097725868,
          0.12814854085445404,
          -0.015918375924229622,
          0.09759878367185593,
          0.3916935920715332,
          0.06985833495855331,
          -0.0561758428812027,
          -0.15382352471351624,
          -0.13828036189079285,
          0.20543161034584045,
          -0.22259853780269623,
          -0.2630172669887543,
          0.09834478795528412,
          -0.04300207272171974,
          0.2382327765226364,
          0.1659339964389801,
          0.280884325504303,
          -0.24005991220474243,
          -0.36429059505462646,
          0.2667160630226135,
          -0.3449719548225403,
          0.11319033056497574,
          0.17273017764091492,
          0.09562631696462631,
          0.17763128876686096,
          -0.2897491455078125,
          0.1055913120508194
        ],
        [
          -0.45557790994644165,
          0.13121069967746735,
          -0.021456701681017876,
          -0.14919938147068024,
          0.019247768446803093,
          0.04444240406155586,
          -0.019494280219078064,
          0.07245881855487823,
          0.09412053227424622,
          0.036319196224212646,
          0.12961849570274353,
          -0.1389884650707245,
          -0.034121688455343246,
          0.3866877555847168,
          -0.0644899308681488,
          -0.03835849091410637,
          0.2121456116437912,
          -0.13705438375473022,
          0.25306591391563416,
          -0.08074797689914703,
          -0.3466905653476715,
          0.16988423466682434,
          -0.29114973545074463,
          -0.022334955632686615,
          0.2863212525844574,
          0.3050607442855835,
          -0.05215151607990265,
          -0.020446153357625008,
          -0.07493575662374496,
          0.04556334763765335,
          -0.09810337424278259,
          0.1055138111114502,
          0.05130593106150627,
          -0.11279258131980896,
          -0.18742914497852325,
          0.10319880396127701,
          0.1021425798535347,
          0.10721475630998611,
          -0.1597057282924652,
          0.29165759682655334,
          0.10777032375335693,
          -0.2107892632484436,
          0.25294309854507446,
          -0.3001285195350647,
          -0.12492164969444275,
          -0.07591782510280609,
          0.3375769257545471,
          0.06564044952392578,
          0.10544650256633759,
          -0.059896353632211685,
          0.6801878213882446,
          0.11912044882774353,
          -0.068062923848629,
          -0.10407622158527374,
          -0.19742591679096222,
          0.09915591776371002,
          -0.004683968611061573,
          -0.0928623229265213,
          0.05592062324285507,
          -0.09059237688779831,
          0.04811359941959381,
          0.05694066733121872,
          0.005868393927812576,
          -0.10658076405525208
        ],
        [
          0.18121901154518127,
          -0.060043733566999435,
          0.00014709719107486308,
          -0.012772122398018837,
          0.32207921147346497,
          -0.030035115778446198,
          0.07965126633644104,
          0.014121348969638348,
          0.2654527425765991,
          -0.21758724749088287,
          -0.14956848323345184,
          0.13699790835380554,
          -0.24251854419708252,
          0.2717910706996918,
          -0.009534359909594059,
          -0.21154922246932983,
          -0.20692212879657745,
          -0.0890655443072319,
          -0.13048872351646423,
          -0.09626265615224838,
          -0.009567419067025185,
          -0.23229439556598663,
          0.39249590039253235,
          0.26846495270729065,
          0.2133513242006302,
          0.009111365303397179,
          0.18311898410320282,
          0.10623481869697571,
          -0.017008528113365173,
          0.21164681017398834,
          -0.11656167358160019,
          0.21335168182849884,
          -0.057246048003435135,
          0.05964375287294388,
          0.08159517496824265,
          -0.10838229954242706,
          -0.009768249467015266,
          0.05343174934387207,
          0.20375065505504608,
          -0.2598371207714081,
          -0.1582537442445755,
          -0.039552126079797745,
          0.20942488312721252,
          0.03491939976811409,
          -0.0041818940080702305,
          -0.0977543517947197,
          -0.0018458730774000287,
          0.0545998178422451,
          -0.25117769837379456,
          0.26709964871406555,
          0.3356422483921051,
          -0.4607830047607422,
          -0.0934593677520752,
          -0.04792338237166405,
          -0.02717939019203186,
          0.0626087412238121,
          -0.43876925110816956,
          0.03789813071489334,
          -0.1135001927614212,
          0.07875043898820877,
          0.1769324094057083,
          0.07341106235980988,
          -0.1081995964050293,
          -0.039953190833330154
        ],
        [
          0.08599459379911423,
          -0.21899302303791046,
          0.11487086862325668,
          0.04673553258180618,
          -0.1199953705072403,
          0.22553877532482147,
          0.010622966103255749,
          -0.08547647297382355,
          0.2186550348997116,
          -0.1536230742931366,
          -0.33810484409332275,
          0.14956457912921906,
          -0.09733566641807556,
          0.06254878640174866,
          0.3220506012439728,
          -0.10040712356567383,
          -0.02175316773355007,
          0.19282715022563934,
          0.02729172632098198,
          0.3875170052051544,
          0.10583115369081497,
          -0.10529066622257233,
          -0.05662688985466957,
          -0.16716712713241577,
          -0.0961613729596138,
          -0.030274059623479843,
          -0.046674128621816635,
          0.2458050698041916,
          -0.27685850858688354,
          -0.11988507211208344,
          -0.14408749341964722,
          0.18355028331279755,
          0.17538011074066162,
          -0.28032833337783813,
          0.0033478732220828533,
          0.10349435359239578,
          0.18197795748710632,
          0.0047225188463926315,
          0.06540222465991974,
          0.09731384366750717,
          -0.07718099653720856,
          0.001820194418542087,
          0.13761384785175323,
          0.13580544292926788,
          -0.22271180152893066,
          -0.04463457688689232,
          0.11686354130506516,
          -0.1365276426076889,
          0.37711355090141296,
          -0.06443535536527634,
          0.052175190299749374,
          -0.008638179861009121,
          0.16937562823295593,
          0.08796124905347824,
          0.09849037975072861,
          -0.23819856345653534,
          -0.2208564728498459,
          -0.22935126721858978,
          0.2944399416446686,
          0.12917140126228333,
          -0.16866929829120636,
          0.41784000396728516,
          0.3001846671104431,
          -0.02383841574192047
        ],
        [
          -0.033160533756017685,
          0.2422875314950943,
          -0.2254023402929306,
          -0.022383442148566246,
          0.12584979832172394,
          -0.1548338383436203,
          0.0646333321928978,
          0.22751711308956146,
          0.1319810003042221,
          0.10341821610927582,
          0.33351758122444153,
          -0.02968600019812584,
          -0.02385997399687767,
          -0.01387683767825365,
          0.23791863024234772,
          -0.4694640636444092,
          -0.1606331318616867,
          0.09203696995973587,
          -0.038523368537425995,
          0.0837334543466568,
          0.2220102697610855,
          -0.029977897182106972,
          0.17952996492385864,
          0.034318894147872925,
          -0.10070125758647919,
          0.27158090472221375,
          -0.19842593371868134,
          0.23753303289413452,
          -0.07309900224208832,
          -0.19200895726680756,
          -0.19133438169956207,
          0.38660928606987,
          0.23332394659519196,
          -0.26897016167640686,
          0.006176998373121023,
          -0.08176261186599731,
          0.1284649819135666,
          -0.02284242957830429,
          -0.06360641866922379,
          0.08970822393894196,
          -0.11336042732000351,
          0.1791423261165619,
          -0.2938688099384308,
          -0.3335438370704651,
          -0.11458786576986313,
          -0.056795764714479446,
          0.06934123486280441,
          0.028148505836725235,
          -0.1015770360827446,
          -0.1852555274963379,
          -0.15941859781742096,
          0.09336137771606445,
          -0.17769023776054382,
          0.2365543246269226,
          0.032801706343889236,
          -0.17626987397670746,
          -0.13894274830818176,
          0.11139488220214844,
          -0.310886949300766,
          -0.1283818930387497,
          -0.03733276203274727,
          -0.334085613489151,
          0.09162184596061707,
          0.01682637818157673
        ],
        [
          -0.17566677927970886,
          -0.313926637172699,
          0.1551843285560608,
          0.014441742561757565,
          0.3692706227302551,
          -0.06489298492670059,
          -0.11182932555675507,
          0.26156577467918396,
          0.06527263671159744,
          -0.1255771815776825,
          -0.08955039083957672,
          -0.2228136658668518,
          0.28881075978279114,
          -0.1190415620803833,
          -0.05805673450231552,
          0.08010099083185196,
          -0.21349219977855682,
          -0.02433190494775772,
          0.003367622150108218,
          -0.010981637984514236,
          0.09497398883104324,
          -0.07763294130563736,
          -0.3246747553348541,
          -0.4897559881210327,
          0.24255317449569702,
          -0.0278602484613657,
          -0.21198201179504395,
          0.2580297589302063,
          0.35184893012046814,
          0.16277292370796204,
          -0.25559327006340027,
          0.20018094778060913,
          -0.09673754125833511,
          0.15239842236042023,
          0.04836658015847206,
          0.2562561333179474,
          0.08399277180433273,
          0.09333978593349457,
          0.015001269988715649,
          -0.015630630776286125,
          0.08218862861394882,
          -0.08618555963039398,
          0.1683020442724228,
          0.04610924795269966,
          0.143061101436615,
          0.10605964809656143,
          0.04505343735218048,
          0.03906165808439255,
          -0.06512381136417389,
          -0.020755033940076828,
          -0.06813329458236694,
          -0.019230153411626816,
          -0.11602896451950073,
          0.17063993215560913,
          0.1850433051586151,
          -0.21666063368320465,
          -0.10247418284416199,
          0.10059226304292679,
          -0.13935841619968414,
          0.18611550331115723,
          -0.2997569441795349,
          -0.013677011243999004,
          -0.3325299918651581,
          0.02869168482720852
        ],
        [
          0.21205437183380127,
          0.1236385777592659,
          0.3625197410583496,
          0.03493720293045044,
          -0.041424427181482315,
          0.18472418189048767,
          -0.3600234389305115,
          -0.12891624867916107,
          -0.21439452469348907,
          -0.1557135432958603,
          0.014759066514670849,
          -0.2228415459394455,
          -0.32024794816970825,
          0.09531868249177933,
          -0.062036458402872086,
          -0.20056283473968506,
          -0.27557435631752014,
          0.09843908250331879,
          0.08979953080415726,
          0.08611132204532623,
          0.15554258227348328,
          -0.11063284426927567,
          -0.08763793110847473,
          -0.09506295621395111,
          0.18488670885562897,
          0.23964428901672363,
          -0.0579310804605484,
          -0.11650386452674866,
          -0.18933916091918945,
          -0.1809118241071701,
          0.10160879790782928,
          0.006435806397348642,
          -0.10538841784000397,
          0.2604442834854126,
          -0.08451902866363525,
          0.021922579035162926,
          0.03343091532588005,
          -0.4386996030807495,
          0.29466482996940613,
          0.04595329612493515,
          -0.3290213346481323,
          0.06144727021455765,
          0.10159824043512344,
          0.23540687561035156,
          -0.07151149958372116,
          0.13603776693344116,
          0.09413416683673859,
          0.25193628668785095,
          0.2561699450016022,
          -0.018098944798111916,
          0.12281109392642975,
          0.01712498627603054,
          -0.39107489585876465,
          0.03700979799032211,
          -0.03269405663013458,
          -0.12355415523052216,
          0.2490471750497818,
          0.06751517206430435,
          0.015967944636940956,
          -0.3457395136356354,
          -0.13974042236804962,
          -0.22667288780212402,
          -0.05146642401814461,
          -0.04380171000957489
        ],
        [
          -0.21328707039356232,
          0.13511213660240173,
          0.17525964975357056,
          -0.08920545876026154,
          -0.2054133117198944,
          -0.17651239037513733,
          0.36061787605285645,
          -0.16544491052627563,
          0.018085826188325882,
          0.196226567029953,
          -0.042710985988378525,
          0.011244085617363453,
          -0.19451691210269928,
          -0.2597293555736542,
          0.19893325865268707,
          0.1701660007238388,
          0.04456205293536186,
          -0.060324955731630325,
          -0.28160834312438965,
          -0.11953433603048325,
          0.2806193232536316,
          -0.03726387768983841,
          0.3643145263195038,
          -0.35373470187187195,
          0.09049051254987717,
          -0.08677910268306732,
          -0.06648163497447968,
          0.20025040209293365,
          -0.10125686228275299,
          0.17335063219070435,
          0.0819898173213005,
          0.019511250779032707,
          -0.06806077063083649,
          0.20288456976413727,
          -0.05800741910934448,
          -0.01485204417258501,
          -0.01480478048324585,
          0.3999450206756592,
          -0.1382492035627365,
          0.20303726196289062,
          -0.03318829834461212,
          0.3114910423755646,
          0.392073392868042,
          -0.09513693302869797,
          0.2781570851802826,
          0.3408796787261963,
          -0.16517455875873566,
          -0.0038409316912293434,
          0.03089301846921444,
          -0.08140870183706284,
          0.16469161212444305,
          -0.1630944013595581,
          -0.38425779342651367,
          0.3004946708679199,
          -0.042596958577632904,
          0.3113773763179779,
          0.19437406957149506,
          -0.15838861465454102,
          0.34759721159935,
          -0.12449946999549866,
          0.07032276690006256,
          -0.007319223135709763,
          0.05377260595560074,
          -0.02131124585866928
        ],
        [
          0.35940149426460266,
          0.2054472714662552,
          0.1114061251282692,
          -0.09382300078868866,
          0.22996121644973755,
          -0.1743575483560562,
          0.08675247430801392,
          0.08250612020492554,
          0.07905879616737366,
          0.3793470859527588,
          -0.0504751019179821,
          -0.029482124373316765,
          0.10032107681035995,
          0.08992928266525269,
          0.31686702370643616,
          -0.013155540451407433,
          0.14966638386249542,
          0.03246336802840233,
          0.11553705483675003,
          -0.019771844148635864,
          -0.27393221855163574,
          0.061473675072193146,
          -0.13478931784629822,
          -0.4866608679294586,
          -0.1554756611585617,
          -0.11734319478273392,
          0.14661137759685516,
          -0.14412464201450348,
          0.04864504560828209,
          -0.01144842803478241,
          0.09844458848237991,
          -0.150777205824852,
          -0.12181127816438675,
          -0.08380169421434402,
          0.29500874876976013,
          -0.08193080872297287,
          -0.19190795719623566,
          -0.0061998688615858555,
          0.3469850718975067,
          0.1615380346775055,
          -0.27813276648521423,
          0.16804200410842896,
          0.04799843579530716,
          -0.18927061557769775,
          -0.2937304377555847,
          -0.12706081569194794,
          -0.1528586745262146,
          0.20106571912765503,
          0.004346758592873812,
          0.15492357313632965,
          0.13332843780517578,
          -0.008252475410699844,
          0.030774492770433426,
          -0.11460945010185242,
          -0.08350478857755661,
          -0.17600782215595245,
          -0.05910481512546539,
          0.08557150512933731,
          0.10101892799139023,
          0.28739097714424133,
          0.017706681042909622,
          -0.1640986055135727,
          -0.17102085053920746,
          0.07367357611656189
        ],
        [
          -0.019311964511871338,
          -0.15153445303440094,
          0.19207726418972015,
          0.271688848733902,
          0.07913989573717117,
          0.13701553642749786,
          0.04829705134034157,
          -0.25959163904190063,
          -0.12546859681606293,
          0.21542184054851532,
          0.08056207746267319,
          0.2587457299232483,
          -0.046253789216279984,
          -0.09050292521715164,
          -0.1144656389951706,
          0.123319111764431,
          0.05924343317747116,
          -0.27332621812820435,
          -0.050822071731090546,
          -0.14677280187606812,
          0.06203274428844452,
          0.018662283197045326,
          0.25326263904571533,
          -0.05357003211975098,
          0.3144921660423279,
          0.2451123148202896,
          0.31562748551368713,
          0.08084697276353836,
          0.37912434339523315,
          0.1306464970111847,
          0.06189991161227226,
          -0.0815446600317955,
          0.3643759489059448,
          0.05268070846796036,
          -0.10329622030258179,
          -0.1795840561389923,
          0.09652815014123917,
          0.17362476885318756,
          -0.0345952995121479,
          0.05953116714954376,
          -0.05351035296916962,
          -0.2140936702489853,
          -0.15964524447917938,
          0.040570370852947235,
          -0.20599544048309326,
          0.05232132598757744,
          0.13399016857147217,
          0.15525485575199127,
          0.009943979792296886,
          -0.11878559738397598,
          -0.10570335388183594,
          -0.2195669710636139,
          -0.02635744772851467,
          -0.1629188507795334,
          -0.12728512287139893,
          -0.34897011518478394,
          0.10728084295988083,
          0.16591833531856537,
          -0.04329601302742958,
          0.07886064052581787,
          -0.32655709981918335,
          0.01704382710158825,
          0.2905116379261017,
          0.06524097174406052
        ],
        [
          -0.16505932807922363,
          0.3035847842693329,
          0.11258755624294281,
          0.17788517475128174,
          0.07476194202899933,
          0.1754869520664215,
          0.09639311581850052,
          0.4716034531593323,
          -0.024868067353963852,
          0.16024526953697205,
          -0.3673247694969177,
          -0.1429644376039505,
          0.13125139474868774,
          0.33640238642692566,
          -0.2700101137161255,
          -0.24683335423469543,
          -0.08881454914808273,
          0.011599081568419933,
          -0.25210466980934143,
          -0.04955492168664932,
          0.028999032452702522,
          0.15055949985980988,
          0.2620933949947357,
          -0.0905318483710289,
          -0.08115429431200027,
          -0.0020134770311415195,
          0.004749523941427469,
          0.10047423839569092,
          0.12516452372074127,
          0.005714268423616886,
          -0.013421203009784222,
          -0.30418938398361206,
          0.049729108810424805,
          -0.06813276559114456,
          -0.0638076439499855,
          0.12917965650558472,
          -0.03901004046201706,
          -0.08489883691072464,
          0.29007330536842346,
          0.20472212135791779,
          0.048888709396123886,
          -0.26314958930015564,
          -0.03582305461168289,
          0.1028129905462265,
          -0.3113899827003479,
          0.3552536368370056,
          -0.05189761519432068,
          -0.29437416791915894,
          -0.15652628242969513,
          0.1446908563375473,
          -0.15048927068710327,
          -0.02882830612361431,
          0.00912785530090332,
          0.07416979968547821,
          0.19372956454753876,
          0.11690470576286316,
          0.1491890698671341,
          -0.2400197684764862,
          -0.024787776172161102,
          -0.03655141592025757,
          0.10020279139280319,
          -0.007205087225884199,
          0.16099390387535095,
          -0.1433667242527008
        ],
        [
          0.03300655260682106,
          -0.1490367352962494,
          -0.3818730413913727,
          -0.3199518322944641,
          0.2542213797569275,
          0.03623640164732933,
          -0.24228744208812714,
          0.11614697426557541,
          -0.07847768813371658,
          -0.07377946376800537,
          -0.14212386310100555,
          -0.004706762731075287,
          -0.16569122672080994,
          0.035963404923677444,
          0.04669572785496712,
          0.05797552689909935,
          -0.06575758755207062,
          -0.19754208624362946,
          0.0821128785610199,
          -0.04584651440382004,
          0.15959432721138,
          -0.13603723049163818,
          0.13893111050128937,
          0.005115227308124304,
          -0.36851727962493896,
          -0.31452763080596924,
          -0.1730431765317917,
          -0.07459744065999985,
          -0.22161035239696503,
          0.22024938464164734,
          0.28856155276298523,
          0.08460378646850586,
          -0.0591406486928463,
          0.19063778221607208,
          -0.3367193639278412,
          -0.035474155098199844,
          -0.06601721793413162,
          0.4204242527484894,
          -0.11028309166431427,
          -0.04300021007657051,
          0.008187005296349525,
          -0.3021866977214813,
          0.005977553315460682,
          0.007278670556843281,
          -0.11962294578552246,
          -0.0467676967382431,
          -0.025846363976597786,
          0.01701834611594677,
          -0.24150393903255463,
          0.08605093508958817,
          -0.025986118242144585,
          -0.0038658911362290382,
          -0.20129121840000153,
          0.06500320881605148,
          0.14925970137119293,
          -0.23724365234375,
          0.2348651885986328,
          -0.15401826798915863,
          0.4642409384250641,
          -0.16890953481197357,
          -0.11612874269485474,
          -0.20644739270210266,
          0.03937713801860809,
          0.16513672471046448
        ],
        [
          0.1588604599237442,
          0.07703059166669846,
          -0.5082906484603882,
          -0.22550784051418304,
          0.0508723147213459,
          -0.1555594801902771,
          -0.0651857778429985,
          0.23383371531963348,
          0.003706942079588771,
          -0.15529540181159973,
          0.006780541501939297,
          -0.08227389305830002,
          -0.01937502808868885,
          0.20997248589992523,
          0.03754466772079468,
          0.006226382218301296,
          0.002985746134072542,
          0.04599175602197647,
          0.06491577625274658,
          0.10065029561519623,
          0.04459822177886963,
          -0.10863243788480759,
          -0.11752422899007797,
          -0.1044219434261322,
          -0.0414130873978138,
          0.03365202620625496,
          0.1621299833059311,
          -0.030614418908953667,
          0.15821553766727448,
          0.34763872623443604,
          -0.0740269124507904,
          -0.00567872216925025,
          0.44604697823524475,
          0.3080061078071594,
          -0.0680701807141304,
          0.06315207481384277,
          -0.17568263411521912,
          -0.2868759036064148,
          0.24813586473464966,
          0.024321727454662323,
          -0.05155551806092262,
          0.10101933032274246,
          0.07306236773729324,
          -0.262982040643692,
          0.1661960333585739,
          -0.041113972663879395,
          0.055871278047561646,
          -0.03869636729359627,
          0.1574307233095169,
          -0.037503018975257874,
          -0.28550776839256287,
          -0.10498932003974915,
          0.11427965760231018,
          0.33665838837623596,
          -0.590059757232666,
          0.10373013466596603,
          0.2725047171115875,
          -0.1387898176908493,
          0.22195810079574585,
          -0.24878515303134918,
          -0.22240249812602997,
          0.2039664089679718,
          0.1425711065530777,
          -0.06382843106985092
        ],
        [
          -0.08437169343233109,
          0.05805957317352295,
          -0.24885118007659912,
          -0.20771515369415283,
          0.36816224455833435,
          -0.04225429147481918,
          0.3099380433559418,
          -0.2620784342288971,
          -0.03950653225183487,
          -0.13401757180690765,
          0.09315073490142822,
          -0.23594225943088531,
          -0.4893348515033722,
          -0.1815321147441864,
          -0.1713423728942871,
          0.12969309091567993,
          -0.03948470577597618,
          0.1831759661436081,
          0.012578783556818962,
          -0.152630016207695,
          -0.19601142406463623,
          -0.09853409230709076,
          -0.07532462477684021,
          0.09682872146368027,
          -0.17973949015140533,
          -0.18833471834659576,
          0.05703659728169441,
          0.13776664435863495,
          0.2763604521751404,
          -0.25641629099845886,
          -0.026543010026216507,
          -0.19196897745132446,
          -0.048691604286432266,
          -0.2948671877384186,
          -0.03151718154549599,
          -0.06848809868097305,
          0.05285327509045601,
          0.05750339478254318,
          0.20482662320137024,
          -0.11133264005184174,
          0.048001281917095184,
          -0.038073714822530746,
          0.10272080451250076,
          -0.04103057086467743,
          0.21823954582214355,
          0.36361274123191833,
          0.004076980985701084,
          -0.06095949932932854,
          0.27207523584365845,
          0.1671200543642044,
          -0.015203101560473442,
          0.12648336589336395,
          -0.04422104358673096,
          -0.05582423880696297,
          0.0011441882234066725,
          -0.08506086468696594,
          -0.03495700657367706,
          -0.333179235458374,
          -0.20991992950439453,
          -0.12326018512248993,
          -0.2164178192615509,
          0.013118167407810688,
          -0.04833751916885376,
          -0.07104451954364777
        ],
        [
          -0.4148380160331726,
          0.018806934356689453,
          0.02687940001487732,
          0.20759929716587067,
          -0.029423225671052933,
          0.1054091602563858,
          0.0895683541893959,
          -0.2582456171512604,
          -0.1432134509086609,
          0.1591709405183792,
          -0.17772415280342102,
          0.14174631237983704,
          0.14667080342769623,
          -0.10708142817020416,
          0.11275418102741241,
          -0.14836227893829346,
          0.06635962426662445,
          0.060389090329408646,
          -0.18866007030010223,
          -0.11349557340145111,
          -0.34356218576431274,
          -0.17143943905830383,
          -0.005853577982634306,
          0.16297169029712677,
          -0.022499287500977516,
          -0.22422444820404053,
          0.04817192256450653,
          0.0655595064163208,
          0.02593575231730938,
          -0.1310742199420929,
          -0.04147025942802429,
          0.2790468633174896,
          -0.021519212052226067,
          0.34025338292121887,
          -0.31188246607780457,
          -0.08781057596206665,
          -0.07920154929161072,
          -0.02042381837964058,
          0.13350749015808105,
          -0.16590729355812073,
          -0.1925727128982544,
          0.08517055213451385,
          0.302701473236084,
          -0.035797763615846634,
          -0.20482845604419708,
          -0.3069043457508087,
          -0.06274091452360153,
          -0.2508266270160675,
          -0.05612699314951897,
          -0.053018104285001755,
          -0.07559245824813843,
          0.07028785347938538,
          0.2177858203649521,
          0.1999518871307373,
          0.08113723248243332,
          0.18816034495830536,
          0.13125456869602203,
          0.10100801289081573,
          0.042172838002443314,
          -0.222697451710701,
          -0.2177906334400177,
          -0.11642524600028992,
          -0.3991100490093231,
          -0.2144455760717392
        ],
        [
          0.11431862413883209,
          -0.14336971938610077,
          0.24590188264846802,
          0.13810238242149353,
          -0.017929505556821823,
          -0.06821009516716003,
          -0.22713971138000488,
          -0.07099155336618423,
          -0.0008163942256942391,
          -0.0635223239660263,
          0.02284468151628971,
          -0.13163341581821442,
          -0.2584863603115082,
          0.05870862677693367,
          -0.2754141688346863,
          -0.10513176023960114,
          0.12689757347106934,
          -0.1268615424633026,
          0.06018522009253502,
          -0.09057363122701645,
          -0.24751190841197968,
          0.07416278123855591,
          0.18076039850711823,
          -0.21487723290920258,
          0.18184331059455872,
          -0.19726833701133728,
          -0.08660614490509033,
          -0.18273578584194183,
          -0.06672396510839462,
          -0.12543734908103943,
          -0.3027423620223999,
          0.09416017681360245,
          0.3432736098766327,
          -0.20460298657417297,
          0.03050948865711689,
          -0.09421832859516144,
          -0.3063453435897827,
          -0.0077312905341386795,
          -0.19523634016513824,
          -0.18642567098140717,
          -0.16276012361049652,
          -0.14414311945438385,
          0.07575439661741257,
          -0.31817758083343506,
          0.005559481214731932,
          -0.021465612575411797,
          0.21126627922058105,
          0.02844664268195629,
          0.0859491154551506,
          0.016992710530757904,
          -0.32735374569892883,
          0.03804995119571686,
          0.022209087386727333,
          0.2448456883430481,
          0.15856684744358063,
          0.3426285982131958,
          -0.011293992400169373,
          -0.26775577664375305,
          0.1196383386850357,
          0.18407699465751648,
          0.11705008894205093,
          -0.09035749733448029,
          -0.08262290060520172,
          0.4674680531024933
        ],
        [
          0.2745276093482971,
          0.006073438096791506,
          -0.18893097341060638,
          0.20016194880008698,
          0.03207072243094444,
          0.16178463399410248,
          -0.020907431840896606,
          0.10390982776880264,
          0.2538706958293915,
          0.1552395224571228,
          0.27255183458328247,
          -0.16209834814071655,
          -0.0034389710053801537,
          0.09159547835588455,
          0.02740073949098587,
          0.02146533876657486,
          -0.14631623029708862,
          0.25467535853385925,
          -0.2536364793777466,
          -0.16356229782104492,
          0.20417246222496033,
          0.1777966320514679,
          0.14348207414150238,
          0.07944756001234055,
          0.23492646217346191,
          -0.19530470669269562,
          -0.1794891208410263,
          0.03901382163167,
          0.20228201150894165,
          -0.1689063161611557,
          0.07189884036779404,
          0.309821218252182,
          -0.1679552048444748,
          0.15227869153022766,
          -0.027593273669481277,
          -0.09777899086475372,
          -0.29194048047065735,
          0.12247791141271591,
          -0.041125815361738205,
          -0.10816817730665207,
          -0.012732020579278469,
          -0.0957086831331253,
          -0.04274839162826538,
          0.046184323728084564,
          0.07453600317239761,
          0.10798965394496918,
          0.02095087803900242,
          -0.39702653884887695,
          0.19847401976585388,
          -0.21735617518424988,
          0.181962251663208,
          0.16474397480487823,
          -0.10868486016988754,
          -0.22860728204250336,
          -0.42672112584114075,
          0.0422472320497036,
          0.29170194268226624,
          -0.08727481961250305,
          0.3493516147136688,
          0.24780745804309845,
          0.07686267048120499,
          0.16297529637813568,
          -0.16329963505268097,
          -0.021583545953035355
        ],
        [
          -0.16696645319461823,
          0.14938825368881226,
          -0.08774108439683914,
          -0.339732825756073,
          -0.1417805403470993,
          0.2502054274082184,
          -0.2846561372280121,
          -0.008883773349225521,
          0.027322137728333473,
          0.2954334616661072,
          -0.25129881501197815,
          0.003493776312097907,
          -0.15983529388904572,
          0.1683434545993805,
          -0.18083660304546356,
          -0.11906898021697998,
          -0.011948877014219761,
          0.051226384937763214,
          -0.38434869050979614,
          0.008124141953885555,
          -0.012810627929866314,
          -0.38002148270606995,
          -0.2711026668548584,
          -0.28268906474113464,
          0.019398672506213188,
          0.12278836965560913,
          0.06846271455287933,
          0.13216467201709747,
          0.11362460255622864,
          -0.0013375268317759037,
          0.1934201419353485,
          -0.06234714761376381,
          0.11006555706262589,
          -0.09507757425308228,
          -0.08038917928934097,
          -0.20743589103221893,
          -0.16576410830020905,
          0.2564965486526489,
          -0.20961539447307587,
          -0.39656245708465576,
          0.05197274312376976,
          0.20650023221969604,
          -0.0008643302135169506,
          0.3268662393093109,
          0.1448947936296463,
          0.21824853122234344,
          -0.03143075481057167,
          -0.07646837085485458,
          -0.004324273206293583,
          -0.2650424838066101,
          0.1681276112794876,
          0.11367815732955933,
          0.20114628970623016,
          0.05560906231403351,
          -0.31877636909484863,
          -0.014937135390937328,
          -0.061327170580625534,
          0.003247141372412443,
          0.1435757726430893,
          -0.08161211013793945,
          0.18522971868515015,
          -0.3484015464782715,
          0.011707236059010029,
          0.27504292130470276
        ],
        [
          0.19500109553337097,
          -0.056289058178663254,
          0.14688381552696228,
          -0.23334458470344543,
          -0.02788410149514675,
          -0.056918397545814514,
          0.03233978897333145,
          0.12576644122600555,
          0.12777863442897797,
          -0.17335742712020874,
          -0.13815274834632874,
          0.21566013991832733,
          -0.10107064992189407,
          -0.018337490037083626,
          -0.10269279032945633,
          -0.31172460317611694,
          0.009279715828597546,
          -0.40105265378952026,
          -0.3188779652118683,
          -0.10388258099555969,
          -0.010745291598141193,
          -0.2388993203639984,
          -0.25005200505256653,
          -0.19990554451942444,
          0.11809419840574265,
          -0.13600802421569824,
          -0.15002110600471497,
          -0.1735697239637375,
          -0.03936348482966423,
          -0.29516053199768066,
          0.10618800669908524,
          -0.2614270746707916,
          0.04975854977965355,
          -0.028138140216469765,
          -0.24140480160713196,
          0.11431542038917542,
          0.014338456094264984,
          0.3516281843185425,
          -0.16014908254146576,
          0.1700730323791504,
          -0.1868012547492981,
          -0.06809050589799881,
          -0.2210557758808136,
          -0.011762206442654133,
          0.30926233530044556,
          -0.1833823025226593,
          -0.13106447458267212,
          -0.0888359397649765,
          0.018553679808974266,
          -0.04552139714360237,
          -0.019700340926647186,
          -0.0993119552731514,
          -0.2676030397415161,
          0.016543269157409668,
          -0.10475566983222961,
          0.2729882597923279,
          0.08288831263780594,
          0.145528644323349,
          -0.10839838534593582,
          -0.030088115483522415,
          0.04612519219517708,
          0.31348058581352234,
          -0.11192815750837326,
          -0.39820989966392517
        ],
        [
          0.2505657374858856,
          0.1412498503923416,
          0.17021027207374573,
          -0.035234954208135605,
          0.028191888704895973,
          -0.23436503112316132,
          -0.024303538724780083,
          -0.0383174866437912,
          -0.13252845406532288,
          0.0385444201529026,
          0.34543412923812866,
          0.0028289686888456345,
          0.20774424076080322,
          0.061399832367897034,
          -0.1769808977842331,
          -0.10095789283514023,
          0.16675497591495514,
          -0.04743899032473564,
          -0.24229197204113007,
          0.19723498821258545,
          0.008584217168390751,
          -0.21395446360111237,
          -0.22584901750087738,
          -0.1798820197582245,
          0.0111618647351861,
          -0.14788563549518585,
          0.27623113989830017,
          -0.004888349212706089,
          -0.23744839429855347,
          0.3240496814250946,
          -0.11629263311624527,
          0.24497483670711517,
          -0.14384503662586212,
          0.05991091579198837,
          0.06125803291797638,
          -0.32474398612976074,
          0.1440558284521103,
          0.028629926964640617,
          0.013009781017899513,
          -0.21088111400604248,
          0.492667019367218,
          -0.14519597589969635,
          0.0666431188583374,
          0.0495566688477993,
          -0.21393543481826782,
          0.002621196210384369,
          -0.05748702213168144,
          -0.016818683594465256,
          0.03469174727797508,
          -0.19784659147262573,
          0.09147848188877106,
          0.03261848911643028,
          -0.17917099595069885,
          -0.041180320084095,
          0.2068837434053421,
          0.10132074356079102,
          0.1788664162158966,
          -0.39849036931991577,
          -0.2269255518913269,
          -0.15409429371356964,
          0.09554566442966461,
          0.21353983879089355,
          0.009889948181807995,
          -0.056300096213817596
        ],
        [
          0.15026812255382538,
          -0.17302678525447845,
          -0.055278562009334564,
          0.4220357835292816,
          -0.21742688119411469,
          -0.3267308175563812,
          -0.11090362071990967,
          -0.19825835525989532,
          0.275523841381073,
          -0.17523522675037384,
          -0.0585288442671299,
          -0.16739986836910248,
          -0.3062991499900818,
          0.2610293924808502,
          0.13608279824256897,
          0.11220815032720566,
          0.04715215414762497,
          -0.030626635998487473,
          -0.26349490880966187,
          0.034266918897628784,
          -0.18457761406898499,
          0.12709714472293854,
          -0.2696669399738312,
          -0.052908360958099365,
          -0.1005898267030716,
          0.1018914058804512,
          0.07596250623464584,
          0.23707513511180878,
          -0.14984267950057983,
          -0.11550342291593552,
          -0.0009168129763565958,
          -0.14553126692771912,
          0.10024593770503998,
          0.21979853510856628,
          0.17646275460720062,
          -0.047234173864126205,
          0.0679197683930397,
          0.18678268790245056,
          0.036616839468479156,
          -0.0487787239253521,
          0.1035650223493576,
          0.05220278352499008,
          -0.07942859083414078,
          -0.10118336230516434,
          0.13799713551998138,
          -0.013865778222680092,
          0.23025724291801453,
          -0.19420719146728516,
          -0.3242424726486206,
          0.09329602867364883,
          0.1081262081861496,
          -0.06813943386077881,
          0.06822860985994339,
          0.007433406077325344,
          0.2389959990978241,
          -0.14989127218723297,
          0.2994508445262909,
          -0.029105182737112045,
          -0.07539980113506317,
          0.17337431013584137,
          -0.055947285145521164,
          -0.38151314854621887,
          0.12129516154527664,
          -0.33397963643074036
        ],
        [
          0.02526288665831089,
          -0.07754427939653397,
          0.0150649044662714,
          0.014131158590316772,
          0.013439934700727463,
          -0.06363020837306976,
          -0.11735253036022186,
          0.19914132356643677,
          -0.23485954105854034,
          0.310793936252594,
          0.2977689504623413,
          -0.09623242914676666,
          -0.10325774550437927,
          -0.018110094591975212,
          0.11725927889347076,
          -0.028727300465106964,
          -0.48335155844688416,
          -0.15839041769504547,
          0.01907767355442047,
          -0.11245405673980713,
          -0.08670038729906082,
          -0.0039828866720199585,
          -0.38514244556427,
          0.21897874772548676,
          0.1742527335882187,
          -0.2714504897594452,
          -0.12603354454040527,
          0.33298593759536743,
          -0.03010440431535244,
          0.24137942492961884,
          0.3314439356327057,
          0.03820649906992912,
          0.2104494422674179,
          -0.1494932621717453,
          -0.20217788219451904,
          0.0048827193677425385,
          -0.0070929150097072124,
          -0.28894883394241333,
          -0.1780540943145752,
          -0.03963294252753258,
          -0.23492084443569183,
          0.29474514722824097,
          0.021274622529745102,
          0.09413323551416397,
          0.09833552688360214,
          0.16225971281528473,
          -0.09395232796669006,
          0.01685752347111702,
          -0.25920557975769043,
          0.08113587647676468,
          -0.07789294421672821,
          -0.21877093613147736,
          0.06292951107025146,
          -0.14596453309059143,
          0.08302343636751175,
          0.27494925260543823,
          -0.07707700878381729,
          -0.33421555161476135,
          0.36369967460632324,
          0.09443407505750656,
          -0.1145864948630333,
          -0.011387447826564312,
          0.1823212057352066,
          -0.12037212401628494
        ],
        [
          0.2742607891559601,
          -0.06617680937051773,
          -0.09189718216657639,
          0.12017533928155899,
          0.07483108341693878,
          0.17791520059108734,
          -0.1284056007862091,
          0.1613766849040985,
