{
  "model_info": {
    "architecture": "PPO Policy Network",
    "input_dim": 54,
    "hidden_dim": 64,
    "output_dim": 3,
    "activation": "tanh",
    "framework": "Stable Baselines3 \u2192 TF.js"
  },
  "weights": {
    "policy_layer1": {
      "kernel": [
        [
          0.3490729331970215,
          -0.08225812017917633,
          -0.027783997356891632,
          0.442667692899704,
          -0.03037986531853676,
          -0.245118647813797,
          -0.0063724275678396225,
          -0.10856445878744125,
          -0.14206214249134064,
          0.17036637663841248,
          0.15507547557353973,
          0.17434749007225037,
          0.08543810248374939,
          -0.316217303276062,
          0.14152833819389343,
          0.08219936490058899,
          -0.2811602056026459,
          0.14611393213272095,
          0.034678611904382706,
          0.33792930841445923,
          0.11928432434797287,
          -0.019628221169114113,
          -0.008549874648451805,
          0.3840750455856323,
          0.15766698122024536,
          -0.27375343441963196,
          -0.07109887897968292,
          0.15378184616565704,
          -0.0677376314997673,
          -0.3910822868347168,
          -0.13211441040039062,
          -0.08987006545066833,
          -0.18609045445919037,
          0.3222150504589081,
          -0.1421472579240799,
          -0.39864349365234375,
          -0.2769002616405487,
          0.28972071409225464,
          0.16960912942886353,
          0.14382874965667725,
          0.10632480680942535,
          -0.3726956248283386,
          0.35725903511047363,
          0.0378924123942852,
          0.38789212703704834,
          0.08099544793367386,
          0.4335099756717682,
          0.07196010649204254,
          0.02408260852098465,
          0.03619140759110451,
          0.22390450537204742,
          -0.2407745122909546,
          -0.20758956670761108,
          0.02304990030825138,
          -0.16766349971294403,
          0.09727751463651657,
          0.2556757628917694,
          0.03364705666899681,
          0.27331724762916565,
          0.2994716763496399,
          -0.1661364734172821,
          -0.24729186296463013,
          0.2620954215526581,
          0.19425581395626068
        ],
        [
          -0.13313718140125275,
          -0.28833311796188354,
          -0.21564294397830963,
          0.3312550485134125,
          -0.07825566083192825,
          -0.239766463637352,
          0.14853182435035706,
          0.3308795988559723,
          0.18234360218048096,
          0.37138158082962036,
          -0.04234585165977478,
          -0.07231808453798294,
          0.027223855257034302,
          0.16718553006649017,
          0.15395766496658325,
          -0.2106158286333084,
          0.12807852029800415,
          -0.3194293975830078,
          -0.2589927911758423,
          -0.20376764237880707,
          -0.07231023162603378,
          -0.10165157169103622,
          -0.28020381927490234,
          0.018434345722198486,
          -0.3333035409450531,
          0.20609280467033386,
          -0.15367230772972107,
          0.005508952308446169,
          -0.15178462862968445,
          0.06392893195152283,
          0.18839269876480103,
          -0.0025363340973854065,
          -0.6846085786819458,
          0.16487127542495728,
          -0.1553550511598587,
          0.46363022923469543,
          -0.11323313415050507,
          0.4025759994983673,
          0.4508175551891327,
          -0.29680317640304565,
          0.06975026428699493,
          -0.1154356449842453,
          0.03467573970556259,
          -0.023328807204961777,
          0.13928477466106415,
          -0.13389484584331512,
          0.07497813552618027,
          -0.5073862671852112,
          -0.02246485836803913,
          0.072654590010643,
          -0.045863211154937744,
          -0.5499798655509949,
          0.15750277042388916,
          0.17127878963947296,
          0.12433359771966934,
          0.1302207112312317,
          -0.13381341099739075,
          0.008263320662081242,
          0.07923897355794907,
          0.10799921303987503,
          -0.14262275397777557,
          0.22899779677391052,
          -0.07213768362998962,
          0.061179935932159424
        ],
        [
          -0.03293328732252121,
          -0.0030803235713392496,
          -0.03376074507832527,
          -0.2984260618686676,
          0.029132280498743057,
          -0.16112811863422394,
          -0.20482923090457916,
          0.2714909613132477,
          0.48682698607444763,
          -0.16024208068847656,
          -0.018176231533288956,
          0.23076263070106506,
          0.1099405586719513,
          -0.2012791484594345,
          -0.3524201512336731,
          -0.37891194224357605,
          0.286325603723526,
          0.10783044248819351,
          -0.4581977128982544,
          -0.12164406478404999,
          0.16913239657878876,
          -0.10748621821403503,
          0.08108541369438171,
          0.06246459111571312,
          -0.04838449880480766,
          0.032393306493759155,
          -0.00015260977670550346,
          0.11605706065893173,
          -0.09667298197746277,
          0.44259727001190186,
          0.12473871558904648,
          0.042105697095394135,
          0.33236750960350037,
          0.2693418264389038,
          -0.26085299253463745,
          -0.254315584897995,
          0.38182923197746277,
          0.13482680916786194,
          -0.027332404628396034,
          0.053519356995821,
          -0.13448543846607208,
          -0.022464841604232788,
          0.08847551792860031,
          0.05325492098927498,
          0.27575963735580444,
          -0.06196985021233559,
          -0.2262982279062271,
          -0.033331498503685,
          -0.14279046654701233,
          0.11145421117544174,
          0.1995755285024643,
          0.21760229766368866,
          0.2719959020614624,
          0.20067539811134338,
          0.2334206998348236,
          0.2561028301715851,
          0.06066741421818733,
          -0.04385707154870033,
          0.21444621682167053,
          -0.06689294427633286,
          -0.16108159720897675,
          0.19694304466247559,
          -0.038016561418771744,
          -0.20288272202014923
        ],
        [
          0.023447364568710327,
          -0.3044942617416382,
          -0.3569575846195221,
          0.06636601686477661,
          -0.017005810514092445,
          0.05796079337596893,
          -0.2512030303478241,
          0.3209218978881836,
          0.1478421539068222,
          0.4446513056755066,
          0.19322951138019562,
          0.06935576349496841,
          -0.15866224467754364,
          0.2691131830215454,
          -0.04438906908035278,
          -0.034040071070194244,
          0.13247069716453552,
          0.05465766414999962,
          -0.35205861926078796,
          -0.302549809217453,
          0.294584184885025,
          -0.21987284719944,
          0.0775657594203949,
          -0.02180498093366623,
          -0.38568562269210815,
          0.03734637424349785,
          -0.04535984620451927,
          0.16134029626846313,
          0.04146920144557953,
          0.05341782793402672,
          0.039299871772527695,
          0.040653813630342484,
          0.08082582801580429,
          -0.4410187304019928,
          0.14432573318481445,
          0.11903423815965652,
          -0.005322745069861412,
          -0.1826886534690857,
          0.3196221590042114,
          0.23704098165035248,
          -0.14065653085708618,
          0.08374025672674179,
          0.33522340655326843,
          -0.10655457526445389,
          0.06762336194515228,
          0.3079618215560913,
          -0.35099905729293823,
          -0.49644753336906433,
          -0.06292103976011276,
          -0.14553189277648926,
          -0.19313228130340576,
          0.13346721231937408,
          0.17825405299663544,
          0.3304283022880554,
          0.02525630220770836,
          0.06325732916593552,
          -0.19399449229240417,
          0.049411289393901825,
          -0.17402593791484833,
          -0.19512887299060822,
          -0.658555269241333,
          -0.2273927927017212,
          -0.31977578997612,
          -0.5805383324623108
        ],
        [
          0.016736214980483055,
          -0.165181502699852,
          0.2372732311487198,
          0.02408588118851185,
          -0.20178602635860443,
          -0.06738561391830444,
          -0.43549129366874695,
          -0.011726983822882175,
          -0.0015142736956477165,
          -0.3524901568889618,
          -0.2957403361797333,
          0.05770086497068405,
          -0.34777238965034485,
          0.1991976946592331,
          -0.1271793246269226,
          -0.025829272344708443,
          -0.04357467219233513,
          -0.050483908504247665,
          -0.07772647589445114,
          -0.1162370815873146,
          0.18510030210018158,
          -0.020785478875041008,
          -0.10408826172351837,
          0.021537763997912407,
          0.09055016189813614,
          -0.16473020613193512,
          -0.2154053896665573,
          -0.12758271396160126,
          0.2972877025604248,
          0.11590762436389923,
          0.03193293884396553,
          -0.12662822008132935,
          -0.08526287227869034,
          0.11572612076997757,
          0.06360933929681778,
          -0.23802748322486877,
          -0.0052601033821702,
          -0.24731877446174622,
          0.41430923342704773,
          -0.09314984828233719,
          -0.04643648490309715,
          0.1975591480731964,
          -0.017016341909766197,
          0.14871345460414886,
          -0.26779448986053467,
          -0.1681744009256363,
          0.08945100009441376,
          -0.11438529938459396,
          -0.19212013483047485,
          0.03824177756905556,
          -0.047552142292261124,
          0.03210853785276413,
          0.035697732120752335,
          -0.17766393721103668,
          -0.33989283442497253,
          -0.047338612377643585,
          -0.21260391175746918,
          0.155238077044487,
          0.06528495252132416,
          -0.2775880992412567,
          0.09267530590295792,
          0.2605275809764862,
          -0.5520623326301575,
          -0.22515791654586792
        ],
        [
          -0.11756432801485062,
          -0.09810974448919296,
          -0.13147303462028503,
          -0.03673464432358742,
          0.04201897978782654,
          -0.07745428383350372,
          -0.18242532014846802,
          -0.10950197279453278,
          -0.17777341604232788,
          0.09366095811128616,
          -0.27183952927589417,
          -0.06643535941839218,
          -0.01130392961204052,
          0.2991764545440674,
          -0.046802204102277756,
          -0.5116163492202759,
          0.1495782881975174,
          -0.16355547308921814,
          -0.22630593180656433,
          0.12240343540906906,
          -0.017649894580245018,
          -0.18592527508735657,
          0.006230055820196867,
          -0.31752538681030273,
          0.035540152341127396,
          -0.13077916204929352,
          -0.24987033009529114,
          0.27303630113601685,
          0.3469476103782654,
          -0.1234745904803276,
          0.07919369637966156,
          0.07042720913887024,
          0.19855991005897522,
          -0.2062099277973175,
          -0.032187480479478836,
          0.14459477365016937,
          0.2964027523994446,
          -0.09977131336927414,
          0.1431633085012436,
          0.0722389742732048,
          -0.042163632810115814,
          0.430308997631073,
          0.18381787836551666,
          0.08758484572172165,
          0.23486976325511932,
          -0.14943191409111023,
          -0.03157653287053108,
          0.2631681561470032,
          0.07534576207399368,
          0.29505419731140137,
          -0.1355707347393036,
          -0.2893725037574768,
          -0.1427246481180191,
          0.25957173109054565,
          0.06692567467689514,
          -0.4061247706413269,
          -0.06682486087083817,
          -0.1282900869846344,
          0.061080705374479294,
          -0.15325197577476501,
          0.09439294040203094,
          -0.16789135336875916,
          0.12397166341543198,
          -0.1407659947872162
        ],
        [
          0.024465536698698997,
          0.18263530731201172,
          -0.41284194588661194,
          -0.5089671015739441,
          -0.15798622369766235,
          -0.10097912698984146,
          0.0386088527739048,
          -0.02660202793776989,
          0.0771690309047699,
          0.12342352420091629,
          -0.1696845144033432,
          0.0196334607899189,
          0.026471488177776337,
          -0.2804710566997528,
          0.027017561718821526,
          0.08755288273096085,
          0.15709197521209717,
          -0.29237547516822815,
          0.15737536549568176,
          0.1377667635679245,
          -0.16968277096748352,
          0.09407874196767807,
          0.08726118505001068,
          0.2990010678768158,
          0.36621710658073425,
          -0.07586466521024704,
          -0.17964716255664825,
          0.025440525263547897,
          0.29137349128723145,
          0.05501216650009155,
          0.0805075615644455,
          -0.16341742873191833,
          0.029238056391477585,
          0.009580790996551514,
          0.029436388984322548,
          -0.20198826491832733,
          -0.1837337166070938,
          0.19796188175678253,
          0.18387442827224731,
          0.006588162388652563,
          -0.014925895258784294,
          0.12577314674854279,
          -0.02260497398674488,
          -0.22563806176185608,
          0.08133595436811447,
          0.13840818405151367,
          -0.1599399596452713,
          -0.11718370020389557,
          0.1388094425201416,
          0.14935202896595,
          -0.14009831845760345,
          0.08752375841140747,
          0.3271103799343109,
          -0.19850869476795197,
          -0.2727147340774536,
          0.025587713345885277,
          0.1417706161737442,
          -0.2217944711446762,
          -0.02722705341875553,
          0.0804838314652443,
          -0.0019092772854492068,
          -0.18738295137882233,
          -0.12382768094539642,
          0.3866626024246216
        ],
        [
          -0.11186964809894562,
          0.1709582656621933,
          0.2056838572025299,
          -0.17979195713996887,
          0.2707248330116272,
          -0.14421726763248444,
          0.13382405042648315,
          -0.1496119350194931,
          -0.2832242250442505,
          -0.150588259100914,
          -0.403725802898407,
          -0.13789257407188416,
          0.12615062296390533,
          -0.0678166002035141,
          -0.09195659309625626,
          0.0401737317442894,
          -0.15233244001865387,
          0.2201530635356903,
          -0.26101723313331604,
          0.060019753873348236,
          -0.11787009984254837,
          0.0824132189154625,
          0.12521123886108398,
          -0.012183750048279762,
          -0.3807305693626404,
          -0.27273181080818176,
          -0.24157173931598663,
          0.0765676349401474,
          -0.06395284831523895,
          -0.0292386244982481,
          -0.10232513397932053,
          -0.06926266103982925,
          0.09971240907907486,
          0.16148516535758972,
          0.22014309465885162,
          0.14909441769123077,
          0.06854705512523651,
          0.06582328677177429,
          0.12185029685497284,
          -0.3386847674846649,
          0.132497176527977,
          0.018474387004971504,
          -0.21156664192676544,
          -0.36611005663871765,
          0.27035242319107056,
          0.3699503242969513,
          -0.03531528636813164,
          0.03292100876569748,
          -0.30580517649650574,
          -0.132867693901062,
          0.09102604538202286,
          0.19207344949245453,
          0.061395738273859024,
          -0.054071154445409775,
          -0.22264264523983002,
          -0.048843979835510254,
          -0.07238038629293442,
          0.12328510731458664,
          -0.06531202048063278,
          0.0072182719595730305,
          -0.21507517993450165,
          -0.025321245193481445,
          0.11775390803813934,
          -0.08937403559684753
        ],
        [
          -0.267544150352478,
          0.23473046720027924,
          -0.31157389283180237,
          0.18581128120422363,
          -0.01499487366527319,
          -0.043774671852588654,
          -0.057693954557180405,
          0.07880979031324387,
          -0.35784482955932617,
          -0.21327424049377441,
          0.3261415660381317,
          -0.30301663279533386,
          -0.1360630989074707,
          -0.11575533449649811,
          0.29226985573768616,
          0.21439769864082336,
          0.15254849195480347,
          -0.07908685505390167,
          -0.19289849698543549,
          0.10221463441848755,
          0.15955358743667603,
          -0.23193268477916718,
          -0.1051388829946518,
          -0.10085641592741013,
          -0.01812133379280567,
          -0.05252600088715553,
          -0.3323836922645569,
          -0.0344831719994545,
          0.10583734512329102,
          0.008623369969427586,
          0.15683192014694214,
          -0.17082096636295319,
          0.11019899696111679,
          -0.16748209297657013,
          0.00939309224486351,
          -0.19453217089176178,
          0.25173231959342957,
          0.1194983571767807,
          -0.14887309074401855,
          -0.26078805327415466,
          -0.1767110675573349,
          -0.1671524941921234,
          0.15342313051223755,
          -0.04898863285779953,
          -0.2679693400859833,
          -0.14194418489933014,
          -0.050790127366781235,
          0.22311840951442719,
          0.36554640531539917,
          -0.12019488960504532,
          0.09375803172588348,
          -0.11047527939081192,
          0.16215085983276367,
          -0.010244444943964481,
          -0.23957011103630066,
          0.035794634371995926,
          -0.0625714436173439,
          0.10598649084568024,
          -0.34481939673423767,
          0.06537380069494247,
          -0.12104648351669312,
          0.3835945129394531,
          0.1297983080148697,
          -0.1901717334985733
        ],
        [
          0.02229306846857071,
          0.21605704724788666,
          -0.030840937048196793,
          -0.11028025299310684,
          0.1763998568058014,
          -0.15106861293315887,
          0.14706124365329742,
          -0.08252791315317154,
          0.15235519409179688,
          0.13720931112766266,
          0.14016637206077576,
          0.084499791264534,
          0.12212759256362915,
          0.10996092855930328,
          -0.1033734604716301,
          -0.1893116980791092,
          -0.5096863508224487,
          -0.31520402431488037,
          -0.04231312498450279,
          -0.1862269639968872,
          0.2977426052093506,
          0.22634448111057281,
          -0.4169154763221741,
          0.1348661333322525,
          -0.17624825239181519,
          0.1869562417268753,
          0.07103189080953598,
          -0.18408173322677612,
          -0.14249201118946075,
          0.10757807642221451,
          -0.13692252337932587,
          -0.256862074136734,
          -0.01898626796901226,
          -0.1368294358253479,
          -0.1558755338191986,
          0.11758983135223389,
          -0.03902046009898186,
          0.0548400916159153,
          -0.0012681405059993267,
          -0.1803961843252182,
          0.19532544910907745,
          0.11801410466432571,
          0.35729193687438965,
          0.060669124126434326,
          -0.08157225698232651,
          0.18881620466709137,
          -0.06407665461301804,
          0.04315146431326866,
          0.20465564727783203,
          0.08109907805919647,
          0.08520801365375519,
          0.09469027817249298,
          -0.23969976603984833,
          -0.2147136628627777,
          -0.12290605902671814,
          0.07186737656593323,
          -0.2008221596479416,
          -0.5662634372711182,
          0.12846708297729492,
          -0.12199138104915619,
          -0.1513976752758026,
          0.13878585398197174,
          0.16111908853054047,
          -0.19572944939136505
        ],
        [
          -0.24127285182476044,
          -0.5870266556739807,
          -0.0791582390666008,
          0.08131736516952515,
          0.14503096044063568,
          0.49006620049476624,
          -0.0249593798071146,
          0.3547326326370239,
          0.16588528454303741,
          0.24777820706367493,
          0.516880214214325,
          0.2976318597793579,
          -0.09301123023033142,
          0.09025900810956955,
          -0.15209677815437317,
          -0.011359614320099354,
          -0.06334830075502396,
          -0.1341564953327179,
          0.08815950900316238,
          -0.0676107183098793,
          -0.1639956533908844,
          -0.3309031128883362,
          0.048979148268699646,
          -0.007508663926273584,
          -0.22536145150661469,
          -0.17941686511039734,
          -0.1602874994277954,
          -0.09916546940803528,
          0.08841563761234283,
          0.1579885482788086,
          0.08911395072937012,
          0.10978332906961441,
          0.082926444709301,
          0.2789124846458435,
          -0.021262768656015396,
          0.22510983049869537,
          0.14527669548988342,
          0.1422606259584427,
          0.28076815605163574,
          -0.1865307241678238,
          0.18354499340057373,
          0.18621347844600677,
          -0.10285703837871552,
          -0.1029113158583641,
          0.12410944700241089,
          -0.09161429107189178,
          -0.15532001852989197,
          -0.1332288682460785,
          0.20195096731185913,
          0.25970104336738586,
          0.22687554359436035,
          0.006413626484572887,
          -0.021533694118261337,
          -0.026909654960036278,
          -0.07458693534135818,
          -0.3075116276741028,
          -0.07104834914207458,
          -0.124707892537117,
          -0.4009358882904053,
          -0.5033931732177734,
          -0.35034435987472534,
          0.3594037592411041,
          -0.10649481415748596,
          -0.17140114307403564
        ],
        [
          0.13747145235538483,
          0.15434567630290985,
          -0.12665486335754395,
          -0.22277769446372986,
          -0.0076266066171228886,
          -0.11184501647949219,
          -0.3566071689128876,
          0.252477765083313,
          0.1136978343129158,
          -0.22576788067817688,
          0.3731105923652649,
          0.24177996814250946,
          -0.15457752346992493,
          0.18444789946079254,
          0.17282384634017944,
          0.13998673856258392,
          -0.07012860476970673,
          0.03813069313764572,
          -0.2132558673620224,
          -0.0963568463921547,
          -0.16404640674591064,
          -0.17722757160663605,
          0.06829293072223663,
          -0.10929249227046967,
          -0.04617893323302269,
          -0.2921123504638672,
          -0.06122710183262825,
          -0.16522866487503052,
          -0.02627912536263466,
          0.10856930911540985,
          0.2355697751045227,
          -0.047986842691898346,
          -0.3516145944595337,
          -0.13218849897384644,
          0.06499314308166504,
          0.25603407621383667,
          0.18828769028186798,
          -0.049171049147844315,
          -0.20860344171524048,
          -0.011763029731810093,
          -0.18703784048557281,
          0.11584121733903885,
          0.19699102640151978,
          0.013140851631760597,
          0.4908447861671448,
          0.14910078048706055,
          0.11347474157810211,
          0.2540227770805359,
          -0.25512081384658813,
          -0.28169116377830505,
          0.016935206949710846,
          0.12143748998641968,
          0.10540337860584259,
          -0.012216843664646149,
          0.04456845670938492,
          0.1715034395456314,
          -0.007975500077009201,
          -0.12231410294771194,
          0.007430130150169134,
          0.01573885791003704,
          0.3635532557964325,
          -0.10307084769010544,
          -0.16486100852489471,
          0.08958552777767181
        ],
        [
          0.23575401306152344,
          0.0033638544846326113,
          -0.10826803743839264,
          0.15675972402095795,
          0.1665450781583786,
          0.06559118628501892,
          -0.20537453889846802,
          0.13902504742145538,
          0.1583893746137619,
          -0.1028250977396965,
          0.03836078941822052,
          -0.1088903620839119,
          0.01040799543261528,
          0.11350355297327042,
          -0.002934994176030159,
          -0.20248816907405853,
          -0.19728383421897888,
          0.07397770881652832,
          0.09856051206588745,
          0.056136198341846466,
          -0.019947174936532974,
          0.2658173739910126,
          0.043058495968580246,
          -0.004795735236257315,
          -0.4479941129684448,
          -0.10900922864675522,
          -0.17821021378040314,
          0.09487780183553696,
          -0.0013918926706537604,
          -0.44789764285087585,
          0.3325614929199219,
          -0.29970502853393555,
          0.10793012380599976,
          0.05763886123895645,
          -0.17370742559432983,
          0.3306002616882324,
          -0.14222456514835358,
          -0.07681261748075485,
          -0.06013689935207367,
          0.05555935576558113,
          -0.052217498421669006,
          -0.04701309651136398,
          0.021407367661595345,
          0.23437662422657013,
          -0.11831656843423843,
          -0.29311761260032654,
          -0.1933291107416153,
          -0.1212153285741806,
          0.019664473831653595,
          0.3811187148094177,
          0.1368127018213272,
          0.23599429428577423,
          0.3961986005306244,
          -0.16377180814743042,
          -0.07468879222869873,
          -0.19760768115520477,
          -0.03839636221528053,
          0.09528551995754242,
          -0.008824344724416733,
          0.2905691862106323,
          0.008574542589485645,
          -0.07511511445045471,
          0.01393142156302929,
          0.1674315184354782
        ],
        [
          -0.09193649888038635,
          -0.08299212157726288,
          0.20395289361476898,
          0.08538827300071716,
          -0.20953403413295746,
          -0.0959000289440155,
          0.05291687697172165,
          -0.06951791048049927,
          0.04902958869934082,
          0.20829759538173676,
          -0.01394644845277071,
          0.014218865893781185,
          -0.41459062695503235,
          -0.14087748527526855,
          -0.22177572548389435,
          -0.11475291848182678,
          -0.2410098910331726,
          -0.030529778450727463,
          -0.09612087905406952,
          -0.22591564059257507,
          -0.27971166372299194,
          0.005916125141084194,
          0.13268883526325226,
          -0.046922262758016586,
          -0.2634301781654358,
          -0.10779374837875366,
          0.4014987349510193,
          0.30069056153297424,
          0.1503772884607315,
          -0.09720223397016525,
          0.15866601467132568,
          0.050836946815252304,
          0.019590042531490326,
          -0.23550564050674438,
          -0.09868317097425461,
          -0.07193957269191742,
          0.30279335379600525,
          0.03618517518043518,
          -0.05241093039512634,
          -0.24161100387573242,
          0.027176544070243835,
          -0.27711066603660583,
          -0.06939585506916046,
          -0.4339985251426697,
          -0.08720031380653381,
          -0.18644492328166962,
          0.0689864307641983,
          0.010753413662314415,
          0.42869994044303894,
          -0.2176925092935562,
          0.02528122439980507,
          0.007860342971980572,
          0.24995072185993195,
          -0.058984026312828064,
          0.07175201177597046,
          -0.30081355571746826,
          -0.15717880427837372,
          -0.1796572059392929,
          0.16178591549396515,
          -0.019127368927001953,
          0.1533234417438507,
          -0.29265865683555603,
          -0.3076251745223999,
          -0.16135331988334656
        ],
        [
          0.03508227691054344,
          -0.026717953383922577,
          0.012833129614591599,
          0.06145624443888664,
          0.030024778097867966,
          0.3131018579006195,
          -0.061957936733961105,
          -0.0626906231045723,
          -0.18175682425498962,
          0.1715831756591797,
          0.15563106536865234,
          0.021108975633978844,
          -0.018244817852973938,
          0.08326905220746994,
          0.20044371485710144,
          -0.24957938492298126,
          0.03767111152410507,
          -0.2345561385154724,
          0.09141068160533905,
          -0.27224352955818176,
          0.060226719826459885,
          0.06531213223934174,
          0.10193584859371185,
          -0.2898593246936798,
          -0.23825876414775848,
          0.47813376784324646,
          0.21250423789024353,
          0.1657085418701172,
          0.10794559121131897,
          0.2203674018383026,
          -0.13714458048343658,
          0.08341879397630692,
          0.03254399448633194,
          0.1269586682319641,
          -0.01958393305540085,
          -0.23642873764038086,
          0.27323874831199646,
          -0.4484938681125641,
          0.18863660097122192,
          -0.08016510307788849,
          0.08074536174535751,
          0.09918992221355438,
          -0.06508027017116547,
          0.05442630127072334,
          0.4460003674030304,
          0.06409753113985062,
          -0.013744905591011047,
          -0.04429028555750847,
          0.1637270152568817,
          -0.021249454468488693,
          0.15383478999137878,
          0.15571336448192596,
          0.399495005607605,
          0.07387436181306839,
          -0.41872453689575195,
          0.2856857180595398,
          -0.20272544026374817,
          0.11734770238399506,
          -0.20024560391902924,
          -0.004538052715361118,
          0.13561111688613892,
          0.023929111659526825,
          0.08696658164262772,
          -0.007216972298920155
        ],
        [
          0.1666952222585678,
          -0.3155882656574249,
          0.04624088108539581,
          0.06619739532470703,
          -0.20577898621559143,
          -0.08401678502559662,
          0.17056752741336823,
          0.0683089941740036,
          -0.05579327791929245,
          0.13751332461833954,
          0.1970996856689453,
          -0.12227689474821091,
          0.1398390531539917,
          -0.1098150685429573,
          -0.0684593915939331,
          -0.20736739039421082,
          -0.10029855370521545,
          0.22024162113666534,
          -0.38433921337127686,
          -0.3880044221878052,
          -0.12380987405776978,
          0.13537412881851196,
          -0.10860226303339005,
          -0.16863583028316498,
          0.416908323764801,
          0.09640489518642426,
          -0.4170507788658142,
          -0.24981021881103516,
          -0.2700684666633606,
          0.03548681363463402,
          0.1583631932735443,
          -0.034174323081970215,
          0.24421529471874237,
          -0.07567065209150314,
          0.1305938959121704,
          0.20255954563617706,
          -0.03376634046435356,
          -0.29796403646469116,
          0.3472502827644348,
          -0.1732342541217804,
          -0.03984075039625168,
          -0.04503892734646797,
          0.0392901636660099,
          -0.004167730454355478,
          0.16763964295387268,
          -0.13497698307037354,
          -0.06304577738046646,
          -0.002672008238732815,
          0.04185662046074867,
          0.18341000378131866,
          0.16042281687259674,
          0.009693469852209091,
          0.3004586398601532,
          0.3407835066318512,
          0.12505201995372772,
          0.1281026303768158,
          0.2652474641799927,
          -0.4019825756549835,
          -0.20784734189510345,
          -0.006515008397400379,
          0.037147533148527145,
          -0.09322869032621384,
          -0.228022038936615,
          -0.23165814578533173
        ],
        [
          0.026267383247613907,
          0.059304382652044296,
          0.022026527673006058,
          -0.08409788459539413,
          -0.0037009012885391712,
          0.02549086883664131,
          -0.3242604732513428,
          0.14573435485363007,
          -0.31542012095451355,
          -0.030093219131231308,
          -0.07493790239095688,
          -0.18346042931079865,
          -0.1348150223493576,
          0.18130359053611755,
          0.32138800621032715,
          -0.1736174076795578,
          0.06403908878564835,
          -0.3898758292198181,
          0.11753861606121063,
          0.10683295875787735,
          -0.3696463406085968,
          0.15228217840194702,
          0.07462799549102783,
          0.15913258492946625,
          -0.18666546046733856,
          0.15501025319099426,
          0.14498968422412872,
          -0.16430607438087463,
          -0.03628081455826759,
          -0.22827023267745972,
          -0.24363406002521515,
          0.24278058111667633,
          0.3503328263759613,
          0.3619104325771332,
          0.10345788300037384,
          -0.1312117576599121,
          -0.2903860807418823,
          0.06951763480901718,
          -0.16738475859165192,
          -0.12209787964820862,
          -0.04979104921221733,
          -0.3146161139011383,
          0.08404319733381271,
          0.07786303758621216,
          -0.021416712552309036,
          0.004813574254512787,
          -0.2225719839334488,
          0.03305238485336304,
          0.01780031807720661,
          -0.19096295535564423,
          0.18790987133979797,
          -0.26739734411239624,
          -0.12715446949005127,
          -0.14629286527633667,
          0.22579015791416168,
          -0.16135136783123016,
          -0.0011781328357756138,
          -0.283283531665802,
          -0.07549495995044708,
          0.138021782040596,
          0.03613307699561119,
          0.05387696623802185,
          -0.1415795534849167,
          -0.30670905113220215
        ],
        [
          0.04531122371554375,
          0.3362264633178711,
          -0.1735144555568695,
          -0.004398215562105179,
          -0.20706981420516968,
          0.37625935673713684,
          0.05131019279360771,
          0.038051046431064606,
          -0.21225063502788544,
          0.014418067410588264,
          0.2926020920276642,
          0.11174360662698746,
          -0.11413489282131195,
          -0.06290196627378464,
          0.04510996490716934,
          0.03240992873907089,
          0.23677590489387512,
          0.035538848489522934,
          -0.29711732268333435,
          0.01113004982471466,
          0.11995647847652435,
          0.4074656665325165,
          0.2280534952878952,
          0.15441161394119263,
          -0.1047116219997406,
          -0.001983569236472249,
          -0.030831657350063324,
          0.23446188867092133,
          -0.16187059879302979,
          -0.07810188829898834,
          -0.08715938031673431,
          -0.2185901403427124,
          0.11989405751228333,
          0.0501447357237339,
          0.28289246559143066,
          0.03985222801566124,
          0.02072347141802311,
          0.10105383396148682,
          -0.003582529490813613,
          -0.02218051627278328,
          0.13381749391555786,
          0.0600215420126915,
          -0.40906617045402527,
          0.23177127540111542,
          -0.1368052214384079,
          0.19844794273376465,
          0.4358014166355133,
          -0.06241462752223015,
          0.07057022303342819,
          0.14322882890701294,
          0.06309181451797485,
          -0.36099639534950256,
          -0.16249993443489075,
          -0.3523610830307007,
          0.057683542370796204,
          0.0331699512898922,
          0.11406175792217255,
          -0.08678779751062393,
          0.3392661213874817,
          -0.06753690540790558,
          0.15258939564228058,
          -0.055838268250226974,
          0.019761424511671066,
          0.045249249786138535
        ],
        [
          0.05697222426533699,
          0.092460498213768,
          0.15377749502658844,
          -0.1279655396938324,
          -0.07964916527271271,
          -0.0059793321415781975,
          -0.05886346474289894,
          -0.4017423093318939,
          -0.02852357178926468,
          -0.20150570571422577,
          0.2103990763425827,
          -0.08033924549818039,
          0.05611645430326462,
          0.17431706190109253,
          -0.42635828256607056,
          0.03020569682121277,
          0.0198297668248415,
          -0.01593121886253357,
          0.19626593589782715,
          0.18721053004264832,
          -0.1526719480752945,
          -0.07469874620437622,
          -0.05241812393069267,
          0.22785276174545288,
          -0.11483000963926315,
          0.048320408910512924,
          0.02273121103644371,
          0.23177964985370636,
          0.1472259759902954,
          0.08751178532838821,
          0.12074354290962219,
          0.11461969465017319,
          0.11632388830184937,
          0.035490989685058594,
          0.24211615324020386,
          0.15762069821357727,
          0.2352188378572464,
          -0.15134987235069275,
          -0.13315965235233307,
          -0.3066082298755646,
          0.05075979605317116,
          0.1135263592004776,
          0.13784858584403992,
          0.3588942587375641,
          0.11682387441396713,
          0.3275268077850342,
          -0.0244271382689476,
          -0.2559722065925598,
          0.4350518584251404,
          0.17996716499328613,
          -0.0675128847360611,
          -0.1607084423303604,
          -0.031268250197172165,
          0.1657167226076126,
          0.27623069286346436,
          0.08040771633386612,
          -0.3089406490325928,
          0.2170313447713852,
          -0.42544570565223694,
          0.1310582309961319,
          0.09526657313108444,
          0.14412470161914825,
          -0.3408423364162445,
          -0.14160360395908356
        ],
        [
          0.023591184988617897,
          -0.004229377955198288,
          0.03161701560020447,
          -0.15881486237049103,
          0.12973317503929138,
          0.18692630529403687,
          -0.09806422889232635,
          -0.13184267282485962,
          -0.005332481116056442,
          0.060509033501148224,
          -0.16330677270889282,
          -0.05422833934426308,
          -0.010924575850367546,
          0.007042775861918926,
          0.372906893491745,
          0.24935679137706757,
          -0.08857392519712448,
          0.3440404236316681,
          0.06294985115528107,
          -0.24496343731880188,
          -0.1325809508562088,
          -0.0643720030784607,
          0.04973111301660538,
          -0.024361809715628624,
          -0.10597315430641174,
          0.0960405245423317,
          -0.025510156527161598,
          0.21182191371917725,
          -0.21046653389930725,
          0.1695808619260788,
          -0.021359369158744812,
          -0.04166889563202858,
          0.1271740347146988,
          0.12086170166730881,
          0.10580062121152878,
          -0.1933061182498932,
          0.008246618323028088,
          0.1285877674818039,
          0.12572439014911652,
          -0.005720370914787054,
          -0.1822274923324585,
          0.259989470243454,
          0.238300159573555,
          0.044581614434719086,
          -0.4297332465648651,
          0.1281890571117401,
          0.10210267454385757,
          0.2523755729198456,
          0.17721575498580933,
          -0.06514567136764526,
          0.43521249294281006,
          0.0473998486995697,
          0.06463025510311127,
          0.4489249289035797,
          0.16054612398147583,
          -0.16683043539524078,
          -0.1555994600057602,
          -0.07529973238706589,
          0.1967993527650833,
          0.023209160193800926,
          -0.11827821284532547,
          0.03142882138490677,
          -0.02274557761847973,
          0.4570233225822449
        ],
        [
          -0.17825284600257874,
          0.017625926062464714,
          -0.23937968909740448,
          0.22454951703548431,
          -0.4815136194229126,
          -0.1793525367975235,
          0.077369324862957,
          0.29509857296943665,
          0.008893988095223904,
          0.254241019487381,
          -0.16115765273571014,
          0.10583647340536118,
          -0.14732302725315094,
          0.3218582570552826,
          -0.18528591096401215,
          -0.15706218779087067,
          -0.03224882483482361,
          -0.08139172196388245,
          -0.14431309700012207,
          -0.19038884341716766,
          0.49582549929618835,
          -0.12587513029575348,
          0.21520556509494781,
          -0.007393366657197475,
          0.04173387214541435,
          -0.19964951276779175,
          -0.05391915515065193,
          -0.4125983715057373,
          -0.10458295792341232,
          -0.0956246554851532,
          0.07876698672771454,
          0.277802050113678,
          0.2635177671909332,
          0.3752996623516083,
          -0.15226733684539795,
          0.17081913352012634,
          -0.09613611549139023,
          0.04619676247239113,
          0.045171741396188736,
          -0.0922580361366272,
          0.14535535871982574,
          -0.1744840294122696,
          -0.11969307065010071,
          -0.04063684493303299,
          0.027064921334385872,
          0.26429468393325806,
          0.05618375167250633,
          -0.16265098750591278,
          0.24973203241825104,
          0.17846940457820892,
          0.02970965765416622,
          0.27688589692115784,
          -0.057640157639980316,
          0.29258349537849426,
          -0.000897123187314719,
          -0.17700085043907166,
          -0.21319687366485596,
          0.053633999079465866,
          -0.11555267870426178,
          0.044714365154504776,
          0.347383975982666,
          -0.11532045900821686,
          0.07684135437011719,
          0.22594457864761353
        ],
        [
          -0.04044365882873535,
          -0.040906935930252075,
          0.124695785343647,
          -0.1019778847694397,
          -0.1641162633895874,
          -0.025936638936400414,
          0.08126309514045715,
          -0.16726043820381165,
          0.12251245975494385,
          -0.2168024331331253,
          0.12852692604064941,
          0.032824158668518066,
          0.1572108119726181,
          -0.16278666257858276,
          0.14437830448150635,
          0.35040900111198425,
          -0.05061759799718857,
          -0.2895410358905792,
          -0.04432414099574089,
          -0.03022160939872265,
          0.29270708560943604,
          -0.17345882952213287,
          0.2699558734893799,
          -0.3509656488895416,
          0.10083067417144775,
          0.281542032957077,
          -0.13979385793209076,
          0.21544018387794495,
          -0.2554543912410736,
          0.06468606740236282,
          0.19836440682411194,
          0.016439413651823997,
          -0.23657742142677307,
          0.015369843691587448,
          -0.06000382453203201,
          -0.2321193814277649,
          -0.19266146421432495,
          0.11226167529821396,
          0.0557737722992897,
          -0.14529317617416382,
          -0.27922460436820984,
          -0.04871062561869621,
          -0.029232725501060486,
          -0.03864496201276779,
          0.18084509670734406,
          0.040479566901922226,
          -0.1317203789949417,
          0.04980493709445,
          -0.21088697016239166,
          0.37914371490478516,
          -0.04783698543906212,
          0.38726216554641724,
          -0.06434320658445358,
          -0.10013557970523834,
          0.21401387453079224,
          -0.2727776765823364,
          -0.06782901287078857,
          0.1355665922164917,
          0.3537443280220032,
          0.05024616792798042,
          -0.05462443828582764,
          -0.23166483640670776,
          0.018101343885064125,
          -0.3006366491317749
        ],
        [
          -0.11220936477184296,
          -0.17393581569194794,
          0.32677608728408813,
          0.17884452641010284,
          0.07584092020988464,
          -0.20234191417694092,
          -0.2742518186569214,
          0.2755442261695862,
          -0.014105911366641521,
          -0.33900684118270874,
          -0.05121024325489998,
          0.11396615952253342,
          -0.13617461919784546,
          -0.10140252858400345,
          0.12283094972372055,
          0.3138112723827362,
          0.1891518533229828,
          -0.21390540897846222,
          -0.08924537152051926,
          0.20572945475578308,
          -0.03714018315076828,
          0.4239839017391205,
          -0.0396854504942894,
          0.2540017068386078,
          -0.057547569274902344,
          0.007236445788294077,
          0.05507589504122734,
          0.08428413420915604,
          0.10139152407646179,
          0.045013055205345154,
          -0.07772685587406158,
          0.00026764668291434646,
          -0.1521444320678711,
          0.023150712251663208,
          0.13677798211574554,
          -0.04896417632699013,
          -0.10287018865346909,
          -0.0015022906009107828,
          0.09181645512580872,
          -0.03435533866286278,
          0.07885491847991943,
          0.16779522597789764,
          -0.18094836175441742,
          -0.04569477587938309,
          -0.11889418959617615,
          -0.10351069271564484,
          0.20678281784057617,
          0.028189994394779205,
          0.3459905683994293,
          0.0331842377781868,
          -0.18182504177093506,
          0.34180042147636414,
          -0.11879770457744598,
          0.28967908024787903,
          0.12644696235656738,
          0.17243920266628265,
          0.04421887546777725,
          -0.2677309811115265,
          -0.1454058587551117,
          0.17968502640724182,
          -0.0508219376206398,
          -0.332736998796463,
          0.4808999001979828,
          0.0369933657348156
        ],
        [
          -0.19162556529045105,
          0.16149932146072388,
          -0.05694570764899254,
          0.024912212044000626,
          -0.04610610753297806,
          0.19338887929916382,
          0.03114352747797966,
          0.19615015387535095,
          0.2253454178571701,
          -0.3490889072418213,
          0.015088662505149841,
          0.17641879618167877,
          0.22682656347751617,
          -0.1909172385931015,
          0.18974801898002625,
          0.10056347399950027,
          0.08954876661300659,
          0.15276704728603363,
          -0.21042342483997345,
          0.022660091519355774,
          0.06519460678100586,
          -0.2377414107322693,
          -0.2664100229740143,
          0.08242625743150711,
          -0.1815156191587448,
          0.3300582468509674,
          0.21175287663936615,
          -0.155142679810524,
          0.13685446977615356,
          -0.35282859206199646,
          -0.1911657303571701,
          0.10260409861803055,
          0.0037987609393894672,
          -0.014841430820524693,
          -0.0013999994844198227,
          0.20182521641254425,
          0.05662766098976135,
          0.13973468542099,
          0.19559644162654877,
          0.09770581126213074,
          0.10986500978469849,
          -0.12049270421266556,
          0.0325603224337101,
          -0.1658674031496048,
          0.07907257974147797,
          -0.009993493556976318,
          -0.1739548295736313,
          0.016023900359869003,
          0.08062978088855743,
          0.23597776889801025,
          0.23796840012073517,
          -0.09752848744392395,
          -0.15013159811496735,
          0.3577316105365753,
          -0.44775331020355225,
          -0.10221981257200241,
          0.0399169847369194,
          -0.10269628465175629,
          -0.04668883606791496,
          -0.012151595205068588,
          0.26704201102256775,
          -0.21272584795951843,
          -0.44989973306655884,
          -0.11478525400161743
        ],
        [
          -0.21687443554401398,
          -0.3625625669956207,
          -0.03479357063770294,
          0.14867916703224182,
          0.09784701466560364,
          0.11436688154935837,
          0.1888454705476761,
          -0.126639723777771,
          -0.4106632471084595,
          -0.1049862951040268,
          0.09700121730566025,
          0.1608772873878479,
          -0.06722567230463028,
          0.050405677407979965,
          -0.07584722340106964,
          -0.09731920808553696,
          -0.10247444361448288,
          -0.06696118414402008,
          -0.2341708391904831,
          0.11528965830802917,
          -0.1099509745836258,
          -0.03966628015041351,
          -0.27429595589637756,
          -0.12494038045406342,
          0.07464629411697388,
          0.012770635075867176,
          0.027332328259944916,
          -0.15419939160346985,
          0.2607744038105011,
          0.03464743122458458,
          -0.47802114486694336,
          -0.2385968118906021,
          0.32543817162513733,
          -0.07514344155788422,
          -0.02362649329006672,
          0.1347370147705078,
          -0.04078596830368042,
          0.3570517599582672,
          0.034461382776498795,
          0.30087706446647644,
          -0.21813631057739258,
          -0.022438522428274155,
          0.032234709709882736,
          0.06927983462810516,
          0.020927464589476585,
          0.09043318033218384,
          0.06315866112709045,
          0.04624691978096962,
          -0.10177981853485107,
          0.11309236288070679,
          -0.006114466581493616,
          0.14565186202526093,
          0.3584672212600708,
          -0.09283030033111572,
          0.37106943130493164,
          0.16096337139606476,
          -0.41647428274154663,
          0.10334668308496475,
          0.10228989273309708,
          0.08535598963499069,
          0.11664143949747086,
          -0.0816173106431961,
          -0.03252056613564491,
          0.14338591694831848
        ],
        [
          -0.2880052328109741,
          0.059608086943626404,
          0.09142356365919113,
          0.21215015649795532,
          -0.23884105682373047,
          0.39192864298820496,
          -0.2814162075519562,
          0.15928684175014496,
          0.03817666694521904,
          0.247859388589859,
          -0.08102445304393768,
          -0.005893976427614689,
          0.2876189649105072,
          -0.07151111215353012,
          0.13519178330898285,
          -0.07814667373895645,
          -0.2027641087770462,
          0.17619149386882782,
          0.022424880415201187,
          0.18674881756305695,
          -0.027025578543543816,
          -0.2452080100774765,
          -0.24415650963783264,
          0.03694887086749077,
          -0.036403607577085495,
          -0.08251843601465225,
          -0.24235183000564575,
          0.02074647881090641,
          -0.2726680636405945,
          -0.080449678003788,
          -0.17180907726287842,
          -0.11788880079984665,
          -0.030249837785959244,
          0.017412791028618813,
          -0.17487086355686188,
          -0.05319763347506523,
          -0.09279809892177582,
          -0.08857036381959915,
          -0.056982919573783875,
          -0.0962274819612503,
          0.36295270919799805,
          0.3358662724494934,
          -0.15970726311206818,
          -0.04481930658221245,
          0.018910078331828117,
          -0.04634277522563934,
          -0.2677319645881653,
          -0.12040962278842926,
          0.3482015132904053,
          -0.2696380615234375,
          -0.18776214122772217,
          -0.024358384311199188,
          0.33069342374801636,
          -0.02929571084678173,
          0.24746647477149963,
          0.06872811913490295,
          0.006424694322049618,
          0.07316789776086807,
          0.1124807819724083,
          -0.08935116231441498,
          0.26757916808128357,
          0.03563091903924942,
          -0.021144775673747063,
          -0.3179740309715271
        ],
        [
          0.0018324371194466949,
          0.1274537593126297,
          0.23852145671844482,
          -0.051988694816827774,
          0.10101064294576645,
          -0.3107760548591614,
          0.29042771458625793,
          0.3090363144874573,
          0.1442207247018814,
          0.04819149151444435,
          0.14677147567272186,
          -0.375664621591568,
          0.026674991473555565,
          0.008145599626004696,
          0.11740934103727341,
          0.24755394458770752,
          -0.27160143852233887,
          0.14008130133152008,
          0.026602504774928093,
          0.14597848057746887,
          0.02678450383245945,
          0.08829188346862793,
          0.27618148922920227,
          -0.0960470661520958,
          0.15068604052066803,
          -0.1533559113740921,
          0.22363245487213135,
          0.025973821058869362,
          0.2346908003091812,
          0.028977978974580765,
          -0.09751821309328079,
          -0.2134193331003189,
          0.21727055311203003,
          0.030473459511995316,
          0.12071783095598221,
          0.02600889466702938,
          0.14606733620166779,
          -0.07085563987493515,
          0.17192767560482025,
          0.42906829714775085,
          -0.10785236954689026,
          0.13235332071781158,
          -0.11830098181962967,
          -0.003243094077333808,
          0.12076772749423981,
          -0.1771637499332428,
          -0.07716240733861923,
          -0.43913447856903076,
          0.06691741943359375,
          -0.07799297571182251,
          0.14448505640029907,
          -0.257367879152298,
          -0.07641952484846115,
          0.031130902469158173,
          0.02467386983335018,
          -0.13431316614151,
          -0.28098350763320923,
          -0.0033135034609586,
          0.06232985481619835,
          0.07168202847242355,
          0.20957720279693604,
          0.18852528929710388,
          0.19028225541114807,
          -0.15650498867034912
        ],
        [
          0.11021177470684052,
          -0.25345808267593384,
          -0.05195097252726555,
          -0.2041681855916977,
          0.009134987369179726,
          0.03251325711607933,
          0.14406558871269226,
          -0.1383889764547348,
          0.05671919882297516,
          -0.31783992052078247,
          -0.24630747735500336,
          0.006238503381609917,
          -0.20269857347011566,
          -0.14052091538906097,
          0.18040813505649567,
          0.07659249007701874,
          0.062425099313259125,
          -0.311771035194397,
          0.06571997702121735,
          0.20655059814453125,
          0.23431038856506348,
          -0.014509176835417747,
          0.3196830153465271,
          -0.171249121427536,
          0.032289475202560425,
          -0.30896252393722534,
          0.10622001439332962,
          -0.1252840906381607,
          -0.23419852554798126,
          -0.04987439140677452,
          -0.06123243644833565,
          -0.06400787830352783,
          -0.09403254091739655,
          -0.08852716535329819,
          -0.3058309257030487,
          0.3112104833126068,
          0.24941697716712952,
          -0.029713066294789314,
          0.4041370153427124,
          0.18937203288078308,
          0.39684543013572693,
          -0.1660645455121994,
          0.12490733712911606,
          0.2214072197675705,
          -0.09833754599094391,
          0.21401728689670563,
          -0.06568807363510132,
          0.09438853710889816,
          0.12682117521762848,
          -0.12241192907094955,
          0.1652555763721466,
          -0.17337781190872192,
          0.24914762377738953,
          0.010153435170650482,
          0.15692593157291412,
          0.08990967273712158,
          0.12015984952449799,
          -0.050467271357774734,
          -0.012956198304891586,
          0.017301170155405998,
          -0.12675490975379944,
          -0.0358835905790329,
          -0.07332447171211243,
          -0.16001445055007935
        ],
        [
          -0.08994635194540024,
          -0.16924835741519928,
          -0.05172484368085861,
          -0.04358783736824989,
          -0.11218076199293137,
          -0.02381756156682968,
          0.19101431965827942,
          0.07130726426839828,
          0.13957186043262482,
          0.09117033332586288,
          0.04611402004957199,
          -0.13625678420066833,
          0.040225397795438766,
          -0.19477705657482147,
          0.19079095125198364,
          -0.014506637118756771,
          -0.1419755220413208,
          -0.1874082386493683,
          -0.059868261218070984,
          -0.06304541230201721,
          -0.016467001289129257,
          -0.13757483661174774,
          -0.09907887130975723,
          0.0009146721567958593,
          -0.06956487894058228,
          -0.16293588280677795,
          -0.17634181678295135,
          -0.033142730593681335,
          0.14915771782398224,
          -0.010064336471259594,
          -0.08324228972196579,
          -0.38564440608024597,
          0.05763097107410431,
          0.5697647929191589,
          -0.03863713517785072,
          -0.10857371240854263,
          0.34987491369247437,
          -0.45514291524887085,
          -0.19495055079460144,
          -0.16080023348331451,
          -0.09463222324848175,
          -0.12233848124742508,
          -0.11896175146102905,
          0.18974414467811584,
          -0.13332639634609222,
          0.009853217750787735,
          -0.15037202835083008,
          0.12409264594316483,
          -0.18974028527736664,
          -0.07176267355680466,
          -0.27678003907203674,
          -0.10480206459760666,
          -0.2795751690864563,
          0.05623011291027069,
          0.061708081513643265,
          0.04423565790057182,
          -0.1523362249135971,
          -0.12432147562503815,
          0.028172170743346214,
          0.17228955030441284,
          -0.2147732526063919,
          -0.43136245012283325,
          -0.12990988790988922,
          0.23084598779678345
        ],
        [
          -0.22834910452365875,
          -0.11362609267234802,
          -0.08601423352956772,
          -0.2896449863910675,
          0.08596912771463394,
          -0.013914511539041996,
          0.32980993390083313,
          0.16207975149154663,
          -0.1695624738931656,
          -0.10542578995227814,
          0.05992491915822029,
          0.07219386845827103,
          0.03345368802547455,
          0.2316625565290451,
          0.12665410339832306,
          -0.07590140402317047,
          -0.27685442566871643,
          0.0950530543923378,
          -0.10917661339044571,
          0.06803081184625626,
          -0.014049436897039413,
          0.015954621136188507,
          0.059228986501693726,
          0.24808932840824127,
          -0.12927523255348206,
          -0.2618353068828583,
          0.5186340808868408,
          0.03715728595852852,
          0.1641950011253357,
          0.03957899659872055,
          -0.05719868466258049,
          0.20945538580417633,
          -0.015572561882436275,
          -0.012065024115145206,
          -0.10335174947977066,
          0.044826529920101166,
          -0.2619073688983917,
          -0.3528975546360016,
          0.07509475946426392,
          -0.33499449491500854,
          -0.20844368636608124,
          0.028938207775354385,
          0.05231817066669464,
          0.11244098842144012,
          -0.10013983398675919,
          -0.11424536257982254,
          0.13780836760997772,
          0.1263277232646942,
          0.1576865017414093,
          0.1802670955657959,
          -0.3271867036819458,
          -0.02662242390215397,
          0.11051483452320099,
          0.09700457006692886,
          -0.06900578737258911,
          0.0815376341342926,
          0.42965614795684814,
          0.29704079031944275,
          0.2391040027141571,
          0.14822643995285034,
          -0.14852838218212128,
          0.11577820777893066,
          -0.11729967594146729,
          -0.07644038647413254
        ],
        [
          -0.2678360342979431,
          0.2700216472148895,
          0.3492952585220337,
          -0.28507402539253235,
          -0.08244971185922623,
          -0.01226492878049612,
          0.10877767950296402,
          -0.30724379420280457,
          0.15113653242588043,
          -0.05034235119819641,
          0.27131417393684387,
          0.34710487723350525,
          -0.370962917804718,
          0.0012874511303380132,
          0.191266730427742,
          -0.03375167027115822,
          0.1476728916168213,
          -0.0425398014485836,
          0.3360813558101654,
          0.022957611829042435,
          0.1898859143257141,
          0.11100932955741882,
          -0.1945837140083313,
          0.19752520322799683,
          -0.023612912744283676,
          -0.050557591021060944,
          -0.31258174777030945,
          0.1380227655172348,
          0.007645127363502979,
          -0.09812195599079132,
          -0.1442754864692688,
          -0.0733131542801857,
          0.18910545110702515,
          -0.20134492218494415,
          -0.0825885459780693,
          0.09302778542041779,
          -0.2393343299627304,
          -0.256075918674469,
          -0.16773313283920288,
          -0.06494641304016113,
          0.05568103864789009,
          -0.18836712837219238,
          -0.09767034649848938,
          -0.2250976860523224,
          0.019482744857668877,
          -0.27932485938072205,
          0.011439917609095573,
          -0.03204812481999397,
          -0.29839804768562317,
          -0.09574195742607117,
          0.19623272120952606,
          -0.18970999121665955,
          0.026395220309495926,
          0.29767704010009766,
          -0.01368738617748022,
          0.11189403384923935,
          0.01020216103643179,
          0.20487630367279053,
          -0.024495888501405716,
          -0.17130279541015625,
          -0.07548695057630539,
          -0.0759609267115593,
          0.1863550990819931,
          0.062876395881176
        ],
        [
          0.20529650151729584,
          0.015307340770959854,
          -0.29440703988075256,
          0.0316108837723732,
          -0.267464280128479,
          -0.15262819826602936,
          0.030597979202866554,
          0.0166490375995636,
          -0.1707177609205246,
          -0.14977487921714783,
          0.25165411829948425,
          -0.08412822335958481,
          0.3164326250553131,
          -0.190836101770401,
          0.010941972024738789,
          0.05267255753278732,
          0.2505456507205963,
          0.12773571908473969,
          0.14101265370845795,
          0.11839224398136139,
          -0.022657310590147972,
          0.19836029410362244,
          -0.49581146240234375,
          -0.18350303173065186,
          -0.010283315554261208,
          0.06192724034190178,
          0.13127480447292328,
          0.04548487812280655,
          0.2729450762271881,
          -0.41231152415275574,
          0.18404562771320343,
          0.16246522963047028,
          -0.06375667452812195,
          0.07498043030500412,
          -0.2659468650817871,
          -0.06886498630046844,
          0.002555782673880458,
          -0.1507115513086319,
          0.16923558712005615,
          0.02552187629044056,
          0.20662756264209747,
          -0.04990103095769882,
          -0.20812362432479858,
          0.008687581866979599,
          -0.13435280323028564,
          0.23904457688331604,
          0.34989216923713684,
          -0.02405196987092495,
          -0.23578312993049622,
          -0.3466251790523529,
          0.16572126746177673,
          0.18092210590839386,
          -0.06527955830097198,
          -0.037160079926252365,
          0.25013068318367004,
          -0.19554442167282104,
          0.054820384830236435,
          -0.07256153225898743,
          0.10744591057300568,
          0.09567330032587051,
          -0.19942733645439148,
          0.20291772484779358,
          0.19717521965503693,
          0.11922655999660492
        ],
        [
          0.11735793948173523,
          -0.12352749705314636,
          -0.14595003426074982,
          0.032462701201438904,
          0.20939618349075317,
          -0.005120263900607824,
          0.08608336001634598,
          -0.0071561518125236034,
          0.04437984526157379,
          -0.16920536756515503,
          -0.1792316734790802,
          0.04955892264842987,
          0.3802027404308319,
          -0.02093416638672352,
          0.05870015174150467,
          -0.06537627428770065,
          -0.10373632609844208,
          -0.1483781635761261,
          -0.051870815455913544,
          0.15509776771068573,
          0.1706455647945404,
          -0.12837180495262146,
          0.41155537962913513,
          0.24081560969352722,
          -0.07087977975606918,
          0.0998983383178711,
          -0.02146657556295395,
          -0.027684178203344345,
          0.14048299193382263,
          -0.21217307448387146,
          0.01666082628071308,
          -0.03215179592370987,
          -0.17816588282585144,
          -0.08727703988552094,
          0.10384651273488998,
          -0.1878063976764679,
          -0.10127943754196167,
          -0.3432880640029907,
          -0.38134264945983887,
          0.0018257936462759972,
          -0.024182144552469254,
          -0.08227483928203583,
          -0.04922041669487953,
          -0.2665233910083771,
          -0.21117354929447174,
          0.02519351802766323,
          0.3768328130245209,
          0.000911995186470449,
          -0.0979674905538559,
          0.08177518099546432,
          0.03570355474948883,
          -0.16064386069774628,
          0.30380356311798096,
          0.08942492306232452,
          0.18776577711105347,
          0.04446030035614967,
          -0.2845199406147003,
          -0.23404167592525482,
          -0.1618112176656723,
          -0.5023719072341919,
          0.13201293349266052,
          0.12836939096450806,
          -0.008167891763150692,
          0.0262167826294899
        ],
        [
          0.11110395938158035,
          0.17704537510871887,
          0.20518901944160461,
          0.01801004260778427,
          0.28525039553642273,
          -0.4082850217819214,
          -0.15911120176315308,
          -0.2340683490037918,
          -0.2882874310016632,
          0.0334913544356823,
          0.144697368144989,
          0.07356047630310059,
          0.14293918013572693,
          0.11112912744283676,
          0.11592832952737808,
          -0.0754733681678772,
          0.11230098456144333,
          -0.047585535794496536,
          0.1427333652973175,
          0.04622269794344902,
          0.08656061440706253,
          -0.25512126088142395,
          -0.08501590043306351,
          0.09389333426952362,
          0.030496304854750633,
          0.037887752056121826,
          0.2185765653848648,
          -0.2099159210920334,
          0.10287561267614365,
          0.16918063163757324,
          -0.15985147655010223,
          -0.5200059413909912,
          -0.22360515594482422,
          0.11356107890605927,
          -0.012538455426692963,
          -0.25189027190208435,
          -0.26137539744377136,
          0.02816871553659439,
          -0.13118822872638702,
          0.07062362134456635,
          0.12263626605272293,
          -0.1063595712184906,
          -0.47839248180389404,
          0.029161076992750168,
          -0.20695127546787262,
          0.2774938941001892,
          0.07012825459241867,
          0.05221141129732132,
          0.16970433294773102,
          -0.047551169991493225,
          0.4584566354751587,
          -0.14179791510105133,
          -0.0476485900580883,
          -0.1433490365743637,
          0.1741752028465271,
          -0.29697394371032715,
          0.6159704327583313,
          0.10677695274353027,
          -0.11596153676509857,
          0.1493770182132721,
          0.1433991640806198,
          -0.21999430656433105,
          0.07779251784086227,
          0.1866951286792755
        ],
        [
          -0.4263759255409241,
          -0.0821361094713211,
          -0.1662665605545044,
          0.14135998487472534,
          0.13879594206809998,
          -0.0462857149541378,
          -0.020211566239595413,
          0.1545284390449524,
          -0.04189782217144966,
          0.04528330639004707,
          0.0023406350519508123,
          -0.42692625522613525,
          -0.3203793168067932,
          0.05239487066864967,
          -0.2550170123577118,
          0.1338115632534027,
          -0.2092243880033493,
          0.11018000543117523,
          0.09675586223602295,
          0.16740287840366364,
          0.05821068584918976,
          0.2512754201889038,
          -0.27979785203933716,
          0.11557314544916153,
          0.24069248139858246,
          0.10783828049898148,
          0.3496381640434265,
          0.11122407764196396,
          -0.3029671013355255,
          -0.10144734382629395,
          0.17332065105438232,
          -0.07067673653364182,
          -0.1978212296962738,
          0.12231053411960602,
          0.0286858007311821,
          -0.13953998684883118,
          0.07004881650209427,
          0.07886800169944763,
          -0.07113217562437057,
          -0.003543965518474579,
          0.17830884456634521,
          -0.17345862090587616,
          0.0833776667714119,
          0.3571542501449585,
          0.12680672109127045,
          0.13726286590099335,
          -0.016637027263641357,
          0.12397727370262146,
          -0.34058213233947754,
          0.12740473449230194,
          -0.07990048080682755,
          -0.11968662589788437,
          0.3118385374546051,
          0.1825655996799469,
          -0.0744297206401825,
          -0.19592541456222534,
          0.0532328337430954,
          -0.07118530571460724,
          -0.047387123107910156,
          -0.38646143674850464,
          -0.00485552242025733,
          -0.29250213503837585,
          0.05261022597551346,
          0.08494603633880615
        ],
        [
          0.0750291645526886,
          0.09701455384492874,
          0.07399870455265045,
          -0.1863657385110855,
          0.5955116152763367,
          0.27067655324935913,
          0.01080038957297802,
          -0.30537840723991394,
          0.009903107769787312,
          0.11219510436058044,
          -0.2624225914478302,
          0.3802146911621094,
          0.010089640505611897,
          -0.16401006281375885,
          -0.12538063526153564,
          0.4175686240196228,
          0.09045504033565521,
          -0.04205784201622009,
          -0.006411463022232056,
          0.12954320013523102,
          0.1761697232723236,
          0.1717512458562851,
          -0.16710907220840454,
          -0.3611361086368561,
          -0.09709765762090683,
          0.03446358069777489,
          -0.015443247742950916,
          -0.10083704441785812,
          0.06582397222518921,
          0.07049413025379181,
          0.3896569311618805,
          -0.04649406298995018,
          0.12380792945623398,
          0.19115611910820007,
          0.23467238247394562,
          -0.21553438901901245,
          -0.04217400774359703,
          -0.06317852437496185,
          -0.12282825261354446,
          0.20455393195152283,
          -0.06274092942476273,
          -0.44295409321784973,
          0.2656719982624054,
          -0.03723963350057602,
          -0.10039901733398438,
          -0.04685766249895096,
          0.2827162742614746,
          -0.13067565858364105,
          -0.06615719199180603,
          -0.2577594518661499,
          -0.3230437934398651,
          -0.014699100516736507,
          -0.06023966521024704,
          -0.02372882142663002,
          -0.09456615895032883,
          0.06812082976102829,
          0.4020831286907196,
          0.03518287092447281,
          0.12002904713153839,
          0.23822617530822754,
          0.3235103487968445,
          -0.021715296432375908,
          0.2251037061214447,
          0.02652493491768837
        ],
        [
          -0.02322646975517273,
          0.2187461405992508,
          -0.18617776036262512,
          0.10290800034999847,
          -0.0025428414810448885,
          0.018307333812117577,
          -0.05293397605419159,
          0.05534772947430611,
          -0.1560191959142685,
          0.12113833427429199,
          -0.034435562789440155,
          0.12757673859596252,
          0.355454683303833,
          -0.15116146206855774,
          -0.002978062490001321,
          -0.1874784380197525,
          -0.236036479473114,
          -0.04303283989429474,
          0.2666264772415161,
          0.09153090417385101,
          -0.06778646260499954,
          0.11301799863576889,
          0.18222224712371826,
          0.09148937463760376,
          -0.01713002845644951,
          -0.06283777207136154,
          0.06147129088640213,
          -0.29742103815078735,
          0.03245757147669792,
          0.19627107679843903,
          0.1386292427778244,
          0.17288412153720856,
          -0.12009837478399277,
          -0.2526742219924927,
          0.20939981937408447,
          -0.12084085494279861,
          0.2911520004272461,
          0.3024205267429352,
          0.0773884579539299,
          -0.05047961696982384,
          0.259359747171402,
          -0.1562558114528656,
          -0.18912512063980103,
          0.21018724143505096,
          -0.36233022809028625,
          -0.3113624155521393,
          0.04192126542329788,
          0.07232405245304108,
          -0.20095758140087128,
          0.0007934810710139573,
          0.28996169567108154,
          0.06115188077092171,
          -0.23520509898662567,
          0.03102380596101284,
          0.0575619637966156,
          0.28819140791893005,
          -0.060152631253004074,
          0.2289210706949234,
          -0.10136188566684723,
          0.11284251511096954,
          -0.055783286690711975,
          -0.4530603885650635,
          0.040574606508016586,
          -0.054892782121896744
        ],
        [
          -0.23715567588806152,
          0.14588245749473572,
          -0.005532026756554842,
          0.0896853506565094,
          -0.04985421523451805,
          -0.2712031900882721,
          -0.23883183300495148,
          -0.08543459326028824,
          0.06434791535139084,
          0.35830020904541016,
          0.016116397455334663,
          0.1657484471797943,
          0.1407204568386078,
          0.19985394179821014,
          0.1356229931116104,
          0.08162756264209747,
          0.11908081918954849,
          0.09077424556016922,
          0.2094506472349167,
          0.2925490140914917,
          -0.2593945264816284,
          0.06875744462013245,
          0.23181556165218353,
          -0.10365770012140274,
          0.11958415061235428,
          0.1289399415254593,
          0.03162795305252075,
          0.09251927584409714,
          -0.07848146557807922,
          -0.0791168138384819,
          -0.31064048409461975,
          -0.382895290851593,
          -0.029493965208530426,
          -0.03070932812988758,
          0.0550968311727047,
          0.20270435512065887,
          0.3080906867980957,
          -0.04861092567443848,
          0.06077893078327179,
          -0.04074035584926605,
          0.08215569704771042,
          -0.39190590381622314,
          0.06034785509109497,
          0.03173535689711571,
          -0.06866409629583359,
          0.013441815041005611,
          0.22170431911945343,
          0.01968209631741047,
          -0.1173764318227768,
          0.2366979420185089,
          -0.2267669141292572,
          0.38935908675193787,
          -0.011936753988265991,
          0.183094322681427,
          -0.05212630704045296,
          -0.012935889884829521,
          0.13929975032806396,
          -0.15905432403087616,
          0.12476721405982971,
          0.027274511754512787,
          -0.0694655030965805,
          0.4041750729084015,
          -0.20738135278224945,
          -0.06843852251768112
        ],
        [
          -0.09623431414365768,
          0.2446073591709137,
          -0.15247437357902527,
          0.11583948880434036,
          -0.1407640427350998,
          0.07236636430025101,
          -0.016475539654493332,
          -0.04915051534771919,
          0.17705906927585602,
          -0.07397451996803284,
          -0.19767944514751434,
          -0.03766586259007454,
          -0.310616672039032,
          0.14380405843257904,
          -0.2548398971557617,
          0.25347310304641724,
          -0.20145899057388306,
          0.023675033822655678,
          0.2397676557302475,
          -0.04053651541471481,
          -0.2897561192512512,
          -0.055042535066604614,
          0.07530892640352249,
          -0.19756200909614563,
          -0.19318197667598724,
          0.21125875413417816,
          -0.04492567107081413,
          -0.35005950927734375,
          0.046766821295022964,
          -0.0692763403058052,
          -0.21178486943244934,
          -0.013322567567229271,
          0.10114612430334091,
          0.08760810643434525,
          -0.24270710349082947,
          -0.13794761896133423,
          0.046528685837984085,
          -0.021452469751238823,
          -0.16538363695144653,
          0.17694522440433502,
          -0.021920355036854744,
          0.3929818570613861,
          -0.114061139523983,
          -0.15308959782123566,
          0.06320338696241379,
          0.0045150406658649445,
          0.4822560250759125,
          0.09420306980609894,
          -0.00031072593992576003,
          0.17036418616771698,
          0.08135906606912613,
          -0.2704095244407654,
          0.13810507953166962,
          0.012969589792191982,
          0.07550660520792007,
          0.10438131541013718,
          0.181234672665596,
          -0.02582467906177044,
          -0.15931963920593262,
          0.26755815744400024,
          -0.37605854868888855,
          -0.07529552280902863,
          0.007105607073754072,
          -0.2226330041885376
        ],
        [
          0.1342681497335434,
          -0.06294967979192734,
          -0.09298064559698105,
          0.39908260107040405,
          0.22146044671535492,
          -0.06610798090696335,
          0.4746105372905731,
          -0.09740851819515228,
          0.16292564570903778,
          0.21095718443393707,
          0.10333919525146484,
          0.03307439014315605,
          -0.10793958604335785,
          0.09797877073287964,
          -0.03468646854162216,
          0.08319783210754395,
          0.4270673394203186,
          -0.04368898645043373,
          -0.08366997539997101,
          0.003909144084900618,
          -0.285174161195755,
          0.30767226219177246,
          0.22132788598537445,
          0.04796990007162094,
          -0.10773918777704239,
          -0.04981185123324394,
          -0.09189771115779877,
          -0.1793166548013687,
          0.08899714797735214,
          -0.17965808510780334,
          0.013151428662240505,
          -0.15278270840644836,
          -0.06935292482376099,
          0.01506711170077324,
          -0.3449585437774658,
          -0.17268164455890656,
          -0.21959829330444336,
          0.14629949629306793,
          -0.23252980411052704,
          -0.1181204542517662,
          0.18429717421531677,
          0.2239523082971573,
          -0.10502452403306961,
          0.09122248739004135,
          -0.017484460026025772,
          0.06798041611909866,
          -0.2159067988395691,
          0.24603025615215302,
          0.16783300042152405,
          -0.22479741275310516,
          0.15653179585933685,
          0.13099682331085205,
          -0.15507888793945312,
          0.21174310147762299,
          -0.22364971041679382,
          0.10955052077770233,
          -0.06255326420068741,
          0.1161881759762764,
          0.15533356368541718,
          -0.16162429749965668,
          0.11221592128276825,
          0.04311197251081467,
          -0.2878313362598419,
          -0.21221229434013367
        ],
        [
          -0.08285737037658691,
          -0.05043487995862961,
          0.02260902151465416,
          0.28616708517074585,
          0.3636440932750702,
          -0.20109793543815613,
          -0.010665861889719963,
          -0.17611519992351532,
          0.21272538602352142,
          -0.1084059476852417,
          0.14180243015289307,
          -0.24361355602741241,
          -0.05719275027513504,
          -0.10473349690437317,
          0.10124795883893967,
          -0.141454815864563,
          -0.07449449598789215,
          -0.14952689409255981,
          0.03664326295256615,
          -0.0008791895816102624,
          0.26412537693977356,
          -0.18478181958198547,
          0.17498263716697693,
          0.07469028979539871,
          -0.09307178854942322,
          0.22006522119045258,
          0.10257671773433685,
          0.3959099352359772,
          -0.23992693424224854,
          0.05723228305578232,
          0.2274322658777237,
          0.20139887928962708,
          0.46139848232269287,
          -0.02689441852271557,
          0.061323877424001694,
          0.1545940637588501,
          -0.03131316229701042,
          0.04446858540177345,
          0.11397203058004379,
          0.1608971357345581,
          0.034569721668958664,
          0.23331639170646667,
          0.05102917551994324,
          -0.2837832272052765,
          -0.04022195562720299,
          -0.041958704590797424,
          0.16249988973140717,
          0.1324797123670578,
          -0.24207687377929688,
          -0.24557076394557953,
          -0.32220637798309326,
          0.2004118710756302,
          -0.12425361573696136,
          -0.22351181507110596,
          0.03383703529834747,
          0.2846130430698395,
          0.31792646646499634,
          -0.005358262453228235,
          -0.126300647854805,
          0.08456578850746155,
          -0.017210988327860832,
          0.04072319716215134,
          -0.41368675231933594,
          0.31086045503616333
        ],
        [
          0.13657093048095703,
          0.12640780210494995,
          -0.06066443398594856,
          0.048032358288764954,
          0.11217211186885834,
          0.05935046449303627,
          -0.14971314370632172,
          -0.30146345496177673,
          -0.04750639200210571,
          -0.02534903585910797,
          0.10416754335165024,
          0.09127378463745117,
          0.035616178065538406,
          0.10295254737138748,
          -0.00818655639886856,
          -0.037798602133989334,
          -0.0472663976252079,
          -0.0265981275588274,
          -0.4716176688671112,
          -0.059075094759464264,
          -0.4914929270744324,
          -0.22663024067878723,
          0.01864171400666237,
          0.1613015979528427,
          0.4040631055831909,
          0.0026416161563247442,
          0.21645903587341309,
          0.20560243725776672,
          -0.293682336807251,
          -0.27651122212409973,
          -0.08510440587997437,
          0.0989631861448288,
          -0.13710281252861023,
          0.21604129672050476,
          -0.45357146859169006,
          0.1491623967885971,
          -0.04043067246675491,
          0.03271425515413284,
          -0.03699502721428871,
          0.13161055743694305,
          -0.06968273967504501,
          -0.14064402878284454,
          -0.3232378661632538,
          0.12369346618652344,
          -0.4014529883861542,
          -0.0013703881995752454,
          0.09067929536104202,
          -0.22976398468017578,
          0.13496732711791992,
          -0.049823250621557236,
          0.001824677106924355,
          -0.09720451384782791,
          -0.07517019659280777,
          -0.028759047389030457,
          -0.3623329699039459,
          0.0395798459649086,
          -0.1253482699394226,
          -0.011233444325625896,
          -0.211636483669281,
          0.051101334393024445,
          -0.19594553112983704,
          -0.14639908075332642,
          0.30367839336395264,
          -0.04916978254914284
        ],
        [
          -0.18173542618751526,
          -0.04575190320611,
          0.15213924646377563,
          -0.09289995580911636,
          -0.2895257771015167,
          0.19982925057411194,
          0.05595145374536514,
          -0.056866444647312164,
          -0.09042705595493317,
          0.23992295563220978,
          0.061358626931905746,
          -0.22977402806282043,
          0.010111317969858646,
          0.05930053070187569,
          -0.20116323232650757,
          0.12472085654735565,
          -0.19314344227313995,
          -0.3624386787414551,
          -0.2816755771636963,
          0.1970643550157547,
          -0.04136151075363159,
          0.10279049724340439,
          -0.051327966153621674,
          -0.10403096675872803,
          -0.1745857447385788,
          -0.2662574350833893,
          0.018653523176908493,
          0.30231016874313354,
          0.07981207221746445,
          -0.10319182276725769,
          -0.08926092833280563,
          0.026714855805039406,
          -0.223897323012352,
          -0.04635325074195862,
          -0.09431853890419006,
          -0.1936921775341034,
          -0.02918170392513275,
          -0.04401202127337456,
          -0.09520233422517776,
          0.1795555055141449,
          -0.05017652362585068,
          0.10145019739866257,
          0.17251962423324585,
          -0.13766534626483917,
          -0.2968936562538147,
          0.0794641524553299,
          -0.06865482777357101,
          -0.1037517860531807,
          -0.31039315462112427,
          0.12598669528961182,
          0.4514892101287842,
          0.11991680413484573,
          -0.12999488413333893,
          0.10887061059474945,
          0.018714124336838722,
          0.2559799551963806,
          0.38315120339393616,
          -0.10769005119800568,
          -0.25847765803337097,
          0.17806826531887054,
          0.29764533042907715,
          0.14648078382015228,
          -0.044672396034002304,
          0.06430728733539581
        ],
        [
          0.09206631034612656,
          0.39140617847442627,
          0.07424785941839218,
          0.05285258963704109,
          -0.001414220198057592,
          -0.206997811794281,
          0.27096980810165405,
          0.23289133608341217,
          -0.26216983795166016,
          0.04679308459162712,
          -0.3581189811229706,
          0.16847756505012512,
          -0.11820463836193085,
          -0.07978526502847672,
          0.2592284381389618,
          0.1520540863275528,
          -0.018908731639385223,
          0.07011038064956665,
          -0.004504295065999031,
          -0.22250337898731232,
          -0.17219090461730957,
          -0.08455175906419754,
          -0.13622517883777618,
          -0.12866871058940887,
          0.020656628534197807,
          -0.1174892783164978,
          -0.01944180391728878,
          0.27874207496643066,
          0.10470039397478104,
          -0.10497478395700455,
          -0.1798407882452011,
          0.09848257899284363,
          -0.01383382547646761,
          0.19295914471149445,
          -0.09685943275690079,
          0.01712595485150814,
          0.028010904788970947,
          -0.008929896168410778,
          -0.056371789425611496,
          0.09571312367916107,
          0.029396062716841698,
          -0.05703975260257721,
          0.16255415976047516,
          0.2923520803451538,
          0.08493366092443466,
          -0.16579075157642365,
          0.12056055665016174,
          -0.12248435616493225,
          0.2164807915687561,
          0.18701539933681488,
          0.11696766316890717,
          0.20550712943077087,
          -0.10011684149503708,
          -0.3236607313156128,
          0.3302696645259857,
          0.10252964496612549,
          0.12513506412506104,
          0.12012563645839691,
          -0.34293535351753235,
          -0.4929012656211853,
          -0.0018378476379439235,
          -0.11710437387228012,
          -0.145576611161232,
          -0.017934147268533707
        ],
        [
          0.11097460985183716,
          0.15414036810398102,
          -0.05047255754470825,
          -0.001449788105674088,
          0.07134179025888443,
          0.09386847168207169,
          -0.2187296599149704,
          -0.07971565425395966,
          -0.3157500922679901,
          0.02573094330728054,
          0.10350871086120605,
          -0.0015146713703870773,
          -0.14659610390663147,
          -0.07714691758155823,
          -0.3330056965351105,
          0.20243029296398163,
          0.05836386978626251,
          0.1312948316335678,
          -0.18819840252399445,
          -0.12229390442371368,
          0.2571828365325928,
          0.16455526649951935,
          0.1792670488357544,
          0.005942081566900015,
          -0.11843249201774597,
          0.08585284650325775,
          0.019352704286575317,
          -0.1709694117307663,
          -0.0785353034734726,
          -0.06559167057275772,
          -0.22052913904190063,
          0.0758599191904068,
          -0.3807150721549988,
          0.06408178806304932,
          -0.05151715502142906,
          0.04287952557206154,
          0.12908770143985748,
          -0.2379884123802185,
          0.11570977419614792,
          0.1654362678527832,
          0.07401543110609055,
          -0.028880828991532326,
          0.003865625010803342,
          -0.4220873713493347,
          0.11110363900661469,
          -0.3744865357875824,
          -0.5526098012924194,
          0.15236061811447144,
          0.09413737058639526,
          0.13998399674892426,
          -0.1777593344449997,
          -0.06691588461399078,
          -0.11062036454677582,
          0.043645229190588,
          0.2689547836780548,
          0.0029558853711932898,
          -0.07614829391241074,
          0.03574414923787117,
          0.018292009830474854,
          -0.07794100791215897,
          -0.17980672419071198,
          0.19827353954315186,
          -0.1957518309354782,
          0.30114760994911194
        ],
        [
          -0.030180824920535088,
          -0.24024303257465363,
          0.07097695767879486,
          -0.13754412531852722,
          -0.3610418736934662,
          -0.09762918204069138,
          -0.23987115919589996,
          -0.009009499102830887,
          0.06403763592243195,
          0.0305955708026886,
          -0.13984720408916473,
          -0.10797716677188873,
          0.06878314912319183,
          -0.40226981043815613,
          -0.1889442503452301,
          0.1566690057516098,
          0.05875066667795181,
          -0.08276762068271637,
          -0.095795176923275,
          -0.04874901473522186,
          -0.16822591423988342,
          -0.09407372772693634,
          0.06745197623968124,
          0.02349928207695484,
          -0.11249028891324997,
          0.20096059143543243,
          0.16600950062274933,
          -0.029452158138155937,
          0.01888992451131344,
          0.18731048703193665,
          0.08588944375514984,
          -0.24647651612758636,
          0.15396948158740997,
          -0.01173151470720768,
          0.2515813112258911,
          0.3546350598335266,
          -0.26093733310699463,
          -0.21835646033287048,
          -0.28694531321525574,
          0.20306357741355896,
          0.16140341758728027,
          -0.13027919828891754,
          0.23956285417079926,
          -0.018284229561686516,
          -0.012914333492517471,
          0.0075174374505877495,
          0.08620531111955643,
          0.4207490086555481,
          0.17615047097206116,
          0.029230255633592606,
          0.1756448745727539,
          0.0046799080446362495,
          -0.14280547201633453,
          -0.1633535623550415,
          -0.1734466701745987,
          0.09486284852027893,
          0.04748964309692383,
          0.43991798162460327,
          0.09375147521495819,
          -0.24097995460033417,
          -0.0027131889946758747,
          0.06372489035129547,
          0.24555155634880066,
          0.032086603343486786
        ],
        [
          -0.4117377698421478,
          -0.23775148391723633,
          0.3157307207584381,
          -0.021715134382247925,
          0.06527568399906158,
          0.12295433133840561,
          -0.07166840136051178,
          0.19022402167320251,
          0.2584179937839508,
          -0.03712383285164833,
          -0.06040146201848984,
          -0.19120663404464722,
          0.3189852833747864,
          0.369476854801178,
          0.026330500841140747,
          -0.1176542118191719,
          0.09081890434026718,
          -0.12242118269205093,
          -0.13085676729679108,
          -0.31274110078811646,
          0.07991604506969452,
          0.26859050989151,
          -0.01357781607657671,
          -0.0018740021623671055,
          0.22033947706222534,
          -0.08755503594875336,
          -0.2077702283859253,
          -0.11328482627868652,
          -0.010913937352597713,
          -0.3857364356517792,
          -0.12229044735431671,
          0.13611620664596558,
          -0.09734597057104111,
          -0.27129289507865906,
          0.05767367035150528,
          -0.12067891657352448,
          0.29403209686279297,
          0.03885338082909584,
          -0.1312805861234665,
          0.03528059273958206,
          -0.08939924836158752,
          -0.14897318184375763,
          0.08193979412317276,
          0.07583478093147278,
          0.17208455502986908,
          0.15782713890075684,
          0.09241219609975815,
          -0.14386165142059326,
          0.3282340168952942,
          -0.07505611330270767,
          0.10331671684980392,
          -0.07272078096866608,
          0.021443519741296768,
          -0.24562197923660278,
          0.01380729116499424,
          -0.0511939711868763,
          0.07931419461965561,
          0.20723721385002136,
          0.032462794333696365,
          -0.004346591420471668,
          -0.30557939410209656,
          -0.013014515861868858,
          -0.11670727282762527,
          0.31445640325546265
        ],
        [
          0.2740345299243927,
          0.018246788531541824,
          -0.21897293627262115,
          0.01071373000741005,
          0.34562456607818604,
          0.05567111074924469,
          -0.004880808759480715,
          0.4646705687046051,
          -0.0022981406655162573,
          -0.16607749462127686,
          0.06496890634298325,
          -0.13375282287597656,
          -0.17458195984363556,
          -0.08333699405193329,
          -0.3084319829940796,
          -0.011768096126616001,
          -0.09554457664489746,
          -0.28201961517333984,
          0.1563936024904251,
          -0.04478517919778824,
          -0.3096882402896881,
          -0.14728514850139618,
          -0.0898575559258461,
          0.05938304588198662,
          0.05563829466700554,
          0.1048874631524086,
          -0.33025452494621277,
          0.12258715182542801,
          -0.20301228761672974,
          0.03410433232784271,
          -0.3576509356498718,
          -0.02347068302333355,
          0.10172228515148163,
          -0.28874289989471436,
          -0.1174105554819107,
          -0.08433166891336441,
          0.12082228064537048,
          -0.28140226006507874,
          0.24020782113075256,
          -0.18246646225452423,
          -0.03225945308804512,
          -0.15365813672542572,
          0.07382147759199142,
          -0.18451185524463654,
          -0.1307409703731537,
          0.19947479665279388,
          0.09578510373830795,
          -0.08896824717521667,
          0.008372544310986996,
          0.02238190360367298,
          0.012139576487243176,
          0.05898531898856163,
          -0.16909368336200714,
          0.10883940011262894,
          0.08190082758665085,
          -0.09707356244325638,
          0.07813256978988647,
          0.36742791533470154,
          0.22861650586128235,
          -0.01471342146396637,
          0.3186270296573639,
          -0.03570476546883583,
          0.09776037186384201,
          0.07409235090017319
        ],
        [
          -0.30259162187576294,
          0.08701256662607193,
          -0.23546886444091797,
          0.0026295632123947144,
          0.2649901211261749,
          0.002789541380479932,
          -0.15623317658901215,
          -0.07094716280698776,
          0.2179383784532547,
          0.16529788076877594,
          -0.18260252475738525,
          0.09188481420278549,
          -0.0968945100903511,
          -0.1201641857624054,
          0.09904637187719345,
          0.10444686561822891,
          -0.18451783061027527,
          0.22861099243164062,
          -0.057476144284009933,
          0.33745312690734863,
          -0.019112175330519676,
          0.1630781590938568,
          -0.0734153464436531,
          -0.0866631418466568,
          0.03372253477573395,
          0.10371410101652145,
          -0.08045098185539246,
          0.14688940346240997,
          0.08445245027542114,
          0.1483127921819687,
          0.2549249827861786,
          0.14228178560733795,
          -0.06767534464597702,
          -0.17279301583766937,
          -0.18744729459285736,
          -0.11222098022699356,
          -0.29820963740348816,
          -0.2364199459552765,
          0.2194075882434845,
          0.1107105240225792,
          -0.2358282208442688,
          -0.4344848394393921,
          -0.4469420909881592,
          0.09177222102880478,
          0.12311482429504395,
          0.2692721486091614,
          -0.007134560961276293,
          0.34294164180755615,
          0.1871427446603775,
          -0.018604042008519173,
          0.2730465829372406,
          -0.09994985908269882,
          -0.28361189365386963,
          -0.2145616114139557,
          0.19109494984149933,
          0.29790985584259033,
          -0.1796794980764389,
          -0.06794113665819168,
          -0.10452691465616226,
          0.1353830099105835,
          0.09390580654144287,
          0.10841110348701477,
          -0.025482194498181343,
          0.08229799568653107
        ],
        [
          0.34512490034103394,
          0.23999541997909546,
          0.2485109120607376,
          0.2072170376777649,
          -0.13976599276065826,
          0.3049373924732208,
          0.12432271987199783,
          0.060579605400562286,
          0.22144293785095215,
          -0.08605272322893143,
          -0.0011466871947050095,
          -0.2697569727897644,
